{
    "generation": 575,
    "bestFitness": 49.76387405395508,
    "averageFitness": 21.184423446655275,
    "worstFitness": 0.0,
    "networks": [
        {
            "layers": [
                8,
                8,
                6,
                4
            ],
            "flattenedWeights": [
                -0.12039097398519516,
                0.9418963193893433,
                -0.687100350856781,
                -0.5710976719856262,
                -0.9774199724197388,
                0.30370184779167178,
                1.569318413734436,
                -0.012004323303699494,
                1.5332577228546143,
                0.48373112082481387,
                -2.442141532897949,
                -0.9367790222167969,
                1.9653517007827759,
                0.345427542924881,
                -0.742703914642334,
                -0.46371614933013918,
                -0.5459315180778503,
                1.2709498405456544,
                -0.727120041847229,
                -0.587774395942688,
                -0.6246025562286377,
                1.324084997177124,
                0.7371990084648132,
                0.6589066982269287,
                -0.1762576699256897,
                -0.39054349064826968,
                0.2704789340496063,
                -0.7193752527236939,
                1.3080246448516846,
                -0.15162630379199983,
                -0.9074239134788513,
                0.4261847138404846,
                -0.6310489773750305,
                0.6472058892250061,
                0.2730359137058258,
                -0.17911654710769654,
                0.3437294363975525,
                0.07217015326023102,
                1.5859588384628297,
                -0.5446015000343323,
                0.5859989523887634,
                -1.4298902750015259,
                1.0366731882095338,
                0.1365853250026703,
                0.128686785697937,
                0.897036075592041,
                1.9596571922302247,
                -0.7129971981048584,
                -0.3020307421684265,
                2.5283713340759279,
                0.23679445683956147,
                -0.042348168790340427,
                0.38884249329566958,
                1.5639158487319947,
                0.2037370651960373,
                -1.509934902191162,
                0.8832638263702393,
                0.23248670995235444,
                0.8125407099723816,
                -0.014435023069381714,
                1.5810657739639283,
                0.896872878074646,
                -0.03932959586381912,
                -0.9889582395553589,
                0.011191003024578095,
                2.5581235885620119,
                -0.3903786242008209,
                -1.1122558116912842,
                0.3595629334449768,
                -0.5610777735710144,
                1.3124845027923585,
                -1.2889654636383057,
                -0.6103346943855286,
                0.4388623833656311,
                1.439063549041748,
                -0.7327601909637451,
                0.12699228525161744,
                -1.4281067848205567,
                0.8175860047340393,
                -0.947058379650116,
                -0.14618182182312013,
                1.6678944826126099,
                -0.5903088450431824,
                -0.2800041735172272,
                0.6234033107757568,
                0.781051516532898,
                1.1125848293304444,
                1.0538876056671143,
                -0.6103103756904602,
                0.5161239504814148,
                -0.20627954602241517,
                -0.16730542480945588,
                0.27912694215774538,
                2.0798630714416506,
                1.3413223028182984,
                1.7896192073822022,
                1.2687424421310425,
                0.8824903964996338,
                -0.36210188269615176,
                -0.04163651913404465,
                -0.7183964848518372,
                -1.5329294204711915,
                0.5547711253166199,
                1.112026572227478,
                -1.630279302597046,
                0.4780689775943756,
                -1.3465582132339478,
                1.071498155593872,
                -0.47964155673980715,
                -1.4890589714050294,
                -1.5227887630462647,
                0.5542470812797546,
                -0.26084908843040469,
                0.442548543214798,
                1.1642255783081055,
                -0.5850542187690735,
                -0.09112533926963806,
                1.92038094997406,
                -0.16488656401634217,
                0.27140799164772036,
                0.608407199382782,
                -0.3566012978553772,
                0.2601099908351898,
                0.20576301217079163,
                0.3339605927467346,
                -0.4830017387866974,
                -1.157889485359192,
                -0.7119278311729431,
                -0.5307651162147522,
                0.9534139633178711,
                -0.6200506687164307,
                -1.507911205291748,
                1.1615073680877686,
                -0.1382455825805664,
                0.9361405372619629,
                0.5918283462524414
            ],
            "fitness": 49.76387405395508,
            "npcType": 0,
            "outputLockStatus": [
                false,
                false,
                false,
                false
            ]
        },
        {
            "layers": [
                8,
                8,
                6,
                4
            ],
            "flattenedWeights": [
                -1.0547798871994019,
                1.1482268571853638,
                1.3280963897705079,
                0.23760485649108888,
                2.1703619956970217,
                0.08983279019594193,
                -1.174480676651001,
                -1.505653977394104,
                0.4560834765434265,
                -0.12614184617996217,
                0.8022136092185974,
                -0.494251012802124,
                -0.5989556908607483,
                -0.42968231439590456,
                0.836380660533905,
                -0.2413487285375595,
                1.9835187196731568,
                -0.5817707777023315,
                -0.6543269157409668,
                -0.01930367201566696,
                0.1590927541255951,
                -0.3274925947189331,
                0.5675906538963318,
                0.5919068455696106,
                -1.1260576248168946,
                -0.8356425762176514,
                -0.38011807203292849,
                -1.0685924291610718,
                -1.995976209640503,
                -0.9164803624153137,
                0.1253150999546051,
                1.4527556896209717,
                -2.084493637084961,
                0.35640963912010195,
                1.5727092027664185,
                -0.10743951797485352,
                -0.6352360248565674,
                0.23648285865783692,
                -1.2983356714248658,
                -0.6447665095329285,
                0.3901124894618988,
                -1.847034215927124,
                -0.9602820873260498,
                -1.9054982662200928,
                0.31947585940361025,
                -0.04857935011386871,
                1.0894511938095093,
                -0.6661627292633057,
                -0.6509243845939636,
                -1.1605995893478394,
                0.32465067505836489,
                -1.2635258436203004,
                -3.5237436294555666,
                -1.4775840044021607,
                0.520176887512207,
                0.505287766456604,
                0.7481932640075684,
                0.19681748747825623,
                0.5965431332588196,
                1.6169167757034302,
                -0.3381502628326416,
                -3.338564157485962,
                -1.0772501230239869,
                1.053592562675476,
                -0.5322262048721314,
                1.7058508396148682,
                -0.10243680328130722,
                -0.2947051525115967,
                -0.4496299624443054,
                -0.7143818736076355,
                0.7267374992370606,
                1.0571786165237427,
                1.680509328842163,
                -1.1012351512908936,
                0.3307817280292511,
                -1.050551176071167,
                -1.1021512746810914,
                -0.8828768134117127,
                0.2988695502281189,
                1.2047605514526368,
                -0.1332351565361023,
                -0.2724649906158447,
                -2.8472530841827394,
                0.37337595224380495,
                2.007126569747925,
                1.1627123355865479,
                0.9899140000343323,
                0.24018657207489015,
                0.6367722749710083,
                0.27302104234695437,
                0.7010825276374817,
                0.2824157178401947,
                0.24514412879943849,
                0.16829735040664674,
                0.5378468036651611,
                0.7064679265022278,
                -0.20069319009780885,
                -1.4067879915237427,
                -0.06726600229740143,
                -2.490384101867676,
                -1.5392413139343262,
                -1.571691870689392,
                0.5306539535522461,
                -0.19810551404953004,
                -0.714070737361908,
                -1.7068430185317994,
                -0.38343536853790285,
                0.5099113583564758,
                1.2479712963104249,
                -0.07301327586174011,
                0.8136064410209656,
                -1.0428011417388917,
                1.2196757793426514,
                0.734649121761322,
                1.1334956884384156,
                -1.1946572065353394,
                0.6085860729217529,
                -0.9787307977676392,
                -0.5259396433830261,
                0.3381725549697876,
                0.7821484208106995,
                -1.9552927017211915,
                0.16171744465827943,
                -1.9110629558563233,
                1.2003779411315919,
                -1.1843960285186768,
                -0.8711268901824951,
                0.24552330374717713,
                2.1281895637512209,
                -0.21538510918617249,
                -0.6328529715538025,
                -0.48545292019844057,
                -0.8134450912475586,
                -1.7960669994354249,
                -2.7732770442962648,
                -0.0009092092514038086
            ],
            "fitness": 46.65043258666992,
            "npcType": 1,
            "outputLockStatus": [
                false,
                false,
                false,
                false
            ]
        },
        {
            "layers": [
                8,
                8,
                6,
                4
            ],
            "flattenedWeights": [
                -0.9923299551010132,
                1.2438828945159913,
                1.3011341094970704,
                0.33296024799346926,
                2.120703935623169,
                0.05852705240249634,
                -1.3324029445648194,
                -1.505653977394104,
                0.5459983348846436,
                -0.22185572981834413,
                0.8022136092185974,
                -0.5451342463493347,
                -0.5989556908607483,
                -0.26743102073669436,
                0.9666784405708313,
                -0.23283222317695619,
                2.0373153686523439,
                -0.67938631772995,
                -0.7067669034004211,
                -0.09774592518806458,
                0.01492580771446228,
                -0.3774794340133667,
                0.5984525680541992,
                0.5540755987167358,
                -1.1276092529296876,
                -0.8356425762176514,
                -0.26179367303848269,
                -1.1629265546798707,
                -1.8829681873321534,
                -0.9164803624153137,
                0.2306915819644928,
                1.4474502801895142,
                -1.8287630081176758,
                0.3056666851043701,
                1.6778678894042969,
                -0.16763558983802796,
                -0.6009745597839356,
                0.35227149724960329,
                -1.360594630241394,
                -0.6164495944976807,
                0.25481969118118288,
                -1.889736533164978,
                -0.9319403171539307,
                -2.0390572547912599,
                0.48900485038757326,
                -0.049295492470264438,
                0.9968200922012329,
                -0.5586186051368713,
                -0.4015212655067444,
                -1.1020267009735108,
                0.32465067505836489,
                -1.2205383777618409,
                -3.484818458557129,
                -1.4598727226257325,
                0.6680232286453247,
                0.4873385429382324,
                1.0853937864303589,
                0.24156314134597779,
                0.5358833074569702,
                1.6617220640182496,
                -0.27885448932647707,
                -3.312944173812866,
                -0.8762506246566773,
                0.6767207980155945,
                -0.48037171363830569,
                1.7134448289871216,
                -0.16756907105445863,
                -0.328551322221756,
                -0.3581072986125946,
                -0.7586691975593567,
                0.7267374992370606,
                0.9882506728172302,
                1.9071311950683594,
                -1.1012351512908936,
                0.31717246770858767,
                -0.9258248805999756,
                -1.250576376914978,
                -0.836922824382782,
                0.38875502347946169,
                1.0236440896987916,
                -0.183628112077713,
                -0.18305349349975587,
                -2.9311137199401857,
                0.211349755525589,
                1.90813148021698,
                1.172466516494751,
                1.0367809534072877,
                0.37969017028808596,
                0.6453498601913452,
                0.16553258895874024,
                0.634602963924408,
                0.3880758583545685,
                0.2122441828250885,
                0.12781041860580445,
                0.4225528836250305,
                0.7064679265022278,
                -0.21224743127822877,
                -1.4370943307876588,
                -0.07884322106838227,
                -2.2492239475250246,
                -1.5446968078613282,
                -1.802077054977417,
                0.4878651201725006,
                -0.24232447147369386,
                -0.7208734154701233,
                -1.6781120300292969,
                -0.32023534178733828,
                0.5381423830986023,
                1.1571897268295289,
                -0.06997819244861603,
                0.8167839646339417,
                -1.0428011417388917,
                1.2196757793426514,
                0.7528352737426758,
                1.0569721460342408,
                -1.269601583480835,
                0.657595157623291,
                -0.9868552684783936,
                -0.543644368648529,
                0.4346667230129242,
                0.7809995412826538,
                -1.9604249000549317,
                0.023937974125146867,
                -1.9889720678329468,
                1.2798597812652588,
                -1.2918431758880616,
                -0.8851568102836609,
                0.184908926486969,
                2.1215476989746095,
                -0.22809353470802308,
                -0.6956365704536438,
                -0.48545292019844057,
                -0.6082342267036438,
                -1.735318660736084,
                -2.784585952758789,
                -0.07537895441055298
            ],
            "fitness": 45.75746154785156,
            "npcType": 1,
            "outputLockStatus": [
                false,
                false,
                false,
                false
            ]
        },
        {
            "layers": [
                8,
                8,
                6,
                4
            ],
            "flattenedWeights": [
                -1.0297352075576783,
                1.2429301738739014,
                1.3040457963943482,
                0.3150738477706909,
                2.0145490169525148,
                0.22301903367042542,
                -1.2251769304275513,
                -1.454479694366455,
                0.427120178937912,
                -0.18478316068649293,
                0.9309842586517334,
                -0.5440536737442017,
                -0.5989556908607483,
                -0.21267494559288026,
                1.0172425508499146,
                -0.25104790925979617,
                1.9629768133163453,
                -0.5951860547065735,
                -0.7589106559753418,
                -0.045264698565006259,
                0.04266967251896858,
                -0.17079371213912965,
                0.45050927996635439,
                0.7237861752510071,
                -0.9985353350639343,
                -0.9250555038452148,
                -0.25843775272369387,
                -1.1545093059539796,
                -1.6579554080963135,
                -0.8627274036407471,
                0.04692423343658447,
                1.327517032623291,
                -1.89219331741333,
                0.28573670983314516,
                1.6588964462280274,
                -0.3093075454235077,
                -0.5314728021621704,
                0.32190996408462527,
                -1.3205344676971436,
                -0.7100630402565002,
                0.5280600786209106,
                -1.9002494812011719,
                -0.840971052646637,
                -2.0289275646209719,
                0.4745499789714813,
                -0.07329772412776947,
                0.9430516362190247,
                -0.5836915373802185,
                -0.5059982538223267,
                -1.1732202768325806,
                0.391387403011322,
                -1.2205383777618409,
                -3.5237436294555666,
                -1.372192144393921,
                0.5359951257705689,
                0.513041615486145,
                0.9252426028251648,
                0.2957194149494171,
                0.7158617973327637,
                1.4616234302520753,
                -0.2010318636894226,
                -3.40389084815979,
                -1.0175044536590577,
                1.063284993171692,
                -0.5835019946098328,
                1.7836896181106568,
                -0.1795952171087265,
                -0.29940804839134219,
                -0.5248841047286987,
                -0.7401471734046936,
                0.7039750814437866,
                1.07431960105896,
                1.840717077255249,
                -1.3932311534881592,
                0.31717246770858767,
                -1.066465139389038,
                -1.1944714784622193,
                -0.9133646488189697,
                0.43352681398391726,
                1.1221588850021363,
                -0.20531433820724488,
                -0.24795043468475343,
                -2.803352117538452,
                0.211349755525589,
                1.9526231288909913,
                1.0214991569519044,
                0.8007103204727173,
                0.496141642332077,
                0.6039569973945618,
                0.2126404047012329,
                0.687993049621582,
                0.49997377395629885,
                0.20452672243118287,
                0.12121637165546417,
                0.44124966859817507,
                0.6266847848892212,
                -0.029899824410676957,
                -1.5828851461410523,
                -0.046823062002658847,
                -2.2344560623168947,
                -1.5713807344436646,
                -1.816988229751587,
                0.5467034578323364,
                -0.3420855402946472,
                -0.7999631762504578,
                -1.7751286029815674,
                -0.35520657896995547,
                0.5496779680252075,
                1.1571897268295289,
                0.029330704361200334,
                0.8920918107032776,
                -1.1153817176818848,
                1.274694800376892,
                0.6919830441474915,
                1.0436975955963135,
                -1.3781425952911378,
                0.7151758074760437,
                -1.0165517330169678,
                -0.38621729612350466,
                0.5701507925987244,
                1.068772315979004,
                -1.9991916418075562,
                0.0927518680691719,
                -2.0617761611938478,
                1.2699165344238282,
                -1.2598344087600709,
                -0.8851568102836609,
                0.19044727087020875,
                2.1866464614868166,
                -0.12552964687347413,
                -0.7854278683662415,
                -0.5042321085929871,
                -0.7606264352798462,
                -1.7044934034347535,
                -2.6591451168060304,
                -0.1016630157828331
            ],
            "fitness": 45.63056182861328,
            "npcType": 1,
            "outputLockStatus": [
                false,
                false,
                false,
                false
            ]
        },
        {
            "layers": [
                8,
                8,
                6,
                4
            ],
            "flattenedWeights": [
                -0.04489539936184883,
                0.9357025027275086,
                -0.7523122429847717,
                -0.3983437418937683,
                -0.9835892915725708,
                0.3429718315601349,
                1.557393193244934,
                0.11496733874082566,
                1.6415108442306519,
                0.4660015404224396,
                -2.6002209186553957,
                -0.9367790222167969,
                1.9358272552490235,
                0.3518896996974945,
                -0.7760697603225708,
                -0.49678167700767519,
                -0.44413167238235476,
                1.4089101552963257,
                -0.6347070336341858,
                -0.6151160001754761,
                -0.7047021389007568,
                1.4828989505767823,
                0.7344333529472351,
                0.6434112191200256,
                -0.11566092818975449,
                -0.618716835975647,
                0.2213761806488037,
                -0.8701712489128113,
                1.1495479345321656,
                -0.06812693178653717,
                -0.8285776376724243,
                0.3780449330806732,
                -0.5711635947227478,
                0.6472058892250061,
                0.4135594069957733,
                -0.14406676590442658,
                0.25547149777412417,
                0.24490730464458466,
                1.6060618162155152,
                -0.6270769834518433,
                0.5859989523887634,
                -1.4340792894363404,
                0.9276971817016602,
                0.0028828755021095278,
                0.05780512094497681,
                1.0872550010681153,
                2.000291347503662,
                -0.8781394362449646,
                -0.3302094340324402,
                2.322021961212158,
                0.1641453355550766,
                -0.06693334877490998,
                0.327619731426239,
                1.4728035926818848,
                0.23359951376914979,
                -1.587820053100586,
                0.9864953756332398,
                0.1572086662054062,
                0.7742822766304016,
                -0.007554307579994202,
                1.574676275253296,
                0.9555444717407227,
                0.11895128339529038,
                -1.0776517391204835,
                0.01576782763004303,
                2.3473401069641115,
                -0.4117235243320465,
                -1.035270094871521,
                0.10110893845558167,
                -0.606894314289093,
                1.1837433576583863,
                -1.0908035039901734,
                -0.5599022507667542,
                0.37816300988197329,
                1.4783657789230347,
                -0.6696694493293762,
                0.12699228525161744,
                -1.4068007469177247,
                0.7550328373908997,
                -0.9778532981872559,
                -0.053772374987602237,
                1.3196624517440797,
                -0.438837468624115,
                -0.37600576877593996,
                0.48054593801498415,
                0.8273277878761292,
                1.1125848293304444,
                0.9386043548583984,
                -0.5959973335266113,
                0.539814293384552,
                -0.17665480077266694,
                -0.5467241406440735,
                0.2454974353313446,
                2.2430145740509035,
                1.3413223028182984,
                1.819938063621521,
                1.3665601015090943,
                0.9407567381858826,
                -0.36210188269615176,
                0.027747660875320436,
                -0.6432622075080872,
                -1.4727270603179932,
                0.4100063741207123,
                1.070855736732483,
                -1.5542140007019044,
                0.32098302245140078,
                -1.5595358610153199,
                1.0930664539337159,
                -0.4837073087692261,
                -1.4539625644683838,
                -1.6138273477554322,
                0.4758269786834717,
                -0.20779842138290406,
                0.338783323764801,
                1.3026422262191773,
                -0.6473845839500427,
                0.04504603147506714,
                1.8811485767364503,
                -0.3844687342643738,
                0.19996580481529237,
                0.6581625938415527,
                -0.2957436740398407,
                0.4648095965385437,
                0.33669912815093996,
                0.38918042182922366,
                -0.7701481580734253,
                -1.2405370473861695,
                -0.6295007467269898,
                -0.5170721411705017,
                1.0628447532653809,
                -0.6200506687164307,
                -1.5544644594192505,
                1.0329312086105347,
                -0.09089706838130951,
                0.9608385562896729,
                0.5918283462524414
            ],
            "fitness": 40.08945846557617,
            "npcType": 0,
            "outputLockStatus": [
                false,
                false,
                false,
                false
            ]
        },
        {
            "layers": [
                8,
                8,
                6,
                4
            ],
            "flattenedWeights": [
                -0.1574423611164093,
                0.9252527952194214,
                -0.6280067563056946,
                -0.5034608840942383,
                -1.0885441303253174,
                0.3311068117618561,
                1.557393193244934,
                0.03873218595981598,
                1.5709136724472047,
                0.24863600730895997,
                -2.6096482276916506,
                -0.9367790222167969,
                1.9812376499176026,
                0.27405688166618349,
                -0.6769708395004273,
                -0.7903549075126648,
                -0.4183717668056488,
                1.3718926906585694,
                -0.762973427772522,
                -0.43508297204971316,
                -0.518531858921051,
                1.3759948015213013,
                0.9559752941131592,
                0.4887087941169739,
                -0.3108363449573517,
                -0.3560539484024048,
                0.258456826210022,
                -0.7696175575256348,
                1.1117119789123536,
                -0.12499994784593582,
                -0.9074239134788513,
                0.2253449559211731,
                -0.6837815642356873,
                0.6127734184265137,
                0.3206157386302948,
                -0.06502611935138703,
                0.41430243849754336,
                0.24490730464458466,
                1.6060618162155152,
                -0.6061190962791443,
                0.6321392059326172,
                -1.3689861297607422,
                0.9143827557563782,
                0.21925482153892518,
                0.0496259406208992,
                1.1728359460830689,
                1.9841516017913819,
                -0.7129971981048584,
                -0.4100116193294525,
                2.092664957046509,
                0.1641453355550766,
                -0.14625321328639985,
                0.2567232847213745,
                1.4574029445648194,
                0.08318416774272919,
                -1.509934902191162,
                0.8970673680305481,
                0.06641871482133866,
                0.8189271688461304,
                0.053438201546669009,
                1.3982527256011963,
                1.2393642663955689,
                0.061932265758514407,
                -0.8987740874290466,
                0.009659484028816224,
                2.4153330326080324,
                -0.3670160174369812,
                -1.035270094871521,
                0.032374970614910129,
                -0.5303282737731934,
                1.156563401222229,
                -1.2297239303588868,
                -0.7413967251777649,
                0.389753520488739,
                1.3950992822647095,
                -0.6797757148742676,
                0.07746141403913498,
                -1.5671125650405884,
                0.7208440899848938,
                -1.0956923961639405,
                -0.11681792140007019,
                1.661492943763733,
                -0.2736395597457886,
                -0.40030956268310549,
                0.39305591583251955,
                0.8273277878761292,
                1.1714246273040772,
                0.9640637040138245,
                -0.6292614340782166,
                0.3685835599899292,
                -0.15058645606040955,
                -0.40237361192703249,
                0.34017235040664675,
                2.265789747238159,
                1.5176746845245362,
                1.8389267921447755,
                1.413398265838623,
                0.7858834862709045,
                -0.23787230253219605,
                0.09165704250335694,
                -0.42357298731803896,
                -1.6184800863265992,
                0.49017345905303957,
                1.070855736732483,
                -1.6302440166473389,
                0.24874669313430787,
                -1.3656200170516968,
                1.0575921535491944,
                -0.37037545442581179,
                -1.5490819215774537,
                -1.463954210281372,
                0.2951801121234894,
                -0.33571186661720278,
                0.4684402048587799,
                1.2580368518829346,
                -0.41464388370513918,
                0.1447816789150238,
                1.8384416103363038,
                -0.3009430468082428,
                0.16380439698696137,
                0.551410973072052,
                -0.39676520228385928,
                0.3914356827735901,
                0.20576301217079163,
                0.23103013634681703,
                -0.6968303322792053,
                -1.1814844608306885,
                -0.5360196232795715,
                -0.5970657467842102,
                1.0660463571548463,
                -0.6981790661811829,
                -1.516565203666687,
                1.066156268119812,
                -0.09089706838130951,
                0.9223577380180359,
                0.6085782647132874
            ],
            "fitness": 39.46035385131836,
            "npcType": 0,
            "outputLockStatus": [
                false,
                false,
                false,
                false
            ]
        },
        {
            "layers": [
                8,
                8,
                6,
                4
            ],
            "flattenedWeights": [
                -0.1574423611164093,
                0.8654809594154358,
                -0.6005082726478577,
                -0.45878005027770998,
                -1.0372345447540284,
                0.3311068117618561,
                1.652002215385437,
                0.08952757716178894,
                1.5709136724472047,
                0.4626895487308502,
                -2.5742247104644777,
                -0.919389545917511,
                2.019818067550659,
                0.26555395126342776,
                -0.742703914642334,
                -0.6986165046691895,
                -0.4859025776386261,
                1.3343515396118165,
                -0.762973427772522,
                -0.5263612270355225,
                -0.5953628420829773,
                1.3759948015213013,
                0.7079536318778992,
                0.39359959959983828,
                -0.3432047367095947,
                -0.3560539484024048,
                0.23415625095367433,
                -0.8300971388816834,
                1.158352017402649,
                -0.06812693178653717,
                -1.0030477046966553,
                0.2274787425994873,
                -0.6186978816986084,
                0.6472058892250061,
                0.4215758740901947,
                -0.14590756595134736,
                0.3380914628505707,
                0.2622227370738983,
                1.3729727268218995,
                -0.47713595628738406,
                0.5487134456634522,
                -1.3860149383544922,
                0.8998373746871948,
                0.0007639117538928986,
                0.0496259406208992,
                1.1595709323883057,
                1.9402705430984498,
                -0.7129971981048584,
                -0.37093988060951235,
                2.408721923828125,
                0.1641453355550766,
                -0.04975271224975586,
                0.289309561252594,
                1.398160457611084,
                0.2037370651960373,
                -1.4377522468566895,
                0.8970673680305481,
                0.19298014044761659,
                0.9467082619667053,
                -0.08743435889482498,
                1.3467838764190674,
                1.2189534902572632,
                0.11895128339529038,
                -1.1588112115859986,
                -0.13046079874038697,
                2.4568841457366945,
                -0.2881048917770386,
                -1.065293550491333,
                0.0680570900440216,
                -0.606894314289093,
                1.2325294017791749,
                -1.1377098560333253,
                -0.6497874855995178,
                0.38302621245384219,
                1.455497145652771,
                -0.6707859635353088,
                0.12699228525161744,
                -1.4839506149291993,
                0.4438513219356537,
                -0.9448118805885315,
                0.12080613523721695,
                1.6678944826126099,
                -0.438837468624115,
                -0.3790062963962555,
                0.39305591583251955,
                0.9058713912963867,
                1.1435487270355225,
                0.8660832047462463,
                -0.6592445373535156,
                0.39860478043556216,
                -0.26153838634490969,
                -0.22886085510253907,
                0.30086469650268557,
                2.265789747238159,
                1.4718784093856812,
                1.9164108037948609,
                1.305336356163025,
                0.9896025657653809,
                -0.23787230253219605,
                0.05825404077768326,
                -0.5024786591529846,
                -1.6184800863265992,
                0.49017345905303957,
                1.0913735628128052,
                -1.6940065622329713,
                0.30051499605178835,
                -1.2931514978408814,
                1.0575921535491944,
                -0.4421464502811432,
                -1.5490819215774537,
                -1.4644982814788819,
                0.5049900412559509,
                -0.41411417722702029,
                0.3099347949028015,
                1.2600725889205933,
                -0.495810866355896,
                0.12151508033275604,
                1.783462643623352,
                -0.24347656965255738,
                0.030336514115333558,
                0.4635993242263794,
                -0.41630035638809206,
                0.47756507992744448,
                0.20576301217079163,
                0.29826095700263979,
                -0.5801019072532654,
                -1.0754972696304322,
                -0.641398012638092,
                -0.4343969523906708,
                1.1062395572662354,
                -0.6122757792472839,
                -1.5919095277786255,
                1.0305707454681397,
                -0.15943282842636109,
                0.9807502031326294,
                0.6085782647132874
            ],
            "fitness": 38.13728713989258,
            "npcType": 0,
            "outputLockStatus": [
                false,
                false,
                false,
                false
            ]
        },
        {
            "layers": [
                8,
                8,
                6,
                4
            ],
            "flattenedWeights": [
                -1.0547798871994019,
                1.2347314357757569,
                1.4058552980422974,
                0.2604602575302124,
                2.1703619956970217,
                0.05852705240249634,
                -1.174480676651001,
                -1.4228075742721558,
                0.5104214549064636,
                -0.1846175491809845,
                0.7599312663078308,
                -0.5638384222984314,
                -0.5300604104995728,
                -0.22085648775100709,
                0.8917670845985413,
                -0.23283222317695619,
                1.9542813301086426,
                -0.5188672542572022,
                -0.7320144772529602,
                0.023483335971832277,
                0.1590927541255951,
                -0.3274925947189331,
                0.48107340931892397,
                0.6413729786872864,
                -1.0619252920150757,
                -0.8284720778465271,
                -0.4797232151031494,
                -1.0685924291610718,
                -1.9904565811157227,
                -0.9164803624153137,
                0.13318398594856263,
                1.360721230506897,
                -2.065706968307495,
                0.35640963912010195,
                1.611752986907959,
                -0.15108582377433778,
                -0.6352360248565674,
                0.25218087434768679,
                -1.2983356714248658,
                -0.6447665095329285,
                0.3901124894618988,
                -1.847034215927124,
                -0.998833179473877,
                -1.933146595954895,
                0.31947585940361025,
                0.016724854707717897,
                1.0894511938095093,
                -0.6435571312904358,
                -0.6509243845939636,
                -1.2364130020141602,
                0.42061302065849306,
                -1.133010983467102,
                -3.5237436294555666,
                -1.4775840044021607,
                0.4929480254650116,
                0.6006448268890381,
                0.7481932640075684,
                0.2146235853433609,
                0.5090397596359253,
                1.4884727001190186,
                -0.24323119223117829,
                -3.2234530448913576,
                -1.0772501230239869,
                1.0614056587219239,
                -0.68238765001297,
                1.6621716022491456,
                -0.31644269824028017,
                -0.33466649055480959,
                -0.5494121313095093,
                -0.8615327477455139,
                0.8041760325431824,
                1.009269118309021,
                1.7217003107070923,
                -1.1012351512908936,
                0.3307817280292511,
                -1.050551176071167,
                -1.0256184339523316,
                -0.937540590763092,
                0.3870561122894287,
                1.2047605514526368,
                -0.14872315526008607,
                -0.2509634494781494,
                -2.8037846088409426,
                0.3042125701904297,
                1.9143962860107422,
                1.1627123355865479,
                0.7323204278945923,
                0.5171370506286621,
                0.5908316969871521,
                0.2643747627735138,
                0.6096051335334778,
                0.3380909264087677,
                0.1679803729057312,
                0.16829735040664674,
                0.42434021830558779,
                0.6266847848892212,
                -0.21081729233264924,
                -1.4433528184890748,
                -0.011886082589626313,
                -2.2420785427093508,
                -1.5446968078613282,
                -1.61198890209198,
                0.41777849197387698,
                -0.19810551404953004,
                -0.7292178869247437,
                -1.6327934265136719,
                -0.19222313165664674,
                0.3575102984905243,
                1.1571897268295289,
                -0.07301327586174011,
                0.8920918107032776,
                -0.9506473541259766,
                1.2889403104782105,
                0.734649121761322,
                1.1334956884384156,
                -1.1652652025222779,
                0.7041730880737305,
                -0.9346280694007874,
                -0.5259396433830261,
                0.5265909433364868,
                1.0781718492507935,
                -2.009033203125,
                0.0979790985584259,
                -1.9856444597244263,
                1.2759379148483277,
                -1.215797781944275,
                -0.9586920142173767,
                0.2795618772506714,
                2.1215476989746095,
                -0.3138532042503357,
                -0.6937668323516846,
                -0.48545292019844057,
                -0.7252137064933777,
                -1.6179158687591553,
                -2.6787471771240236,
                -0.0009092092514038086
            ],
            "fitness": 35.665122985839847,
            "npcType": 1,
            "outputLockStatus": [
                false,
                false,
                false,
                false
            ]
        },
        {
            "layers": [
                8,
                8,
                6,
                4
            ],
            "flattenedWeights": [
                -0.9962165951728821,
                1.2243441343307496,
                1.3177706003189088,
                0.3707161545753479,
                2.1086812019348146,
                0.019733093678951265,
                -1.3202929496765137,
                -1.451735496520996,
                0.46229541301727297,
                -0.1846175491809845,
                0.8022136092185974,
                -0.5451342463493347,
                -0.5989556908607483,
                -0.5551676750183106,
                1.0134828090667725,
                -0.23283222317695619,
                2.0373153686523439,
                -0.5788587927818298,
                -0.7067669034004211,
                -0.13755449652671815,
                0.07012395560741425,
                -0.3774794340133667,
                0.5877768993377686,
                0.528521716594696,
                -1.1276092529296876,
                -0.792296290397644,
                -0.17494267225265504,
                -1.1629265546798707,
                -1.6877927780151368,
                -0.9164803624153137,
                0.14159831404685975,
                1.4474502801895142,
                -1.8287630081176758,
                0.2789972722530365,
                1.5432732105255128,
                -0.16763558983802796,
                -0.6723071932792664,
                0.36013028025627139,
                -1.360594630241394,
                -0.6073048114776611,
                0.24987539649009705,
                -1.889736533164978,
                -0.8662425875663757,
                -1.955018162727356,
                0.5681764483451843,
                -0.06503046303987503,
                1.0381333827972413,
                -0.5883347988128662,
                -0.3189204931259155,
                -1.193383812904358,
                0.32465067505836489,
                -1.1399128437042237,
                -3.484818458557129,
                -1.372192144393921,
                0.4234725832939148,
                0.5072149038314819,
                1.0594407320022584,
                0.2471415102481842,
                0.6343724131584168,
                1.586267352104187,
                -0.3381502628326416,
                -3.4051971435546877,
                -0.9751101732254028,
                0.6972711682319641,
                -0.48037171363830569,
                1.7134448289871216,
                -0.1673181653022766,
                -0.350422739982605,
                -0.490873783826828,
                -0.8570727705955505,
                0.5794962644577026,
                1.0238851308822632,
                1.9405972957611085,
                -1.217838168144226,
                0.317960262298584,
                -1.10001802444458,
                -1.1194510459899903,
                -0.836922824382782,
                0.42984724044799807,
                1.1142338514328004,
                -0.1332351565361023,
                -0.24795043468475343,
                -2.8913767337799074,
                0.31462183594703677,
                1.8167946338653565,
                1.1069271564483643,
                1.0367809534072877,
                0.24018657207489015,
                0.6453498601913452,
                0.2559267282485962,
                0.634602963924408,
                0.4384584426879883,
                0.1099044606089592,
                0.12781041860580445,
                0.4519118666648865,
                0.6750490665435791,
                -0.1801026463508606,
                -1.4775235652923585,
                -0.07436215132474899,
                -2.3546576499938967,
                -1.5446968078613282,
                -1.67165207862854,
                0.5068591237068176,
                -0.24232447147369386,
                -0.714070737361908,
                -1.68583345413208,
                -0.32023534178733828,
                0.581186056137085,
                1.2383517026901246,
                -0.15633057057857514,
                0.8920918107032776,
                -1.0428011417388917,
                1.2196757793426514,
                0.734649121761322,
                1.061955213546753,
                -1.0023152828216553,
                0.7510671019554138,
                -0.8809584975242615,
                -0.543644368648529,
                0.4243010878562927,
                0.7809995412826538,
                -1.9179013967514039,
                0.10955531895160675,
                -1.9889720678329468,
                1.187064528465271,
                -1.2918431758880616,
                -0.8851568102836609,
                0.24552330374717713,
                2.141057014465332,
                -0.22809353470802308,
                -0.816301167011261,
                -0.48545292019844057,
                -0.5731639266014099,
                -1.685513973236084,
                -2.621926784515381,
                -0.009183540940284729
            ],
            "fitness": 35.284793853759769,
            "npcType": 1,
            "outputLockStatus": [
                false,
                false,
                false,
                false
            ]
        },
        {
            "layers": [
                8,
                8,
                6,
                4
            ],
            "flattenedWeights": [
                -0.9997290372848511,
                1.320879340171814,
                1.3644349575042725,
                0.22798848152160645,
                1.974838376045227,
                0.05852705240249634,
                -1.2033412456512452,
                -1.451735496520996,
                0.5018072128295898,
                -0.13971741497516633,
                0.8742453455924988,
                -0.5294060707092285,
                -0.5759325623512268,
                -0.26743102073669436,
                0.9666784405708313,
                -0.21515417098999024,
                2.013413429260254,
                -0.45134228467941286,
                -0.5217872858047485,
                0.023483335971832277,
                0.16998250782489777,
                -0.5430397391319275,
                0.5291416645050049,
                0.6882835626602173,
                -1.120673418045044,
                -0.7648990154266357,
                -0.48500382900238039,
                -1.1545093059539796,
                -1.9090570211410523,
                -0.8673446774482727,
                0.19252854585647584,
                1.5372381210327149,
                -1.8990720510482789,
                0.35640963912010195,
                1.5759906768798829,
                -0.03583696484565735,
                -0.5686599016189575,
                0.44967174530029299,
                -1.3688608407974244,
                -0.7423606514930725,
                0.4850640594959259,
                -1.9288219213485718,
                -0.9281752705574036,
                -1.8924624919891358,
                0.4550454914569855,
                -0.049295492470264438,
                1.0562000274658204,
                -0.5664922595024109,
                -0.6782882809638977,
                -1.0813568830490113,
                0.4706045985221863,
                -1.1399128437042237,
                -3.7006442546844484,
                -1.3150492906570435,
                0.6011916399002075,
                0.4873385429382324,
                0.7667197585105896,
                0.2146235853433609,
                0.699116587638855,
                1.6230381727218629,
                -0.3600521385669708,
                -3.4712753295898439,
                -0.9715954661369324,
                0.9419175386428833,
                -0.6925495266914368,
                1.5990010499954224,
                -0.197147935628891,
                -0.29899635910987856,
                -0.2837334871292114,
                -0.5922710299491882,
                0.7267374992370606,
                1.088928461074829,
                1.9071311950683594,
                -1.133870244026184,
                0.249647319316864,
                -0.8125123977661133,
                -1.1194510459899903,
                -0.9331638216972351,
                0.32161787152290347,
                0.9815798401832581,
                -0.10389895737171173,
                -0.2189083844423294,
                -3.1115000247955324,
                0.29656434059143069,
                1.90813148021698,
                0.9697697162628174,
                0.989011287689209,
                0.42143207788467409,
                0.6088272929191589,
                0.18272367119789124,
                0.6380064487457275,
                0.2529045343399048,
                0.10344157367944718,
                -0.003026038408279419,
                0.5716769099235535,
                0.6288135051727295,
                -0.25005966424942019,
                -1.572719693183899,
                0.02361832559108734,
                -2.2625904083251955,
                -1.456780195236206,
                -1.7252545356750489,
                0.3229011297225952,
                -0.3526298999786377,
                -0.7430765628814697,
                -1.6775927543640137,
                -0.30486932396888735,
                0.49366477131843569,
                1.2383517026901246,
                0.0301535464823246,
                0.8920918107032776,
                -1.06541907787323,
                1.2208150625228882,
                0.666354238986969,
                1.061955213546753,
                -1.2040728330612183,
                0.657595157623291,
                -0.9742012619972229,
                -0.6352114081382752,
                0.5179229378700256,
                1.1625399589538575,
                -2.0446624755859377,
                0.13483178615570069,
                -1.9387651681900025,
                1.274986743927002,
                -1.235458254814148,
                -0.8851568102836609,
                0.19044727087020875,
                2.1275992393493654,
                -0.13511310517787934,
                -0.9435110688209534,
                -0.48177847266197207,
                -0.6082342267036438,
                -1.685513973236084,
                -2.6239986419677736,
                -0.07537895441055298
            ],
            "fitness": 35.02305221557617,
            "npcType": 1,
            "outputLockStatus": [
                false,
                false,
                false,
                false
            ]
        }
    ],
    "timestamp": "2025-05-12 16:04:44"
}