{
    "generation": 50,
    "bestFitness": 173.11105346679688,
    "averageFitness": 60.051292419433597,
    "worstFitness": 1.3958035707473755,
    "networks": [
        {
            "layers": [
                8,
                8,
                6,
                4
            ],
            "flattenedWeights": [
                -0.30726394057273867,
                1.153245449066162,
                -0.38194480538368227,
                -0.8327258229255676,
                0.7464686036109924,
                -0.06699264049530029,
                -0.20461148023605348,
                0.3009381592273712,
                -0.12444428354501724,
                -0.3758964538574219,
                -1.007938265800476,
                0.6699007749557495,
                0.9396778345108032,
                0.29093417525291445,
                -0.8644107580184937,
                0.7105782628059387,
                0.6783771514892578,
                0.5516312718391419,
                -0.2710977792739868,
                0.8102191090583801,
                -0.4472943842411041,
                0.7023757100105286,
                -0.3282085955142975,
                0.3914302587509155,
                0.8952327370643616,
                -0.17129355669021607,
                1.0036295652389527,
                0.9475250244140625,
                1.0093759298324586,
                -1.0002201795578004,
                -0.5714733004570007,
                -0.06253970414400101,
                0.6922387480735779,
                0.46627315878868105,
                -0.6699718236923218,
                -0.6337785124778748,
                0.8235104084014893,
                0.37737521529197695,
                -0.5665746927261353,
                -0.7915453314781189,
                0.7265385389328003,
                0.22339802980422975,
                0.25719791650772097,
                -0.3390448987483978,
                -0.25096186995506289,
                0.532609760761261,
                0.7677878737449646,
                -1.0034586191177369,
                1.0061116218566895,
                0.28308725357055666,
                -0.21030685305595399,
                -0.35881567001342776,
                -0.32576116919517519,
                -1.0238009691238404,
                0.2044469714164734,
                -0.20314238965511323,
                -0.8236972689628601,
                -0.5292724370956421,
                -0.13835811614990235,
                -0.9331942796707153,
                -0.5842592120170593,
                -1.0503898859024048,
                0.6588901281356812,
                0.6351035237312317,
                -0.42122817039489748,
                0.4909259080886841,
                0.6485850214958191,
                -0.2556665539741516,
                -1.0356171131134034,
                -0.4114474654197693,
                -0.5461916923522949,
                0.2762126624584198,
                0.05965355783700943,
                -0.6115849018096924,
                0.26386702060699465,
                -0.06145370751619339,
                1.0719298124313355,
                0.3779106140136719,
                0.5551131367683411,
                0.046333227306604388,
                0.8227647542953491,
                1.1648151874542237,
                -0.13716495037078858,
                -0.9743919968605042,
                0.06360689550638199,
                -0.09372328966856003,
                -0.04346941411495209,
                0.7151015996932983,
                -0.31030306220054629,
                -0.6130489706993103,
                -0.7140070796012878,
                -0.11447553336620331,
                0.5966429710388184,
                0.9754106998443604,
                -0.24371975660324098,
                0.30490347743034365,
                0.3927787244319916,
                -0.6509551405906677,
                -0.048188455402851108,
                -0.033864401280879977,
                -0.230685755610466,
                0.8173786997795105,
                -0.865712583065033,
                -0.4985734820365906,
                -0.714600682258606,
                0.6695365309715271,
                0.12279880046844483,
                0.8600913882255554,
                0.44495487213134768,
                -0.5149522423744202,
                1.05498206615448,
                0.3741338849067688,
                1.8334146738052369,
                -0.4810279905796051,
                -0.38434338569641116,
                0.5066181421279907,
                0.7811372876167297,
                0.22296768426895142,
                0.2908915877342224,
                0.1378486156463623,
                -0.3604411482810974,
                0.9733613729476929,
                0.8672996759414673,
                -0.34268900752067568,
                1.0085927248001099,
                -0.4980716109275818,
                0.7806999087333679,
                0.5337293148040772,
                0.1634923666715622,
                0.36792898178100588,
                -0.8705250024795532,
                -0.19392943382263184,
                -0.3322994112968445,
                0.2963237464427948,
                1.1475772857666016,
                -0.3610607087612152
            ],
            "fitness": 173.11105346679688,
            "npcType": 1
        },
        {
            "layers": [
                8,
                8,
                6,
                4
            ],
            "flattenedWeights": [
                -0.18260125815868379,
                1.1738262176513672,
                -0.38194480538368227,
                -0.8327258229255676,
                0.8672829866409302,
                -0.013723470270633698,
                -0.11723414808511734,
                0.3816012442111969,
                -0.04315413534641266,
                -0.39758235216140749,
                -0.9512854814529419,
                0.6344941854476929,
                0.9396778345108032,
                0.23180192708969117,
                -0.8644107580184937,
                0.7105782628059387,
                0.672839879989624,
                0.594347357749939,
                -0.36832526326179507,
                0.8102191090583801,
                -0.4567171037197113,
                0.6136301755905151,
                -0.3282085955142975,
                0.31146666407585146,
                1.0095815658569337,
                -0.20814178884029389,
                1.0957200527191163,
                0.885428249835968,
                1.1442010402679444,
                -0.9076579213142395,
                -0.524858832359314,
                -0.06253970414400101,
                0.7580246329307556,
                0.4880041480064392,
                -0.6699718236923218,
                -0.6337785124778748,
                0.8235104084014893,
                0.37737521529197695,
                -0.5665746927261353,
                -0.7915453314781189,
                0.7265385389328003,
                0.22339802980422975,
                0.10878179222345352,
                -0.3390448987483978,
                -0.17920692265033723,
                0.5402424931526184,
                0.6512139439582825,
                -1.0034586191177369,
                1.0061116218566895,
                0.21647801995277406,
                -0.226110577583313,
                -0.35881567001342776,
                -0.32576116919517519,
                -1.0238009691238404,
                0.2044469714164734,
                -0.28153476119041445,
                -0.7484579682350159,
                -0.4867103695869446,
                -0.13835811614990235,
                -0.9331942796707153,
                -0.4566599726676941,
                -1.0503898859024048,
                0.7516127824783325,
                0.6067357659339905,
                -0.4489525556564331,
                0.4909259080886841,
                0.6485850214958191,
                -0.2556665539741516,
                -1.0322623252868653,
                -0.37712743878364565,
                -0.5461916923522949,
                0.2762126624584198,
                -0.02828346937894821,
                -0.6115849018096924,
                0.2662295401096344,
                0.11963368207216263,
                1.0719298124313355,
                0.3779106140136719,
                0.5842545628547669,
                0.046333227306604388,
                0.8904147744178772,
                1.1053142547607422,
                -0.13716495037078858,
                -0.9798517227172852,
                0.016419410705566407,
                -0.09372328966856003,
                -0.04346941411495209,
                0.7707092761993408,
                -0.2511988580226898,
                -0.6130489706993103,
                -0.6476836800575256,
                -0.21377933025360108,
                0.6000131964683533,
                0.9754106998443604,
                -0.23063182830810548,
                0.15430012345314027,
                0.4844188392162323,
                -0.5564624667167664,
                -0.048188455402851108,
                -0.021001774817705156,
                -0.230685755610466,
                0.7877839207649231,
                -0.8527938723564148,
                -0.5117131471633911,
                -0.7124404311180115,
                0.6695365309715271,
                0.17235766351222993,
                0.8264768123626709,
                0.4304216802120209,
                -0.5149522423744202,
                0.9646456837654114,
                0.3284890949726105,
                1.7913204431533814,
                -0.39023277163505556,
                -0.38434338569641116,
                0.5066181421279907,
                0.7811372876167297,
                0.22296768426895142,
                0.4086151421070099,
                0.1378486156463623,
                -0.3474881947040558,
                0.9992778301239014,
                0.9195839762687683,
                -0.37679779529571535,
                0.9756221175193787,
                -0.5848622918128967,
                0.7806999087333679,
                0.5446916222572327,
                0.1634923666715622,
                0.36792898178100588,
                -0.8705250024795532,
                -0.235190287232399,
                -0.35042282938957217,
                0.18063633143901826,
                1.2635372877120972,
                -0.30982309579849245
            ],
            "fitness": 93.57999420166016,
            "npcType": 1
        },
        {
            "layers": [
                8,
                8,
                6,
                4
            ],
            "flattenedWeights": [
                -0.10786830633878708,
                -0.7196889519691467,
                0.19154438376426698,
                0.3411671221256256,
                -0.6749438643455505,
                -0.15154041349887849,
                -0.4743783175945282,
                -0.39335542917251589,
                -0.07749541103839874,
                -0.21210309863090516,
                -0.5440700054168701,
                -0.6625838875770569,
                0.26488837599754336,
                0.11470218002796173,
                -0.2825954854488373,
                -0.20065441727638246,
                0.5891104936599731,
                -0.7720116972923279,
                1.0255268812179566,
                -0.10015809535980225,
                -0.3691945970058441,
                -0.09518163651227951,
                -0.026226453483104707,
                0.1908058524131775,
                -0.14378657937049867,
                0.039058275520801547,
                0.9933177828788757,
                0.07602928578853607,
                -0.907401442527771,
                0.20059168338775636,
                -0.13140997290611268,
                0.17302504181861878,
                0.19576102495193482,
                -0.5447970032691956,
                -0.6845691204071045,
                0.4591190218925476,
                0.8514214754104614,
                -0.5017982721328735,
                -0.05008091777563095,
                0.47054725885391238,
                -0.18415425717830659,
                -0.4103444516658783,
                -0.11823676526546478,
                0.9128427505493164,
                0.8119363784790039,
                -0.8005524277687073,
                1.168965220451355,
                -0.4926754832267761,
                0.9644221663475037,
                -0.23994868993759156,
                -0.06632242351770401,
                0.42359599471092226,
                -0.8876605033874512,
                0.2551666498184204,
                -0.6144258379936218,
                0.8792597055435181,
                -0.47606274485588076,
                -0.707503616809845,
                -0.754534900188446,
                0.7293780446052551,
                -0.1630205512046814,
                0.3132675290107727,
                0.41394373774528506,
                0.26085495948791506,
                0.551516056060791,
                0.6692310571670532,
                -0.7347878217697144,
                0.5399652719497681,
                -0.9219318628311157,
                -0.6674301624298096,
                0.4091387689113617,
                0.8005064129829407,
                0.11816954612731934,
                -0.23514875769615174,
                0.023420222103595735,
                -0.8497305512428284,
                0.8620182275772095,
                1.0414007902145386,
                0.37929239869117739,
                -0.041542716324329379,
                -0.11052291095256806,
                -0.06423114985227585,
                0.6705618500709534,
                -0.4313504695892334,
                0.34877076745033266,
                1.0330886840820313,
                -0.6917777061462402,
                1.0181543827056885,
                0.693545401096344,
                0.08781933039426804,
                -0.6232800483703613,
                -0.18205076456069947,
                0.29552292823791506,
                0.09282218664884567,
                -0.5224977731704712,
                -0.5345323085784912,
                0.8898323774337769,
                0.18311947584152223,
                0.2641056180000305,
                -0.404563307762146,
                0.43759167194366457,
                0.4188675582408905,
                -0.01862453669309616,
                -0.4684247076511383,
                -0.8111306428909302,
                0.6690866351127625,
                -0.40694981813430788,
                -0.05385507270693779,
                -0.6797685027122498,
                -0.4755789637565613,
                0.595196545124054,
                0.8144726157188416,
                0.9545148611068726,
                0.4433920979499817,
                -0.05762515217065811,
                -0.8944926261901856,
                0.40950995683670046,
                0.8412466049194336,
                -1.1468031406402588,
                0.5043419003486633,
                1.1836302280426026,
                0.8751509189605713,
                0.41201290488243105,
                -0.9105775356292725,
                1.57114577293396,
                -0.2374250888824463,
                0.4745855927467346,
                0.32081153988838198,
                0.09751041978597641,
                -0.14847332239151,
                0.423866331577301,
                -0.9372223019599915,
                1.6136088371276856,
                -0.04477668181061745,
                0.16005200147628785,
                0.8331563472747803
            ],
            "fitness": 84.94148254394531,
            "npcType": 0
        },
        {
            "layers": [
                8,
                8,
                6,
                4
            ],
            "flattenedWeights": [
                -0.24731361865997315,
                -0.7196889519691467,
                0.19154438376426698,
                0.3411671221256256,
                -0.6749438643455505,
                -0.2614665627479553,
                -0.4743783175945282,
                -0.39335542917251589,
                -0.07749541103839874,
                -0.29745447635650637,
                -0.5440700054168701,
                -0.6625838875770569,
                0.25108057260513308,
                0.11004430055618286,
                -0.31880930066108706,
                -0.2781105935573578,
                0.6777631044387817,
                -0.7318103313446045,
                1.0344992876052857,
                -0.06775359064340592,
                -0.2316463142633438,
                0.13496144115924836,
                -0.17601388692855836,
                0.15119227766990663,
                -0.14378657937049867,
                -0.037062108516693118,
                0.9945337176322937,
                0.07103343307971955,
                -0.8839070796966553,
                0.20059168338775636,
                -0.02001228928565979,
                0.2645914554595947,
                0.1453486979007721,
                -0.563970685005188,
                -0.7617700695991516,
                0.5440811514854431,
                1.0183628797531129,
                -0.44695377349853518,
                0.02982250601053238,
                0.4895005226135254,
                -0.041206154972314838,
                -0.3135761618614197,
                -0.06132470816373825,
                0.9940147995948792,
                0.8420937061309815,
                -0.8005524277687073,
                1.089493751525879,
                -0.8509525656700134,
                0.8753968477249146,
                -0.19926196336746217,
                -0.10203124582767487,
                0.4513702392578125,
                -0.9235987663269043,
                0.19409668445587159,
                -0.6144258379936218,
                0.8792597055435181,
                -0.4754487872123718,
                -0.711344838142395,
                -0.754534900188446,
                0.747242271900177,
                -0.09186774492263794,
                0.3132675290107727,
                0.41394373774528506,
                0.26085495948791506,
                0.6029503345489502,
                0.7988478541374207,
                -0.8446575999259949,
                0.381226122379303,
                -1.008332371711731,
                -0.6674301624298096,
                0.5801458358764648,
                0.8005064129829407,
                0.11816954612731934,
                0.07400621473789215,
                0.04410118609666824,
                -1.0109400749206544,
                0.8386903405189514,
                0.8859854936599731,
                0.5282531380653381,
                -0.1330459862947464,
                -0.20287835597991944,
                -0.0020822063088417055,
                0.7303916811943054,
                -0.4313504695892334,
                0.34877076745033266,
                1.0330886840820313,
                -0.6917777061462402,
                0.9532079696655273,
                0.693545401096344,
                0.150922954082489,
                -0.5651587247848511,
                -0.13753843307495118,
                0.36852627992630007,
                0.050202593207359317,
                -0.5224977731704712,
                -0.6282131671905518,
                0.7080142498016357,
                0.2686610519886017,
                0.2641056180000305,
                -0.5982688665390015,
                0.36804094910621645,
                0.29400399327278139,
                -0.15706045925617219,
                -0.45744726061820986,
                -0.7577751278877258,
                0.764415442943573,
                -0.40694981813430788,
                -0.018605776131153108,
                -0.6797685027122498,
                -0.39813339710235598,
                0.5977733731269836,
                0.8144726157188416,
                1.1048518419265748,
                0.5090550780296326,
                0.023187972605228425,
                -0.8944926261901856,
                0.3569679856300354,
                0.8412466049194336,
                -1.0663976669311524,
                0.4154638648033142,
                1.2771527767181397,
                0.7590088844299316,
                0.4707862436771393,
                -0.8431824445724487,
                1.5019224882125855,
                -0.2374250888824463,
                0.3664073050022125,
                0.3529355525970459,
                0.13437128067016602,
                -0.0468924343585968,
                0.44813579320907595,
                -0.9072180986404419,
                1.6739708185195923,
                -0.0854329839348793,
                -0.011693567037582398,
                0.7883388996124268
            ],
            "fitness": 84.92372131347656,
            "npcType": 0
        },
        {
            "layers": [
                8,
                8,
                6,
                4
            ],
            "flattenedWeights": [
                -0.10786830633878708,
                -0.7733906507492065,
                -0.00944099947810173,
                0.3411671221256256,
                -0.6894553899765015,
                -0.15528059005737306,
                -0.3476565182209015,
                -0.4439588785171509,
                -0.11691295355558396,
                -0.30647268891334536,
                -0.5440700054168701,
                -0.6938866972923279,
                0.19605016708374024,
                0.058733709156513217,
                -0.36441946029663088,
                -0.2725512981414795,
                0.4811229407787323,
                -0.7511948347091675,
                1.1004172563552857,
                -0.06775359064340592,
                -0.1890271157026291,
                0.13496144115924836,
                -0.026226453483104707,
                0.11201971024274826,
                -0.14378657937049867,
                0.03362520784139633,
                0.931128203868866,
                0.07602928578853607,
                -0.8839070796966553,
                0.22234348952770234,
                -0.05873461812734604,
                0.17302504181861878,
                0.31734058260917666,
                -0.563970685005188,
                -0.6845691204071045,
                0.5560076236724854,
                0.8514214754104614,
                -0.44695377349853518,
                0.013404764235019684,
                0.4895005226135254,
                -0.041206154972314838,
                -0.28090858459472659,
                -0.18237480521202088,
                0.9940147995948792,
                0.8819752931594849,
                -0.8833597302436829,
                1.1364095211029053,
                -0.80413818359375,
                0.9644221663475037,
                -0.2459539771080017,
                -0.06632242351770401,
                0.45399209856987,
                -0.9844550490379334,
                0.27218449115753176,
                -0.5240501761436462,
                0.8792597055435181,
                -0.4754487872123718,
                -0.711344838142395,
                -0.754534900188446,
                0.747242271900177,
                -0.06049896031618118,
                0.26534855365753176,
                0.47586923837661745,
                0.2952653169631958,
                0.5291759371757507,
                0.633916437625885,
                -0.8129698038101196,
                0.5918968915939331,
                -1.0817573070526124,
                -0.6249334216117859,
                0.5189328193664551,
                0.8005064129829407,
                0.11816954612731934,
                -0.23514875769615174,
                0.11290416121482849,
                -0.8497305512428284,
                0.8620182275772095,
                0.9697507619857788,
                0.4604818820953369,
                -0.0705561488866806,
                -0.11052291095256806,
                0.1190032884478569,
                0.810370922088623,
                -0.54317706823349,
                0.3090016841888428,
                1.0330886840820313,
                -0.7514795064926148,
                1.068968653678894,
                0.7467725872993469,
                0.16231898963451386,
                -0.4880806803703308,
                -0.2604728937149048,
                0.17185696959495545,
                -0.023395635187625886,
                -0.5029983520507813,
                -0.5345323085784912,
                0.7080142498016357,
                0.14088210463523866,
                0.16673052310943604,
                -0.4940335154533386,
                0.43759167194366457,
                0.28507906198501589,
                -0.07895983010530472,
                -0.4230184257030487,
                -0.7631867527961731,
                0.764415442943573,
                -0.40694981813430788,
                -0.088901586830616,
                -0.6797685027122498,
                -0.4755789637565613,
                0.7948306798934937,
                0.7224412560462952,
                0.9545148611068726,
                0.4433920979499817,
                0.023320309817790986,
                -0.8944926261901856,
                0.33229702711105349,
                0.8778544664382935,
                -1.032305359840393,
                0.45978662371635439,
                1.1836302280426026,
                0.8751509189605713,
                0.43434908986091616,
                -0.8409748673439026,
                1.5019224882125855,
                -0.2374250888824463,
                0.4745855927467346,
                0.32081153988838198,
                0.18074196577072144,
                -0.0468924343585968,
                0.3974526524543762,
                -0.9372223019599915,
                1.6216380596160889,
                -0.1753154695034027,
                0.14156591892242433,
                0.8331563472747803
            ],
            "fitness": 84.85739135742188,
            "npcType": 0
        },
        {
            "layers": [
                8,
                8,
                6,
                4
            ],
            "flattenedWeights": [
                -0.24731361865997315,
                -0.6963679790496826,
                0.19154438376426698,
                0.4367680251598358,
                -0.6749438643455505,
                -0.2713858485221863,
                -0.4743783175945282,
                -0.42044326663017275,
                -0.07749541103839874,
                -0.24510550498962403,
                -0.44646286964416506,
                -0.6387983560562134,
                0.26488837599754336,
                0.04254531115293503,
                -0.220211461186409,
                -0.23679232597351075,
                0.6647493839263916,
                -0.7862027287483215,
                0.9488807320594788,
                -0.007798291742801666,
                -0.45345088839530947,
                -0.09518163651227951,
                -0.2098897248506546,
                0.1202126070857048,
                -0.04629144072532654,
                0.039058275520801547,
                0.9933177828788757,
                0.15399262309074403,
                -0.8903769850730896,
                0.20059168338775636,
                -0.05873461812734604,
                0.27415525913238528,
                0.2463933676481247,
                -0.5898195505142212,
                -0.6845691204071045,
                0.4662473201751709,
                1.0117690563201905,
                -0.5017982721328735,
                -0.05008091777563095,
                0.4895005226135254,
                -0.18415425717830659,
                -0.4772251844406128,
                -0.11823676526546478,
                0.9128427505493164,
                0.8420937061309815,
                -0.9134742021560669,
                1.1341149806976319,
                -0.5362251400947571,
                0.773446261882782,
                -0.23994868993759156,
                -0.16504035890102387,
                0.4134780764579773,
                -0.8876605033874512,
                0.2551666498184204,
                -0.5240501761436462,
                0.9252592921257019,
                -0.5046538710594177,
                -0.707503616809845,
                -0.7413743734359741,
                0.7293780446052551,
                -0.293727308511734,
                0.3132675290107727,
                0.4747125804424286,
                0.26085495948791506,
                0.462848961353302,
                0.7027826905250549,
                -0.7003080248832703,
                0.5313841700553894,
                -0.9219318628311157,
                -0.6290194392204285,
                0.42498019337654116,
                0.8608558177947998,
                0.13577169179916383,
                0.048403169959783557,
                -0.00270640105009079,
                -1.0598459243774415,
                0.8887118697166443,
                1.0414007902145386,
                0.4526873528957367,
                -0.041542716324329379,
                -0.01854422688484192,
                -0.06423114985227585,
                0.6452582478523254,
                -0.4313504695892334,
                0.3734242618083954,
                1.0330886840820313,
                -0.6917777061462402,
                1.0181543827056885,
                0.693545401096344,
                0.08781933039426804,
                -0.6232800483703613,
                -0.23630478978157044,
                0.23877109587192536,
                0.09282218664884567,
                -0.5344951152801514,
                -0.7199472784996033,
                0.9804856181144714,
                0.21350565552711488,
                0.4670729339122772,
                -0.40518003702163699,
                0.4309554100036621,
                0.32423821091651919,
                -0.01862453669309616,
                -0.4230184257030487,
                -0.8257192969322205,
                1.0240471363067628,
                -0.4200737476348877,
                -0.1426619291305542,
                -0.7454354763031006,
                -0.4198199510574341,
                0.5468413829803467,
                0.8932390213012695,
                1.1048518419265748,
                0.28585949540138247,
                -0.033659495413303378,
                -0.8869450688362122,
                0.333551824092865,
                0.9004444479942322,
                -1.1468031406402588,
                0.4154638648033142,
                1.1836302280426026,
                0.7785608172416687,
                0.43434908986091616,
                -0.9105775356292725,
                1.4721907377243043,
                -0.2374250888824463,
                0.34921902418136599,
                0.3529355525970459,
                0.13437128067016602,
                -0.14847332239151,
                0.3731292188167572,
                -0.9436237215995789,
                1.5761140584945679,
                -0.04477668181061745,
                -0.016756944358348848,
                0.8171838521957398
            ],
            "fitness": 84.7547378540039,
            "npcType": 0
        },
        {
            "layers": [
                8,
                8,
                6,
                4
            ],
            "flattenedWeights": [
                -0.24731361865997315,
                -0.7196889519691467,
                0.19154438376426698,
                0.25243106484413149,
                -0.6749438643455505,
                -0.15587645769119264,
                -0.4743783175945282,
                -0.42044326663017275,
                -0.11691295355558396,
                -0.29745447635650637,
                -0.44646286964416506,
                -0.6938866972923279,
                0.27686411142349245,
                0.04254531115293503,
                -0.220211461186409,
                -0.23679232597351075,
                0.5891104936599731,
                -0.7720116972923279,
                1.0255268812179566,
                -0.007798291742801666,
                -0.3691945970058441,
                -0.09518163651227951,
                -0.026226453483104707,
                0.1202126070857048,
                -0.04629144072532654,
                0.039058275520801547,
                0.931128203868866,
                0.054194964468479159,
                -0.8903769850730896,
                0.11328329145908356,
                -0.05873461812734604,
                0.17302504181861878,
                0.2463933676481247,
                -0.5446310043334961,
                -0.6845691204071045,
                0.4662473201751709,
                0.8514214754104614,
                -0.5017982721328735,
                0.07177266478538513,
                0.4895005226135254,
                -0.041206154972314838,
                -0.5075430274009705,
                -0.18237480521202088,
                0.9128427505493164,
                0.8119363784790039,
                -0.9041951298713684,
                1.168965220451355,
                -0.6757118105888367,
                0.9873581528663635,
                -0.2459539771080017,
                -0.22868695855140687,
                0.4513702392578125,
                -0.9807114005088806,
                0.28517037630081179,
                -0.5240501761436462,
                0.8792597055435181,
                -0.5046538710594177,
                -0.707503616809845,
                -0.7413743734359741,
                0.747242271900177,
                -0.20156913995742799,
                0.30327606201171877,
                0.37546107172966006,
                0.26085495948791506,
                0.551516056060791,
                0.6692310571670532,
                -0.9306398630142212,
                0.5313841700553894,
                -0.9219318628311157,
                -0.6290194392204285,
                0.4923054575920105,
                0.8005064129829407,
                0.11816954612731934,
                0.10788801312446594,
                -0.06614236533641815,
                -0.7747158408164978,
                0.8620182275772095,
                0.8859854936599731,
                0.37929239869117739,
                -0.041542716324329379,
                -0.01854422688484192,
                0.18874026834964753,
                0.6336801052093506,
                -0.5643412470817566,
                0.3734242618083954,
                1.0330886840820313,
                -0.6917777061462402,
                0.9924090504646301,
                0.693545401096344,
                0.08781933039426804,
                -0.6232800483703613,
                -0.25282999873161318,
                0.23807084560394288,
                0.09282218664884567,
                -0.5344951152801514,
                -0.6466240286827087,
                0.7080142498016357,
                0.1839495301246643,
                0.5187519788742065,
                -0.404563307762146,
                0.4309554100036621,
                0.29400399327278139,
                -0.01862453669309616,
                -0.4684247076511383,
                -0.7577751278877258,
                0.764415442943573,
                -0.40694981813430788,
                -0.18908286094665528,
                -0.7454354763031006,
                -0.4198199510574341,
                0.7625919580459595,
                0.8144726157188416,
                1.1048518419265748,
                0.4433920979499817,
                -0.06092432886362076,
                -0.9233226776123047,
                0.333551824092865,
                0.8412466049194336,
                -1.1468031406402588,
                0.49648118019104006,
                1.1836302280426026,
                0.7785608172416687,
                0.4707862436771393,
                -0.8290985822677612,
                1.4721907377243043,
                -0.16467875242233277,
                0.34921902418136599,
                0.4251672029495239,
                0.2421056032180786,
                -0.14847332239151,
                0.27369898557662966,
                -0.9436237215995789,
                1.6216380596160889,
                -0.0854329839348793,
                -0.011693567037582398,
                0.8802919387817383
            ],
            "fitness": 84.70979309082031,
            "npcType": 0
        },
        {
            "layers": [
                8,
                8,
                6,
                4
            ],
            "flattenedWeights": [
                -0.24731361865997315,
                -0.6963679790496826,
                0.19154438376426698,
                0.4367680251598358,
                -0.6749438643455505,
                -0.2713858485221863,
                -0.4743783175945282,
                -0.39335542917251589,
                -0.11691295355558396,
                -0.29745447635650637,
                -0.44646286964416506,
                -0.6938866972923279,
                0.2678009569644928,
                0.11004430055618286,
                -0.31880930066108706,
                -0.23679232597351075,
                0.6647493839263916,
                -0.7720116972923279,
                1.0344992876052857,
                -0.007798291742801666,
                -0.3691945970058441,
                0.13496144115924836,
                -0.026226453483104707,
                0.1908058524131775,
                -0.14378657937049867,
                0.039058275520801547,
                0.9933177828788757,
                0.07602928578853607,
                -0.8903769850730896,
                0.049498505890369418,
                -0.11744526028633118,
                0.27415525913238528,
                0.19576102495193482,
                -0.563970685005188,
                -0.6845691204071045,
                0.4391840994358063,
                0.8514214754104614,
                -0.44695377349853518,
                0.016480326652526857,
                0.4895005226135254,
                -0.18415425717830659,
                -0.3252445459365845,
                -0.11823676526546478,
                1.0733425617218018,
                0.8588377237319946,
                -0.8005524277687073,
                1.168965220451355,
                -0.4956391751766205,
                0.773446261882782,
                -0.2459539771080017,
                -0.16504035890102387,
                0.33519333600997927,
                -0.9903762340545654,
                0.2551666498184204,
                -0.5240501761436462,
                0.8418979048728943,
                -0.4754487872123718,
                -0.707503616809845,
                -0.754534900188446,
                0.747242271900177,
                -0.20156913995742799,
                0.3132675290107727,
                0.37546107172966006,
                0.26085495948791506,
                0.551516056060791,
                0.6692310571670532,
                -0.7347878217697144,
                0.5313841700553894,
                -0.9219318628311157,
                -0.5972266793251038,
                0.5583704710006714,
                0.8005064129829407,
                0.13577169179916383,
                -0.286693811416626,
                -0.00270640105009079,
                -0.8497305512428284,
                0.8887118697166443,
                1.0414007902145386,
                0.4604818820953369,
                -0.041542716324329379,
                -0.01854422688484192,
                0.18874026834964753,
                0.6934779286384583,
                -0.39210256934165957,
                0.34877076745033266,
                0.9388296604156494,
                -0.6917777061462402,
                0.9219268560409546,
                0.693545401096344,
                0.18423891067504884,
                -0.6232800483703613,
                -0.23630478978157044,
                0.2056705355644226,
                0.010416574776172638,
                -0.4364522695541382,
                -0.6466240286827087,
                0.7080142498016357,
                0.32036858797073367,
                0.4670729339122772,
                -0.667364776134491,
                0.3465673327445984,
                0.29400399327278139,
                -0.01862453669309616,
                -0.4230184257030487,
                -0.8111306428909302,
                0.764415442943573,
                -0.40694981813430788,
                -0.018605776131153108,
                -0.7454354763031006,
                -0.4198199510574341,
                0.595196545124054,
                0.8144726157188416,
                0.993538498878479,
                0.28585949540138247,
                0.02170848846435547,
                -0.9233226776123047,
                0.333551824092865,
                0.8412466049194336,
                -1.1337997913360596,
                0.4154638648033142,
                1.1836302280426026,
                0.7785608172416687,
                0.43434908986091616,
                -0.9105775356292725,
                1.4721907377243043,
                -0.2374250888824463,
                0.34921902418136599,
                0.32081153988838198,
                0.2421056032180786,
                -0.09839583188295365,
                0.3974526524543762,
                -0.9372223019599915,
                1.5761140584945679,
                -0.04477668181061745,
                -0.011693567037582398,
                0.8802919387817383
            ],
            "fitness": 84.66310119628906,
            "npcType": 0
        },
        {
            "layers": [
                8,
                8,
                6,
                4
            ],
            "flattenedWeights": [
                -0.10786830633878708,
                -0.7196889519691467,
                -0.00944099947810173,
                0.3411671221256256,
                -0.6894553899765015,
                -0.15528059005737306,
                -0.4743783175945282,
                -0.44265687465667727,
                -0.07749541103839874,
                -0.1318531334400177,
                -0.5255104899406433,
                -0.6625838875770569,
                0.25108057260513308,
                0.13777698576450349,
                -0.31880930066108706,
                -0.2725512981414795,
                0.6777631044387817,
                -0.742004930973053,
                1.1004172563552857,
                -0.06775359064340592,
                -0.31323128938674929,
                0.10573738813400269,
                -0.2098897248506546,
                0.1908058524131775,
                -0.14378657937049867,
                0.03362520784139633,
                0.9945337176322937,
                0.07602928578853607,
                -0.8540727496147156,
                0.13279777765274049,
                -0.02001228928565979,
                0.17302504181861878,
                0.31734058260917666,
                -0.610421359539032,
                -0.6845691204071045,
                0.5560076236724854,
                1.0183628797531129,
                -0.44695377349853518,
                -0.05008091777563095,
                0.4895005226135254,
                -0.041206154972314838,
                -0.3135761618614197,
                -0.09548305720090866,
                0.8250278234481812,
                0.8819752931594849,
                -0.8247846961021423,
                1.1364095211029053,
                -0.855616569519043,
                0.8554800152778626,
                -0.19926196336746217,
                -0.06632242351770401,
                0.34145262837409975,
                -0.9235987663269043,
                0.2551666498184204,
                -0.5240501761436462,
                0.8792597055435181,
                -0.4754487872123718,
                -0.7396330833435059,
                -0.7620769739151001,
                0.6646612882614136,
                -0.14668677747249604,
                0.26534855365753176,
                0.5792855024337769,
                0.26085495948791506,
                0.554007887840271,
                0.6692310571670532,
                -0.6567019820213318,
                0.5918968915939331,
                -1.0817573070526124,
                -0.5623968243598938,
                0.45393088459968569,
                0.7122852206230164,
                0.13577169179916383,
                -0.23514875769615174,
                0.03964021056890488,
                -0.8497305512428284,
                0.8386903405189514,
                1.0867606401443482,
                0.36602839827537539,
                -0.041542716324329379,
                -0.11052291095256806,
                0.1190032884478569,
                0.6705618500709534,
                -0.5159093141555786,
                0.3734242618083954,
                1.006455659866333,
                -0.6917777061462402,
                1.0330137014389039,
                0.7467725872993469,
                0.08781933039426804,
                -0.4843224883079529,
                -0.13753843307495118,
                0.2056705355644226,
                0.09282218664884567,
                -0.5293696522712708,
                -0.4636697471141815,
                0.7080142498016357,
                0.2686610519886017,
                0.16673052310943604,
                -0.5699537396430969,
                0.4048711657524109,
                0.3282763957977295,
                -0.07895983010530472,
                -0.4594027101993561,
                -0.7631867527961731,
                0.764415442943573,
                -0.4200737476348877,
                -0.18908286094665528,
                -0.7632744908332825,
                -0.4198199510574341,
                0.6119526028633118,
                0.7224412560462952,
                1.1048518419265748,
                0.4433920979499817,
                0.023187972605228425,
                -0.8944926261901856,
                0.34174928069114687,
                0.8412466049194336,
                -1.0663976669311524,
                0.4154638648033142,
                1.1836302280426026,
                0.8751509189605713,
                0.43434908986091616,
                -0.8285464644432068,
                1.5019224882125855,
                -0.2374250888824463,
                0.4745855927467346,
                0.32081153988838198,
                0.13437128067016602,
                -0.0468924343585968,
                0.42310985922813418,
                -0.9436237215995789,
                1.6739708185195923,
                -0.1753154695034027,
                0.05231624096632004,
                0.7883388996124268
            ],
            "fitness": 84.52787780761719,
            "npcType": 0
        },
        {
            "layers": [
                8,
                8,
                6,
                4
            ],
            "flattenedWeights": [
                -0.24731361865997315,
                -0.6963679790496826,
                0.19154438376426698,
                0.4367680251598358,
                -0.6749438643455505,
                -0.15528059005737306,
                -0.4743783175945282,
                -0.4439588785171509,
                -0.11691295355558396,
                -0.21210309863090516,
                -0.36134767532348635,
                -0.6938866972923279,
                0.26488837599754336,
                0.11004430055618286,
                -0.3326217830181122,
                -0.2725512981414795,
                0.5180318355560303,
                -0.7720116972923279,
                1.0255268812179566,
                -0.039499200880527499,
                -0.2316463142633438,
                -0.09518163651227951,
                -0.08246608078479767,
                0.1202126070857048,
                -0.14378657937049867,
                0.03362520784139633,
                0.931128203868866,
                0.054194964468479159,
                -0.9427015781402588,
                0.19514289498329163,
                -0.05873461812734604,
                0.17302504181861878,
                0.2463933676481247,
                -0.563970685005188,
                -0.6845691204071045,
                0.4662473201751709,
                0.9925051927566528,
                -0.44695377349853518,
                -0.05008091777563095,
                0.46913182735443118,
                -0.18415425717830659,
                -0.28090858459472659,
                -0.13202965259552003,
                0.9128427505493164,
                0.8819752931594849,
                -0.8247846961021423,
                1.1364095211029053,
                -0.80413818359375,
                0.773446261882782,
                -0.23994868993759156,
                -0.06632242351770401,
                0.42359599471092226,
                -0.9235987663269043,
                0.27218449115753176,
                -0.5240501761436462,
                0.8792597055435181,
                -0.4754487872123718,
                -0.707503616809845,
                -0.754534900188446,
                0.7293780446052551,
                -0.14668677747249604,
                0.3132675290107727,
                0.46265512704849245,
                0.31432047486305239,
                0.462848961353302,
                0.7027826905250549,
                -0.8129698038101196,
                0.548757016658783,
                -0.9219318628311157,
                -0.6249334216117859,
                0.5189328193664551,
                0.8457236289978027,
                0.11816954612731934,
                0.048403169959783557,
                0.03964021056890488,
                -0.8497305512428284,
                0.8620182275772095,
                1.0414007902145386,
                0.4604818820953369,
                -0.041542716324329379,
                -0.0977308377623558,
                -0.06423114985227585,
                0.667911171913147,
                -0.4313504695892334,
                0.23205670714378358,
                1.0330886840820313,
                -0.6917777061462402,
                1.068968653678894,
                0.7467725872993469,
                0.16231898963451386,
                -0.6232800483703613,
                -0.21111182868480683,
                0.2056705355644226,
                0.015588149428367615,
                -0.5344951152801514,
                -0.5345323085784912,
                0.6982362270355225,
                0.14088210463523866,
                0.4670729339122772,
                -0.5699537396430969,
                0.4309554100036621,
                0.32423821091651919,
                -0.07895983010530472,
                -0.4230184257030487,
                -0.7760992050170898,
                0.9892327189445496,
                -0.40694981813430788,
                -0.088901586830616,
                -0.7631504535675049,
                -0.4755789637565613,
                0.8371008634567261,
                0.7224412560462952,
                0.8577509522438049,
                0.28585949540138247,
                0.023187972605228425,
                -0.9233226776123047,
                0.333551824092865,
                0.814633846282959,
                -1.032305359840393,
                0.4154638648033142,
                1.1836302280426026,
                0.7785608172416687,
                0.43434908986091616,
                -0.8409748673439026,
                1.5265965461730958,
                -0.28749868273735049,
                0.4745855927467346,
                0.3529355525970459,
                0.051173947751522067,
                -0.14847332239151,
                0.3974526524543762,
                -0.9436237215995789,
                1.5761140584945679,
                -0.1753154695034027,
                0.05693552643060684,
                0.8331563472747803
            ],
            "fitness": 76.49134063720703,
            "npcType": 0
        }
    ],
    "timestamp": "2025-04-21 23:41:26"
}