{
    "generation": 145,
    "bestFitness": 35.38493347167969,
    "averageFitness": 17.837984085083009,
    "worstFitness": 0.0,
    "networks": [
        {
            "layers": [
                8,
                8,
                6,
                4
            ],
            "flattenedWeights": [
                -0.7146139144897461,
                0.15056189894676209,
                1.246401071548462,
                0.4568817615509033,
                1.2155464887619019,
                0.35871243476867678,
                -1.093727469444275,
                -0.44263309240341189,
                -0.23247283697128297,
                -0.8583446741104126,
                0.168744757771492,
                -1.251833200454712,
                -0.132114440202713,
                -0.41616514325141909,
                0.9805330038070679,
                -1.0075440406799317,
                1.0166765451431275,
                -1.0488439798355103,
                -0.225021094083786,
                -0.11105918884277344,
                -0.02803676947951317,
                -0.6061900854110718,
                1.129949927330017,
                0.27116531133651736,
                -1.1443846225738526,
                -0.6409045457839966,
                -0.3217690885066986,
                -0.4717142879962921,
                -0.15481972694396974,
                -0.23679763078689576,
                -0.40757614374160769,
                0.591981053352356,
                -0.19902101159095765,
                0.9040273427963257,
                0.41740670800209048,
                -0.2864450514316559,
                -0.7893217206001282,
                -0.655491292476654,
                -1.142323613166809,
                0.3273860216140747,
                0.27983760833740237,
                -1.107569932937622,
                -0.6133896112442017,
                -0.7634509801864624,
                0.2686980068683624,
                -0.6869515776634216,
                0.20012053847312928,
                -1.3682774305343629,
                -0.49109137058258059,
                -0.2743113934993744,
                0.217190682888031,
                -0.5552811622619629,
                -1.7715758085250855,
                -0.22658273577690125,
                1.0537285804748536,
                0.08433756232261658,
                1.0267055034637452,
                -0.013461250811815262,
                0.0483245924115181,
                1.4970124959945679,
                -0.5776635408401489,
                -0.9716745615005493,
                0.0874260738492012,
                0.6801148653030396,
                -0.9463087916374207,
                1.1678433418273926,
                -1.0000168085098267,
                -0.24229341745376588,
                0.3702690601348877,
                0.40876704454421999,
                0.18121208250522614,
                -0.350810706615448,
                1.0291520357131959,
                -0.6368052363395691,
                -0.11419140547513962,
                -0.5263206362724304,
                -0.429390549659729,
                -0.8704297542572022,
                1.0939877033233643,
                0.8415728807449341,
                -0.13778018951416017,
                -0.19122008979320527,
                -1.308427333831787,
                0.31206369400024416,
                1.6388814449310303,
                0.5094248056411743,
                0.6310946941375732,
                0.7579755187034607,
                0.04949786141514778,
                -0.5539743900299072,
                0.6964230537414551,
                0.11650493741035462,
                -0.5545086860656738,
                -0.7826182842254639,
                -0.9770546555519104,
                0.2935953438282013,
                -0.14995813369750977,
                -0.8905162811279297,
                0.029595091938972474,
                -0.5015568733215332,
                -0.385843425989151,
                -0.4618680775165558,
                0.38197585940361025,
                -0.08472312986850739,
                -0.3354374170303345,
                -0.6000272631645203,
                -0.9064171314239502,
                0.6336719989776611,
                0.8333449959754944,
                -0.491435170173645,
                0.5564822554588318,
                -0.5784144401550293,
                0.7187765836715698,
                0.6484234929084778,
                0.867899477481842,
                -0.8997087478637695,
                0.3660128116607666,
                -0.7041953206062317,
                -0.260470449924469,
                1.1200356483459473,
                0.6225253939628601,
                -1.5331149101257325,
                -0.0011499673128128052,
                -1.942373275756836,
                1.0678435564041138,
                -0.2407662272453308,
                -0.4741590619087219,
                -0.35341376066207888,
                1.5688892602920533,
                0.1282716989517212,
                -1.0505784749984742,
                -1.320111632347107,
                -1.0172728300094605,
                -0.5410802364349365,
                -1.1167563199996949,
                0.24283233284950257
            ],
            "fitness": 35.38493347167969,
            "npcType": 1,
            "outputLockStatus": [
                false,
                false,
                false,
                false
            ]
        },
        {
            "layers": [
                8,
                8,
                6,
                4
            ],
            "flattenedWeights": [
                -0.6948776245117188,
                0.23784929513931275,
                1.1742199659347535,
                0.27563294768333437,
                1.147902250289917,
                0.30627214908599856,
                -1.119910478591919,
                -0.5161367654800415,
                -0.2850717306137085,
                -0.86329185962677,
                0.2281675934791565,
                -1.2913925647735596,
                -0.2984088659286499,
                -0.41871142387390139,
                1.0895839929580689,
                -0.9790921807289124,
                1.0336705446243287,
                -1.0434294939041138,
                -0.3845413327217102,
                -0.11105918884277344,
                0.16952721774578095,
                -0.5809175372123718,
                1.0225473642349244,
                0.15887348353862763,
                -0.9110714197158814,
                -0.44649508595466616,
                -0.22955256700515748,
                -0.41572022438049319,
                -0.253304123878479,
                -0.039024949073791507,
                -0.4371539354324341,
                0.4259646236896515,
                -0.2933465838432312,
                0.9544999003410339,
                0.4870312809944153,
                0.0021753907203674318,
                -0.7941592335700989,
                -0.756496250629425,
                -1.142323613166809,
                0.3463314473628998,
                0.6597781181335449,
                -1.3071178197860718,
                -0.728387176990509,
                -0.6784927248954773,
                0.19119171798229218,
                -0.7653650045394898,
                0.14470893144607545,
                -1.4176392555236817,
                -0.34025639295578005,
                -0.024082422256469728,
                0.04573240876197815,
                -0.5746280550956726,
                -1.6933915615081788,
                -0.024137526750564576,
                1.2038350105285645,
                -0.015387900173664093,
                0.9803545475006104,
                -0.07571346312761307,
                0.07306058704853058,
                1.454702377319336,
                -0.49548766016960146,
                -1.001791000366211,
                0.005481839179992676,
                0.6527970433235169,
                -0.7405388355255127,
                1.0413569211959839,
                -0.7714669108390808,
                -0.2748488783836365,
                0.4021163880825043,
                0.36194902658462527,
                -0.04585469514131546,
                -0.53428053855896,
                1.1061314344406129,
                -0.335416316986084,
                -0.09591453522443772,
                -0.7098286151885986,
                -0.45316118001937868,
                -0.8938009738922119,
                1.482231855392456,
                0.8163637518882752,
                -0.08033277094364166,
                -0.28500011563301089,
                -1.1618595123291016,
                0.40902796387672427,
                1.7545878887176514,
                0.4536007046699524,
                0.5804750919342041,
                0.6882005333900452,
                -0.006863906979560852,
                -0.510098397731781,
                0.6964230537414551,
                0.12822887301445008,
                -0.5392528772354126,
                -0.8098614811897278,
                -0.7093620896339417,
                0.37914374470710757,
                -0.08735604584217072,
                -0.8293181657791138,
                -0.04860744625329971,
                -0.6056933999061585,
                -0.3070183992385864,
                -0.479311466217041,
                0.5024075508117676,
                0.03412509709596634,
                -0.18304577469825746,
                -0.538833498954773,
                -1.0135984420776368,
                0.4974426031112671,
                0.8228304386138916,
                -0.46020272374153139,
                0.5939656496047974,
                -0.6737405061721802,
                0.6725996136665344,
                0.7529851794242859,
                0.7560763359069824,
                -0.965422511100769,
                0.19677647948265077,
                -0.804875910282135,
                -0.4428975582122803,
                0.8809815645217896,
                0.5586670637130737,
                -1.4493283033370972,
                0.03232978284358978,
                -1.8876330852508546,
                1.459592580795288,
                -0.2467639297246933,
                -0.3800146281719208,
                -0.35341376066207888,
                1.571582555770874,
                0.3206484615802765,
                -1.1173971891403199,
                -1.5244407653808594,
                -1.024832844734192,
                -0.47410228848457339,
                -1.0824825763702393,
                0.4315546751022339
            ],
            "fitness": 35.35456848144531,
            "npcType": 1,
            "outputLockStatus": [
                false,
                false,
                false,
                false
            ]
        },
        {
            "layers": [
                8,
                8,
                6,
                4
            ],
            "flattenedWeights": [
                -0.6948776245117188,
                0.14702379703521729,
                1.146960973739624,
                0.3783279061317444,
                1.184124231338501,
                0.5367586612701416,
                -1.0296236276626588,
                -0.6512187719345093,
                -0.3201812505722046,
                -0.8563421368598938,
                -0.004769831895828247,
                -1.426472783088684,
                -0.30575722455978396,
                -0.38842740654945376,
                1.086690068244934,
                -0.9911326766014099,
                1.1146165132522584,
                -0.7382733821868897,
                -0.3216348886489868,
                -0.11105918884277344,
                0.033433131873607638,
                -0.521379292011261,
                1.208688497543335,
                0.2355343997478485,
                -1.1239988803863526,
                -0.5913435220718384,
                -0.3097485601902008,
                -0.5033710598945618,
                -0.23136937618255616,
                -0.11046689003705979,
                -0.49859723448753359,
                0.41641849279403689,
                -0.016548484563827516,
                0.9199387431144714,
                0.31641435623168948,
                -0.08001650124788284,
                -0.8654658198356628,
                -0.7330358624458313,
                -1.142323613166809,
                0.3396988809108734,
                0.6418652534484863,
                -1.0149877071380616,
                -0.7570626735687256,
                -0.6677749156951904,
                0.2472253441810608,
                -0.7879102230072022,
                0.20012053847312928,
                -1.4427275657653809,
                -0.5603975057601929,
                -0.03697609901428223,
                0.23945927619934083,
                -0.7332575917243958,
                -1.8672668933868409,
                -0.34722864627838137,
                1.0537285804748536,
                0.08433756232261658,
                0.9920710325241089,
                -0.030094198882579805,
                0.05704065412282944,
                1.4918816089630128,
                -0.564393937587738,
                -0.8871094584465027,
                -0.024489887058734895,
                0.6498537659645081,
                -0.853369951248169,
                1.1678433418273926,
                -0.6111235618591309,
                -0.23473799228668214,
                0.5282999873161316,
                0.3386845886707306,
                0.22768232226371766,
                -0.36892056465148928,
                1.0291520357131959,
                -0.816058874130249,
                -0.15055254101753236,
                -0.5265194177627564,
                -0.2930459678173065,
                -0.8938009738922119,
                1.3816829919815064,
                0.8066003918647766,
                0.04204736649990082,
                -0.3097628355026245,
                -1.2266266345977784,
                0.09565981477499008,
                1.584838628768921,
                0.599942147731781,
                0.5884633660316467,
                0.7579755187034607,
                0.0881228819489479,
                -0.5539743900299072,
                0.6964230537414551,
                0.10674910247325897,
                -0.6181779503822327,
                -0.8497501015663147,
                -0.8828306794166565,
                0.37914374470710757,
                -0.1525820642709732,
                -0.9872630834579468,
                0.07562396675348282,
                -0.561585545539856,
                -0.26780006289482119,
                -0.36681076884269717,
                0.3460460603237152,
                -0.019370809197425844,
                -0.3911558985710144,
                -0.6000272631645203,
                -0.9170518517494202,
                0.2609783709049225,
                0.7467525601387024,
                -0.5697826147079468,
                0.6048691272735596,
                -0.5784144401550293,
                0.587862491607666,
                0.6245654821395874,
                0.867899477481842,
                -0.9576596617698669,
                0.3660128116607666,
                -0.804875910282135,
                -0.47478368878364565,
                0.9852198958396912,
                0.651650071144104,
                -1.5499976873397828,
                0.013869941234588623,
                -1.9632737636566163,
                1.0887290239334107,
                -0.3258178234100342,
                -0.3800146281719208,
                -0.3253211975097656,
                1.531190276145935,
                0.26534438133239748,
                -1.2076027393341065,
                -1.3996326923370362,
                -0.9102212190628052,
                -0.5592086315155029,
                -1.0472537279129029,
                0.04377797245979309
            ],
            "fitness": 35.33003234863281,
            "npcType": 1,
            "outputLockStatus": [
                false,
                false,
                false,
                false
            ]
        },
        {
            "layers": [
                8,
                8,
                6,
                4
            ],
            "flattenedWeights": [
                -0.7146139144897461,
                0.15183264017105103,
                1.146960973739624,
                0.4568817615509033,
                1.1697144508361817,
                0.367802232503891,
                -1.1023247241973878,
                -0.6512187719345093,
                -0.3206171691417694,
                -0.8563421368598938,
                -0.014323711395263672,
                -1.4667503833770753,
                -0.25162461400032046,
                -0.3825303912162781,
                0.9437127113342285,
                -1.0075440406799317,
                0.9673647284507752,
                -1.106637716293335,
                -0.3216348886489868,
                -0.03793931007385254,
                0.16952721774578095,
                -0.521379292011261,
                1.114611029624939,
                0.2355343997478485,
                -1.1443846225738526,
                -0.5515523552894592,
                -0.35222530364990237,
                -0.4440625011920929,
                -0.22220057249069215,
                -0.01354876160621643,
                -0.49859723448753359,
                0.49417412281036379,
                -0.2878453731536865,
                0.9435518980026245,
                0.3775865435600281,
                -0.08001650124788284,
                -0.7910009622573853,
                -0.8160766959190369,
                -1.2640141248703004,
                0.2595316469669342,
                0.6729637384414673,
                -1.0575075149536133,
                -0.687181830406189,
                -0.7129052877426148,
                0.14379534125328065,
                -0.8143511414527893,
                0.20674367249011994,
                -1.3424358367919922,
                -0.357119083404541,
                -0.11184412986040116,
                0.14777058362960816,
                -0.6857125163078308,
                -1.78770911693573,
                -0.34722864627838137,
                1.2630119323730469,
                0.08433756232261658,
                1.0709565877914429,
                -0.15863370895385743,
                0.005330998450517654,
                1.495461344718933,
                -0.6585059762001038,
                -0.9716745615005493,
                0.0874260738492012,
                0.6498537659645081,
                -0.7925523519515991,
                1.2029154300689698,
                -0.6110823750495911,
                -0.18905118107795716,
                0.44779181480407717,
                0.3937380909919739,
                0.2347595989704132,
                -0.3220677077770233,
                0.9403526782989502,
                -0.5594645142555237,
                -0.18639282882213593,
                -0.5371010303497315,
                -0.3083275556564331,
                -0.8382646441459656,
                1.4335426092147828,
                0.7931532263755798,
                -0.03501374274492264,
                -0.3097628355026245,
                -1.2915750741958619,
                0.26503974199295046,
                1.6055140495300294,
                0.6560181379318237,
                0.6350204348564148,
                0.7579755187034607,
                0.013972744345664978,
                -0.6446690559387207,
                0.6964230537414551,
                0.10674910247325897,
                -0.6181779503822327,
                -0.8497501015663147,
                -0.8950995802879334,
                0.5594338774681091,
                -0.1525820642709732,
                -0.9121249318122864,
                0.07562396675348282,
                -0.5704923868179321,
                -0.32396575808525088,
                -0.41639289259910586,
                0.3460460603237152,
                -0.09216001629829407,
                -0.18304577469825746,
                -0.6738054752349854,
                -0.9214059710502625,
                0.5672470927238464,
                0.8609700202941895,
                -0.512291431427002,
                0.5939656496047974,
                -0.5784144401550293,
                0.7758472561836243,
                0.5854676365852356,
                0.7529609799385071,
                -0.9841843843460083,
                0.4555404782295227,
                -0.723097026348114,
                -0.35625284910202029,
                0.9852198958396912,
                0.706886887550354,
                -1.5453135967254639,
                -0.0947737917304039,
                -1.9632737636566163,
                1.1993769407272339,
                -0.5365171432495117,
                -0.3800146281719208,
                -0.42992860078811648,
                1.5979892015457154,
                -0.010100215673446656,
                -1.166233777999878,
                -1.5526762008666993,
                -1.0387705564498902,
                -0.5484768748283386,
                -1.0704039335250855,
                0.04377797245979309
            ],
            "fitness": 35.30902099609375,
            "npcType": 1,
            "outputLockStatus": [
                false,
                false,
                false,
                false
            ]
        },
        {
            "layers": [
                8,
                8,
                6,
                4
            ],
            "flattenedWeights": [
                -0.7984887957572937,
                0.06332921236753464,
                1.0496129989624024,
                0.4568817615509033,
                1.2288825511932374,
                0.3669121265411377,
                -1.2213560342788697,
                -0.501398503780365,
                -0.3201812505722046,
                -0.9154971241950989,
                0.168744757771492,
                -1.2002484798431397,
                -0.22559857368469239,
                -0.41616514325141909,
                1.0523841381072999,
                -1.0075440406799317,
                1.0166765451431275,
                -0.9771294593811035,
                -0.26662513613700869,
                -0.10293074697256088,
                0.08158361166715622,
                -0.7570562362670898,
                1.1538695096969605,
                0.2355343997478485,
                -1.1306109428405762,
                -0.5913435220718384,
                -0.3013622760772705,
                -0.5556333661079407,
                -0.34697601199150088,
                -0.17554421722888947,
                -0.5264058709144592,
                0.6865603923797607,
                -0.19443438947200776,
                0.9753893613815308,
                0.5142532587051392,
                -0.1289379894733429,
                -0.8577525615692139,
                -0.6007579565048218,
                -1.1531999111175538,
                0.31746602058410647,
                0.3315848410129547,
                -1.0513265132904053,
                -0.687181830406189,
                -0.688546895980835,
                0.2686980068683624,
                -0.8530360460281372,
                0.1465921401977539,
                -1.4466710090637208,
                -0.34148266911506655,
                -0.18014293909072877,
                0.23945927619934083,
                -0.6514973640441895,
                -1.7560453414916993,
                -0.26075607538223269,
                0.9894074201583862,
                0.12415149807929993,
                1.0416468381881714,
                -0.21264412999153138,
                -0.0019955113530158998,
                1.4970124959945679,
                -0.4732862412929535,
                -1.0057324171066285,
                0.05133478343486786,
                0.5930695533752441,
                -0.938524603843689,
                1.1678433418273926,
                -0.9117146730422974,
                -0.1852564513683319,
                0.5222427248954773,
                0.3877177834510803,
                0.15315808355808259,
                -0.4059620499610901,
                1.1445839405059815,
                -0.6947835087776184,
                -0.02535811811685562,
                -0.5263206362724304,
                -0.429390549659729,
                -0.8701974153518677,
                1.0939877033233643,
                0.8415728807449341,
                -0.03501374274492264,
                -0.23146918416023255,
                -1.1490845680236817,
                0.26503974199295046,
                1.6047801971435547,
                0.5455071926116943,
                0.6413705945014954,
                0.7579755187034607,
                -0.08619818836450577,
                -0.5050523281097412,
                0.7418639063835144,
                0.08182357996702194,
                -0.5259619951248169,
                -0.7826182842254639,
                -0.8528079986572266,
                0.32692980766296389,
                -0.1213822066783905,
                -0.726172685623169,
                0.029595091938972474,
                -0.6196190714836121,
                -0.3697483241558075,
                -0.4618680775165558,
                0.31039389967918398,
                -0.07531449943780899,
                -0.18304577469825746,
                -0.5585340261459351,
                -0.8911106586456299,
                0.5559839010238648,
                0.8701685667037964,
                -0.5761694312095642,
                0.643861711025238,
                -0.6869115829467773,
                0.7758472561836243,
                0.7655961513519287,
                0.8486508131027222,
                -0.965422511100769,
                0.4177686274051666,
                -0.6390826106071472,
                -0.31046628952026369,
                1.0454952716827393,
                0.6329909563064575,
                -1.4511741399765015,
                -0.0011499673128128052,
                -1.942373275756836,
                1.2345672845840455,
                -0.4910479485988617,
                -0.4741590619087219,
                -0.4809683859348297,
                1.531190276145935,
                0.03262883424758911,
                -1.2076027393341065,
                -1.4517613649368287,
                -0.9811495542526245,
                -0.48912885785102847,
                -1.0977271795272828,
                0.24283233284950257
            ],
            "fitness": 35.28240966796875,
            "npcType": 1,
            "outputLockStatus": [
                false,
                false,
                false,
                false
            ]
        },
        {
            "layers": [
                8,
                8,
                6,
                4
            ],
            "flattenedWeights": [
                -0.6670780777931213,
                0.24732139706611634,
                1.146960973739624,
                0.4568817615509033,
                1.2503324747085572,
                0.2950685918331146,
                -1.01806640625,
                -0.7333985567092896,
                -0.41510266065597536,
                -0.848807156085968,
                -0.020956672728061677,
                -1.3865923881530762,
                -0.2420654594898224,
                -0.32327544689178469,
                1.0840635299682618,
                -1.1148592233657838,
                1.0360021591186524,
                -0.7983516454696655,
                -0.4498773217201233,
                -0.11105918884277344,
                0.08200737833976746,
                -0.5175739526748657,
                1.129949927330017,
                0.19877123832702638,
                -1.1239988803863526,
                -0.5837168097496033,
                -0.2843511700630188,
                -0.4440625011920929,
                -0.2654774785041809,
                -0.10640067607164383,
                -0.4371539354324341,
                0.6152690052986145,
                -0.1072174683213234,
                0.893894374370575,
                0.32994237542152407,
                -0.1289379894733429,
                -0.7081536650657654,
                -0.7630377411842346,
                -1.142323613166809,
                0.2595316469669342,
                0.6051642894744873,
                -1.1549147367477418,
                -0.7594759464263916,
                -0.632255494594574,
                0.14958438277244569,
                -0.8530360460281372,
                0.14479640126228333,
                -1.3089544773101807,
                -0.41187140345573428,
                0.02322109416127205,
                0.23945927619934083,
                -0.8390588760375977,
                -1.78770911693573,
                -0.34722864627838137,
                1.1764994859695435,
                0.06429151445627213,
                1.029938817024231,
                -0.15863370895385743,
                0.04505912959575653,
                1.4298887252807618,
                -0.577140748500824,
                -0.9280261993408203,
                -0.007281631231307983,
                0.6801148653030396,
                -0.853369951248169,
                1.1678433418273926,
                -0.5269203782081604,
                -0.3220599293708801,
                0.42141884565353396,
                0.3877177834510803,
                0.15829071402549745,
                -0.3220677077770233,
                0.9403526782989502,
                -0.7365356683731079,
                -0.1584535539150238,
                -0.4445628523826599,
                -0.34269845485687258,
                -0.8938009738922119,
                1.482231855392456,
                0.773723304271698,
                -0.03501374274492264,
                -0.2705726623535156,
                -1.1490845680236817,
                0.30457672476768496,
                1.5716358423233033,
                0.6742927432060242,
                0.5884633660316467,
                0.8348395228385925,
                0.1828882396221161,
                -0.5539743900299072,
                0.6964230537414551,
                0.11650493741035462,
                -0.6181779503822327,
                -0.8098614811897278,
                -0.7037514448165894,
                0.3007025420665741,
                -0.1525820642709732,
                -0.9505361914634705,
                0.07562396675348282,
                -0.5704923868179321,
                -0.26780006289482119,
                -0.45606037974357607,
                0.38197585940361025,
                -0.08472312986850739,
                -0.31803083419799807,
                -0.6068597435951233,
                -0.9911174774169922,
                0.5980848073959351,
                0.82381671667099,
                -0.5583951473236084,
                0.48527246713638308,
                -0.6267573237419128,
                0.6695549488067627,
                0.6245654821395874,
                0.7023723721504211,
                -1.0609437227249146,
                0.4193372428417206,
                -0.7711257934570313,
                -0.35410362482070925,
                0.9995077252388,
                0.6497406363487244,
                -1.5331149101257325,
                -0.0011499673128128052,
                -1.9632737636566163,
                1.1993769407272339,
                -0.16333693265914918,
                -0.3804319202899933,
                -0.35341376066207888,
                1.571582555770874,
                0.17871132493019105,
                -1.2657015323638917,
                -1.4981422424316407,
                -0.9452424645423889,
                -0.47327399253845217,
                -1.113714337348938,
                0.24283233284950257
            ],
            "fitness": 35.26475524902344,
            "npcType": 1,
            "outputLockStatus": [
                false,
                false,
                false,
                false
            ]
        },
        {
            "layers": [
                8,
                8,
                6,
                4
            ],
            "flattenedWeights": [
                -0.6236506700515747,
                0.13895553350448609,
                1.1303129196166993,
                0.4568817615509033,
                1.1273807287216187,
                0.33090803027153017,
                -1.01806640625,
                -0.6512187719345093,
                -0.2535884976387024,
                -0.8583446741104126,
                0.0901036188006401,
                -1.3865923881530762,
                -0.25162461400032046,
                -0.23694953322410584,
                1.033339023590088,
                -0.911085844039917,
                1.0166765451431275,
                -1.061079978942871,
                -0.26662513613700869,
                -0.11105918884277344,
                -0.014117669314146042,
                -0.777985692024231,
                1.1503539085388184,
                0.2355343997478485,
                -1.1443846225738526,
                -0.5913435220718384,
                -0.35222530364990237,
                -0.48653340339660647,
                -0.17297090590000153,
                -0.1669408082962036,
                -0.5264058709144592,
                0.591981053352356,
                -0.19443438947200776,
                0.9382879734039307,
                0.41607481241226199,
                -0.1289379894733429,
                -0.7910009622573853,
                -0.655491292476654,
                -1.2640141248703004,
                0.2595316469669342,
                0.32726559042930605,
                -1.0617332458496094,
                -0.6659635901451111,
                -0.7129052877426148,
                0.14379534125328065,
                -0.8279004096984863,
                0.2220434993505478,
                -1.3161982297897339,
                -0.3881842792034149,
                -0.11184412986040116,
                0.1863025426864624,
                -0.5746280550956726,
                -1.78770911693573,
                -0.26075607538223269,
                0.9894074201583862,
                0.18406835198402406,
                0.9079699516296387,
                -0.030094198882579805,
                -0.0019955113530158998,
                1.4970124959945679,
                -0.4865259826183319,
                -0.9716745615005493,
                0.011025004088878632,
                0.5930695533752441,
                -0.8479848504066467,
                1.156132459640503,
                -0.8009387254714966,
                -0.18905118107795716,
                0.4373776614665985,
                0.31792664527893069,
                0.15315808355808259,
                -0.34484410285949709,
                1.0552088022232056,
                -0.6696794033050537,
                -0.07959160208702088,
                -0.5640869736671448,
                -0.429390549659729,
                -0.8701974153518677,
                1.0509617328643799,
                0.8415728807449341,
                -0.08076003193855286,
                -0.23294785618782044,
                -1.2312742471694947,
                0.26503974199295046,
                1.6055140495300294,
                0.599942147731781,
                0.6516576409339905,
                0.7579755187034607,
                0.0881228819489479,
                -0.5539743900299072,
                0.7111808061599731,
                0.12819325923919679,
                -0.4769882261753082,
                -0.8283045887947083,
                -0.8950995802879334,
                0.4602605998516083,
                -0.2645513713359833,
                -0.9872630834579468,
                0.029595091938972474,
                -0.6368145942687988,
                -0.10872086882591248,
                -0.39667969942092898,
                0.38197585940361025,
                -0.08472312986850739,
                -0.3093673884868622,
                -0.5585340261459351,
                -1.0000219345092774,
                0.5559839010238648,
                0.8178069591522217,
                -0.491435170173645,
                0.6031150221824646,
                -0.6869115829467773,
                0.7758472561836243,
                0.6931197047233582,
                0.8285781145095825,
                -0.965422511100769,
                0.3759852647781372,
                -0.7517741322517395,
                -0.35625284910202029,
                1.1383997201919556,
                0.6782647967338562,
                -1.4680746793746949,
                0.10392603278160095,
                -1.8847044706344605,
                1.09391188621521,
                -0.3155466318130493,
                -0.3800146281719208,
                -0.3747127652168274,
                1.5688892602920533,
                -0.010100215673446656,
                -1.2571158409118653,
                -1.5526762008666993,
                -0.9811495542526245,
                -0.5090166330337524,
                -1.113714337348938,
                0.24283233284950257
            ],
            "fitness": 35.078887939453128,
            "npcType": 1,
            "outputLockStatus": [
                false,
                false,
                false,
                false
            ]
        },
        {
            "layers": [
                8,
                8,
                6,
                4
            ],
            "flattenedWeights": [
                -0.7146139144897461,
                0.1860193908214569,
                1.146960973739624,
                0.4568817615509033,
                1.2155464887619019,
                0.3669121265411377,
                -1.01806640625,
                -0.501398503780365,
                -0.27230191230773928,
                -0.8583446741104126,
                0.24548053741455079,
                -1.3865923881530762,
                -0.26729193329811098,
                -0.42998936772346499,
                1.033339023590088,
                -0.9911326766014099,
                1.0052012205123902,
                -1.061079978942871,
                -0.36316046118736269,
                -0.10293074697256088,
                -0.02803676947951317,
                -0.521379292011261,
                1.1397477388381959,
                0.2355343997478485,
                -1.1076381206512452,
                -0.5289288759231567,
                -0.34436240792274477,
                -0.5527219772338867,
                -0.30649226903915408,
                -0.2380693256855011,
                -0.46765679121017458,
                0.6541001200675964,
                -0.19443438947200776,
                0.8701676726341248,
                0.41607481241226199,
                -0.1289379894733429,
                -0.8113152980804443,
                -0.7630377411842346,
                -1.142323613166809,
                0.26382243633270266,
                0.3833483159542084,
                -1.2460944652557374,
                -0.687181830406189,
                -0.7129052877426148,
                0.2655946612358093,
                -0.8530360460281372,
                0.11124356836080551,
                -1.3089544773101807,
                -0.36113691329956057,
                -0.05425352603197098,
                0.29510563611984255,
                -0.724776029586792,
                -1.8394452333450318,
                -0.35272398591041567,
                0.9894074201583862,
                0.08433756232261658,
                1.0987364053726197,
                0.15453214943408967,
                0.04505912959575653,
                1.4477206468582154,
                -0.648981511592865,
                -1.0117398500442505,
                0.07771938294172287,
                0.4935985505580902,
                -0.853369951248169,
                0.9799908995628357,
                -0.5894038081169128,
                -0.23473799228668214,
                0.3675597608089447,
                0.3877177834510803,
                0.15315808355808259,
                -0.4059620499610901,
                1.0291520357131959,
                -0.5211877226829529,
                -0.03793411701917648,
                -0.5263206362724304,
                -0.46536877751350405,
                -0.8701974153518677,
                1.4922966957092286,
                0.7468197345733643,
                -0.03501374274492264,
                -0.2705726623535156,
                -1.2266266345977784,
                0.26503974199295046,
                1.5716358423233033,
                0.599942147731781,
                0.5453898906707764,
                0.7579755187034607,
                -0.10654927790164948,
                -0.5050523281097412,
                0.7156540751457214,
                0.11650493741035462,
                -0.4244268238544464,
                -0.7153569459915161,
                -0.8023843765258789,
                0.37914374470710757,
                -0.0887361466884613,
                -0.9153622388839722,
                0.06033381074666977,
                -0.5704923868179321,
                -0.35218966007232668,
                -0.5380855798721314,
                0.40238773822784426,
                -0.12919196486473084,
                -0.18304577469825746,
                -0.6000272631645203,
                -0.9482403993606567,
                0.50278240442276,
                0.8333449959754944,
                -0.491435170173645,
                0.5443216562271118,
                -0.6218437552452087,
                0.6695549488067627,
                0.6245654821395874,
                0.8651735186576843,
                -1.0186021327972413,
                0.4177686274051666,
                -0.6613258719444275,
                -0.31046628952026369,
                1.0454952716827393,
                0.6225253939628601,
                -1.5331149101257325,
                -0.002445235848426819,
                -1.8515241146087647,
                1.306004524230957,
                -0.3155466318130493,
                -0.5436883568763733,
                -0.35341376066207888,
                1.5395236015319825,
                0.08597231656312943,
                -1.2391419410705567,
                -1.5526762008666993,
                -0.9609327912330627,
                -0.4767352342605591,
                -1.113714337348938,
                0.236925408244133
            ],
            "fitness": 35.06634521484375,
            "npcType": 1,
            "outputLockStatus": [
                false,
                false,
                false,
                false
            ]
        },
        {
            "layers": [
                8,
                8,
                6,
                4
            ],
            "flattenedWeights": [
                -0.7142184376716614,
                0.08400814980268479,
                1.146960973739624,
                0.49989932775497439,
                1.2155464887619019,
                0.35460102558135989,
                -1.093727469444275,
                -0.6512187719345093,
                -0.23247283697128297,
                -0.8659830689430237,
                0.168744757771492,
                -1.1523950099945069,
                -0.2420654594898224,
                -0.46871402859687807,
                1.1322180032730103,
                -0.8725693821907044,
                1.0094817876815797,
                -1.149666666984558,
                -0.26662513613700869,
                -0.06877334415912628,
                -0.025110576301813127,
                -0.6061900854110718,
                1.1745389699935914,
                0.2355343997478485,
                -1.0746475458145142,
                -0.41825205087661745,
                -0.2525445818901062,
                -0.38196778297424319,
                -0.1784525066614151,
                -0.22458738088607789,
                -0.4371539354324341,
                0.5561011433601379,
                -0.19902101159095765,
                0.9277534484863281,
                0.40283656120300295,
                -0.3619055449962616,
                -0.7893217206001282,
                -0.7943788170814514,
                -1.1048029661178589,
                0.31746602058410647,
                0.5864898562431336,
                -1.1260910034179688,
                -0.6133896112442017,
                -0.7129052877426148,
                0.2686980068683624,
                -0.6200301647186279,
                0.20012053847312928,
                -1.4668251276016236,
                -0.3731645345687866,
                -0.11235056817531586,
                0.23945927619934083,
                -0.5746280550956726,
                -1.798782467842102,
                -0.18248896300792695,
                1.277706265449524,
                0.11234065890312195,
                1.029938817024231,
                0.20990926027297975,
                0.04505912959575653,
                1.4970124959945679,
                -0.5776635408401489,
                -0.9716745615005493,
                0.0874260738492012,
                0.6801148653030396,
                -0.853369951248169,
                1.1511411666870118,
                -0.9050747752189636,
                -0.23473799228668214,
                0.444011390209198,
                0.40876704454421999,
                -0.08547951281070709,
                -0.24341526627540589,
                1.0291520357131959,
                -0.7365356683731079,
                0.01100458949804306,
                -0.5263206362724304,
                -0.4801483750343323,
                -0.9272054433822632,
                1.0844756364822388,
                0.9030916094779968,
                -0.08169539272785187,
                -0.35448601841926577,
                -1.2266266345977784,
                0.31206369400024416,
                1.7478928565979005,
                0.48646196722984316,
                0.5884633660316467,
                0.8357751369476318,
                0.16984976828098298,
                -0.5761911869049072,
                0.6964230537414551,
                0.09031371772289276,
                -0.5545086860656738,
                -0.8720674514770508,
                -0.8023843765258789,
                0.37914374470710757,
                -0.13675828278064729,
                -1.0915108919143677,
                0.0072013139724731449,
                -0.5015568733215332,
                -0.385843425989151,
                -0.3634454309940338,
                0.445455402135849,
                -0.08472312986850739,
                -0.3354374170303345,
                -0.6000272631645203,
                -0.9064171314239502,
                0.5980848073959351,
                0.8333449959754944,
                -0.491435170173645,
                0.5564822554588318,
                -0.49079179763793948,
                0.7026250958442688,
                0.6484234929084778,
                0.867899477481842,
                -0.9841843843460083,
                0.3660128116607666,
                -0.7041953206062317,
                -0.30913615226745608,
                1.0454952716827393,
                0.6225253939628601,
                -1.496267557144165,
                -0.0011499673128128052,
                -1.9391051530838013,
                1.3091439008712769,
                -0.3545403480529785,
                -0.37874478101730349,
                -0.35341376066207888,
                1.6567026376724244,
                0.10905713587999344,
                -1.0630613565444947,
                -1.3615540266036988,
                -1.0384432077407838,
                -0.48912885785102847,
                -1.0980662107467652,
                0.24283233284950257
            ],
            "fitness": 35.06351852416992,
            "npcType": 1,
            "outputLockStatus": [
                false,
                false,
                false,
                false
            ]
        },
        {
            "layers": [
                8,
                8,
                6,
                4
            ],
            "flattenedWeights": [
                -0.7061694264411926,
                0.08400814980268479,
                1.146960973739624,
                0.40063464641571047,
                1.2155464887619019,
                0.3669121265411377,
                -1.093727469444275,
                -0.6512187719345093,
                -0.23247283697128297,
                -0.8085282444953919,
                0.168744757771492,
                -1.262139916419983,
                -0.2420654594898224,
                -0.41616514325141909,
                1.033339023590088,
                -0.9446412324905396,
                1.0094817876815797,
                -1.0587763786315919,
                -0.26662513613700869,
                -0.06877334415912628,
                -0.02803676947951317,
                -0.6061900854110718,
                1.129949927330017,
                0.2355343997478485,
                -1.1470938920974732,
                -0.4003280699253082,
                -0.2525445818901062,
                -0.38471102714538576,
                -0.1803789734840393,
                -0.22458738088607789,
                -0.5076998472213745,
                0.6525924801826477,
                -0.1382351517677307,
                0.8296618461608887,
                0.41607481241226199,
                -0.32513895630836489,
                -0.7893217206001282,
                -0.6708407998085022,
                -1.142323613166809,
                0.31746602058410647,
                0.5661513209342957,
                -1.0659382343292237,
                -0.6133896112442017,
                -0.774236261844635,
                0.2686980068683624,
                -0.6200301647186279,
                0.21836455166339875,
                -1.3682774305343629,
                -0.3780732750892639,
                -0.13885989785194398,
                0.33559688925743105,
                -0.5746280550956726,
                -1.814197063446045,
                -0.22658273577690125,
                1.2038350105285645,
                0.08433756232261658,
                1.029938817024231,
                0.13783083856105805,
                0.13986128568649293,
                1.546398401260376,
                -0.6547702550888062,
                -0.9716745615005493,
                0.06578614562749863,
                0.6801148653030396,
                -0.853369951248169,
                1.1678433418273926,
                -0.9050747752189636,
                -0.23473799228668214,
                0.393711119890213,
                0.40876704454421999,
                -0.08547951281070709,
                -0.3220677077770233,
                1.0291520357131959,
                -0.7365356683731079,
                -0.06980276107788086,
                -0.5263206362724304,
                -0.429390549659729,
                -0.838161289691925,
                1.0285409688949586,
                0.9030916094779968,
                -0.08169539272785187,
                -0.2705726623535156,
                -1.2266266345977784,
                0.31206369400024416,
                1.7478928565979005,
                0.3948584794998169,
                0.5884633660316467,
                0.7579755187034607,
                0.0881228819489479,
                -0.5539743900299072,
                0.6964230537414551,
                0.09031371772289276,
                -0.5545086860656738,
                -0.853793740272522,
                -0.8023843765258789,
                0.37914374470710757,
                -0.13675828278064729,
                -1.0236858129501343,
                0.1503283679485321,
                -0.5015568733215332,
                -0.385843425989151,
                -0.4618680775165558,
                0.38197585940361025,
                -0.08472312986850739,
                -0.3354374170303345,
                -0.6000272631645203,
                -0.9064171314239502,
                0.5753999948501587,
                0.8222310543060303,
                -0.491435170173645,
                0.5564822554588318,
                -0.49942547082901,
                0.7026250958442688,
                0.6484234929084778,
                0.790384829044342,
                -0.9841843843460083,
                0.2950425446033478,
                -0.7041953206062317,
                -0.30913615226745608,
                0.9729911088943481,
                0.6225253939628601,
                -1.525099754333496,
                -0.0011499673128128052,
                -1.942373275756836,
                1.3091439008712769,
                -0.260919451713562,
                -0.4741590619087219,
                -0.35341376066207888,
                1.6614617109298707,
                0.08597231656312943,
                -1.0775799751281739,
                -1.3615540266036988,
                -0.9748279452323914,
                -0.48912885785102847,
                -1.1503593921661378,
                0.24283233284950257
            ],
            "fitness": 35.04684829711914,
            "npcType": 1,
            "outputLockStatus": [
                false,
                false,
                false,
                false
            ]
        }
    ],
    "timestamp": "2025-05-12 14:23:30"
}