{
    "generation": 770,
    "bestFitness": 83.92243957519531,
    "averageFitness": 28.166786193847658,
    "worstFitness": 0.0,
    "networks": [
        {
            "layers": [
                8,
                8,
                6,
                4
            ],
            "flattenedWeights": [
                -1.0246777534484864,
                1.364254355430603,
                2.0961549282073976,
                -0.4037041962146759,
                2.022286891937256,
                1.1916886568069459,
                -1.7650586366653443,
                -1.2352794408798218,
                1.5385451316833497,
                0.05087876319885254,
                0.5156654119491577,
                -0.2078389823436737,
                -1.3899716138839722,
                0.32222452759742739,
                0.9446135759353638,
                -0.5206441283226013,
                2.7314975261688234,
                -0.4765359163284302,
                0.12307853996753693,
                -0.11622022092342377,
                0.02668195217847824,
                -0.8761276602745056,
                0.32212021946907046,
                0.5562859177589417,
                -1.1797353029251099,
                0.09635975956916809,
                0.07396860420703888,
                -0.9903458952903748,
                -1.6925164461135865,
                -0.1359761655330658,
                0.7602686285972595,
                1.6204053163528443,
                -1.9405772686004639,
                0.4823071360588074,
                1.2718682289123536,
                -0.4736592173576355,
                -0.5299578905105591,
                1.000011682510376,
                -0.9867988228797913,
                -0.1710101068019867,
                0.8552623987197876,
                -1.8047845363616944,
                -0.9725332856178284,
                -2.2560153007507326,
                0.06995794922113419,
                -0.6497626900672913,
                1.341380000114441,
                -0.7586973905563355,
                -1.1868914365768433,
                -1.052018165588379,
                0.456617146730423,
                -1.8601255416870118,
                -4.462120532989502,
                -1.8324800729751588,
                0.47751951217651369,
                -0.17565225064754487,
                1.7120907306671143,
                0.6052614450454712,
                0.17100033164024354,
                1.5958331823349,
                -0.5904436111450195,
                -3.431546926498413,
                -0.6897554993629456,
                1.49506676197052,
                -0.47860953211784365,
                1.9224721193313599,
                0.49217042326927187,
                -0.4854908287525177,
                -0.8002113103866577,
                -0.47960907220840456,
                1.329533576965332,
                1.391530990600586,
                1.506443977355957,
                -0.646430253982544,
                0.7031158208847046,
                -0.7870044708251953,
                -1.6092751026153565,
                -1.1098053455352784,
                0.2749128043651581,
                -0.07467959076166153,
                0.07772045582532883,
                -0.8008696436882019,
                -3.4945666790008547,
                0.1068044975399971,
                2.0025711059570314,
                0.6827801465988159,
                1.1194745302200318,
                0.6176040172576904,
                1.1234965324401856,
                0.2584274411201477,
                0.4944971203804016,
                0.5390092730522156,
                -0.4947330355644226,
                -0.8157967925071716,
                1.2927844524383546,
                0.7218917608261108,
                -0.3744700849056244,
                -0.8821173310279846,
                0.017963401973247529,
                -2.3647217750549318,
                -1.0849876403808594,
                -1.1928131580352784,
                0.6821320056915283,
                0.22940926253795625,
                -0.8729738593101502,
                -2.057910919189453,
                -0.3275024890899658,
                0.1439475119113922,
                -0.13440346717834474,
                0.05863215774297714,
                1.1967402696609498,
                -0.3931567966938019,
                0.8237040638923645,
                0.3043249249458313,
                0.42172980308532717,
                -1.803000807762146,
                -0.202238529920578,
                -1.081463098526001,
                -1.0734423398971558,
                0.19584089517593385,
                1.3582684993743897,
                -2.023878812789917,
                0.9568294286727905,
                -2.4538445472717287,
                0.5233273506164551,
                -0.8777667284011841,
                -0.6877765655517578,
                -0.10854484885931015,
                2.2799906730651857,
                -0.48317280411720278,
                -0.38284096121788027,
                -0.8219797611236572,
                -0.5638616681098938,
                -1.618345022201538,
                -2.077918767929077,
                0.7833483815193176
            ],
            "fitness": 83.92243957519531,
            "npcType": 1,
            "outputLockStatus": [
                false,
                false,
                false,
                false
            ]
        },
        {
            "layers": [
                8,
                8,
                6,
                4
            ],
            "flattenedWeights": [
                -1.1639348268508912,
                1.2846630811691285,
                2.0986363887786867,
                -0.4037041962146759,
                2.022286891937256,
                1.4528727531433106,
                -1.847013235092163,
                -1.244750738143921,
                1.580081582069397,
                -0.03145589679479599,
                0.5931698083877564,
                -0.2078389823436737,
                -1.38254714012146,
                0.32222452759742739,
                0.9992318153381348,
                -0.5318334698677063,
                2.415440797805786,
                -0.4276488721370697,
                0.12307853996753693,
                -0.14946062862873078,
                0.18327927589416505,
                -0.8915194272994995,
                0.32212021946907046,
                0.47529134154319765,
                -1.1750681400299073,
                0.09635975956916809,
                -0.17008450627326966,
                -1.0237679481506348,
                -1.6224677562713624,
                -0.1359761655330658,
                0.7491242289543152,
                1.4406458139419556,
                -1.9405772686004639,
                0.4823071360588074,
                1.0956064462661744,
                -0.4736592173576355,
                -0.5299578905105591,
                0.9629005193710327,
                -1.0045454502105713,
                -0.10843698680400849,
                0.9256097078323364,
                -1.8486419916152955,
                -0.9725332856178284,
                -2.329864501953125,
                0.2257869392633438,
                -0.6026113033294678,
                1.341380000114441,
                -0.8056421279907227,
                -1.1868914365768433,
                -1.1146109104156495,
                0.5375616550445557,
                -1.8601255416870118,
                -4.5298309326171879,
                -1.8562629222869874,
                0.47751951217651369,
                -0.2719593048095703,
                1.8563308715820313,
                0.6052614450454712,
                0.06560982018709183,
                1.5958331823349,
                -0.5904436111450195,
                -3.5076651573181154,
                -0.6897554993629456,
                1.460003137588501,
                -0.5755501389503479,
                1.9224721193313599,
                0.4287218451499939,
                -0.39205989241600039,
                -0.8002113103866577,
                -0.47960907220840456,
                1.329533576965332,
                1.391530990600586,
                1.5193171501159669,
                -0.7360785007476807,
                0.7568747997283936,
                -0.8426811695098877,
                -1.6511386632919312,
                -1.047131896018982,
                0.2749128043651581,
                -0.07467959076166153,
                0.07772045582532883,
                -0.8008696436882019,
                -3.4945666790008547,
                0.1068044975399971,
                2.0025711059570314,
                0.6827801465988159,
                1.1298630237579346,
                0.6176040172576904,
                1.0481442213058472,
                0.2584274411201477,
                0.5690541863441467,
                0.4159611761569977,
                -0.5544260740280151,
                -0.8157967925071716,
                1.2927844524383546,
                0.7218917608261108,
                -0.3429979383945465,
                -0.8351423740386963,
                0.017963401973247529,
                -2.3647217750549318,
                -1.0849876403808594,
                -1.2092688083648682,
                0.6821320056915283,
                0.2818104028701782,
                -0.7944179177284241,
                -2.092130184173584,
                -0.3275024890899658,
                0.13858351111412049,
                -0.13440346717834474,
                0.05863215774297714,
                1.1634777784347535,
                -0.36788061261177065,
                0.8237040638923645,
                0.09491867572069168,
                0.4757860004901886,
                -1.7930437326431275,
                -0.202238529920578,
                -1.081463098526001,
                -1.0734423398971558,
                0.19786305725574494,
                1.4211926460266114,
                -2.154350757598877,
                0.822837769985199,
                -2.4538445472717287,
                0.45417314767837527,
                -0.8777667284011841,
                -0.6877765655517578,
                -0.18873199820518495,
                2.2799906730651857,
                -0.6513237953186035,
                -0.36941784620285036,
                -0.8867918848991394,
                -0.5933758616447449,
                -1.5886330604553223,
                -2.077918767929077,
                0.9495968222618103
            ],
            "fitness": 80.99539947509766,
            "npcType": 1,
            "outputLockStatus": [
                false,
                false,
                false,
                false
            ]
        },
        {
            "layers": [
                8,
                8,
                6,
                4
            ],
            "flattenedWeights": [
                -1.0771629810333253,
                1.2300564050674439,
                2.069488525390625,
                -0.4402031898498535,
                1.801013469696045,
                1.295206069946289,
                -1.9356117248535157,
                -1.1948819160461426,
                1.457674264907837,
                0.03724460303783417,
                0.7627894878387451,
                -0.09540541470050812,
                -1.3115383386611939,
                0.4335046708583832,
                0.9009181261062622,
                -0.20797604322433473,
                2.720283031463623,
                -0.48421961069107058,
                0.038359664380550387,
                -0.04723428934812546,
                -0.0231485515832901,
                -0.837724506855011,
                0.5212715864181519,
                0.5003630518913269,
                -1.2311607599258423,
                0.22289599478244782,
                -0.032684337347745898,
                -1.036892056465149,
                -1.7009893655776978,
                -0.16964302957057954,
                0.684786319732666,
                1.6070334911346436,
                -1.9405772686004639,
                0.48656558990478518,
                0.9729970693588257,
                -0.6624807119369507,
                -0.5316056609153748,
                1.0603946447372437,
                -0.9867988228797913,
                -0.2724037170410156,
                0.9394609332084656,
                -1.9966785907745362,
                -0.9144166707992554,
                -2.5445499420166017,
                0.10754024982452393,
                -0.6869884729385376,
                1.5099668502807618,
                -1.0439618825912476,
                -1.176085352897644,
                -1.2489244937896729,
                0.41198110580444338,
                -1.8237258195877076,
                -4.370107650756836,
                -1.5046374797821046,
                0.22428563237190247,
                -0.17859332263469697,
                1.7120907306671143,
                0.6052614450454712,
                0.05956126004457474,
                1.5958331823349,
                -0.5904436111450195,
                -3.4833388328552248,
                -0.44065356254577639,
                1.5287342071533204,
                -0.3595277965068817,
                1.856674075126648,
                0.4868098497390747,
                -0.4854908287525177,
                -0.7622972130775452,
                -0.6281423568725586,
                1.2661582231521607,
                1.1428496837615967,
                1.4325177669525147,
                -0.7213873267173767,
                0.8051694631576538,
                -0.6120219230651856,
                -1.595292329788208,
                -1.117832899093628,
                0.2310207486152649,
                -0.15621092915534974,
                0.07772045582532883,
                -0.9594785571098328,
                -3.52078914642334,
                0.06934963911771774,
                2.134944200515747,
                0.6697044372558594,
                1.0599021911621094,
                0.5669761896133423,
                1.0681989192962647,
                0.028733551502227784,
                0.3468196392059326,
                0.3166475296020508,
                -0.6604488492012024,
                -0.9472334384918213,
                1.1048340797424317,
                0.9132405519485474,
                -0.23811113834381104,
                -0.9353030323982239,
                -0.04262682422995567,
                -2.2195398807525636,
                -1.0828323364257813,
                -1.259251594543457,
                0.8096886873245239,
                0.2611612379550934,
                -1.0235439538955689,
                -2.0331881046295168,
                -0.24265539646148683,
                0.1469888985157013,
                0.11447050422430039,
                0.06448521465063095,
                1.2477972507476807,
                -0.34206146001815798,
                0.912870466709137,
                0.2540861964225769,
                0.7310417294502258,
                -1.585638165473938,
                -0.3021039664745331,
                -1.164141297340393,
                -1.0985296964645386,
                0.24031877517700196,
                1.3838098049163819,
                -1.9797950983047486,
                0.7215484976768494,
                -2.5501012802124025,
                0.755695104598999,
                -0.8981014490127564,
                -0.6185075044631958,
                -0.12925985455513,
                2.171041965484619,
                -0.6616217494010925,
                -0.3488982617855072,
                -0.8867918848991394,
                -0.6910069584846497,
                -1.618345022201538,
                -1.9750821590423585,
                0.9444096088409424
            ],
            "fitness": 77.50560760498047,
            "npcType": 1,
            "outputLockStatus": [
                false,
                false,
                false,
                false
            ]
        },
        {
            "layers": [
                8,
                8,
                6,
                4
            ],
            "flattenedWeights": [
                0.2285362184047699,
                1.2134255170822144,
                -0.9858942627906799,
                0.6358607411384583,
                -0.7838496565818787,
                0.1631290316581726,
                1.553021788597107,
                0.3361814022064209,
                1.6671513319015504,
                0.8736261129379273,
                -2.985905885696411,
                -1.1617763042449952,
                2.723423719406128,
                0.9547905921936035,
                -0.6490538120269775,
                -0.3497682213783264,
                -0.42736026644706728,
                0.8266844749450684,
                -1.2967355251312256,
                -0.34937378764152529,
                -1.0698941946029664,
                1.930141806602478,
                0.22951740026474,
                0.7721725106239319,
                -0.8138720393180847,
                -0.28036999702453616,
                0.9022826552391052,
                -0.530572235584259,
                1.5587574243545533,
                -0.3685639798641205,
                -0.3290286660194397,
                -0.41358575224876406,
                -0.7196967601776123,
                0.18643982708454133,
                0.1524084210395813,
                0.6149328947067261,
                0.12756188213825227,
                1.1694824695587159,
                0.8551669716835022,
                -1.183794617652893,
                0.6292700171470642,
                -2.698225259780884,
                0.7577687501907349,
                0.13077503442764283,
                -0.37355080246925356,
                1.0654619932174683,
                1.2287288904190064,
                0.2307078242301941,
                -0.05562759190797806,
                2.6578445434570314,
                -0.4737919569015503,
                -1.145684838294983,
                1.213718295097351,
                0.7048031687736511,
                0.5942001938819885,
                -1.4675512313842774,
                1.0313756465911866,
                0.2480875551700592,
                1.3896219730377198,
                1.1822857856750489,
                0.9277623295783997,
                1.5368139743804932,
                -0.15020915865898133,
                -0.9062072038650513,
                -0.6975811719894409,
                2.288341522216797,
                -0.5616477727890015,
                -1.4075419902801514,
                0.6858330368995667,
                -0.7987630367279053,
                0.7824524641036987,
                -1.4017835855484009,
                -1.0225404500961304,
                0.5991741418838501,
                1.5207217931747437,
                -0.6436417102813721,
                0.93483966588974,
                -1.248822569847107,
                -0.016653358936309816,
                -0.8771204948425293,
                0.5080127716064453,
                1.5870317220687867,
                -1.0730382204055787,
                -0.64710533618927,
                0.7022640109062195,
                0.5406657457351685,
                1.3437944650650025,
                1.8196427822113038,
                -0.6956196427345276,
                0.2702402174472809,
                -0.3262353539466858,
                -0.9271655678749085,
                0.09470206499099732,
                2.3620638847351076,
                1.341963768005371,
                1.679017424583435,
                2.2913637161254885,
                1.2338565587997437,
                -0.8452645540237427,
                0.27440857887268069,
                -1.1074141263961793,
                -1.8282753229141236,
                -0.023292511701583864,
                0.49524980783462527,
                -1.9823514223098755,
                0.27834513783454897,
                -0.9314858913421631,
                1.3900461196899415,
                -0.38995519280433657,
                -1.7407673597335816,
                -1.7736738920211793,
                -0.11222474277019501,
                -0.49829837679862978,
                0.1487017273902893,
                1.120692491531372,
                -1.0162409543991089,
                0.5198943614959717,
                2.6177127361297609,
                -0.10061151534318924,
                1.000288724899292,
                0.7020636796951294,
                -0.10413899272680283,
                0.31230586767196658,
                0.45451512932777407,
                -0.05983804911375046,
                -0.5983402132987976,
                -1.212534785270691,
                -1.0824092626571656,
                0.0005489066243171692,
                1.14425528049469,
                -0.8792789578437805,
                -1.872243046760559,
                1.169990062713623,
                -0.13400793075561524,
                1.379457950592041,
                0.19156882166862489
            ],
            "fitness": 74.91453552246094,
            "npcType": 0,
            "outputLockStatus": [
                false,
                false,
                false,
                false
            ]
        },
        {
            "layers": [
                8,
                8,
                6,
                4
            ],
            "flattenedWeights": [
                -1.1541309356689454,
                1.3504481315612794,
                2.1538827419281008,
                -0.4037041962146759,
                1.860770344734192,
                1.2516905069351197,
                -1.8212041854858399,
                -1.29932701587677,
                1.580081582069397,
                -0.03145589679479599,
                0.5931698083877564,
                -0.2078389823436737,
                -1.402230978012085,
                0.43373462557792666,
                0.9342640042304993,
                -0.29559335112571719,
                2.4876720905303957,
                -0.34056583046913149,
                0.04265664145350456,
                -0.04723428934812546,
                -0.10513957589864731,
                -1.0140721797943116,
                0.37682560086250307,
                0.4883924126625061,
                -1.1589428186416627,
                0.1319735050201416,
                -0.048332225531339648,
                -1.02778160572052,
                -1.6224677562713624,
                -0.14961722493171693,
                0.7025322318077087,
                1.6204053163528443,
                -1.8399245738983155,
                0.48382043838500979,
                1.0944656133651734,
                -0.6982150077819824,
                -0.41573429107666018,
                1.1086145639419556,
                -1.1426506042480469,
                -0.2658711373806,
                0.903979480266571,
                -1.9009053707122803,
                -1.0113322734832764,
                -2.4006688594818117,
                0.029547356069087983,
                -0.6954579949378967,
                1.4257299900054932,
                -1.1106481552124024,
                -1.0902159214019776,
                -1.2938529253005982,
                0.41811761260032656,
                -1.862524151802063,
                -4.362735748291016,
                -1.6823127269744874,
                0.5318250060081482,
                -0.2014487385749817,
                1.8563308715820313,
                0.7516194581985474,
                0.18697550892829896,
                1.6296696662902833,
                -0.6876476407051086,
                -3.4180891513824465,
                -0.7391422390937805,
                1.3955193758010865,
                -0.5252686738967896,
                1.677385926246643,
                0.37005242705345156,
                -0.5291277170181274,
                -0.7553728222846985,
                -0.5713510513305664,
                1.249997615814209,
                1.3296971321105958,
                1.6685643196105958,
                -0.6677921414375305,
                0.7623966932296753,
                -0.8741198778152466,
                -1.5907788276672364,
                -1.0944710969924927,
                0.2310207486152649,
                -0.11872415244579315,
                -0.3035675883293152,
                -0.8008696436882019,
                -3.351637363433838,
                0.06169336289167404,
                2.0215933322906496,
                0.6697044372558594,
                1.103079080581665,
                0.507788360118866,
                1.0481442213058472,
                0.13154244422912599,
                0.41032540798187258,
                0.2846149802207947,
                -0.5726766586303711,
                -0.8573536276817322,
                1.2932363748550416,
                0.6850053071975708,
                -0.24563750624656678,
                -0.8821173310279846,
                0.22994932532310487,
                -2.3647217750549318,
                -1.0809516906738282,
                -1.2184263467788697,
                0.7593609094619751,
                0.28476482629776,
                -1.0181483030319214,
                -2.1831610202789308,
                -0.4200951159000397,
                0.04659988731145859,
                0.0876295268535614,
                0.1490953266620636,
                1.0807104110717774,
                -0.41818156838417055,
                0.7707382440567017,
                0.1964438259601593,
                0.48748427629470827,
                -1.7879074811935425,
                -0.09672359377145767,
                -0.8855960965156555,
                -1.050466537475586,
                0.025383360683918,
                1.528710961341858,
                -1.980468988418579,
                0.8749544024467468,
                -2.5501012802124025,
                0.6213011145591736,
                -0.9316515922546387,
                -0.707095205783844,
                -0.18873199820518495,
                2.1369094848632814,
                -0.49727848172187807,
                -0.14799347519874574,
                -0.8255157470703125,
                -0.6680929660797119,
                -1.618345022201538,
                -2.0861165523529054,
                0.8585993647575378
            ],
            "fitness": 68.24040222167969,
            "npcType": 1,
            "outputLockStatus": [
                false,
                false,
                false,
                false
            ]
        },
        {
            "layers": [
                8,
                8,
                6,
                4
            ],
            "flattenedWeights": [
                -0.9821510314941406,
                1.364254355430603,
                2.080498218536377,
                -0.41013747453689577,
                2.022286891937256,
                1.2764720916748047,
                -1.7982898950576783,
                -1.164921760559082,
                1.5330942869186402,
                -0.03145589679479599,
                0.5931698083877564,
                -0.22346758842468263,
                -1.3953862190246583,
                0.49037474393844607,
                1.150366187095642,
                -0.5318334698677063,
                2.5760769844055177,
                -0.4456460177898407,
                0.12307853996753693,
                -0.14946062862873078,
                0.024593815207481386,
                -0.8671138286590576,
                0.2781437039375305,
                0.4472912549972534,
                -1.2779031991958619,
                0.17317134141921998,
                -0.08064606785774231,
                -1.0619139671325684,
                -1.6224677562713624,
                -0.1359761655330658,
                0.6938424110412598,
                1.5394001007080079,
                -1.9405772686004639,
                0.4341045022010803,
                1.1399470567703248,
                -0.47014546394348147,
                -0.5765227675437927,
                1.1089712381362916,
                -1.0769444704055787,
                -0.14903579652309419,
                0.851610004901886,
                -1.8909504413604737,
                -0.9465696811676025,
                -2.33404803276062,
                0.029547356069087983,
                -0.7608552575111389,
                1.418649435043335,
                -0.7581595778465271,
                -1.1868914365768433,
                -1.2875505685806275,
                0.48076605796813967,
                -1.9408141374588013,
                -4.43837833404541,
                -1.6631256341934205,
                0.5264131426811218,
                -0.23110711574554444,
                1.8563308715820313,
                0.6052614450454712,
                0.18227192759513856,
                1.645159125328064,
                -0.5136300921440125,
                -3.3174750804901125,
                -0.4169638156890869,
                1.460003137588501,
                -0.5064645409584045,
                1.7209241390228272,
                0.5281665921211243,
                -0.43488964438438418,
                -0.8002113103866577,
                -0.47960907220840456,
                1.272498369216919,
                1.242788314819336,
                1.499359130859375,
                -0.8062634468078613,
                0.790631115436554,
                -0.6634830236434937,
                -1.6511386632919312,
                -1.047131896018982,
                0.29749631881713869,
                -0.0050886571407318119,
                -0.2516404390335083,
                -0.8719052672386169,
                -3.4507675170898439,
                0.1068044975399971,
                2.169863700866699,
                0.6529293060302734,
                1.1298630237579346,
                0.544420599937439,
                1.1291861534118653,
                0.14677217602729798,
                0.4411448538303375,
                0.4649971127510071,
                -0.50578773021698,
                -0.8909369707107544,
                1.0621716976165772,
                0.8204280138015747,
                -0.25344809889793398,
                -0.8740639686584473,
                0.017963401973247529,
                -2.3345556259155275,
                -1.0809516906738282,
                -1.2184263467788697,
                0.7258009910583496,
                0.197235107421875,
                -1.0181483030319214,
                -2.092130184173584,
                -0.27033117413520815,
                0.13858351111412049,
                0.04968657344579697,
                0.05863215774297714,
                1.1604942083358765,
                -0.3931567966938019,
                0.903065025806427,
                0.1964438259601593,
                0.48313939571380618,
                -1.7879074811935425,
                -0.09672359377145767,
                -1.081463098526001,
                -1.0636764764785767,
                0.19584089517593385,
                1.340501308441162,
                -2.1331188678741457,
                0.8749544024467468,
                -2.4538445472717287,
                0.6049968600273132,
                -0.854438841342926,
                -0.7392647862434387,
                -0.187986820936203,
                2.227696418762207,
                -0.6616217494010925,
                -0.2757323980331421,
                -0.8836598992347717,
                -0.5712720155715942,
                -1.6552785634994507,
                -2.077918767929077,
                0.8585993647575378
            ],
            "fitness": 57.87068176269531,
            "npcType": 1,
            "outputLockStatus": [
                false,
                false,
                false,
                false
            ]
        },
        {
            "layers": [
                8,
                8,
                6,
                4
            ],
            "flattenedWeights": [
                -1.1759933233261109,
                1.312888741493225,
                1.9502873420715333,
                -0.3795754313468933,
                2.0867395401000978,
                1.2033679485321046,
                -1.7982898950576783,
                -1.244750738143921,
                1.580081582069397,
                -0.03145589679479599,
                0.5931698083877564,
                -0.2334272861480713,
                -1.402230978012085,
                0.49037474393844607,
                1.1264885663986207,
                -0.5318334698677063,
                2.45279598236084,
                -0.4276488721370697,
                0.04265664145350456,
                0.03778181970119476,
                -0.0231485515832901,
                -0.9091613292694092,
                0.2781437039375305,
                0.4472912549972534,
                -1.2470958232879639,
                0.1319735050201416,
                -0.08064606785774231,
                -0.9850816130638123,
                -1.6428557634353638,
                -0.14961722493171693,
                0.551613986492157,
                1.6204053163528443,
                -1.688853144645691,
                0.5094307661056519,
                1.0404049158096314,
                -0.4444693624973297,
                -0.5765227675437927,
                1.1577025651931763,
                -0.9870744943618774,
                -0.14903579652309419,
                0.9454337954521179,
                -1.811816930770874,
                -0.9479804635047913,
                -2.4006688594818117,
                0.029547356069087983,
                -0.7348551750183106,
                1.586139440536499,
                -0.8056421279907227,
                -1.2768009901046754,
                -1.2875505685806275,
                0.5201061367988586,
                -1.9726554155349732,
                -4.449751853942871,
                -1.6631256341934205,
                0.45710912346839907,
                -0.23110711574554444,
                1.7847129106521607,
                0.8654584884643555,
                0.1329645812511444,
                1.645159125328064,
                -0.74885493516922,
                -3.4180891513824465,
                -0.45623579621315,
                1.460003137588501,
                -0.5064645409584045,
                1.805414080619812,
                0.30267390608787539,
                -0.4537373185157776,
                -0.8002113103866577,
                -0.6527165174484253,
                1.249997615814209,
                1.4028953313827515,
                1.499359130859375,
                -0.628385066986084,
                0.72922283411026,
                -0.7896712422370911,
                -1.6380153894424439,
                -1.169899582862854,
                0.4108837842941284,
                -0.20318704843521119,
                -0.3035675883293152,
                -0.7942128777503967,
                -3.4507675170898439,
                -0.0032639652490615846,
                2.0771443843841554,
                0.6546240448951721,
                1.1899536848068238,
                0.47067689895629885,
                1.0353442430496216,
                0.061701253056526187,
                0.5790820717811585,
                0.4649971127510071,
                -0.5726766586303711,
                -0.837791383266449,
                1.2795264720916749,
                0.6599389314651489,
                -0.3020734190940857,
                -0.8501322865486145,
                0.15050408244132996,
                -2.359654426574707,
                -1.0809516906738282,
                -1.2184263467788697,
                0.7593609094619751,
                0.197235107421875,
                -1.0181483030319214,
                -2.092130184173584,
                -0.1318047046661377,
                0.11651138961315155,
                -0.0482773557305336,
                0.05863215774297714,
                1.3173390626907349,
                -0.4132024943828583,
                0.903065025806427,
                0.12220192700624466,
                0.48748427629470827,
                -1.7879074811935425,
                -0.09672359377145767,
                -1.081463098526001,
                -1.0219100713729859,
                0.10687282681465149,
                1.340501308441162,
                -1.9919841289520264,
                0.8749544024467468,
                -2.4538445472717287,
                0.5989441871643066,
                -0.8677918314933777,
                -0.7007832527160645,
                -0.12213818728923798,
                2.0981342792510988,
                -0.575247585773468,
                -0.2966632843017578,
                -0.8978067636489868,
                -0.6323913931846619,
                -1.618345022201538,
                -2.2349050045013429,
                0.8585993647575378
            ],
            "fitness": 55.54817581176758,
            "npcType": 1,
            "outputLockStatus": [
                false,
                false,
                false,
                false
            ]
        },
        {
            "layers": [
                8,
                8,
                6,
                4
            ],
            "flattenedWeights": [
                0.16891977190971375,
                1.3340175151824952,
                -1.0325649976730347,
                0.6358607411384583,
                -0.770390510559082,
                0.3369646370410919,
                1.5627323389053345,
                0.3361814022064209,
                1.7776397466659547,
                0.948081374168396,
                -2.9380455017089845,
                -1.1303271055221558,
                2.699502944946289,
                0.8142251968383789,
                -0.6512652039527893,
                -0.3497682213783264,
                -0.298139750957489,
                0.8119581937789917,
                -1.205644965171814,
                -0.5578593611717224,
                -0.7614969611167908,
                2.0028886795043947,
                0.3062117397785187,
                0.8228877186775208,
                -0.8494217395782471,
                -0.06960728019475937,
                0.9022826552391052,
                -0.5690097808837891,
                1.6606277227401734,
                -0.21457603573799134,
                -0.43518444895744326,
                -0.4721136689186096,
                -0.7196967601776123,
                0.23648422956466676,
                0.08779716491699219,
                0.5981577634811401,
                0.03675217181444168,
                1.3498787879943848,
                1.1464602947235108,
                -1.1535407304763795,
                0.4927869141101837,
                -2.8495757579803469,
                0.8661560416221619,
                0.25426119565963747,
                -0.4793674945831299,
                0.9954721331596375,
                1.249566674232483,
                0.249528706073761,
                -0.1555033028125763,
                2.5624802112579347,
                -0.34074002504348757,
                -1.0013898611068726,
                1.2817312479019166,
                0.6212241053581238,
                0.5906938314437866,
                -1.5521801710128785,
                1.0439910888671876,
                0.1862335205078125,
                1.2404980659484864,
                1.1130387783050538,
                0.8615824580192566,
                1.3456041812896729,
                -0.24719831347465516,
                -0.9702090620994568,
                -0.6327657699584961,
                2.373906135559082,
                -0.5329767465591431,
                -1.2985783815383912,
                0.688091516494751,
                -0.6764575242996216,
                0.7835081219673157,
                -1.5199165344238282,
                -1.0442253351211548,
                0.49036845564842226,
                1.3803576231002808,
                -0.6618778109550476,
                0.8891749382019043,
                -1.5208301544189454,
                -0.09390784054994583,
                -0.805848240852356,
                0.4730270504951477,
                1.5870317220687867,
                -0.9820297360420227,
                -0.5322057604789734,
                0.2829861342906952,
                0.512506902217865,
                1.224357008934021,
                1.9984837770462037,
                -0.7662621736526489,
                0.17071875929832459,
                -0.34008485078811648,
                -0.8978978991508484,
                0.0566197969019413,
                2.348104476928711,
                1.629625916481018,
                1.693716049194336,
                2.1827614307403566,
                1.0355799198150635,
                -0.8093460202217102,
                0.35910463333129885,
                -1.1280547380447388,
                -1.6698366403579713,
                -0.06121236830949783,
                0.330087810754776,
                -1.9812816381454468,
                0.35132747888565066,
                -0.8316051959991455,
                1.6107934713363648,
                -0.3327018916606903,
                -2.097489595413208,
                -1.7652355432510377,
                -0.11455941200256348,
                -0.28006044030189516,
                0.1487017273902893,
                0.9224867224693298,
                -0.8177618980407715,
                0.3580526113510132,
                2.6542673110961916,
                -0.09134680777788162,
                0.9393145442008972,
                0.6976144909858704,
                -0.17698267102241517,
                0.5359131097793579,
                0.26931118965148928,
                0.09936517477035523,
                -0.6376639604568481,
                -1.2289183139801026,
                -1.0445919036865235,
                0.10211610794067383,
                1.0734505653381348,
                -0.9965804815292358,
                -1.8698546886444092,
                1.3167800903320313,
                0.003375507891178131,
                1.463091254234314,
                0.11863978207111359
            ],
            "fitness": 54.587913513183597,
            "npcType": 0,
            "outputLockStatus": [
                false,
                false,
                false,
                false
            ]
        },
        {
            "layers": [
                8,
                8,
                6,
                4
            ],
            "flattenedWeights": [
                0.2271358072757721,
                1.2843525409698487,
                -0.8958581686019898,
                0.7551651000976563,
                -0.7947351336479187,
                0.0745057687163353,
                1.4973697662353516,
                0.3343086838722229,
                1.7670276165008546,
                1.0003207921981812,
                -2.8102564811706545,
                -0.9802665114402771,
                2.6807565689086916,
                0.9547905921936035,
                -0.7223958969116211,
                -0.1818189024925232,
                -0.22348830103874207,
                0.8552145957946777,
                -1.4219709634780884,
                -0.29723846912384035,
                -0.676826536655426,
                1.9791295528411866,
                0.4101265072822571,
                0.7615517377853394,
                -0.7652747631072998,
                -0.31264832615852358,
                0.9106190800666809,
                -0.5403649210929871,
                1.6968154907226563,
                -0.13799506425857545,
                -0.4315164089202881,
                -0.46953660249710085,
                -0.882634162902832,
                0.18643982708454133,
                0.07936204969882965,
                0.48086750507354739,
                -0.09071581810712815,
                1.1509532928466797,
                1.2508363723754883,
                -1.063621163368225,
                0.5393942594528198,
                -2.879272937774658,
                0.8260530233383179,
                0.16185730695724488,
                -0.5631405711174011,
                1.083953857421875,
                1.2072211503982545,
                0.22830691933631898,
                -0.225204199552536,
                2.680067300796509,
                -0.41216838359832766,
                -0.9728853106498718,
                1.2614350318908692,
                0.8686413764953613,
                0.5696815252304077,
                -1.4428627490997315,
                0.935433566570282,
                0.22917144000530244,
                1.3767238855361939,
                1.212401032447815,
                0.9366454482078552,
                1.3706974983215333,
                -0.1767285168170929,
                -0.8763365149497986,
                -0.5796142220497131,
                2.312530040740967,
                -0.6744663119316101,
                -1.2376430034637452,
                0.7581520080566406,
                -0.7225982546806336,
                0.7824524641036987,
                -1.5644549131393433,
                -1.1357214450836182,
                0.40703293681144717,
                1.5442149639129639,
                -0.6356021761894226,
                0.8891749382019043,
                -1.444462537765503,
                -0.1883249431848526,
                -0.9638171195983887,
                0.35586053133010867,
                1.3288915157318116,
                -0.9722598791122437,
                -0.42991289496421816,
                0.5590797662734985,
                0.685103714466095,
                1.1576616764068604,
                1.8846298456192017,
                -0.6474674344062805,
                0.3075374662876129,
                -0.3113802969455719,
                -0.906512975692749,
                0.18445539474487306,
                2.2203006744384767,
                1.5781008005142213,
                1.7702810764312745,
                2.2549426555633547,
                1.0979042053222657,
                -0.7811519503593445,
                0.12781384587287904,
                -1.2860326766967774,
                -1.7671431303024293,
                0.03038104623556137,
                0.42509913444519045,
                -1.8992172479629517,
                0.35132747888565066,
                -0.7812089920043945,
                1.3121418952941895,
                -0.24969157576560975,
                -1.7407673597335816,
                -1.75850248336792,
                -0.07396819442510605,
                -0.5375572443008423,
                0.19317680597305299,
                1.0550044775009156,
                -1.0162409543991089,
                0.3690951466560364,
                2.540266275405884,
                0.057189300656318668,
                1.005710482597351,
                0.7020636796951294,
                -0.18743252754211427,
                0.5394115447998047,
                0.26931118965148928,
                -0.05983804911375046,
                -0.5432149767875671,
                -1.2608921527862549,
                -0.8467485904693604,
                0.0365520641207695,
                1.194315791130066,
                -0.9368982911109924,
                -1.9304999113082886,
                1.1890318393707276,
                -0.0674176961183548,
                1.349703311920166,
                0.145951509475708
            ],
            "fitness": 53.516815185546878,
            "npcType": 0,
            "outputLockStatus": [
                false,
                false,
                false,
                false
            ]
        },
        {
            "layers": [
                8,
                8,
                6,
                4
            ],
            "flattenedWeights": [
                0.2856571078300476,
                1.2627869844436646,
                -0.9843854904174805,
                0.5839479565620422,
                -0.7866666913032532,
                0.1614760309457779,
                1.5126721858978272,
                0.3361814022064209,
                1.7411948442459107,
                0.948081374168396,
                -2.9380455017089845,
                -1.1130363941192628,
                2.6250414848327638,
                0.9751315712928772,
                -0.7223958969116211,
                -0.16369123756885529,
                -0.2937512993812561,
                0.7644299268722534,
                -1.3383902311325074,
                -0.34937378764152529,
                -1.0698941946029664,
                1.9966487884521485,
                0.3232547640800476,
                0.8207807540893555,
                -0.8858814239501953,
                0.04368966817855835,
                0.9022826552391052,
                -0.6807895302772522,
                1.7867976427078248,
                -0.3685639798641205,
                -0.36733752489089968,
                -0.5238401293754578,
                -0.7988962531089783,
                0.18643982708454133,
                0.24215805530548097,
                0.701862096786499,
                -0.10086672008037567,
                1.3498787879943848,
                1.3401514291763306,
                -1.1869975328445435,
                0.5914945602416992,
                -2.9377212524414064,
                0.8260530233383179,
                0.120478056371212,
                -0.41694319248199465,
                1.083953857421875,
                1.2072211503982545,
                0.20126673579216004,
                -0.05562759190797806,
                2.355315923690796,
                -0.5119988918304443,
                -1.1602107286453248,
                1.3498632907867432,
                0.7826763987541199,
                0.5942001938819885,
                -1.4432779550552369,
                0.9473999738693237,
                0.30052822828292849,
                1.3958157300949097,
                1.0315088033676148,
                0.9277623295783997,
                1.3456041812896729,
                -0.15649759769439698,
                -0.8993498086929321,
                -0.6760086417198181,
                2.2805707454681398,
                -0.6554687023162842,
                -1.2985783815383912,
                0.7364769577980042,
                -0.9307499527931213,
                0.6845564246177673,
                -1.5090876817703248,
                -1.1923704147338868,
                0.5991741418838501,
                1.4715243577957154,
                -0.6356021761894226,
                0.9807072281837463,
                -1.2055010795593262,
                -0.023568809032440187,
                -1.0541739463806153,
                0.5028312802314758,
                1.5176472663879395,
                -1.0205978155136109,
                -0.46416059136390688,
                0.3665984869003296,
                0.6565857529640198,
                1.2423197031021119,
                1.6725176572799683,
                -0.8225447535514832,
                0.14471808075904847,
                -0.13823963701725007,
                -0.9271655678749085,
                0.22873425483703614,
                2.204345703125,
                1.5781008005142213,
                1.776964783668518,
                2.3355093002319338,
                1.2460371255874634,
                -0.854774534702301,
                0.12781384587287904,
                -1.1739976406097413,
                -1.8282753229141236,
                0.17818321287631989,
                0.4256025552749634,
                -1.967010259628296,
                0.35132747888565066,
                -0.9036037921905518,
                1.400123119354248,
                -0.43696627020835879,
                -1.7407673597335816,
                -1.75850248336792,
                -0.13878703117370606,
                -0.5103146433830261,
                0.18154969811439515,
                1.0101606845855713,
                -1.2154608964920045,
                0.5074186325073242,
                2.5597219467163088,
                -0.020011574029922487,
                0.8685318231582642,
                0.7948334217071533,
                -0.20055407285690309,
                0.2723747193813324,
                0.42771807312965395,
                -0.05983804911375046,
                -0.5432149767875671,
                -1.2608921527862549,
                -1.183784008026123,
                0.04583178460597992,
                1.1794803142547608,
                -0.8258140683174133,
                -1.8991942405700684,
                1.2693506479263306,
                -0.16587935388088227,
                1.4528870582580567,
                0.2539753317832947
            ],
            "fitness": 51.73985290527344,
            "npcType": 0,
            "outputLockStatus": [
                false,
                false,
                false,
                false
            ]
        }
    ],
    "timestamp": "2025-05-12 16:54:40"
}