{
    "generation": 905,
    "bestFitness": 66.41948699951172,
    "averageFitness": 25.556772232055665,
    "worstFitness": 0.0,
    "networks": [
        {
            "layers": [
                8,
                8,
                6,
                4
            ],
            "flattenedWeights": [
                -1.192493200302124,
                1.2554265260696412,
                2.6163082122802736,
                -0.14280852675437928,
                2.4623162746429445,
                1.1486929655075074,
                -1.2416298389434815,
                -1.64839768409729,
                1.8548212051391602,
                -0.4830372929573059,
                0.17682814598083497,
                0.10750587284564972,
                -1.3903356790542603,
                0.8112384080886841,
                0.6363155841827393,
                0.4967041313648224,
                1.8813968896865845,
                -0.1584717184305191,
                0.0811053216457367,
                -0.055713869631290439,
                -0.3403678834438324,
                -1.5373133420944214,
                0.13217344880104066,
                0.2980840802192688,
                -0.736379861831665,
                -0.17186205089092256,
                0.16444659233093263,
                -0.8168935775756836,
                -1.8524187803268433,
                -0.24739602208137513,
                1.001527190208435,
                1.6953645944595338,
                -1.8251463174819947,
                0.3122342526912689,
                0.8440055251121521,
                -0.4423959255218506,
                -0.6651841402053833,
                0.5233533382415772,
                -1.2749258279800416,
                0.2729269862174988,
                0.8875477313995361,
                -2.6424291133880617,
                -1.4251420497894288,
                -2.111851453781128,
                -0.06768395006656647,
                -0.853107213973999,
                1.2663090229034424,
                -1.112373948097229,
                -1.225130558013916,
                -0.8086991310119629,
                0.0727938786149025,
                -2.124415636062622,
                -4.418787479400635,
                -1.1750733852386475,
                -0.34705889225006106,
                -0.21244817972183228,
                1.5760315656661988,
                0.3197646141052246,
                -0.0519646592438221,
                1.500918984413147,
                -0.9428313970565796,
                -3.1064443588256838,
                -0.14866839349269868,
                1.3976569175720215,
                0.11969859898090363,
                1.8349179029464722,
                0.298775315284729,
                -0.8365553617477417,
                -0.9163071513175964,
                -0.5048345923423767,
                1.0307457447052003,
                0.7662683725357056,
                0.828057587146759,
                -0.8187059760093689,
                0.025888189673423768,
                -0.6538369059562683,
                -1.217160940170288,
                -1.3466397523880005,
                0.8188931941986084,
                -0.39034491777420046,
                -0.14481240510940553,
                -0.8443366885185242,
                -3.6330270767211916,
                -0.0709838792681694,
                2.5343985557556154,
                0.7947917580604553,
                1.3754363059997559,
                0.8980844020843506,
                1.5188798904418946,
                0.34220683574676516,
                0.2470165491104126,
                0.11265498399734497,
                -0.5838932394981384,
                -1.0588467121124268,
                1.5279395580291749,
                0.8672639727592468,
                -0.11455558985471726,
                -0.6075446009635925,
                0.09439112991094589,
                -2.3788647651672365,
                -1.1400483846664429,
                -1.6525888442993165,
                0.5476244688034058,
                -0.06863202899694443,
                -1.1766515970230103,
                -2.1058413982391359,
                -0.38680192828178408,
                0.6864534020423889,
                -0.3288628160953522,
                0.7773993015289307,
                1.3019979000091553,
                -0.03332372009754181,
                0.4305779039859772,
                0.6241578459739685,
                0.6941406726837158,
                -1.484399437904358,
                -0.0783047303557396,
                -0.0854923352599144,
                -0.9551212787628174,
                0.8119442462921143,
                2.1032328605651857,
                -1.7040804624557496,
                1.1598930358886719,
                -2.8767809867858888,
                0.7660539150238037,
                -0.9503880739212036,
                -0.6376149654388428,
                -0.20900732278823853,
                1.8630223274230958,
                -1.682518482208252,
                0.2592790424823761,
                -1.9310402870178223,
                -0.8878353238105774,
                -1.538547158241272,
                -2.480639696121216,
                1.1997127532958985
            ],
            "fitness": 66.41948699951172,
            "npcType": 1,
            "outputLockStatus": [
                false,
                false,
                false,
                false
            ]
        },
        {
            "layers": [
                8,
                8,
                6,
                4
            ],
            "flattenedWeights": [
                -1.1880841255187989,
                1.146669626235962,
                2.708008289337158,
                -0.1615040898323059,
                2.366555690765381,
                1.0472875833511353,
                -1.3708022832870484,
                -1.5645774602890015,
                1.7637956142425538,
                -0.4487510919570923,
                0.29640012979507449,
                0.02729877084493637,
                -1.5136984586715699,
                0.6591655015945435,
                0.7560153007507324,
                0.5404099822044373,
                1.945087194442749,
                0.08008262515068054,
                0.028600290417671205,
                -0.038689035922288898,
                -0.4095163941383362,
                -1.6794893741607667,
                0.16956815123558045,
                0.3746383786201477,
                -0.5059157013893127,
                -0.19937005639076234,
                0.19735047221183778,
                -0.6927637457847595,
                -1.7702305316925049,
                -0.2512287199497223,
                1.0964490175247193,
                1.9264862537384034,
                -1.7158750295639039,
                0.3839394450187683,
                0.7871692776679993,
                -0.4483894109725952,
                -0.7748449444770813,
                0.4442683160305023,
                -1.1717075109481812,
                0.3307247459888458,
                0.7325801849365234,
                -2.5331177711486818,
                -1.2404104471206666,
                -2.173994779586792,
                -0.05578039959073067,
                -0.9747031331062317,
                1.058821678161621,
                -1.2799079418182374,
                -1.276004433631897,
                -1.087944507598877,
                0.13133198022842408,
                -2.0657830238342287,
                -4.51702356338501,
                -1.2850552797317505,
                -0.3970072567462921,
                -0.10407190769910813,
                1.4127309322357178,
                0.43205758929252627,
                -0.12035344541072846,
                1.4747487306594849,
                -0.8429762721061707,
                -3.0328290462493898,
                -0.07748828828334809,
                1.4955452680587769,
                -0.06563253700733185,
                1.8574192523956299,
                0.298775315284729,
                -0.8841032385826111,
                -0.8473963141441345,
                -0.4325302243232727,
                1.1869316101074219,
                0.8060218691825867,
                0.8730883598327637,
                -0.8907825946807861,
                0.10959752649068833,
                -0.8317273259162903,
                -1.3084417581558228,
                -1.4249870777130128,
                0.6752583384513855,
                -0.32233405113220217,
                -0.32092469930648806,
                -0.9765841960906982,
                -3.6099627017974855,
                0.07786107063293457,
                2.5890960693359377,
                0.8774966597557068,
                1.2485463619232178,
                0.8101322054862976,
                1.499983310699463,
                0.3283670246601105,
                0.2470165491104126,
                0.06268421560525894,
                -0.5710440874099731,
                -0.961849570274353,
                1.7358819246292115,
                0.8672639727592468,
                -0.19618302583694459,
                -0.5045236945152283,
                0.1897917091846466,
                -2.5767672061920168,
                -1.2720338106155396,
                -1.633732557296753,
                0.46670329570770266,
                -0.05451952666044235,
                -1.135120153427124,
                -2.123957872390747,
                -0.475535124540329,
                0.5881605744361877,
                -0.3880116045475006,
                0.8169164061546326,
                1.3019979000091553,
                -0.008224517107009888,
                0.11340119689702988,
                0.6810227632522583,
                0.7992363572120667,
                -1.3795444965362549,
                0.06679187715053559,
                0.23738759756088258,
                -0.8011522889137268,
                0.7181434035301209,
                1.9876019954681397,
                -1.7797681093215943,
                1.2679343223571778,
                -2.7341926097869875,
                0.784110426902771,
                -0.8807036876678467,
                -0.7670812010765076,
                -0.20594443380832673,
                1.8998340368270875,
                -1.569893717765808,
                0.12761399149894715,
                -1.9198474884033204,
                -0.9927594661712647,
                -1.4756907224655152,
                -2.368851661682129,
                1.487659215927124
            ],
            "fitness": 60.010982513427737,
            "npcType": 1,
            "outputLockStatus": [
                false,
                false,
                false,
                false
            ]
        },
        {
            "layers": [
                8,
                8,
                6,
                4
            ],
            "flattenedWeights": [
                -1.1880841255187989,
                1.146669626235962,
                2.708008289337158,
                -0.25788837671279909,
                2.2945399284362795,
                1.1879526376724244,
                -1.3161203861236573,
                -1.6689181327819825,
                1.9386780261993409,
                -0.5373870730400086,
                0.29640012979507449,
                0.08062206208705902,
                -1.3687669038772584,
                0.7719964385032654,
                0.6133034229278565,
                0.32291334867477419,
                1.8761794567108155,
                0.17575916647911073,
                -0.04674225300550461,
                -0.13103215396404267,
                -0.2946394979953766,
                -1.5913904905319214,
                0.18505404889583589,
                0.2980840802192688,
                -0.7002588510513306,
                -0.07051251828670502,
                0.3590855598449707,
                -0.6700994968414307,
                -1.9891976118087769,
                -0.1926921308040619,
                1.037391185760498,
                1.897531509399414,
                -1.6808980703353882,
                0.4811992943286896,
                0.8440055251121521,
                -0.4423959255218506,
                -0.5767204761505127,
                0.5795035362243652,
                -1.2435457706451417,
                0.3723096549510956,
                0.7325801849365234,
                -2.4517393112182619,
                -1.209924578666687,
                -2.159008026123047,
                -0.06768395006656647,
                -0.8193532228469849,
                1.0899336338043213,
                -1.2799079418182374,
                -1.2805968523025513,
                -1.1018109321594239,
                0.1420135349035263,
                -1.9712964296340943,
                -4.5130438804626469,
                -1.339145302772522,
                -0.4169091582298279,
                -0.12989090383052827,
                1.428891658782959,
                0.4613020122051239,
                -0.1125975176692009,
                1.4747487306594849,
                -0.8429762721061707,
                -3.1898574829101564,
                -0.06740566343069077,
                1.5382988452911378,
                -0.13018639385700227,
                1.8624061346054078,
                0.2924371063709259,
                -0.8841032385826111,
                -0.8473963141441345,
                -0.4325302243232727,
                1.1902210712432862,
                0.8060218691825867,
                0.7578284740447998,
                -1.0369956493377686,
                0.15486934781074525,
                -0.8317273259162903,
                -1.2436962127685547,
                -1.40000319480896,
                0.7448834776878357,
                -0.3742716908454895,
                -0.09282796829938889,
                -0.9765841960906982,
                -3.623650312423706,
                0.07786107063293457,
                2.3805384635925295,
                0.8774966597557068,
                1.3754363059997559,
                0.6996657252311707,
                1.499983310699463,
                0.3283670246601105,
                0.32747721672058108,
                0.058216772973537448,
                -0.5780901908874512,
                -1.0704102516174317,
                1.7936292886734009,
                0.8778104782104492,
                -0.19618302583694459,
                -0.48487037420272829,
                0.11210104078054428,
                -2.4704689979553224,
                -1.221631646156311,
                -1.633732557296753,
                0.5464978814125061,
                -0.04812825471162796,
                -0.9900622367858887,
                -2.02341365814209,
                -0.21114081144332887,
                0.8340674638748169,
                -0.3288628160953522,
                0.8169164061546326,
                1.3019979000091553,
                -0.031083814799785615,
                0.028586916625499727,
                0.5363084077835083,
                0.7992363572120667,
                -1.4749701023101807,
                -0.030608616769313813,
                0.15455687046051026,
                -0.928281307220459,
                0.7181434035301209,
                2.0677435398101808,
                -1.6822254657745362,
                1.2580968141555787,
                -2.6536545753479006,
                0.784110426902771,
                -0.9503880739212036,
                -0.7935386896133423,
                -0.2541240155696869,
                1.9206912517547608,
                -1.740113377571106,
                0.16643214225769044,
                -1.9198474884033204,
                -1.083898901939392,
                -1.6954736709594727,
                -2.368851661682129,
                1.435021162033081
            ],
            "fitness": 59.5988655090332,
            "npcType": 1,
            "outputLockStatus": [
                false,
                false,
                false,
                false
            ]
        },
        {
            "layers": [
                8,
                8,
                6,
                4
            ],
            "flattenedWeights": [
                -1.1747963428497315,
                1.146669626235962,
                2.6163082122802736,
                -0.10730068385601044,
                2.369901657104492,
                1.107901692390442,
                -1.3624075651168824,
                -1.7380479574203492,
                1.85665762424469,
                -0.5373870730400086,
                0.2668306231498718,
                0.0708484873175621,
                -1.4016995429992676,
                0.7719964385032654,
                0.6632142663002014,
                0.3232451379299164,
                1.8813968896865845,
                0.08008262515068054,
                -0.03551863878965378,
                -0.13103215396404267,
                -0.3403678834438324,
                -1.5913904905319214,
                0.09333918243646622,
                0.28889530897140505,
                -0.7414311766624451,
                -0.07051251828670502,
                0.3872225284576416,
                -0.6700994968414307,
                -1.9891976118087769,
                -0.2512287199497223,
                1.0732372999191285,
                1.6953645944595338,
                -1.8136615753173829,
                0.3497698903083801,
                0.8835514187812805,
                -0.4550115764141083,
                -0.63764488697052,
                0.6098971962928772,
                -1.0974537134170533,
                0.21451038122177125,
                0.6498961448669434,
                -2.4517393112182619,
                -1.2838186025619507,
                -2.159008026123047,
                -0.006844069808721542,
                -0.9107446670532227,
                1.315271019935608,
                -1.1399102210998536,
                -1.2805968523025513,
                -0.8639849424362183,
                0.1420135349035263,
                -2.124415636062622,
                -4.449337959289551,
                -1.115118145942688,
                -0.3350226879119873,
                -0.12914025783538819,
                1.5763658285140992,
                0.4613020122051239,
                -0.14714950323104859,
                1.500918984413147,
                -0.8429762721061707,
                -3.1064443588256838,
                -0.14866839349269868,
                1.5382988452911378,
                -0.06563253700733185,
                1.8574192523956299,
                0.32972317934036257,
                -0.7867612242698669,
                -0.8099567294120789,
                -0.4325302243232727,
                1.0938042402267457,
                0.7662683725357056,
                0.7578284740447998,
                -0.931928813457489,
                0.1110602393746376,
                -0.6538369059562683,
                -1.2091652154922486,
                -1.4249870777130128,
                0.8151412606239319,
                -0.3914290964603424,
                -0.1069147065281868,
                -0.9765841960906982,
                -3.60186505317688,
                0.0042013078927993778,
                2.5343985557556154,
                0.8774966597557068,
                1.3754363059997559,
                0.9854366183280945,
                1.5188798904418946,
                0.3283670246601105,
                0.159385085105896,
                0.07248597592115402,
                -0.5780901908874512,
                -1.0185275077819825,
                1.7358819246292115,
                0.8672639727592468,
                0.08965624123811722,
                -0.48487037420272829,
                0.1897917091846466,
                -2.436443328857422,
                -0.9350889921188355,
                -1.5539056062698365,
                0.7057281732559204,
                -0.05451952666044235,
                -1.0985029935836793,
                -2.1449153423309328,
                -0.38680192828178408,
                0.8311582207679749,
                -0.3288628160953522,
                0.8169164061546326,
                1.3019979000091553,
                -0.031083814799785615,
                0.028586916625499727,
                0.6293693780899048,
                0.6941406726837158,
                -1.4452775716781617,
                -0.09017026424407959,
                -0.0854923352599144,
                -0.9551212787628174,
                0.8119442462921143,
                2.0602989196777345,
                -1.6981922388076783,
                1.1549816131591797,
                -2.635519027709961,
                0.8412781357765198,
                -0.9590378403663635,
                -0.7048945426940918,
                -0.29109203815460207,
                1.9968996047973633,
                -1.740113377571106,
                0.2592790424823761,
                -1.947817087173462,
                -1.0798076391220093,
                -1.6124277114868165,
                -2.368851661682129,
                1.532687783241272
            ],
            "fitness": 57.31558609008789,
            "npcType": 1,
            "outputLockStatus": [
                false,
                false,
                false,
                false
            ]
        },
        {
            "layers": [
                8,
                8,
                6,
                4
            ],
            "flattenedWeights": [
                -1.1880841255187989,
                1.3640421628952027,
                2.6163082122802736,
                -0.11694727838039398,
                2.441429853439331,
                1.091422438621521,
                -1.3052160739898682,
                -1.4954462051391602,
                1.8067115545272828,
                -0.48362138867378237,
                0.29640012979507449,
                -0.013246409595012665,
                -1.511520504951477,
                0.8914848566055298,
                0.6671340465545654,
                0.37102311849594118,
                1.8698575496673585,
                0.13756316900253297,
                -0.12671607732772828,
                0.04978438839316368,
                -0.30484965443611147,
                -1.5423219203948975,
                0.13217344880104066,
                0.15108202397823335,
                -0.6527420878410339,
                -0.07495363056659699,
                0.19735047221183778,
                -0.5732249617576599,
                -1.6719127893447877,
                -0.11992555856704712,
                1.1237497329711915,
                2.0084989070892336,
                -1.7625941038131714,
                0.41217032074928286,
                1.0253748893737794,
                -0.4483894109725952,
                -0.6008933782577515,
                0.6644477248191834,
                -1.236128330230713,
                0.40915820002555849,
                0.7720268964767456,
                -2.5979833602905275,
                -1.3685004711151124,
                -2.1652965545654299,
                -0.12112194299697876,
                -0.7853981852531433,
                1.1897743940353394,
                -1.3737167119979859,
                -1.2255350351333619,
                -0.7980442047119141,
                0.1420135349035263,
                -2.0184998512268068,
                -4.462637424468994,
                -1.2448749542236329,
                -0.3276299238204956,
                -0.13879990577697755,
                1.3598072528839112,
                0.4613020122051239,
                -0.18437501788139344,
                1.4810924530029297,
                -0.9632214903831482,
                -2.954012870788574,
                -0.07628492265939713,
                1.5342484712600709,
                0.11213504523038864,
                1.952134132385254,
                0.552945613861084,
                -0.804474949836731,
                -0.9573588371276856,
                -0.3342697024345398,
                1.3222591876983643,
                0.8748720288276672,
                0.7578284740447998,
                -0.851141631603241,
                0.09197205305099487,
                -0.7346134185791016,
                -1.2948812246322632,
                -1.4647610187530518,
                0.8553503155708313,
                -0.31931158900260928,
                -0.3587886393070221,
                -0.8688667416572571,
                -3.6266775131225588,
                0.0572974793612957,
                2.5890960693359377,
                0.9362577795982361,
                1.391680359840393,
                0.8060880303382874,
                1.4654130935668946,
                0.4485665261745453,
                0.03877827525138855,
                0.10838165134191513,
                -0.577265202999115,
                -1.0165832042694092,
                1.4140630960464478,
                0.9148604869842529,
                -0.025848567485809327,
                -0.6646538376808167,
                0.09060875326395035,
                -2.392282485961914,
                -1.0078608989715577,
                -1.5925064086914063,
                0.6198684573173523,
                -0.13392943143844605,
                -1.1766515970230103,
                -2.1058413982391359,
                -0.30924713611602785,
                0.9336161613464356,
                -0.06716214865446091,
                0.7773993015289307,
                1.407505989074707,
                0.06568416953086853,
                0.3326188921928406,
                0.5755507946014404,
                0.7204108834266663,
                -1.4186668395996094,
                -0.05493438243865967,
                -0.018082451075315477,
                -0.9319707751274109,
                0.7503239512443543,
                2.090238571166992,
                -1.4821168184280396,
                1.126533031463623,
                -2.6887407302856447,
                0.784110426902771,
                -0.7929948568344116,
                -0.5700598359107971,
                -0.26031526923179629,
                1.9252625703811646,
                -1.740113377571106,
                0.20176346600055695,
                -1.9198474884033204,
                -1.036694884300232,
                -1.5043983459472657,
                -2.382570266723633,
                1.4288866519927979
            ],
            "fitness": 49.0813102722168,
            "npcType": 1,
            "outputLockStatus": [
                false,
                false,
                false,
                false
            ]
        },
        {
            "layers": [
                8,
                8,
                6,
                4
            ],
            "flattenedWeights": [
                -1.1880841255187989,
                1.146669626235962,
                2.684478521347046,
                -0.25788837671279909,
                2.2756893634796144,
                1.1879526376724244,
                -1.3161203861236573,
                -1.6332828998565674,
                1.85665762424469,
                -0.4952471852302551,
                0.29640012979507449,
                0.08062206208705902,
                -1.3687669038772584,
                0.8594798445701599,
                0.6531512141227722,
                0.41928911209106448,
                1.8478316068649293,
                0.08008262515068054,
                0.0325751006603241,
                -0.038689035922288898,
                -0.3403678834438324,
                -1.5913904905319214,
                0.09333918243646622,
                0.28889530897140505,
                -0.7414311766624451,
                -0.07051251828670502,
                0.2128314971923828,
                -0.6700994968414307,
                -2.0152053833007814,
                -0.2512287199497223,
                0.9553154706954956,
                1.984561800956726,
                -1.7158750295639039,
                0.3122342526912689,
                0.8440055251121521,
                -0.5065368413925171,
                -0.5938856601715088,
                0.6098971962928772,
                -1.1717075109481812,
                0.2729269862174988,
                0.6469824314117432,
                -2.4517393112182619,
                -1.2838186025619507,
                -2.159008026123047,
                -0.006844069808721542,
                -0.8164145946502686,
                1.0720171928405762,
                -1.2715381383895875,
                -1.4089536666870118,
                -1.1018109321594239,
                0.07327350229024887,
                -1.9874036312103272,
                -4.51702356338501,
                -1.2850552797317505,
                -0.4169091582298279,
                -0.12914025783538819,
                1.497806191444397,
                0.5004746317863464,
                -0.1125975176692009,
                1.517596960067749,
                -0.8605256080627441,
                -3.1898574829101564,
                -0.07748828828334809,
                1.5440967082977296,
                -0.06563253700733185,
                1.8231401443481446,
                0.298775315284729,
                -0.9549846053123474,
                -0.9081147909164429,
                -0.4325302243232727,
                1.1869316101074219,
                0.8060218691825867,
                0.7578284740447998,
                -0.9372969269752502,
                0.1110602393746376,
                -0.8317273259162903,
                -1.210270643234253,
                -1.4699472188949586,
                0.7450324296951294,
                -0.3742716908454895,
                -0.33186250925064089,
                -0.9765841960906982,
                -3.6099627017974855,
                0.04377380758523941,
                2.450336456298828,
                0.8774966597557068,
                1.3754363059997559,
                0.8101322054862976,
                1.499983310699463,
                0.310743510723114,
                0.2470165491104126,
                0.058216772973537448,
                -0.5102881193161011,
                -1.0246013402938843,
                1.7358819246292115,
                0.8672639727592468,
                -0.19618302583694459,
                -0.5064419507980347,
                0.1936713308095932,
                -2.5767672061920168,
                -1.167406439781189,
                -1.633732557296753,
                0.5228720903396606,
                -0.05451952666044235,
                -1.0750839710235596,
                -2.123957872390747,
                -0.21114081144332887,
                0.5881605744361877,
                -0.3288628160953522,
                0.8169164061546326,
                1.3019979000091553,
                -0.031083814799785615,
                0.020060822367668153,
                0.6772226095199585,
                0.7992363572120667,
                -1.5370179414749146,
                -0.030608616769313813,
                0.1699267029762268,
                -1.023295283317566,
                0.6698830723762512,
                1.9714627265930176,
                -1.6822254657745362,
                1.1559489965438843,
                -2.6618707180023195,
                0.784110426902771,
                -0.8778201937675476,
                -0.7935386896133423,
                -0.20594443380832673,
                1.9787523746490479,
                -1.740113377571106,
                0.15446986258029939,
                -1.9198474884033204,
                -0.9961916208267212,
                -1.6124277114868165,
                -2.368851661682129,
                1.487659215927124
            ],
            "fitness": 46.587406158447269,
            "npcType": 1,
            "outputLockStatus": [
                false,
                false,
                false,
                false
            ]
        },
        {
            "layers": [
                8,
                8,
                6,
                4
            ],
            "flattenedWeights": [
                0.43029722571372988,
                1.383536696434021,
                -1.4312318563461304,
                1.0718474388122559,
                -0.9160366654396057,
                0.16886016726493836,
                1.2547879219055176,
                0.24616461992263795,
                1.5320870876312256,
                0.6691822409629822,
                -3.335047721862793,
                -2.0803468227386476,
                2.876030683517456,
                0.7639999985694885,
                -0.687510073184967,
                -0.8319416642189026,
                -0.1453835815191269,
                1.5720027685165406,
                -1.2097538709640504,
                -0.8106732964515686,
                -1.2085109949111939,
                1.972298502922058,
                0.21870651841163636,
                0.9403976798057556,
                -0.7775663137435913,
                -0.18392732739448548,
                0.44564318656921389,
                -0.3719175457954407,
                2.0986361503601076,
                -0.7460275888442993,
                1.4138237237930298,
                0.6045982241630554,
                -1.2365959882736207,
                -0.4478450119495392,
                -0.5022761821746826,
                -0.18029722571372987,
                -0.765916645526886,
                1.537892460823059,
                1.5913552045822144,
                -1.557370901107788,
                0.4731217920780182,
                -3.3838460445404054,
                1.1206042766571046,
                0.3573833107948303,
                0.050357069820165637,
                1.3324965238571168,
                0.8197646737098694,
                0.8852769732475281,
                -0.2665697932243347,
                3.1278393268585207,
                -0.5288313031196594,
                -1.1769777536392213,
                1.826941728591919,
                1.4511206150054932,
                0.7009878158569336,
                -2.077974319458008,
                1.014176368713379,
                0.37219223380088808,
                1.1116918325424195,
                1.4594885110855103,
                1.4184863567352296,
                1.7416980266571046,
                -0.527064323425293,
                -1.036884069442749,
                -0.47245073318481448,
                2.688340425491333,
                -0.661064088344574,
                -0.5426325798034668,
                0.49149224162101748,
                -1.4500410556793213,
                1.1214908361434937,
                -2.0938899517059328,
                -0.9810816049575806,
                0.6829285025596619,
                1.844032645225525,
                -1.0220439434051514,
                1.4630411863327027,
                -1.5725531578063965,
                -0.20887234807014466,
                -1.2340130805969239,
                0.8063755631446838,
                1.3482877016067505,
                -0.9062623381614685,
                -1.4089398384094239,
                0.9325883388519287,
                0.3242128789424896,
                0.9428375363349915,
                1.9776782989501954,
                -0.642346978187561,
                -0.07431038469076157,
                -0.7430199384689331,
                -0.5195007920265198,
                0.22562694549560548,
                2.5128681659698488,
                1.765243411064148,
                2.0334994792938234,
                2.4803431034088136,
                0.7017635107040405,
                -1.693198561668396,
                -0.2228303849697113,
                -0.9932119846343994,
                -1.9070053100585938,
                0.16263866424560548,
                1.1466560363769532,
                -1.7721439599990845,
                0.09961617738008499,
                -1.250643253326416,
                0.9977009892463684,
                -0.37025463581085207,
                -1.6805756092071534,
                -1.6980839967727662,
                -0.5908780694007874,
                -0.27625465393066409,
                0.5246535539627075,
                0.7109081745147705,
                -1.5375820398330689,
                0.26816990971565249,
                2.4772744178771974,
                -0.08656197041273117,
                1.3467382192611695,
                0.7373561859130859,
                0.17978744208812715,
                0.6120302081108093,
                0.14655745029449464,
                0.14752456545829774,
                -0.6492124199867249,
                -1.2132453918457032,
                -1.5801427364349366,
                -0.010103493928909302,
                1.4708553552627564,
                -1.0220623016357422,
                -2.4247968196868898,
                0.850074827671051,
                -0.26661449670791628,
                1.249082326889038,
                -0.2695169150829315
            ],
            "fitness": 43.017581939697269,
            "npcType": 0,
            "outputLockStatus": [
                false,
                false,
                false,
                false
            ]
        },
        {
            "layers": [
                8,
                8,
                6,
                4
            ],
            "flattenedWeights": [
                -1.192493200302124,
                1.146669626235962,
                2.6163082122802736,
                -0.14280852675437928,
                2.2945399284362795,
                1.1879526376724244,
                -1.3113019466400147,
                -1.719781756401062,
                1.85665762424469,
                -0.5373870730400086,
                0.2668306231498718,
                0.08062206208705902,
                -1.4016995429992676,
                0.7719964385032654,
                0.6358575224876404,
                0.422052264213562,
                1.8813968896865845,
                0.08008262515068054,
                0.028600290417671205,
                -0.11493508517742157,
                -0.3417847156524658,
                -1.646323561668396,
                0.09333918243646622,
                0.30193987488746645,
                -0.7414311766624451,
                -0.07051251828670502,
                0.28111904859542849,
                -0.6700994968414307,
                -1.9891976118087769,
                -0.24739602208137513,
                1.0507328510284424,
                1.6953645944595338,
                -1.8136615753173829,
                0.2758501470088959,
                0.8440055251121521,
                -0.4550115764141083,
                -0.6651841402053833,
                0.6098971962928772,
                -1.2749258279800416,
                0.3134661614894867,
                0.7565324902534485,
                -2.4517393112182619,
                -1.2838186025619507,
                -2.159008026123047,
                -0.006844069808721542,
                -0.9420737028121948,
                1.3516302108764649,
                -1.2799079418182374,
                -1.225130558013916,
                -0.7674027681350708,
                0.1420135349035263,
                -2.0334012508392336,
                -4.614350318908691,
                -1.1750733852386475,
                -0.4169091582298279,
                -0.09357546269893646,
                1.5760315656661988,
                0.24698203802108766,
                -0.1125975176692009,
                1.500918984413147,
                -0.8235074281692505,
                -3.1064443588256838,
                -0.14866839349269868,
                1.4009122848510743,
                -0.06563253700733185,
                1.8574192523956299,
                0.28082528710365298,
                -0.8841032385826111,
                -0.8473963141441345,
                -0.4254617691040039,
                1.0607389211654664,
                0.8309602737426758,
                0.7251468300819397,
                -0.9372969269752502,
                0.10959752649068833,
                -0.6538369059562683,
                -1.217160940170288,
                -1.4249870777130128,
                0.8188931941986084,
                -0.30071771144866946,
                -0.08299189060926438,
                -0.9765841960906982,
                -3.6099627017974855,
                0.04117857292294502,
                2.5343985557556154,
                0.8774966597557068,
                1.3208458423614503,
                0.9766215682029724,
                1.5188798904418946,
                0.3283670246601105,
                0.18388551473617555,
                0.11265498399734497,
                -0.5780901908874512,
                -1.0588467121124268,
                1.5279395580291749,
                0.8672639727592468,
                -0.19618302583694459,
                -0.5258440971374512,
                0.14334383606910706,
                -2.5767672061920168,
                -1.2055397033691407,
                -1.633732557296753,
                0.5476244688034058,
                -0.012019127607345581,
                -1.0750839710235596,
                -2.1058413982391359,
                -0.38680192828178408,
                0.782167375087738,
                -0.3288628160953522,
                0.7773993015289307,
                1.2576926946640015,
                -0.031083814799785615,
                0.32039308547973635,
                0.6293693780899048,
                0.6439976096153259,
                -1.4749701023101807,
                -0.0783047303557396,
                -0.09655918926000595,
                -0.9551212787628174,
                0.8119442462921143,
                2.0677435398101808,
                -1.7040804624557496,
                1.2157878875732422,
                -2.8956522941589357,
                0.6820902824401856,
                -0.9729312062263489,
                -0.6825055480003357,
                -0.20594443380832673,
                1.9968996047973633,
                -1.7015998363494874,
                0.15446986258029939,
                -1.8951386213302613,
                -0.9961916208267212,
                -1.6124277114868165,
                -2.3881847858428957,
                1.5417767763137818
            ],
            "fitness": 42.94037628173828,
            "npcType": 1,
            "outputLockStatus": [
                false,
                false,
                false,
                false
            ]
        },
        {
            "layers": [
                8,
                8,
                6,
                4
            ],
            "flattenedWeights": [
                -1.1729316711425782,
                1.3387056589126588,
                2.6163082122802736,
                -0.14280852675437928,
                2.4895830154418947,
                1.1879526376724244,
                -1.1958057880401612,
                -1.6096463203430176,
                1.8122695684432984,
                -0.5373870730400086,
                0.272830605506897,
                0.030573826283216478,
                -1.4016995429992676,
                0.7719964385032654,
                0.6531512141227722,
                0.4100976288318634,
                1.972521185874939,
                0.08008262515068054,
                0.0811053216457367,
                -0.13103215396404267,
                -0.31091004610061648,
                -1.5913904905319214,
                0.0941489115357399,
                0.2980840802192688,
                -0.7963526248931885,
                -0.17186205089092256,
                0.2128314971923828,
                -0.6700994968414307,
                -1.9891976118087769,
                -0.2512287199497223,
                1.037391185760498,
                1.6953645944595338,
                -1.8136615753173829,
                0.3122342526912689,
                0.7716252207756043,
                -0.4423959255218506,
                -0.6827822923660278,
                0.5233533382415772,
                -1.1717075109481812,
                0.19067645072937013,
                0.7325801849365234,
                -2.5732481479644777,
                -1.2838186025619507,
                -2.111851453781128,
                -0.06768395006656647,
                -0.853107213973999,
                1.3609694242477418,
                -1.1399102210998536,
                -1.3301429748535157,
                -1.1018109321594239,
                -0.06998436897993088,
                -1.9874036312103272,
                -4.51702356338501,
                -1.1750733852386475,
                -0.4169091582298279,
                -0.10089104622602463,
                1.497806191444397,
                0.4212287962436676,
                -0.1125975176692009,
                1.391295075416565,
                -0.8102360367774963,
                -3.1898574829101564,
                -0.17915582656860352,
                1.5382988452911378,
                -0.06563253700733185,
                1.818650484085083,
                0.298775315284729,
                -0.9088418483734131,
                -0.9163071513175964,
                -0.4325302243232727,
                1.1869316101074219,
                0.8011372089385986,
                0.7578284740447998,
                -0.9372969269752502,
                0.1110602393746376,
                -0.6596003174781799,
                -1.2988201379776,
                -1.3473657369613648,
                0.8188931941986084,
                -0.23309871554374696,
                -0.058237023651599887,
                -0.9765841960906982,
                -3.6229982376098635,
                0.07786107063293457,
                2.5343985557556154,
                0.7545086145401001,
                1.3754363059997559,
                0.8101322054862976,
                1.5188798904418946,
                0.3893299698829651,
                0.2470165491104126,
                0.058216772973537448,
                -0.6758169531822205,
                -0.9809051752090454,
                1.7358819246292115,
                0.8672639727592468,
                -0.11455558985471726,
                -0.6235371828079224,
                0.14964979887008668,
                -2.532649278640747,
                -1.2126280069351197,
                -1.7357842922210694,
                0.537895143032074,
                -0.06863202899694443,
                -1.0750839710235596,
                -2.123957872390747,
                -0.2733381986618042,
                0.5881605744361877,
                -0.33277782797813418,
                0.8169164061546326,
                1.3019979000091553,
                -0.031083814799785615,
                0.3326188921928406,
                0.7162829041481018,
                0.6941406726837158,
                -1.4186668395996094,
                -0.10786175727844238,
                0.23738759756088258,
                -0.9551212787628174,
                0.8119442462921143,
                2.1097569465637209,
                -1.7040804624557496,
                1.1559489965438843,
                -2.8767809867858888,
                0.8629213571548462,
                -0.9503880739212036,
                -0.7935386896133423,
                -0.20594443380832673,
                1.8630223274230958,
                -1.740113377571106,
                0.2592790424823761,
                -1.9198474884033204,
                -0.9961916208267212,
                -1.538547158241272,
                -2.368851661682129,
                1.487659215927124
            ],
            "fitness": 40.16340255737305,
            "npcType": 1,
            "outputLockStatus": [
                false,
                false,
                false,
                false
            ]
        },
        {
            "layers": [
                8,
                8,
                6,
                4
            ],
            "flattenedWeights": [
                -1.192493200302124,
                1.2554265260696412,
                2.6163082122802736,
                -0.051648788154125217,
                2.47167706489563,
                1.2087115049362183,
                -1.373844027519226,
                -1.6689181327819825,
                1.8548212051391602,
                -0.5271154642105103,
                0.4916837513446808,
                -0.013246409595012665,
                -1.5136984586715699,
                0.7793862223625183,
                0.6363155841827393,
                0.4967041313648224,
                1.7854511737823487,
                -0.1917625367641449,
                0.0811053216457367,
                0.04978438839316368,
                -0.3844740390777588,
                -1.5373133420944214,
                0.13217344880104066,
                0.1736050844192505,
                -0.6527420878410339,
                -0.11983776092529297,
                0.19735047221183778,
                -0.667473554611206,
                -1.925891637802124,
                -0.19824886322021485,
                1.1237497329711915,
                1.6953645944595338,
                -1.7158750295639039,
                0.3122342526912689,
                1.0253748893737794,
                -0.4705689549446106,
                -0.7467833757400513,
                0.4932500123977661,
                -1.236128330230713,
                0.28514987230300906,
                0.8875477313995361,
                -2.603518009185791,
                -1.4200439453125,
                -2.0536766052246095,
                -0.07694929838180542,
                -0.853107213973999,
                1.052663803100586,
                -1.3737167119979859,
                -1.225130558013916,
                -1.0064111948013306,
                -0.0014477819204330445,
                -2.0495078563690187,
                -4.462637424468994,
                -1.1750733852386475,
                -0.3276299238204956,
                -0.2502732574939728,
                1.5760315656661988,
                0.2206258326768875,
                -0.07873629778623581,
                1.500918984413147,
                -0.8015478253364563,
                -2.960439443588257,
                -0.23860406875610352,
                1.6206094026565552,
                -0.020044025033712388,
                1.847481608390808,
                0.4485514461994171,
                -0.9362919926643372,
                -0.9163071513175964,
                -0.3342697024345398,
                1.235702633857727,
                0.9871821999549866,
                0.5914813876152039,
                -0.8542416095733643,
                0.10959752649068833,
                -0.6538369059562683,
                -1.2948812246322632,
                -1.2076215744018555,
                0.902957558631897,
                -0.35030996799468996,
                -0.08299189060926438,
                -0.7540630102157593,
                -3.6330270767211916,
                0.06265745311975479,
                2.5890960693359377,
                0.9362577795982361,
                1.410843849182129,
                0.8101322054862976,
                1.5188798904418946,
                0.3283670246601105,
                0.28029918670654299,
                0.15419445931911469,
                -0.5780901908874512,
                -1.0588467121124268,
                1.4329400062561036,
                0.9477581977844238,
                -0.2159314602613449,
                -0.752190351486206,
                0.10573603957891464,
                -2.3788647651672365,
                -1.184547781944275,
                -1.6500606536865235,
                0.6905760765075684,
                -0.15335102379322053,
                -1.1766515970230103,
                -2.164355754852295,
                -0.23849835991859437,
                0.8340674638748169,
                -0.26953965425491335,
                0.7773993015289307,
                1.3019979000091553,
                -0.031083814799785615,
                0.3326188921928406,
                0.6241578459739685,
                0.6941406726837158,
                -1.323608636856079,
                -0.05493438243865967,
                -0.0854923352599144,
                -0.9252183437347412,
                0.7181434035301209,
                2.0677435398101808,
                -1.6046327352523804,
                1.2697581052780152,
                -2.6887407302856447,
                0.7660539150238037,
                -0.7929948568344116,
                -0.5700598359107971,
                -0.20594443380832673,
                1.8630223274230958,
                -1.6614481210708619,
                0.2592790424823761,
                -1.9310402870178223,
                -0.9410272836685181,
                -1.5447578430175782,
                -2.382570266723633,
                1.1997127532958985
            ],
            "fitness": 37.989437103271487,
            "npcType": 1,
            "outputLockStatus": [
                false,
                false,
                false,
                false
            ]
        }
    ],
    "timestamp": "2025-05-12 17:28:22"
}