{
    "generation": 845,
    "bestFitness": 10.10545539855957,
    "averageFitness": 7.22636079788208,
    "worstFitness": 0.0,
    "networks": [
        {
            "layers": [
                8,
                8,
                6,
                4
            ],
            "flattenedWeights": [
                -1.279159665107727,
                0.9527031183242798,
                2.2497599124908449,
                -0.29151931405067446,
                2.2533087730407717,
                1.191426157951355,
                -1.5629194974899293,
                -1.382570505142212,
                1.5060954093933106,
                -0.3406303822994232,
                0.4704422652721405,
                0.04296242818236351,
                -1.8541290760040284,
                0.6127942204475403,
                0.69183349609375,
                0.400417685508728,
                2.2501556873321535,
                -0.056506212800741199,
                0.3552396297454834,
                0.0656454861164093,
                0.2647242844104767,
                -1.34279203414917,
                0.22296907007694245,
                -0.2861211895942688,
                -0.7643820643424988,
                -0.002357613295316696,
                0.055416710674762729,
                -0.6711961627006531,
                -1.606248378753662,
                -0.20674347877502442,
                0.8655853867530823,
                1.8399953842163087,
                -2.1631531715393068,
                0.39988264441490176,
                1.0754560232162476,
                -0.5742624402046204,
                -0.36459076404571535,
                1.1192753314971924,
                -1.1923364400863648,
                -0.011098898947238922,
                0.9231338500976563,
                -2.372361183166504,
                -1.0496503114700318,
                -1.9482707977294922,
                0.11695306748151779,
                -0.7657046318054199,
                1.2683544158935547,
                -1.3619295358657838,
                -1.5287320613861085,
                -0.9024964570999146,
                -0.12865561246871949,
                -1.6126450300216675,
                -4.41197395324707,
                -1.5149343013763428,
                0.07488309592008591,
                -0.4153617024421692,
                1.5605931282043458,
                0.4460711181163788,
                -0.07910437881946564,
                1.4292293787002564,
                -0.7083914875984192,
                -3.6114022731781008,
                -0.32947367429733279,
                1.5263094902038575,
                0.002756398171186447,
                1.868227481842041,
                0.47805044054985049,
                -0.7138717770576477,
                -0.9540883302688599,
                -0.38540276885032656,
                1.2820230722427369,
                1.1540367603302003,
                1.0628410577774048,
                -0.9955827593803406,
                0.129886656999588,
                -0.965894341468811,
                -1.2745006084442139,
                -1.336098074913025,
                0.9157505631446838,
                -0.20184428989887238,
                -0.2259737253189087,
                -0.9050289392471314,
                -3.6529629230499269,
                -0.019310254603624345,
                2.27640438079834,
                0.35221582651138308,
                1.177339792251587,
                0.8648321032524109,
                1.3203232288360596,
                0.2521800100803375,
                0.5237326622009277,
                0.1583450436592102,
                -0.6143597364425659,
                -0.7241334915161133,
                1.1682705879211426,
                1.1717922687530518,
                -0.2322041094303131,
                -1.026190996170044,
                0.1729901283979416,
                -2.6275124549865724,
                -0.8706134557723999,
                -1.0635008811950684,
                0.5034508109092712,
                0.1569049209356308,
                -1.0323371887207032,
                -2.1589062213897707,
                -0.1789431869983673,
                0.5989813208580017,
                -0.03774792701005936,
                0.33702677488327029,
                1.3413954973220826,
                -0.18364889919757844,
                0.35943180322647097,
                0.37179887294769289,
                0.5537731647491455,
                -1.4375625848770142,
                0.07962334156036377,
                -0.5588093400001526,
                -0.7761828303337097,
                0.44242334365844729,
                1.3995325565338135,
                -1.6527296304702759,
                1.2323861122131348,
                -2.2833898067474367,
                0.25221624970436098,
                -0.8507636785507202,
                -0.6701719760894775,
                -0.12974762916564942,
                1.7589833736419678,
                -1.2210867404937745,
                0.06570038944482804,
                -1.340513825416565,
                -0.8729630708694458,
                -1.3793047666549683,
                -2.4795644283294679,
                1.2040514945983887
            ],
            "fitness": 10.10545539855957,
            "npcType": 1,
            "outputLockStatus": [
                false,
                false,
                false,
                false
            ]
        },
        {
            "layers": [
                8,
                8,
                6,
                4
            ],
            "flattenedWeights": [
                -1.3118319511413575,
                0.6683452725410461,
                2.0503814220428469,
                -0.19876629114151,
                2.1875452995300295,
                1.210979700088501,
                -1.5629194974899293,
                -1.382570505142212,
                1.6039183139801026,
                -0.25884202122688296,
                0.4442622661590576,
                0.005789056420326233,
                -1.8348850011825562,
                0.36281129717826846,
                0.6453540325164795,
                0.36341220140457156,
                2.3793282508850099,
                -0.056506212800741199,
                0.41817185282707217,
                0.09604335576295853,
                0.23009102046489716,
                -1.34279203414917,
                0.19159074127674104,
                -0.33378708362579348,
                -0.7483106851577759,
                0.019231051206588746,
                0.1655944287776947,
                -0.7169010043144226,
                -1.4726213216781617,
                -0.15036696195602418,
                0.8347535133361816,
                1.774265170097351,
                -2.160135269165039,
                0.45078161358833315,
                0.8737459778785706,
                -0.46153706312179568,
                -0.12031056731939316,
                1.1192753314971924,
                -1.3517565727233887,
                0.07588030397891998,
                0.6712484955787659,
                -1.859442114830017,
                -1.0477807521820069,
                -2.2706825733184816,
                0.11695306748151779,
                -0.7657046318054199,
                1.2574347257614136,
                -1.3619295358657838,
                -1.4822285175323487,
                -0.9808195233345032,
                -0.12865561246871949,
                -1.4677485227584839,
                -4.609579086303711,
                -1.4728977680206299,
                -0.0430523045361042,
                -0.4704006612300873,
                1.8681507110595704,
                0.4460711181163788,
                -0.07910437881946564,
                1.4292293787002564,
                -0.8214330673217773,
                -3.4744274616241457,
                -0.32947367429733279,
                1.2731454372406006,
                -0.1056482344865799,
                1.9084550142288209,
                0.459893137216568,
                -0.709948718547821,
                -0.8732430934906006,
                -0.41331028938293459,
                1.353150486946106,
                1.2078046798706055,
                1.0001424551010132,
                -0.9083604216575623,
                0.3275500535964966,
                -0.8266464471817017,
                -1.3014590740203858,
                -1.396155595779419,
                0.9007428884506226,
                -0.18101218342781068,
                -0.13652494549751283,
                -0.9050289392471314,
                -3.686298131942749,
                0.021345529705286027,
                2.1813879013061525,
                0.46700796484947207,
                1.1684157848358155,
                0.8907824754714966,
                1.1014199256896973,
                0.24959668517112733,
                0.5373175144195557,
                0.1583450436592102,
                -0.5756189227104187,
                -0.7931161522865295,
                1.1682705879211426,
                1.1555222272872925,
                -0.27851003408432009,
                -1.085556149482727,
                0.1893637478351593,
                -2.4309895038604738,
                -0.8706134557723999,
                -1.1341547966003419,
                0.5034508109092712,
                0.21564525365829469,
                -1.0350528955459595,
                -2.0140433311462404,
                -0.05981820076704025,
                0.23424574732780457,
                -0.0585082545876503,
                0.41661563515663149,
                1.1536930799484254,
                -0.10252582281827927,
                0.35528364777565,
                0.24517281353473664,
                0.5517058372497559,
                -1.4375625848770142,
                -0.08860033750534058,
                -0.5158909559249878,
                -0.8439682126045227,
                0.36551541090011599,
                1.811845302581787,
                -1.6082322597503663,
                1.225582480430603,
                -2.2833898067474367,
                0.24572789669036866,
                -0.6730824112892151,
                -0.5495991110801697,
                -0.18115520477294923,
                1.9376318454742432,
                -1.193648338317871,
                0.004744917154312134,
                -1.3310680389404297,
                -0.9703278541564941,
                -1.4294896125793458,
                -2.3157124519348146,
                1.2040514945983887
            ],
            "fitness": 10.105440139770508,
            "npcType": 1,
            "outputLockStatus": [
                false,
                false,
                false,
                false
            ]
        },
        {
            "layers": [
                8,
                8,
                6,
                4
            ],
            "flattenedWeights": [
                -1.1019583940505982,
                0.7364463210105896,
                2.0941858291625978,
                -0.5126129984855652,
                2.20932936668396,
                1.1284581422805787,
                -1.5188353061676026,
                -1.3278158903121949,
                1.6039183139801026,
                -0.25884202122688296,
                0.4491497278213501,
                -0.04886846989393234,
                -1.883846640586853,
                0.4820089340209961,
                0.6240656971931458,
                0.31075191497802737,
                2.247762680053711,
                -0.36901214718818667,
                0.34147754311561587,
                0.11089979857206345,
                0.21995019912719727,
                -1.34279203414917,
                0.3736906349658966,
                -0.39693498611450198,
                -0.7314247488975525,
                -0.002357613295316696,
                0.09246644377708435,
                -0.6568732857704163,
                -1.5927077531814576,
                -0.2478809356689453,
                0.9625154137611389,
                1.6651604175567628,
                -2.1763224601745607,
                0.39988264441490176,
                0.7030377984046936,
                -0.7422482967376709,
                -0.33553385734558108,
                0.9635179042816162,
                -1.228843331336975,
                -0.011098898947238922,
                0.7023195028305054,
                -2.331404685974121,
                -0.9733849763870239,
                -2.2504379749298097,
                0.11695306748151779,
                -0.8453188538551331,
                1.2683544158935547,
                -1.3619295358657838,
                -1.5043474435806275,
                -1.0251739025115967,
                -0.1620883196592331,
                -1.6192494630813599,
                -4.473735332489014,
                -1.465431571006775,
                -0.041321851313114169,
                -0.38854262232780459,
                1.525891661643982,
                0.4460711181163788,
                -0.02901678904891014,
                1.5582786798477173,
                -0.7549710869789124,
                -3.4744274616241457,
                -0.28803372383117678,
                1.4506807327270508,
                -0.17529727518558503,
                1.6689352989196778,
                0.5520626306533814,
                -0.709948718547821,
                -0.8732430934906006,
                -0.38540276885032656,
                1.2820230722427369,
                1.1422984600067139,
                1.091715931892395,
                -0.9794730544090271,
                0.20458558201789857,
                -0.9339765310287476,
                -1.1615914106369019,
                -1.3670120239257813,
                1.0199551582336426,
                -0.11364824324846268,
                -0.08640658110380173,
                -0.8170903921127319,
                -3.550565242767334,
                -0.03773060813546181,
                1.9889651536941529,
                0.3796609342098236,
                1.211519718170166,
                0.8509148359298706,
                1.3506311178207398,
                0.1763927936553955,
                0.5796719789505005,
                0.11631602048873902,
                -0.6143597364425659,
                -0.7711392045021057,
                1.1018929481506348,
                1.1717922687530518,
                -0.3021604120731354,
                -1.0870866775512696,
                0.11663054674863816,
                -2.548013210296631,
                -0.802807092666626,
                -1.0861694812774659,
                0.5085097551345825,
                0.06713148951530457,
                -0.9636859893798828,
                -2.052734136581421,
                -0.15326878428459168,
                0.5989813208580017,
                -0.0045538172125816349,
                0.33702677488327029,
                1.4293752908706666,
                -0.26252248883247378,
                0.35943180322647097,
                0.3698672652244568,
                0.5537731647491455,
                -1.5796928405761719,
                0.042786113917827609,
                -0.4791193902492523,
                -0.771355390548706,
                0.4520167112350464,
                1.3531525135040284,
                -1.6884312629699708,
                1.1408072710037232,
                -2.4119181632995607,
                0.28861093521118166,
                -0.6202256679534912,
                -0.6462885737419128,
                -0.12974762916564942,
                1.8390449285507203,
                -1.3376737833023072,
                0.047669850289821628,
                -1.340513825416565,
                -0.9909811019897461,
                -1.4519695043563843,
                -2.305835247039795,
                1.204599380493164
            ],
            "fitness": 10.105417251586914,
            "npcType": 1,
            "outputLockStatus": [
                false,
                false,
                false,
                false
            ]
        },
        {
            "layers": [
                8,
                8,
                6,
                4
            ],
            "flattenedWeights": [
                -1.1189050674438477,
                0.9527031183242798,
                2.0941858291625978,
                -0.3503723442554474,
                2.1875452995300295,
                1.1375764608383179,
                -1.544071912765503,
                -1.2880245447158814,
                1.6039183139801026,
                -0.3729032278060913,
                0.5137909650802612,
                -0.04998002573847771,
                -1.824966549873352,
                0.5086037516593933,
                0.6517869234085083,
                0.400417685508728,
                2.307504892349243,
                -0.42133423686027529,
                0.24146296083927155,
                0.0934206023812294,
                0.2647242844104767,
                -1.34279203414917,
                0.22409185767173768,
                -0.2710268199443817,
                -0.6888059377670288,
                -0.002357613295316696,
                0.010240264236927033,
                -0.6568732857704163,
                -1.4502360820770264,
                -0.26120319962501528,
                0.9849036335945129,
                1.820311188697815,
                -2.190814733505249,
                0.40565353631973269,
                1.0754560232162476,
                -0.7422482967376709,
                -0.45762285590171816,
                0.9635179042816162,
                -1.189569354057312,
                -0.011098898947238922,
                0.7023195028305054,
                -2.3118643760681154,
                -0.9882501363754273,
                -2.240511894226074,
                0.23092743754386903,
                -0.8532753586769104,
                1.3119298219680787,
                -1.4178844690322877,
                -1.4316668510437012,
                -1.0080299377441407,
                -0.3152095079421997,
                -1.470716118812561,
                -4.473735332489014,
                -1.4294848442077637,
                0.07488309592008591,
                -0.3706180453300476,
                1.525891661643982,
                0.4460711181163788,
                -0.017211228609085084,
                1.5582786798477173,
                -0.6031678318977356,
                -3.5182411670684816,
                -0.32947367429733279,
                1.4082775115966797,
                -0.017131250351667405,
                1.5850499868392945,
                0.47805044054985049,
                -0.709948718547821,
                -0.8732430934906006,
                -0.4219250977039337,
                1.3320928812026978,
                1.2407971620559693,
                1.1121684312820435,
                -0.9562339186668396,
                0.20458558201789857,
                -0.9773472547531128,
                -1.214332103729248,
                -1.3670120239257813,
                0.9777773022651672,
                -0.1679050326347351,
                -0.1283620446920395,
                -0.8170903921127319,
                -3.6176130771636965,
                -0.01584770157933235,
                1.9152308702468873,
                0.4369547367095947,
                1.104512095451355,
                0.8181631565093994,
                1.3203232288360596,
                0.2521800100803375,
                0.47507721185684206,
                0.12162360548973084,
                -0.5499159097671509,
                -0.7711392045021057,
                1.1813499927520753,
                1.1758463382720948,
                -0.28664499521255495,
                -1.0870866775512696,
                0.25067222118377688,
                -2.548013210296631,
                -0.8706134557723999,
                -0.9844036102294922,
                0.5073357820510864,
                0.07604090124368668,
                -0.9885152578353882,
                -2.052734136581421,
                -0.19739754498004914,
                0.50953209400177,
                -0.1254836767911911,
                0.41661563515663149,
                1.3413954973220826,
                -0.17442581057548524,
                0.44293344020843508,
                0.37179887294769289,
                0.5579144954681397,
                -1.550805926322937,
                -0.0399308055639267,
                -0.5520469546318054,
                -0.8183531761169434,
                0.4520167112350464,
                1.7439664602279664,
                -1.6569044589996338,
                1.0764027833938599,
                -2.522993803024292,
                0.1542290449142456,
                -0.7024586796760559,
                -0.4581362009048462,
                -0.154881551861763,
                1.7758346796035767,
                -1.170422077178955,
                0.14335496723651887,
                -1.3884462118148804,
                -0.8915120959281921,
                -1.3926821947097779,
                -2.383012294769287,
                1.1918927431106568
            ],
            "fitness": 10.100229263305664,
            "npcType": 1,
            "outputLockStatus": [
                false,
                false,
                false,
                false
            ]
        },
        {
            "layers": [
                8,
                8,
                6,
                4
            ],
            "flattenedWeights": [
                -1.279159665107727,
                0.7538819909095764,
                2.22694993019104,
                -0.19876629114151,
                2.1875452995300295,
                1.218366026878357,
                -1.4979408979415894,
                -1.382570505142212,
                1.730735182762146,
                -0.25884202122688296,
                0.4704422652721405,
                0.09703280031681061,
                -1.9152904748916627,
                0.47943925857543948,
                0.6651536822319031,
                0.15061771869659425,
                2.3793282508850099,
                -0.056506212800741199,
                0.47582200169563296,
                0.11089979857206345,
                0.25301188230514529,
                -1.436911702156067,
                0.14214280247688294,
                -0.33378708362579348,
                -0.898694634437561,
                0.02682396024465561,
                0.09246644377708435,
                -0.6743726134300232,
                -1.5927077531814576,
                -0.26120319962501528,
                0.9308182001113892,
                1.774265170097351,
                -2.1841845512390138,
                0.3618701696395874,
                0.803877055644989,
                -0.6343687176704407,
                -0.4252620041370392,
                1.1192753314971924,
                -1.2866177558898926,
                0.10043251514434815,
                0.83099365234375,
                -2.3527557849884035,
                -1.0442534685134888,
                -2.2742385864257814,
                0.14371350407600404,
                -0.8666191697120667,
                1.3119298219680787,
                -1.3619295358657838,
                -1.4822285175323487,
                -0.9348045587539673,
                -0.12865561246871949,
                -1.761281967163086,
                -4.41956901550293,
                -1.5149343013763428,
                0.02220403030514717,
                -0.4799118638038635,
                1.8884578943252564,
                0.4460711181163788,
                -0.006066538393497467,
                1.4292293787002564,
                -0.805215060710907,
                -3.475289821624756,
                -0.32947367429733279,
                1.3671964406967164,
                -0.04328460618853569,
                1.868227481842041,
                0.459893137216568,
                -0.6247604489326477,
                -0.9540883302688599,
                -0.41331028938293459,
                1.3654788732528687,
                1.066220998764038,
                1.0418826341629029,
                -0.9112711548805237,
                0.3115147352218628,
                -0.8348844647407532,
                -1.2332218885421754,
                -1.396155595779419,
                1.0377931594848633,
                -0.1439988613128662,
                -0.13507305085659028,
                -0.9050289392471314,
                -3.6529629230499269,
                -0.03773060813546181,
                2.1813879013061525,
                0.46710848808288576,
                1.1684157848358155,
                0.8400269150733948,
                1.3567136526107789,
                0.24959668517112733,
                0.5237326622009277,
                0.1583450436592102,
                -0.5573410391807556,
                -0.8597707748413086,
                1.1682705879211426,
                1.1258541345596314,
                -0.344738632440567,
                -1.0087125301361085,
                -0.006517365574836731,
                -2.305567979812622,
                -0.6947328448295593,
                -1.1035594940185547,
                0.5675557255744934,
                -0.07208622246980667,
                -1.2714378833770753,
                -2.1589062213897707,
                -0.4207743704319,
                0.2901354432106018,
                0.0023851990699768068,
                0.5114313364028931,
                1.2146706581115723,
                -0.18364889919757844,
                0.35943180322647097,
                0.29135191440582278,
                0.8776339292526245,
                -1.6032017469406129,
                0.04776918888092041,
                -0.5588093400001526,
                -0.5823884010314941,
                0.36551541090011599,
                1.7572755813598633,
                -1.522098422050476,
                1.315474033355713,
                -2.4824090003967287,
                0.23271991312503816,
                -0.6730824112892151,
                -0.6462885737419128,
                -0.18115520477294923,
                1.8390449285507203,
                -1.0655125379562379,
                0.004744917154312134,
                -1.2081888914108277,
                -0.9703278541564941,
                -1.3793047666549683,
                -2.2384583950042726,
                1.155243158340454
            ],
            "fitness": 10.094213485717774,
            "npcType": 1,
            "outputLockStatus": [
                false,
                false,
                false,
                false
            ]
        },
        {
            "layers": [
                8,
                8,
                6,
                4
            ],
            "flattenedWeights": [
                -1.279159665107727,
                0.9527031183242798,
                2.020794153213501,
                -0.2525483965873718,
                2.1875452995300295,
                1.191426157951355,
                -1.5629194974899293,
                -1.382570505142212,
                1.6039183139801026,
                -0.3729032278060913,
                0.4704422652721405,
                0.005789056420326233,
                -1.804447054862976,
                0.5464228987693787,
                0.7776148915290833,
                0.36341220140457156,
                2.3793282508850099,
                -0.09098410606384278,
                0.398368239402771,
                0.11089979857206345,
                0.011063054203987122,
                -1.2563704252243043,
                0.22409185767173768,
                -0.33174312114715578,
                -0.7483106851577759,
                0.026630032807588579,
                0.13774821162223817,
                -0.6711961627006531,
                -1.4675359725952149,
                -0.15036696195602418,
                0.9196189641952515,
                1.820311188697815,
                -2.2525954246520998,
                0.41150951385498049,
                1.0707941055297852,
                -0.5742624402046204,
                -0.12031056731939316,
                1.1192753314971924,
                -1.3478776216506959,
                0.04080329090356827,
                0.7089700698852539,
                -2.3527557849884035,
                -1.070418119430542,
                -1.9248608350753785,
                0.17550981044769288,
                -0.804404079914093,
                1.2748419046401978,
                -1.3619295358657838,
                -1.5296534299850464,
                -0.9348045587539673,
                -0.23573392629623414,
                -1.4677485227584839,
                -4.6235151290893559,
                -1.4728977680206299,
                0.02220403030514717,
                -0.4667853116989136,
                1.525891661643982,
                0.4460711181163788,
                -0.0771544873714447,
                1.4292293787002564,
                -0.6867949962615967,
                -3.5846099853515627,
                -0.32947367429733279,
                1.4964791536331177,
                -0.14469152688980103,
                1.6689352989196778,
                0.38686805963516238,
                -0.7138717770576477,
                -0.8732430934906006,
                -0.38540276885032656,
                1.371295690536499,
                1.1540367603302003,
                1.0418826341629029,
                -0.9060127139091492,
                0.27648231387138369,
                -0.8266464471817017,
                -1.2332218885421754,
                -1.396155595779419,
                0.8736202716827393,
                -0.11504426598548889,
                -0.13652494549751283,
                -0.9050289392471314,
                -3.7362141609191896,
                -0.03773060813546181,
                2.1813879013061525,
                0.38791659474372866,
                1.1684157848358155,
                0.9041607975959778,
                1.3506311178207398,
                0.18921291828155518,
                0.5237326622009277,
                0.12956392765045167,
                -0.5573410391807556,
                -0.7914676070213318,
                1.1682705879211426,
                1.1518058776855469,
                -0.2322041094303131,
                -1.026190996170044,
                0.1255371868610382,
                -2.4650068283081056,
                -0.8706134557723999,
                -1.1014645099639893,
                0.5034508109092712,
                0.07271721959114075,
                -1.0323371887207032,
                -2.0140433311462404,
                -0.4207743704319,
                0.47635042667388918,
                -0.03774792701005936,
                0.2638372480869293,
                1.3199843168258668,
                -0.3296125531196594,
                0.35943180322647097,
                0.24517281353473664,
                0.8588024973869324,
                -1.3472400903701783,
                -0.05711914226412773,
                -0.4835684299468994,
                -0.9646041989326477,
                0.3051961064338684,
                1.7439664602279664,
                -1.6569044589996338,
                1.275566577911377,
                -2.198089838027954,
                0.23271991312503816,
                -0.6730824112892151,
                -0.5495991110801697,
                -0.1368129551410675,
                1.7580617666244507,
                -1.2064220905303956,
                0.06570038944482804,
                -1.3556503057479859,
                -0.9703278541564941,
                -1.4727596044540406,
                -2.3157124519348146,
                1.2040514945983887
            ],
            "fitness": 10.084314346313477,
            "npcType": 1,
            "outputLockStatus": [
                false,
                false,
                false,
                false
            ]
        },
        {
            "layers": [
                8,
                8,
                6,
                4
            ],
            "flattenedWeights": [
                -1.279159665107727,
                0.7538819909095764,
                2.2942261695861818,
                -0.19876629114151,
                2.268152952194214,
                1.2288134098052979,
                -1.5629194974899293,
                -1.3052732944488526,
                1.6039183139801026,
                -0.25884202122688296,
                0.42325466871261599,
                0.005789056420326233,
                -1.8348850011825562,
                0.5464228987693787,
                0.561273992061615,
                0.36341220140457156,
                2.2612152099609377,
                -0.056506212800741199,
                0.310985267162323,
                0.18676917254924775,
                0.2647242844104767,
                -1.34279203414917,
                0.22296907007694245,
                -0.33378708362579348,
                -0.6746459007263184,
                0.026630032807588579,
                0.09246644377708435,
                -0.6737921237945557,
                -1.4675359725952149,
                -0.26120319962501528,
                0.9387063384056091,
                1.7632125616073609,
                -2.1631531715393068,
                0.41150951385498049,
                0.9733409285545349,
                -0.5742624402046204,
                -0.12031056731939316,
                1.1192753314971924,
                -1.2866177558898926,
                0.04080329090356827,
                0.9231338500976563,
                -2.3527557849884035,
                -0.9108083844184876,
                -1.9205201864242554,
                0.14371350407600404,
                -0.7657046318054199,
                1.3119298219680787,
                -1.3619295358657838,
                -1.3927054405212403,
                -0.9348045587539673,
                -0.21979859471321107,
                -1.4677485227584839,
                -4.609579086303711,
                -1.5149343013763428,
                0.02220403030514717,
                -0.4153617024421692,
                1.5605931282043458,
                0.4460711181163788,
                -0.05285682901740074,
                1.4292293787002564,
                -0.805215060710907,
                -3.4948620796203615,
                -0.32947367429733279,
                1.2731454372406006,
                -0.166172593832016,
                1.897979736328125,
                0.38686805963516238,
                -0.7734498381614685,
                -1.020439863204956,
                -0.41331028938293459,
                1.2361971139907838,
                1.1729365587234498,
                1.0418826341629029,
                -0.9133605360984802,
                0.24050143361091615,
                -0.8266464471817017,
                -1.2332218885421754,
                -1.396155595779419,
                0.9777773022651672,
                -0.18101218342781068,
                -0.14032107591629029,
                -0.9050289392471314,
                -3.6529629230499269,
                -0.03773060813546181,
                2.203765392303467,
                0.4062710404396057,
                1.226811170578003,
                0.8694591522216797,
                1.3506311178207398,
                0.24959668517112733,
                0.5237326622009277,
                0.18824255466461183,
                -0.46911031007766726,
                -0.7852004766464233,
                1.1682705879211426,
                1.0952669382095338,
                -0.13444480299949647,
                -0.9829906225204468,
                0.23422469198703767,
                -2.430483818054199,
                -0.8706134557723999,
                -1.0556052923202515,
                0.5034508109092712,
                0.11694244295358658,
                -1.0350528955459595,
                -2.1589062213897707,
                -0.45973584055900576,
                0.47635042667388918,
                -0.03774792701005936,
                0.3167667090892792,
                1.3199843168258668,
                -0.18496611714363099,
                0.31726258993148806,
                0.24517281353473664,
                0.7093012928962708,
                -1.4375625848770142,
                -0.02664339542388916,
                -0.5588093400001526,
                -0.8680321574211121,
                0.36551541090011599,
                1.7439664602279664,
                -1.6197235584259034,
                1.2658790349960328,
                -2.2833898067474367,
                0.23271991312503816,
                -0.6730824112892151,
                -0.6462885737419128,
                -0.137975811958313,
                1.8390449285507203,
                -1.1780725717544556,
                0.004744917154312134,
                -1.340513825416565,
                -0.9703278541564941,
                -1.3354703187942505,
                -2.3157124519348146,
                1.263046145439148
            ],
            "fitness": 10.084127426147461,
            "npcType": 1,
            "outputLockStatus": [
                false,
                false,
                false,
                false
            ]
        },
        {
            "layers": [
                8,
                8,
                6,
                4
            ],
            "flattenedWeights": [
                -1.2636730670928956,
                0.7538819909095764,
                2.22694993019104,
                -0.463654488325119,
                2.1437931060791017,
                1.191426157951355,
                -1.5014516115188599,
                -1.382570505142212,
                1.6039183139801026,
                -0.3729032278060913,
                0.46139222383499148,
                0.005789056420326233,
                -1.883846640586853,
                0.5464228987693787,
                0.6240656971931458,
                0.3427797257900238,
                2.2612152099609377,
                -0.056506212800741199,
                0.3552396297454834,
                0.09708035737276077,
                0.20880863070487977,
                -1.3119162321090699,
                0.27718839049339297,
                -0.39693498611450198,
                -0.6988362073898315,
                -0.002357613295316696,
                0.11979696899652481,
                -0.6211991906166077,
                -1.4675359725952149,
                -0.12887337803840638,
                0.7694333791732788,
                1.820311188697815,
                -2.13305401802063,
                0.36259910464286806,
                1.0220162868499756,
                -0.7422482967376709,
                -0.39885783195495608,
                1.201860785484314,
                -1.2267184257507325,
                0.04080329090356827,
                0.7023195028305054,
                -2.3527557849884035,
                -1.0496503114700318,
                -2.3414342403411867,
                0.14371350407600404,
                -0.7533824443817139,
                1.3119298219680787,
                -1.3619295358657838,
                -1.5043474435806275,
                -0.9024964570999146,
                -0.1620883196592331,
                -1.5382208824157715,
                -4.609579086303711,
                -1.5315089225769044,
                0.1501474827528,
                -0.4153617024421692,
                1.525891661643982,
                0.4460711181163788,
                -0.017211228609085084,
                1.6310901641845704,
                -0.7292777895927429,
                -3.4744274616241457,
                -0.2102365791797638,
                1.4203121662139893,
                0.002756398171186447,
                1.9439074993133546,
                0.38686805963516238,
                -0.7147622108459473,
                -0.9540883302688599,
                -0.41331028938293459,
                1.224684715270996,
                1.1540367603302003,
                1.0628410577774048,
                -0.9955827593803406,
                0.16070592403411866,
                -1.011763572692871,
                -1.214332103729248,
                -1.3436596393585206,
                0.9083836674690247,
                -0.1679050326347351,
                -0.1283620446920395,
                -0.8170903921127319,
                -3.6176130771636965,
                -0.03773060813546181,
                1.9385631084442139,
                0.35221582651138308,
                1.1684157848358155,
                0.9104090929031372,
                1.3203232288360596,
                0.33729955554008486,
                0.5008065700531006,
                0.1583450436592102,
                -0.623478353023529,
                -0.8167257905006409,
                1.1018929481506348,
                1.0952669382095338,
                -0.2322041094303131,
                -1.0870866775512696,
                0.1729901283979416,
                -2.448296546936035,
                -0.802807092666626,
                -1.1208202838897706,
                0.5073357820510864,
                0.11694244295358658,
                -1.0323371887207032,
                -2.1220977306365969,
                -0.4207743704319,
                0.5989813208580017,
                0.053277887403964999,
                0.47265663743019106,
                1.3199843168258668,
                -0.26252248883247378,
                0.2718092203140259,
                0.3148612976074219,
                0.797021210193634,
                -1.550805926322937,
                0.03588447719812393,
                -0.5520469546318054,
                -0.711628258228302,
                0.353598415851593,
                1.7439664602279664,
                -1.6569044589996338,
                1.2323861122131348,
                -2.522993803024292,
                0.23271991312503816,
                -0.947288990020752,
                -0.6462885737419128,
                -0.12974762916564942,
                1.7589833736419678,
                -1.1228324174880982,
                0.06570038944482804,
                -1.3884462118148804,
                -1.0356380939483643,
                -1.468275547027588,
                -2.383012294769287,
                1.1362850666046143
            ],
            "fitness": 10.076736450195313,
            "npcType": 1,
            "outputLockStatus": [
                false,
                false,
                false,
                false
            ]
        },
        {
            "layers": [
                8,
                8,
                6,
                4
            ],
            "flattenedWeights": [
                -1.279159665107727,
                0.6550889611244202,
                2.22694993019104,
                -0.2709326148033142,
                2.1875452995300295,
                1.2362070083618165,
                -1.5149346590042115,
                -1.382570505142212,
                1.6039183139801026,
                -0.1931598037481308,
                0.46139222383499148,
                -0.021337982267141343,
                -1.8173521757125855,
                0.5464228987693787,
                0.6453540325164795,
                0.36341220140457156,
                2.235934019088745,
                -0.056506212800741199,
                0.310985267162323,
                0.11089979857206345,
                0.3205798268318176,
                -1.34279203414917,
                0.22296907007694245,
                -0.32738277316093447,
                -0.7216863632202148,
                0.1067931056022644,
                0.1450430303812027,
                -0.6725137233734131,
                -1.5094236135482789,
                -0.26120319962501528,
                0.981083333492279,
                1.774265170097351,
                -2.1631531715393068,
                0.41150951385498049,
                1.0220162868499756,
                -0.5742624402046204,
                -0.12031056731939316,
                1.1192753314971924,
                -1.2866177558898926,
                0.04080329090356827,
                0.9231338500976563,
                -2.3527557849884035,
                -0.9235600233078003,
                -1.9482707977294922,
                0.14371350407600404,
                -0.8240416049957275,
                1.3119298219680787,
                -1.3619295358657838,
                -1.4822285175323487,
                -0.9348045587539673,
                -0.12865561246871949,
                -1.4677485227584839,
                -4.656886577606201,
                -1.5186986923217774,
                0.02220403030514717,
                -0.4153617024421692,
                1.5605931282043458,
                0.47655853629112246,
                -0.15279918909072877,
                1.443999171257019,
                -0.805215060710907,
                -3.4744274616241457,
                -0.32947367429733279,
                1.355724573135376,
                -0.14469152688980103,
                1.868227481842041,
                0.31589412689208987,
                -0.709948718547821,
                -0.9540883302688599,
                -0.41331028938293459,
                1.1560138463974,
                1.1540367603302003,
                1.0418826341629029,
                -0.9133605360984802,
                0.21409699320793153,
                -0.8266464471817017,
                -1.2332218885421754,
                -1.396155595779419,
                0.9777773022651672,
                -0.24691852927207948,
                -0.13507305085659028,
                -0.9050289392471314,
                -3.6529629230499269,
                -0.08231094479560852,
                2.1758439540863039,
                0.4062710404396057,
                1.1684157848358155,
                0.8509148359298706,
                1.3506311178207398,
                0.24959668517112733,
                0.5237326622009277,
                0.1583450436592102,
                -0.5573410391807556,
                -0.7914676070213318,
                1.2292689085006714,
                1.0952669382095338,
                -0.2322041094303131,
                -0.9624196887016296,
                0.10418254882097244,
                -2.430483818054199,
                -0.8850207328796387,
                -1.1035594940185547,
                0.5893154740333557,
                0.11694244295358658,
                -1.0350528955459595,
                -2.1589062213897707,
                -0.4207743704319,
                0.47635042667388918,
                -0.03774792701005936,
                0.41661563515663149,
                1.3884317874908448,
                -0.154952272772789,
                0.35943180322647097,
                0.24517281353473664,
                0.797021210193634,
                -1.4375625848770142,
                0.013769567012786866,
                -0.5867207646369934,
                -0.8680321574211121,
                0.36551541090011599,
                1.7439664602279664,
                -1.603895664215088,
                1.2658790349960328,
                -2.2833898067474367,
                0.23271991312503816,
                -0.6730824112892151,
                -0.6133922934532166,
                -0.18115520477294923,
                1.8390449285507203,
                -1.2064220905303956,
                0.00713454931974411,
                -1.340513825416565,
                -0.9703278541564941,
                -1.3793047666549683,
                -2.3157124519348146,
                1.2040514945983887
            ],
            "fitness": 10.07369613647461,
            "npcType": 1,
            "outputLockStatus": [
                false,
                false,
                false,
                false
            ]
        },
        {
            "layers": [
                8,
                8,
                6,
                4
            ],
            "flattenedWeights": [
                -1.1988458633422852,
                0.7538819909095764,
                2.147002935409546,
                -0.463654488325119,
                2.253248691558838,
                1.1963084936141968,
                -1.5629194974899293,
                -1.382570505142212,
                1.647242784500122,
                -0.3729032278060913,
                0.3704586625099182,
                -0.0775655210018158,
                -1.883846640586853,
                0.5086037516593933,
                0.6240656971931458,
                0.400417685508728,
                2.1681785583496095,
                -0.020345982164144517,
                0.3552396297454834,
                0.15590697526931764,
                0.2647242844104767,
                -1.34279203414917,
                0.13287484645843507,
                -0.39693498611450198,
                -0.6991009712219238,
                -0.002357613295316696,
                0.2208164930343628,
                -0.6568732857704163,
                -1.5976077318191529,
                -0.15036696195602418,
                0.8406587839126587,
                1.820311188697815,
                -2.190814733505249,
                0.39988264441490176,
                1.0220162868499756,
                -0.6576296091079712,
                -0.38701942563056948,
                0.8954603672027588,
                -1.2382500171661378,
                0.07588030397891998,
                0.6712484955787659,
                -1.898970603942871,
                -1.0496503114700318,
                -2.3414342403411867,
                0.11695306748151779,
                -0.7657046318054199,
                1.2683544158935547,
                -1.3688105344772339,
                -1.5596818923950196,
                -0.9024964570999146,
                -0.1620883196592331,
                -1.4677485227584839,
                -4.536978721618652,
                -1.4728977680206299,
                0.02220403030514717,
                -0.36348578333854678,
                1.525891661643982,
                0.4422394633293152,
                -0.11281438916921616,
                1.4895344972610474,
                -0.805215060710907,
                -3.4915273189544679,
                -0.2102365791797638,
                1.4506807327270508,
                -0.0312289260327816,
                1.8647654056549073,
                0.47805044054985049,
                -0.7138717770576477,
                -0.9540883302688599,
                -0.38540276885032656,
                1.2361971139907838,
                1.1540367603302003,
                1.027607798576355,
                -0.9955827593803406,
                0.20458558201789857,
                -1.0217889547348023,
                -1.214332103729248,
                -1.3436596393585206,
                1.054632544517517,
                -0.1679050326347351,
                -0.2301841676235199,
                -0.916641354560852,
                -3.533517599105835,
                -0.03773060813546181,
                2.0800607204437258,
                0.35221582651138308,
                1.104512095451355,
                0.8897377252578735,
                1.3203232288360596,
                0.09465321153402329,
                0.5334287285804749,
                0.018880635499954225,
                -0.5756189227104187,
                -0.7711392045021057,
                1.1506751775741578,
                1.1555222272872925,
                -0.34940871596336367,
                -1.0870866775512696,
                0.23878541588783265,
                -2.548013210296631,
                -0.7796501517295837,
                -1.025782823562622,
                0.5612135529518127,
                0.14401957392692567,
                -1.0323371887207032,
                -2.052734136581421,
                -0.44845712184906008,
                0.5989813208580017,
                0.053277887403964999,
                0.47469770908355715,
                1.2481619119644166,
                -0.26252248883247378,
                0.30064934492111208,
                0.32190361618995669,
                0.797021210193634,
                -1.584315299987793,
                0.03588447719812393,
                -0.5520469546318054,
                -0.7743549942970276,
                0.36510953307151797,
                1.7439664602279664,
                -1.6569044589996338,
                1.2323861122131348,
                -2.4920096397399904,
                0.23271991312503816,
                -0.8507636785507202,
                -0.5397772192955017,
                -0.21564310789108277,
                1.7488826513290406,
                -1.2064220905303956,
                0.06570038944482804,
                -1.3556503057479859,
                -1.046213150024414,
                -1.4059265851974488,
                -2.383012294769287,
                1.204599380493164
            ],
            "fitness": 10.06216049194336,
            "npcType": 1,
            "outputLockStatus": [
                false,
                false,
                false,
                false
            ]
        }
    ],
    "timestamp": "2025-05-12 17:13:22"
}