{
    "generation": 530,
    "bestFitness": 40.735958099365237,
    "averageFitness": 18.13349151611328,
    "worstFitness": 0.0,
    "networks": [
        {
            "layers": [
                8,
                8,
                6,
                4
            ],
            "flattenedWeights": [
                -1.0558679103851319,
                1.5863529443740845,
                1.2069662809371949,
                0.30817121267318728,
                1.6702686548233033,
                0.0986500158905983,
                -1.245815634727478,
                -1.3896833658218384,
                0.5731047987937927,
                -0.5274471044540405,
                0.7444072365760803,
                -0.14104445278644563,
                -0.8782498240470886,
                -0.0938623920083046,
                0.9674403667449951,
                -0.5665350556373596,
                1.8412847518920899,
                -0.4212837219238281,
                -0.6072399020195007,
                -0.16008079051971436,
                -0.028597243130207063,
                -0.7874225378036499,
                0.3894348740577698,
                0.5227348804473877,
                -1.4052414894104005,
                -0.7585638761520386,
                -0.5799760222434998,
                -1.136232852935791,
                -1.3103466033935547,
                -1.0668325424194337,
                0.10303360223770142,
                1.17621910572052,
                -1.893821120262146,
                0.20429718494415284,
                1.5619429349899293,
                -0.23263967037200929,
                -0.8665287494659424,
                0.16478796303272248,
                -1.0584280490875245,
                -0.7674456834793091,
                0.2514564096927643,
                -1.8592203855514527,
                -0.6317608952522278,
                -1.752138376235962,
                0.3668096363544464,
                -0.0411875918507576,
                1.1442372798919678,
                -0.7362763285636902,
                -0.4012640416622162,
                -1.0993633270263672,
                0.5892652273178101,
                -1.2602907419204713,
                -3.0683670043945314,
                -1.22384774684906,
                0.4491768777370453,
                0.07793116569519043,
                1.0807350873947144,
                0.2232258915901184,
                0.4247046411037445,
                1.4864782094955445,
                -0.4651072025299072,
                -3.052776575088501,
                -1.1284126043319703,
                1.0296580791473389,
                -0.4992857277393341,
                1.5780659914016724,
                -0.22000212967395783,
                -0.2330876588821411,
                -0.07366474717855454,
                -0.6443661451339722,
                0.39364007115364077,
                0.9013779163360596,
                1.807226538658142,
                -1.251281499862671,
                0.0028327032923698427,
                -0.7016852498054504,
                -1.118263602256775,
                -0.1220766231417656,
                0.3201446533203125,
                1.096063256263733,
                0.042939744889736179,
                -0.6100407242774963,
                -2.7422752380371095,
                0.15173031389713288,
                2.065272569656372,
                1.013083577156067,
                1.1228477954864503,
                0.5144884586334229,
                0.8387985229492188,
                0.04795960336923599,
                0.42788419127464297,
                0.32341355085372927,
                0.04986381158232689,
                0.2750447392463684,
                0.13161276280879975,
                0.5764065980911255,
                0.10692014545202255,
                -1.1172701120376588,
                0.43090999126434328,
                -2.2071597576141359,
                -1.281109094619751,
                -1.4450706243515015,
                0.32536599040031435,
                -0.07636895030736923,
                -0.996558427810669,
                -1.4895292520523072,
                -0.3725578784942627,
                0.6936397552490234,
                0.9958620071411133,
                -0.5288541913032532,
                1.0183087587356568,
                -1.0409184694290162,
                1.3159284591674805,
                0.7694145441055298,
                0.9080462455749512,
                -1.0684977769851685,
                0.63908851146698,
                -1.1260032653808594,
                -0.3983032703399658,
                0.4175144135951996,
                1.2056338787078858,
                -1.830554485321045,
                -0.09615779668092728,
                -2.140174627304077,
                0.9308054447174072,
                -0.8613207340240479,
                -0.9687626957893372,
                0.34958526492118838,
                2.2114360332489015,
                -0.0906553566455841,
                -0.6137524843215942,
                -0.32346534729003909,
                -0.7435194253921509,
                -1.561143159866333,
                -3.035696029663086,
                0.22558632493019105
            ],
            "fitness": 40.735958099365237,
            "npcType": 1,
            "outputLockStatus": [
                false,
                false,
                false,
                false
            ]
        },
        {
            "layers": [
                8,
                8,
                6,
                4
            ],
            "flattenedWeights": [
                -0.3204455077648163,
                0.9903383851051331,
                -0.6043808460235596,
                -0.41058725118637087,
                -0.7439780831336975,
                0.3951379656791687,
                1.5027834177017213,
                0.3750782608985901,
                1.3822816610336304,
                0.39717793464660647,
                -2.553361177444458,
                -1.2058591842651368,
                2.0949528217315676,
                0.40339985489845278,
                -0.9586440324783325,
                -0.24975115060806275,
                -0.3843773603439331,
                1.2193149328231812,
                -0.7255476117134094,
                -0.17094069719314576,
                -0.1781441867351532,
                1.848691463470459,
                0.6247899532318115,
                0.7364377379417419,
                -0.09826592355966568,
                -0.35155391693115237,
                0.3838012218475342,
                -0.8816295266151428,
                1.4840561151504517,
                0.03979866951704025,
                -0.8315783143043518,
                0.5637320280075073,
                -0.7269362807273865,
                0.6993687152862549,
                0.5579699873924255,
                0.19189690053462983,
                0.5606054067611694,
                0.6075733304023743,
                1.170997977256775,
                -0.6333317160606384,
                0.6616483926773071,
                -1.5988478660583497,
                1.1113224029541016,
                0.22713087499141694,
                0.12260743230581284,
                1.1210706233978272,
                1.573460578918457,
                -0.9726712703704834,
                0.018793534487485887,
                2.272211790084839,
                0.15265211462974549,
                0.19230413436889649,
                0.4649572968482971,
                1.2541393041610718,
                0.04193493723869324,
                -1.5554656982421876,
                0.8111231327056885,
                0.12998923659324647,
                0.7990051507949829,
                0.11060468852519989,
                1.8964837789535523,
                1.224845051765442,
                0.08661633729934693,
                -0.9777417182922363,
                -0.05525481328368187,
                1.9182225465774537,
                -0.07731495797634125,
                -1.1158990859985352,
                0.11100677400827408,
                -0.5796700119972229,
                0.9139244556427002,
                -0.7941550612449646,
                -0.6772834658622742,
                0.12809628248214723,
                1.3100420236587525,
                -0.676886796951294,
                0.3906617760658264,
                -1.2326496839523316,
                0.8488376140594482,
                -1.2458463907241822,
                -0.1686641275882721,
                1.6104354858398438,
                -0.9200204610824585,
                -0.45445069670677187,
                0.5791698694229126,
                1.1341724395751954,
                1.0584909915924073,
                0.5062040090560913,
                -0.6983227729797363,
                0.6284841299057007,
                -0.16021889448165894,
                -0.46769317984580996,
                0.40640532970428469,
                2.1151864528656008,
                0.8533791899681091,
                1.5600584745407105,
                1.4656111001968384,
                0.870729923248291,
                -0.46825525164604189,
                0.13175475597381593,
                -0.7858472466468811,
                -1.6962966918945313,
                0.04935611039400101,
                1.1067954301834107,
                -1.334833025932312,
                -0.1811412125825882,
                -1.2498340606689454,
                1.1031566858291627,
                -0.44020289182662966,
                -1.3391799926757813,
                -1.574128270149231,
                0.7048398852348328,
                -0.2694924473762512,
                0.5706710815429688,
                0.9410290122032166,
                -0.37796398997306826,
                0.15656843781471253,
                2.000535726547241,
                -0.38549110293388369,
                0.27991414070129397,
                0.8856263756752014,
                -0.3330521285533905,
                0.15422627329826356,
                0.670378565788269,
                -0.23236380517482758,
                -0.43561574816703799,
                -1.2624064683914185,
                -0.6520758271217346,
                -0.3173406720161438,
                1.0324498414993287,
                -0.5655678510665894,
                -1.7831676006317139,
                1.078039288520813,
                0.1413326859474182,
                0.9577714204788208,
                0.610954761505127
            ],
            "fitness": 33.55215072631836,
            "npcType": 0,
            "outputLockStatus": [
                false,
                false,
                false,
                false
            ]
        },
        {
            "layers": [
                8,
                8,
                6,
                4
            ],
            "flattenedWeights": [
                -0.2424212098121643,
                1.0383155345916749,
                -0.6756625175476074,
                -0.32147666811943056,
                -0.7439780831336975,
                0.4804576337337494,
                1.518991231918335,
                0.42184510827064516,
                1.172709584236145,
                0.41478532552719118,
                -2.5509002208709719,
                -1.1934489011764527,
                1.9940592050552369,
                0.40339985489845278,
                -0.9847123622894287,
                -0.15688908100128175,
                -0.33811068534851076,
                1.2879518270492554,
                -0.7255476117134094,
                -0.24927738308906556,
                -0.12773437798023225,
                1.848691463470459,
                0.6966266632080078,
                0.6090512275695801,
                -0.161897212266922,
                -0.38176512718200686,
                0.51551353931427,
                -0.8816295266151428,
                1.3762664794921876,
                0.039872586727142337,
                -0.8040339946746826,
                0.3126269578933716,
                -0.7080234885215759,
                0.6832200288772583,
                0.5903284549713135,
                -0.0067724063992500309,
                0.6689683198928833,
                0.625590443611145,
                1.3895498514175416,
                -0.6307845711708069,
                0.48378533124923708,
                -1.4566893577575684,
                1.1467398405075074,
                0.22530540823936463,
                0.12260743230581284,
                1.0615146160125733,
                1.1906728744506837,
                -0.8921619057655335,
                -0.10835472494363785,
                2.120332717895508,
                0.1693885177373886,
                0.32723358273506167,
                0.4649572968482971,
                1.1654934883117676,
                0.02827008068561554,
                -1.4760863780975342,
                1.0110441446304322,
                0.16467583179473878,
                0.7990051507949829,
                0.12494164705276489,
                1.8162873983383179,
                1.154495358467102,
                0.08661633729934693,
                -1.0323089361190797,
                0.018048357218503953,
                2.093482732772827,
                -0.16217732429504395,
                -1.1158990859985352,
                0.06146528571844101,
                -0.6461849212646484,
                0.9123044013977051,
                -0.815845251083374,
                -0.769413948059082,
                0.0773220807313919,
                1.3696718215942383,
                -0.676886796951294,
                0.34321358799934389,
                -1.1628392934799195,
                0.7984994649887085,
                -1.1933684349060059,
                -0.11233992874622345,
                1.5798307657241822,
                -0.8654524087905884,
                -0.3900549113750458,
                0.5012180209159851,
                1.1341724395751954,
                1.078798532485962,
                0.5006807446479797,
                -0.7883808016777039,
                0.49798908829689028,
                -0.09951289743185044,
                -0.5546227097511292,
                0.4164583384990692,
                2.3878958225250246,
                1.0206838846206666,
                1.5260282754898072,
                1.6755213737487794,
                0.5909429788589478,
                -0.338781476020813,
                0.10629051178693772,
                -0.7635819911956787,
                -1.6962966918945313,
                -0.06600145995616913,
                1.0551073551177979,
                -1.308148741722107,
                -0.3130234479904175,
                -1.2498340606689454,
                1.1031566858291627,
                -0.38492080569267275,
                -1.354276418685913,
                -1.6662226915359498,
                0.7626857161521912,
                -0.26110556721687319,
                0.7241332530975342,
                0.8218610286712647,
                -0.37796398997306826,
                0.21218708157539369,
                1.9641493558883668,
                -0.5008679628372192,
                0.26574262976646426,
                0.6911128163337708,
                -0.3211306929588318,
                0.20696747303009034,
                0.7697405815124512,
                -0.15909704566001893,
                -0.38158175349235537,
                -1.1431547403335572,
                -0.470766544342041,
                -0.4855610728263855,
                1.0880550146102906,
                -0.510144054889679,
                -1.8995202779769898,
                0.9062089920043945,
                0.09867431968450546,
                0.9750126600265503,
                0.45607301592826846
            ],
            "fitness": 33.23994445800781,
            "npcType": 0,
            "outputLockStatus": [
                false,
                false,
                false,
                false
            ]
        },
        {
            "layers": [
                8,
                8,
                6,
                4
            ],
            "flattenedWeights": [
                -0.293112188577652,
                1.0383155345916749,
                -0.5244567394256592,
                -0.32147666811943056,
                -0.7439780831336975,
                0.4804576337337494,
                1.6008297204971314,
                0.7338829040527344,
                1.1403812170028687,
                0.6177278757095337,
                -2.5509002208709719,
                -1.1934489011764527,
                2.0674734115600588,
                0.3085986375808716,
                -0.9869782328605652,
                0.01878131553530693,
                -0.279613733291626,
                1.2178053855895997,
                -0.7255476117134094,
                -0.024727262556552888,
                -0.16151189804077149,
                1.848691463470459,
                0.7338578104972839,
                0.47177737951278689,
                -0.04651903361082077,
                -0.22303453087806703,
                0.43892425298690798,
                -0.9195058345794678,
                1.497725009918213,
                -0.027131371200084688,
                -0.8681711554527283,
                0.3262607157230377,
                -0.8330691456794739,
                0.7015455365180969,
                0.5903284549713135,
                0.05526354908943176,
                0.6689683198928833,
                0.5723748207092285,
                1.1459115743637086,
                -0.6967053413391113,
                0.40564626455307009,
                -1.7043652534484864,
                1.3226323127746583,
                0.4163403809070587,
                0.2975134551525116,
                0.984039306640625,
                1.1600972414016724,
                -0.9503861665725708,
                -0.02946387231349945,
                2.2019670009613039,
                0.1693885177373886,
                0.267434686422348,
                0.5540975332260132,
                1.2541393041610718,
                0.025213293731212617,
                -1.6681504249572755,
                0.8111231327056885,
                0.22455313801765443,
                0.9918923377990723,
                0.04640597850084305,
                1.848610520362854,
                1.099562644958496,
                0.06505364179611206,
                -0.8592485189437866,
                0.018048357218503953,
                2.0638186931610109,
                -0.07731495797634125,
                -1.167564034461975,
                0.3867645263671875,
                -0.4521182179450989,
                0.8135334849357605,
                -0.7047886848449707,
                -0.6815500855445862,
                0.24546167254447938,
                1.3296979665756226,
                -1.0007708072662354,
                0.2938012480735779,
                -1.2006194591522217,
                0.8767586946487427,
                -1.1933684349060059,
                -0.11233992874622345,
                1.627061367034912,
                -0.8638028502464294,
                -0.45445069670677187,
                0.41183656454086306,
                1.3016936779022217,
                0.9780075550079346,
                0.5062040090560913,
                -0.7669302821159363,
                0.5009568929672241,
                -0.09951289743185044,
                -0.37690070271492007,
                0.4134255349636078,
                2.1797261238098146,
                1.0206838846206666,
                1.5600584745407105,
                1.6393541097640992,
                0.5727910399436951,
                -0.38920143246650698,
                0.22245638072490693,
                -0.7055003046989441,
                -1.6740875244140626,
                -0.03564160317182541,
                0.9807839393615723,
                -1.4120450019836426,
                -0.1811412125825882,
                -1.2498340606689454,
                1.1031566858291627,
                -0.48335444927215578,
                -1.2871023416519166,
                -1.515271782875061,
                0.7124493718147278,
                -0.10482797771692276,
                0.7040544748306274,
                0.8218610286712647,
                -0.5190535187721252,
                0.2962658405303955,
                1.9562917947769166,
                -0.39719510078430178,
                0.362985223531723,
                0.6911128163337708,
                -0.2650772035121918,
                0.18963487446308137,
                0.6787822246551514,
                -0.18462669849395753,
                -0.4778207242488861,
                -1.2361795902252198,
                -0.470766544342041,
                -0.3173406720161438,
                1.0880550146102906,
                -0.4822092652320862,
                -1.8073104619979859,
                1.078039288520813,
                0.1413326859474182,
                0.8285390734672546,
                0.5552400946617127
            ],
            "fitness": 33.159732818603519,
            "npcType": 0,
            "outputLockStatus": [
                false,
                false,
                false,
                false
            ]
        },
        {
            "layers": [
                8,
                8,
                6,
                4
            ],
            "flattenedWeights": [
                -0.2424212098121643,
                0.9903383851051331,
                -0.6043808460235596,
                -0.45507681369781496,
                -0.7800005078315735,
                0.5081422328948975,
                1.5145344734191895,
                0.3750782608985901,
                1.2951898574829102,
                0.45209574699401858,
                -2.5509002208709719,
                -1.1536673307418824,
                1.997914433479309,
                0.4987962245941162,
                -0.822154700756073,
                -0.23055678606033326,
                -0.29074421525001528,
                1.2885881662368775,
                -0.6736109852790833,
                -0.24927738308906556,
                -0.16151189804077149,
                1.4917117357254029,
                0.7877466082572937,
                0.7061755061149597,
                -0.161897212266922,
                -0.35155391693115237,
                0.3871394991874695,
                -0.7982203364372253,
                1.393576741218567,
                0.09293816983699799,
                -0.8315783143043518,
                0.3126269578933716,
                -0.7269362807273865,
                0.629048228263855,
                0.4503346383571625,
                0.06902214884757996,
                0.5606054067611694,
                0.5723748207092285,
                1.3895498514175416,
                -0.6307845711708069,
                0.40780436992645266,
                -1.5574421882629395,
                1.1321039199829102,
                0.24304792284965516,
                0.1902381181716919,
                1.0615146160125733,
                1.1985467672348023,
                -1.0134254693984986,
                -0.02469315379858017,
                2.1861941814422609,
                0.2738789916038513,
                0.2771855592727661,
                0.5176187753677368,
                1.2430064678192139,
                0.09153567999601364,
                -1.4760863780975342,
                1.0110441446304322,
                0.12998923659324647,
                0.7990051507949829,
                0.12494164705276489,
                1.8964837789535523,
                1.0711778402328492,
                0.08661633729934693,
                -1.0737332105636597,
                0.018048357218503953,
                2.1040728092193605,
                0.0017218738794326783,
                -1.032081127166748,
                0.03902449458837509,
                -0.6461849212646484,
                0.8135334849357605,
                -0.7604349851608276,
                -0.6772834658622742,
                0.38822081685066225,
                1.3696718215942383,
                -0.676886796951294,
                0.30463850498199465,
                -1.1628392934799195,
                0.6518926024436951,
                -1.195711374282837,
                -0.11233992874622345,
                1.6104354858398438,
                -0.7785668969154358,
                -0.3900549113750458,
                0.49358558654785159,
                1.1341724395751954,
                1.0580298900604249,
                0.4911917448043823,
                -0.6983227729797363,
                0.5768629908561707,
                -0.1616509109735489,
                -0.4643309712409973,
                0.45150819420814516,
                2.1881635189056398,
                0.9554684162139893,
                1.5600584745407105,
                1.7968456745147706,
                0.8308272957801819,
                -0.39286723732948305,
                0.202725350856781,
                -0.7055003046989441,
                -1.6442689895629883,
                0.04935611039400101,
                0.9761868119239807,
                -1.4817752838134766,
                -0.3130234479904175,
                -1.3354169130325318,
                1.1524767875671387,
                -0.45956894755363467,
                -1.3152172565460206,
                -1.5730313062667847,
                0.7239454388618469,
                -0.2694924473762512,
                0.4971749782562256,
                0.8870586156845093,
                -0.37796398997306826,
                0.2549054026603699,
                1.9641493558883668,
                -0.4499184489250183,
                0.324787437915802,
                0.7706230282783508,
                -0.3330521285533905,
                0.24602937698364259,
                0.670378565788269,
                -0.09793581068515778,
                -0.4230515956878662,
                -1.1168861389160157,
                -0.6520758271217346,
                -0.39568793773651125,
                1.1321905851364136,
                -0.45489227771759035,
                -1.7687771320343018,
                0.9062089920043945,
                0.1413326859474182,
                0.8906336426734924,
                0.3509390652179718
            ],
            "fitness": 33.06425857543945,
            "npcType": 0,
            "outputLockStatus": [
                false,
                false,
                false,
                false
            ]
        },
        {
            "layers": [
                8,
                8,
                6,
                4
            ],
            "flattenedWeights": [
                -0.35159629583358767,
                1.0499498844146729,
                -0.6043808460235596,
                -0.3833509385585785,
                -0.7439780831336975,
                0.5081422328948975,
                1.5508142709732056,
                0.3750782608985901,
                1.172709584236145,
                0.31130242347717287,
                -2.4662439823150636,
                -1.095438003540039,
                2.0949528217315676,
                0.40339985489845278,
                -0.9847123622894287,
                -0.15688908100128175,
                -0.2553568184375763,
                1.2305576801300049,
                -0.7255476117134094,
                -0.17094069719314576,
                -0.15691420435905457,
                1.4704605340957642,
                0.8588554263114929,
                0.6090512275695801,
                -0.11276121437549591,
                -0.3193904459476471,
                0.4868255853652954,
                -0.9195058345794678,
                1.4777861833572388,
                -0.020146235823631288,
                -0.9308897852897644,
                0.3126269578933716,
                -0.612521767616272,
                0.670833170413971,
                0.5903284549713135,
                0.15128865838050843,
                0.6398190259933472,
                0.6075733304023743,
                1.0827144384384156,
                -0.6307845711708069,
                0.5644616484642029,
                -1.4566893577575684,
                1.033655047416687,
                0.22530540823936463,
                0.23795072734355927,
                1.0843441486358643,
                1.573460578918457,
                -0.9479219913482666,
                0.047780461609363559,
                2.1470894813537599,
                0.15265211462974549,
                0.32723358273506167,
                0.4649572968482971,
                1.1866241693496705,
                0.10453511774539948,
                -1.5554656982421876,
                0.8111231327056885,
                0.24084055423736573,
                0.7206002473831177,
                0.11060468852519989,
                1.8162873983383179,
                1.224845051765442,
                0.08661633729934693,
                -0.9777417182922363,
                -0.007985971868038178,
                2.093482732772827,
                -0.16217732429504395,
                -1.1158990859985352,
                0.37233883142471316,
                -0.6295623779296875,
                0.9913743138313294,
                -0.815845251083374,
                -0.769413948059082,
                0.03340288996696472,
                1.313845157623291,
                -1.035211443901062,
                0.34321358799934389,
                -1.1932001113891602,
                0.7984994649887085,
                -1.270508050918579,
                0.13138438761234284,
                1.579728126525879,
                -0.9270336031913757,
                -0.4718530774116516,
                0.40833327174186709,
                1.0527466535568238,
                1.0584909915924073,
                0.4156428873538971,
                -0.7270074486732483,
                0.4854447543621063,
                0.1455695480108261,
                -0.4823690354824066,
                0.4134255349636078,
                1.8121768236160279,
                1.1175776720046998,
                1.5316078662872315,
                1.6955783367156983,
                0.6900973916053772,
                -0.46825525164604189,
                0.19518336653709413,
                -0.7209749221801758,
                -1.7241313457489014,
                -0.03564160317182541,
                1.119861125946045,
                -1.3895111083984376,
                -0.1811412125825882,
                -1.2498340606689454,
                1.114869475364685,
                -0.5078345537185669,
                -1.314736247062683,
                -1.594182014465332,
                0.6313260197639465,
                -0.09794505685567856,
                0.7241332530975342,
                0.8218610286712647,
                -0.3434939980506897,
                0.2368556708097458,
                1.9641493558883668,
                -0.43025824427604678,
                0.4200044274330139,
                0.6911128163337708,
                -0.2816528081893921,
                0.22297799587249757,
                0.6904885172843933,
                -0.12977880239486695,
                -0.5081205368041992,
                -1.1743780374526978,
                -0.470766544342041,
                -0.3916119337081909,
                1.0057321786880494,
                -0.25242796540260317,
                -1.7661408185958863,
                0.9062089920043945,
                0.1413326859474182,
                0.8778080344200134,
                0.474683940410614
            ],
            "fitness": 32.695430755615237,
            "npcType": 0,
            "outputLockStatus": [
                false,
                false,
                false,
                false
            ]
        },
        {
            "layers": [
                8,
                8,
                6,
                4
            ],
            "flattenedWeights": [
                -0.293112188577652,
                0.9903383851051331,
                -0.6043808460235596,
                -0.29475530982017519,
                -0.7439780831336975,
                0.5039426684379578,
                1.5408782958984376,
                0.4089103937149048,
                1.2951898574829102,
                0.5588597655296326,
                -2.5509002208709719,
                -1.1625398397445679,
                2.0949528217315676,
                0.4527847170829773,
                -0.8842966556549072,
                -0.17828115820884705,
                -0.279613733291626,
                1.240828275680542,
                -0.7255476117134094,
                -0.17094069719314576,
                -0.16151189804077149,
                1.848691463470459,
                0.7877466082572937,
                0.47177737951278689,
                -0.01896858960390091,
                -0.3431714177131653,
                0.40302932262420657,
                -0.8816295266151428,
                1.4777861833572388,
                -0.058176830410957339,
                -0.8315783143043518,
                0.485154390335083,
                -0.8330691456794739,
                0.6170541644096375,
                0.7427672147750855,
                -0.08459325134754181,
                0.4904845952987671,
                0.5723748207092285,
                1.170997977256775,
                -0.6307845711708069,
                0.5644616484642029,
                -1.7139207124710084,
                1.1242148876190186,
                -0.001125931739807129,
                0.23795072734355927,
                1.102331519126892,
                1.573460578918457,
                -0.8720535635948181,
                0.11291568726301193,
                2.2019670009613039,
                0.14775827527046204,
                0.267434686422348,
                0.4649572968482971,
                1.1545993089675904,
                0.04193493723869324,
                -1.5878604650497437,
                0.8111231327056885,
                0.12998923659324647,
                0.9408676624298096,
                0.11060468852519989,
                1.5197899341583253,
                1.093241572380066,
                0.08661633729934693,
                -0.8592485189437866,
                0.018048357218503953,
                2.0034561157226564,
                -0.07731495797634125,
                -1.139687180519104,
                0.3777327835559845,
                -0.5024798512458801,
                0.7816322445869446,
                -0.7941550612449646,
                -0.6268374919891357,
                0.24546167254447938,
                1.4100428819656373,
                -0.9225894212722778,
                0.30463850498199465,
                -1.1466104984283448,
                0.8486723303794861,
                -1.2974380254745484,
                -0.07133882492780686,
                1.673971176147461,
                -0.6990681290626526,
                -0.3549898862838745,
                0.526999294757843,
                1.1341724395751954,
                1.0584909915924073,
                0.5244120955467224,
                -0.8808751106262207,
                0.6172111630439758,
                -0.1616509109735489,
                -0.46769317984580996,
                0.005991972982883453,
                1.8765008449554444,
                1.1574629545211793,
                1.497588872909546,
                1.549584150314331,
                0.772667646408081,
                -0.3444770574569702,
                0.057452790439128879,
                -0.7055003046989441,
                -2.0040431022644045,
                0.04935611039400101,
                1.1067954301834107,
                -1.3711445331573487,
                -0.19346173107624055,
                -1.2651982307434083,
                1.0419608354568482,
                -0.5577095746994019,
                -1.3391799926757813,
                -1.4859105348587037,
                0.7124493718147278,
                -0.2694924473762512,
                0.4736027419567108,
                0.9410290122032166,
                -0.2958804666996002,
                0.28630492091178896,
                2.002690315246582,
                -0.43025824427604678,
                0.3341214060783386,
                0.9399985074996948,
                -0.3991006016731262,
                0.3258814215660095,
                0.5883099436759949,
                -0.002337951213121414,
                -0.43561574816703799,
                -1.1743780374526978,
                -0.7569139003753662,
                -0.3381175696849823,
                1.1986080408096314,
                -0.4822092652320862,
                -1.9040330648422242,
                1.1621882915496827,
                0.16633982956409455,
                0.8828427791595459,
                0.610954761505127
            ],
            "fitness": 32.685523986816409,
            "npcType": 0,
            "outputLockStatus": [
                false,
                false,
                false,
                false
            ]
        },
        {
            "layers": [
                8,
                8,
                6,
                4
            ],
            "flattenedWeights": [
                -0.293112188577652,
                1.0383155345916749,
                -0.6043808460235596,
                -0.32147666811943056,
                -0.7439780831336975,
                0.3486650884151459,
                1.5508142709732056,
                0.4089103937149048,
                1.2951898574829102,
                0.41478532552719118,
                -2.5509002208709719,
                -1.2111880779266358,
                2.0674734115600588,
                0.40339985489845278,
                -0.9847123622894287,
                -0.1632019430398941,
                -0.279613733291626,
                1.2178053855895997,
                -0.7255476117134094,
                0.005715653300285339,
                -0.08280253410339356,
                1.7667522430419922,
                0.7575370669364929,
                0.5650404095649719,
                -0.01896858960390091,
                -0.36334508657455447,
                0.3838012218475342,
                -0.8816295266151428,
                1.4591903686523438,
                0.018822483718395234,
                -0.9187036752700806,
                0.3126269578933716,
                -0.8330691456794739,
                0.7015455365180969,
                0.5903284549713135,
                0.020189542323350908,
                0.6689683198928833,
                0.5723748207092285,
                1.141188383102417,
                -0.6307845711708069,
                0.6418683528900147,
                -1.7043652534484864,
                1.1242148876190186,
                0.05626995116472244,
                0.12155244499444962,
                1.029097557067871,
                1.169983983039856,
                -0.9503861665725708,
                -0.04305076599121094,
                2.2875566482543947,
                0.14775827527046204,
                0.1878054440021515,
                0.40123802423477175,
                1.2541393041610718,
                -0.04801185429096222,
                -1.5631657838821412,
                0.7884409427642822,
                0.25538331270217898,
                1.0038949251174927,
                0.11060468852519989,
                1.8162873983383179,
                1.1090337038040162,
                0.08661633729934693,
                -0.8592485189437866,
                0.018048357218503953,
                2.093482732772827,
                0.01587826758623123,
                -1.108267903327942,
                0.3777327835559845,
                -0.47241514921188357,
                0.8135334849357605,
                -0.8385512232780457,
                -0.8073814511299133,
                0.24546167254447938,
                1.3296979665756226,
                -1.0003770589828492,
                0.30463850498199465,
                -1.1932001113891602,
                0.8787976503372192,
                -1.1933684349060059,
                -0.0830942690372467,
                1.5798307657241822,
                -0.6990681290626526,
                -0.2604506313800812,
                0.40833327174186709,
                1.1899226903915406,
                1.0584909915924073,
                0.566990077495575,
                -0.7270074486732483,
                0.5009568929672241,
                -0.09951289743185044,
                -0.6073901653289795,
                0.4134255349636078,
                1.8430498838424683,
                1.045532464981079,
                1.6059672832489014,
                1.549584150314331,
                0.5909429788589478,
                -0.3469422161579132,
                0.11391617357730866,
                -0.7635819911956787,
                -1.6308326721191407,
                0.04935611039400101,
                1.1067954301834107,
                -1.3711445331573487,
                -0.2683103084564209,
                -1.2498340606689454,
                1.1195337772369385,
                -0.48335444927215578,
                -1.3391799926757813,
                -1.515271782875061,
                0.7124493718147278,
                -0.09794505685567856,
                0.442632257938385,
                0.9410290122032166,
                -0.34120312333106997,
                0.24196147918701173,
                2.085178852081299,
                -0.4803885817527771,
                0.362985223531723,
                0.6793246865272522,
                -0.4112640619277954,
                0.18963487446308137,
                0.5883099436759949,
                -0.12977880239486695,
                -0.5153263807296753,
                -1.2624064683914185,
                -0.4384799897670746,
                -0.3173406720161438,
                1.0880550146102906,
                -0.4822092652320862,
                -1.8073104619979859,
                1.078039288520813,
                0.1413326859474182,
                0.8828427791595459,
                0.5514288544654846
            ],
            "fitness": 32.57093811035156,
            "npcType": 0,
            "outputLockStatus": [
                false,
                false,
                false,
                false
            ]
        },
        {
            "layers": [
                8,
                8,
                6,
                4
            ],
            "flattenedWeights": [
                -0.9874945282936096,
                1.6514533758163453,
                1.343325138092041,
                0.24116076529026032,
                1.9699900150299073,
                0.0986500158905983,
                -1.269471287727356,
                -1.2189661264419556,
                0.5434485673904419,
                -0.44404029846191409,
                0.9051229953765869,
                -0.2079678326845169,
                -0.8791059851646423,
                -0.0935564860701561,
                0.8682137131690979,
                -0.49459102749824526,
                1.6268447637557984,
                -0.5677133202552795,
                -0.6306618452072144,
                -0.008496522903442383,
                -0.20116794109344483,
                -0.5630978941917419,
                0.5286473035812378,
                0.5583671927452087,
                -1.6274375915527344,
                -0.8069635629653931,
                -0.5339575409889221,
                -1.2241884469985963,
                -1.3873591423034669,
                -0.8873229622840881,
                -0.015062980353832245,
                1.2774224281311036,
                -1.951164960861206,
                0.20429718494415284,
                1.6560488939285279,
                -0.28072649240493777,
                -0.7980299592018127,
                0.2105288803577423,
                -1.1729178428649903,
                -0.7199662327766419,
                0.0891990140080452,
                -1.5040836334228516,
                -0.6317608952522278,
                -1.840363621711731,
                0.44972720742225649,
                -0.10534442961215973,
                1.1393153667449952,
                -0.42114752531051638,
                -0.4012640416622162,
                -1.0114589929580689,
                0.5362937450408936,
                -1.3691370487213135,
                -3.0683670043945314,
                -1.2873024940490723,
                0.4973515272140503,
                0.12247025966644287,
                1.244146704673767,
                0.2626779079437256,
                0.4798406660556793,
                1.6754947900772095,
                -0.37837284803390505,
                -3.178509473800659,
                -1.3079428672790528,
                0.9169186353683472,
                -0.4866045117378235,
                1.7816543579101563,
                -0.3097773492336273,
                -0.20328682661056519,
                -0.3773350417613983,
                -0.49946796894073489,
                0.44687068462371828,
                0.9525611996650696,
                1.8052928447723389,
                -1.1244723796844483,
                0.08185674250125885,
                -0.8238937854766846,
                -1.1039332151412964,
                -0.1829979568719864,
                0.2607201039791107,
                1.1953160762786866,
                0.042939744889736179,
                -0.678475558757782,
                -2.7551491260528566,
                0.2774837911128998,
                2.122607946395874,
                1.0991910696029664,
                1.1325733661651612,
                0.4179952144622803,
                0.9579994082450867,
                0.023083679378032686,
                0.48665714263916018,
                0.3644481301307678,
                0.13181322813034059,
                0.23322060704231263,
                0.08321508765220642,
                0.6481212973594666,
                0.05491884797811508,
                -0.9768721461296082,
                0.31713947653770449,
                -2.3299124240875246,
                -1.3805973529815674,
                -1.4998100996017457,
                0.19213277101516725,
                -0.22794848680496217,
                -1.0777928829193116,
                -1.55446457862854,
                -0.1092340350151062,
                0.6195085048675537,
                1.17243230342865,
                -0.5288541913032532,
                1.0332539081573487,
                -0.9868019223213196,
                1.3277658224105836,
                0.8059453368186951,
                1.1679095029830933,
                -1.2051202058792115,
                0.515127420425415,
                -1.090406060218811,
                -0.4611702263355255,
                0.46239420771598818,
                1.3005754947662354,
                -2.0644092559814455,
                0.0779508724808693,
                -1.9492186307907105,
                0.878074049949646,
                -0.9325077533721924,
                -1.062309741973877,
                0.33459973335266116,
                2.223522901535034,
                -0.009300321340560913,
                -0.9407151937484741,
                -0.35049423575401308,
                -0.6503142714500427,
                -1.6949249505996705,
                -3.0240979194641115,
                0.13713666796684266
            ],
            "fitness": 30.547700881958009,
            "npcType": 1,
            "outputLockStatus": [
                false,
                false,
                false,
                false
            ]
        },
        {
            "layers": [
                8,
                8,
                6,
                4
            ],
            "flattenedWeights": [
                -0.3204455077648163,
                1.0499498844146729,
                -0.5624895095825195,
                -0.41058725118637087,
                -0.7871876358985901,
                0.48568904399871828,
                1.5408782958984376,
                0.3750782608985901,
                1.2542107105255128,
                0.39717793464660647,
                -2.5509002208709719,
                -1.1934489011764527,
                1.997914433479309,
                0.33664965629577639,
                -0.8725261092185974,
                -0.04178532212972641,
                -0.36526599526405337,
                1.2885881662368775,
                -0.7255476117134094,
                -0.20436127483844758,
                -0.14145490527153016,
                1.4917117357254029,
                0.6573203802108765,
                0.4875057339668274,
                -0.08014277368783951,
                -0.3682689964771271,
                0.3838012218475342,
                -0.8816295266151428,
                1.4875257015228272,
                0.032524481415748599,
                -0.8315783143043518,
                0.5637320280075073,
                -0.7269362807273865,
                0.6993687152862549,
                0.5579699873924255,
                0.08158425986766815,
                0.5606054067611694,
                0.6075733304023743,
                1.3895498514175416,
                -0.7186939120292664,
                0.6616483926773071,
                -1.504422903060913,
                1.1389477252960206,
                0.12311235070228577,
                0.2122439444065094,
                1.0597684383392335,
                1.6631909608840943,
                -1.0267910957336426,
                0.0677579864859581,
                2.1700549125671388,
                0.060623787343502048,
                0.32723358273506167,
                0.5569435954093933,
                1.2541393041610718,
                0.04193493723869324,
                -1.5554656982421876,
                0.8942416906356812,
                0.12998923659324647,
                0.7173027396202087,
                0.041908927261829379,
                1.640376329421997,
                1.224845051765442,
                0.08661633729934693,
                -1.015407919883728,
                0.035263895988464358,
                1.94692862033844,
                -0.07731495797634125,
                -1.1063982248306275,
                0.11100677400827408,
                -0.5796700119972229,
                0.7451781630516052,
                -0.7961484789848328,
                -0.6295604705810547,
                0.3029063940048218,
                1.3696718215942383,
                -0.676886796951294,
                0.30463850498199465,
                -1.1932001113891602,
                0.7901723980903626,
                -1.270508050918579,
                0.014928743243217469,
                1.6104354858398438,
                -0.8638028502464294,
                -0.5830993056297302,
                0.486716091632843,
                1.1341724395751954,
                1.134956955909729,
                0.5062040090560913,
                -0.7752491235733032,
                0.5671449303627014,
                -0.04329286515712738,
                -0.25017502903938296,
                0.40640532970428469,
                2.347562789916992,
                0.8533791899681091,
                1.5880541801452637,
                1.5450859069824219,
                0.8123636841773987,
                -0.4152527451515198,
                0.05321519821882248,
                -0.7055003046989441,
                -1.7241313457489014,
                -0.02973288670182228,
                1.1067954301834107,
                -1.3895111083984376,
                -0.27971532940864565,
                -1.2498340606689454,
                1.1031566858291627,
                -0.49655529856681826,
                -1.3422540426254273,
                -1.5730313062667847,
                0.7239454388618469,
                -0.2694924473762512,
                0.4971749782562256,
                1.0314081907272339,
                -0.29933708906173708,
                0.2549054026603699,
                1.8359806537628174,
                -0.41967344284057619,
                0.324787437915802,
                0.9399985074996948,
                -0.3330521285533905,
                0.15422627329826356,
                0.6342307925224304,
                0.05771628022193909,
                -0.43561574816703799,
                -1.1743780374526978,
                -0.7855961322784424,
                -0.3657166361808777,
                1.1321905851364136,
                -0.22139796614646913,
                -1.7661408185958863,
                1.1646363735198975,
                0.1288696825504303,
                0.9577714204788208,
                0.610954761505127
            ],
            "fitness": 30.365591049194337,
            "npcType": 0,
            "outputLockStatus": [
                false,
                false,
                false,
                false
            ]
        }
    ],
    "timestamp": "2025-05-12 15:53:44"
}