{
    "generation": 10,
    "bestFitness": 10.38178539276123,
    "averageFitness": 0.12977232038974763,
    "worstFitness": 0.0,
    "networks": [
        {
            "layers": [
                8,
                8,
                6,
                4
            ],
            "flattenedWeights": [
                -0.20228111743927003,
                -0.4534018039703369,
                0.2895981967449188,
                0.19663304090499879,
                0.7839439511299133,
                0.6620707511901856,
                0.00424850732088089,
                -0.00644664466381073,
                0.2560827434062958,
                -0.8245906829833984,
                -0.8908122181892395,
                -0.28726425766944888,
                -0.4786880612373352,
                0.3517129123210907,
                -1.0395022630691529,
                0.31617194414138796,
                0.6531973481178284,
                -0.21923092007637025,
                -0.1340981423854828,
                -0.15478317439556123,
                0.36894235014915469,
                0.6070642471313477,
                -0.30420511960983279,
                0.7082846164703369,
                0.6746325492858887,
                0.823018491268158,
                -0.7511358261108398,
                -0.7930393218994141,
                0.9184839129447937,
                -0.8241817355155945,
                0.1972651183605194,
                0.26477324962615969,
                0.5290068984031677,
                -0.6181368231773377,
                -0.14465343952178956,
                0.1104576364159584,
                -0.8207234740257263,
                0.3448161482810974,
                0.8784751892089844,
                -0.23757892847061158,
                -0.46219566464424136,
                -0.6853668093681336,
                0.3416540026664734,
                -0.2327028512954712,
                -0.26442745327949526,
                0.4586535096168518,
                0.5407914519309998,
                -0.40890583395957949,
                0.46756234765052798,
                -0.2183106243610382,
                -0.9406790137290955,
                -0.473518431186676,
                0.6137238144874573,
                0.2711458206176758,
                0.0720345601439476,
                1.0310159921646119,
                -0.15025891363620759,
                0.4846787750720978,
                0.8075416088104248,
                0.5541471838951111,
                0.1754564344882965,
                -0.09865519404411316,
                0.8626715540885925,
                0.3889198899269104,
                -0.36665523052215578,
                0.6863762140274048,
                -0.21354439854621888,
                0.8905286192893982,
                -0.8667268753051758,
                0.6151929497718811,
                -0.039041753858327869,
                0.6339557766914368,
                0.9997548460960388,
                -0.30527010560035708,
                0.7055681943893433,
                0.8022223711013794,
                0.7770098447799683,
                -0.9096706509590149,
                -0.4766538739204407,
                0.4333356022834778,
                0.632308304309845,
                0.9279928207397461,
                0.42846688628196719,
                -0.8427532911300659,
                -0.9075849652290344,
                -0.7037312388420105,
                0.5446814894676209,
                -0.4530126452445984,
                -0.46497616171836855,
                -0.6172531247138977,
                -0.6253312826156616,
                -0.6552219986915588,
                -0.06192176043987274,
                0.6484085917472839,
                1.0766870975494385,
                -0.6751226186752319,
                -0.5784854888916016,
                -0.6825148463249207,
                0.641688883304596,
                0.19204849004745484,
                -0.8369914889335632,
                -0.9544370174407959,
                -0.539848268032074,
                0.5996549725532532,
                -0.09146042168140412,
                -0.8085899353027344,
                0.9908556938171387,
                0.7118370532989502,
                -0.767278790473938,
                0.6914417743682861,
                0.5711989402770996,
                0.3365318477153778,
                0.383661687374115,
                0.7027729749679565,
                -0.01198124885559082,
                -1.0090711116790772,
                -0.4135637879371643,
                -0.6337229609489441,
                0.17135077714920045,
                -1.0201351642608643,
                0.19079899787902833,
                -0.5387959480285645,
                -0.7934086322784424,
                -0.20918479561805726,
                0.3898842930793762,
                -0.4376603364944458,
                0.16716642677783967,
                -0.830734133720398,
                0.027588848024606706,
                -0.30457741022109988,
                0.518756628036499,
                -0.2545594573020935,
                1.4663692712783814,
                -0.09390352666378021,
                -0.7857643961906433,
                0.6705161929130554
            ],
            "fitness": 10.38178539276123,
            "npcType": 1
        },
        {
            "layers": [
                8,
                8,
                6,
                4
            ],
            "flattenedWeights": [
                0.6188893914222717,
                0.06485887616872788,
                -0.6625470519065857,
                0.8104670643806458,
                0.917071521282196,
                -0.3385249674320221,
                1.0920462608337403,
                -0.6494995951652527,
                0.7016111016273499,
                -0.6208052635192871,
                0.36061859130859377,
                -0.3516506850719452,
                -0.007848255336284638,
                -0.16635465621948243,
                -0.734173059463501,
                0.2151584029197693,
                0.1954549252986908,
                0.14796806871891023,
                0.2546454966068268,
                0.8650562763214111,
                0.7141132950782776,
                0.36089015007019045,
                -0.26768338680267336,
                -0.5053279399871826,
                -0.11202452331781388,
                -0.5094953179359436,
                -0.5926234126091003,
                -0.05533365160226822,
                -0.07279317826032639,
                -0.20548725128173829,
                -0.9753862023353577,
                -0.48079437017440798,
                0.5654349327087402,
                0.04313862323760986,
                0.827505886554718,
                -0.566622793674469,
                -0.46110761165618899,
                0.28726378083229067,
                -0.315876305103302,
                0.002742573618888855,
                0.4410766363143921,
                -0.8396848440170288,
                0.2551371455192566,
                -0.7533004283905029,
                -0.046322837471961978,
                -0.3376435935497284,
                0.9172840118408203,
                -0.1025577038526535,
                0.5630019903182983,
                0.8266682624816895,
                -0.02167363464832306,
                -0.7385932803153992,
                -0.814379096031189,
                -0.05766744539141655,
                0.7372398972511292,
                0.9663596153259277,
                -0.6947633624076843,
                -0.8899242281913757,
                0.45274874567985537,
                -0.576434850692749,
                -1.0424444675445557,
                0.35466909408569338,
                -0.00479472428560257,
                0.6042864322662354,
                1.0539602041244507,
                0.9244015216827393,
                0.42627647519111636,
                0.32111573219299319,
                -0.6167903542518616,
                -0.09406838566064835,
                -0.4113812744617462,
                0.8586151003837586,
                -0.11125893890857697,
                0.522867739200592,
                0.7519237995147705,
                0.8853272199630737,
                0.6238585710525513,
                0.4182000756263733,
                -0.6303361654281616,
                -1.0366318225860596,
                0.19239476323127747,
                0.29857873916625979,
                -0.4846830368041992,
                -0.8823773860931397,
                0.9170969128608704,
                -0.43491923809051516,
                0.5574283599853516,
                -0.9200318455696106,
                -0.12722748517990113,
                -0.28524601459503176,
                0.6123971939086914,
                -1.0488706827163697,
                -0.2839069664478302,
                -0.6052353978157044,
                0.11709010601043701,
                0.17931511998176576,
                0.6635969281196594,
                -0.7975543141365051,
                -0.7791929244995117,
                0.5700228214263916,
                -0.19898222386837007,
                0.8667016625404358,
                -0.42960506677627566,
                1.1091474294662476,
                -0.05977759510278702,
                0.6040352582931519,
                0.522510290145874,
                0.05639611929655075,
                0.6901900768280029,
                -0.10192744433879852,
                -0.058856748044490817,
                0.27032631635665896,
                1.1410390138626099,
                0.05910571664571762,
                -0.38213813304901125,
                -1.1375231742858887,
                1.043714165687561,
                0.39329245686531069,
                0.48025545477867129,
                0.45676034688949587,
                0.08887101709842682,
                0.20567947626113892,
                0.8767690062522888,
                0.06503868103027344,
                -0.27715766429901125,
                0.8690302968025208,
                -0.7993728518486023,
                0.5607428550720215,
                1.0049220323562623,
                0.014943800866603852,
                0.21891723573207856,
                -1.1881036758422852,
                1.5235638618469239,
                -0.3892919421195984,
                -0.29623904824256899,
                0.05061159282922745
            ],
            "fitness": 0.0,
            "npcType": 0
        },
        {
            "layers": [
                8,
                8,
                6,
                4
            ],
            "flattenedWeights": [
                -0.9749813079833984,
                -0.5058635473251343,
                0.37599697709083559,
                0.2222558706998825,
                0.6037521362304688,
                0.6499007344245911,
                0.8408852219581604,
                -0.9705097079277039,
                -0.5870354175567627,
                -0.8245906829833984,
                -0.9365513920783997,
                -0.7125676870346069,
                -0.8305529356002808,
                0.3442152440547943,
                -1.0395022630691529,
                0.22682234644889832,
                0.6531973481178284,
                -0.7628387212753296,
                -0.1340981423854828,
                -0.1401113122701645,
                0.28326067328453066,
                0.6528955101966858,
                -0.39483657479286196,
                0.6251125335693359,
                -0.8733178973197937,
                0.8920060396194458,
                0.4736621081829071,
                -0.053665608167648318,
                0.7772601842880249,
                0.20903483033180238,
                0.8680270314216614,
                -0.49943557381629946,
                -0.1331191062927246,
                -0.6181368231773377,
                0.8625152111053467,
                0.14233171939849854,
                -0.7456344366073608,
                0.3448161482810974,
                0.8090590834617615,
                -0.02649257332086563,
                -0.5291509628295898,
                -0.7923737168312073,
                0.5694211721420288,
                -0.2963487505912781,
                -0.7374557852745056,
                -0.3529915511608124,
                0.4331222176551819,
                -0.40890583395957949,
                0.6136684417724609,
                -0.22445756196975709,
                -0.7519375681877136,
                -0.6707668900489807,
                -0.7615523934364319,
                0.25349947810173037,
                0.08198792487382889,
                -0.22400520741939546,
                -0.13955184817314149,
                0.5546173453330994,
                0.8075416088104248,
                0.4639560580253601,
                0.26487305760383608,
                -0.5470321178436279,
                -0.7015108466148377,
                0.5524051189422607,
                -0.36665523052215578,
                0.39866337180137637,
                -0.24503040313720704,
                0.018792428076267244,
                -0.9249446392059326,
                -0.6375789642333984,
                -0.010546404868364334,
                0.449373722076416,
                0.8971914052963257,
                -0.31730663776397707,
                0.7055681943893433,
                0.7746357321739197,
                0.7226673364639282,
                -1.0041793584823609,
                -0.4459419846534729,
                0.42300909757614138,
                0.632308304309845,
                0.10086745023727417,
                1.0007319450378419,
                -0.8427532911300659,
                -0.8266587853431702,
                -0.6992372870445252,
                0.5560206770896912,
                0.45644474029541018,
                -0.5263769030570984,
                -0.3782171905040741,
                -0.6564497351646423,
                -0.6541442275047302,
                -0.06192176043987274,
                0.30642661452293398,
                1.0766870975494385,
                -0.6638900637626648,
                -0.5943855047225952,
                -0.6984115839004517,
                -0.8749727010726929,
                0.24065439403057099,
                -0.8503875732421875,
                0.5033762454986572,
                -0.5913248658180237,
                0.6547274589538574,
                0.5383069515228272,
                -0.7816528677940369,
                0.8434782028198242,
                0.2583472430706024,
                0.713289737701416,
                0.7736756205558777,
                0.5711989402770996,
                0.3137444257736206,
                1.3198142051696778,
                0.6281703114509583,
                -0.018704518675804139,
                -1.0360174179077149,
                -0.6508185863494873,
                -0.5820686221122742,
                0.42800527811050417,
                0.5917856097221375,
                0.2034766972064972,
                -0.5239474177360535,
                -0.7934086322784424,
                -0.4609864056110382,
                0.3956215977668762,
                0.691057562828064,
                0.16716642677783967,
                -0.8607615232467651,
                0.9479936957359314,
                -0.35278522968292239,
                0.652931272983551,
                -0.16416561603546143,
                0.1983686089515686,
                -0.06800080835819245,
                0.7375150322914124,
                -0.556433916091919
            ],
            "fitness": 0.0,
            "npcType": 1
        },
        {
            "layers": [
                8,
                8,
                6,
                4
            ],
            "flattenedWeights": [
                -0.8311819434165955,
                0.6539821624755859,
                -0.712333619594574,
                0.6135083436965942,
                0.6897754073143005,
                -0.7732513546943665,
                0.21439944207668305,
                0.6775605082511902,
                0.150712251663208,
                0.8514350056648254,
                -0.06953874975442887,
                0.7964046597480774,
                -0.027719751000404359,
                0.38853999972343447,
                -1.0197094678878785,
                0.3059097230434418,
                -0.18138349056243897,
                0.848335862159729,
                0.5257036685943604,
                -0.8255065083503723,
                0.24097904562950135,
                0.2730942964553833,
                -1.0192292928695679,
                -0.9867711067199707,
                0.8834564685821533,
                -0.5636172890663147,
                1.1076419353485108,
                0.24045908451080323,
                0.5808900594711304,
                0.25334954261779787,
                0.6916683912277222,
                -0.5285876989364624,
                0.4713488221168518,
                -0.15492776036262513,
                -0.5329471230506897,
                0.2692916691303253,
                0.5819620490074158,
                -0.45046019554138186,
                0.2728806138038635,
                -0.132478728890419,
                -0.44463372230529787,
                -0.6915817260742188,
                -0.3240705132484436,
                -0.5864891409873962,
                -0.3914259672164917,
                -0.7172084450721741,
                -0.35001903772354128,
                -0.2336704134941101,
                -0.8151941299438477,
                0.09255709499120712,
                -0.8485010862350464,
                -0.08349134027957916,
                -0.04181172698736191,
                -0.8229122161865234,
                0.6426141858100891,
                0.921388566493988,
                0.4008438289165497,
                -1.0358275175094605,
                0.3148242235183716,
                -0.2604580223560333,
                0.21599501371383668,
                -0.3194184899330139,
                -0.14319834113121034,
                0.0037775225937366487,
                -0.34843072295188906,
                0.8545963764190674,
                0.7696897983551025,
                0.8905286192893982,
                -0.7218415141105652,
                -0.7211779356002808,
                -0.9374089241027832,
                0.2375633269548416,
                0.25724637508392336,
                -0.7181153893470764,
                -0.20227041840553285,
                -0.7212192416191101,
                0.3341875374317169,
                0.07665591686964035,
                -0.2452581226825714,
                0.8572270274162293,
                0.20005372166633607,
                -0.6283862590789795,
                0.455026775598526,
                -0.19712862372398377,
                -1.0069074630737305,
                -0.7956070899963379,
                0.13780677318572999,
                -0.6023983955383301,
                0.4710918068885803,
                -0.797665536403656,
                -0.5244506001472473,
                1.0098952054977418,
                -0.907805323600769,
                0.2930200695991516,
                0.10064687579870224,
                0.5742195248603821,
                0.7485615015029907,
                -0.7036530375480652,
                -0.9893730878829956,
                0.2707975208759308,
                0.592746376991272,
                0.07346076518297196,
                0.5135251879692078,
                -0.4162791073322296,
                -0.19040313363075257,
                0.418188214302063,
                0.8262781500816345,
                0.5707033276557922,
                0.16278082132339478,
                0.1648145318031311,
                0.6015443205833435,
                -0.6066159009933472,
                -0.02674524486064911,
                0.6850171685218811,
                -0.15067477524280549,
                -0.9095456600189209,
                -0.46116966009140017,
                -0.7849817276000977,
                0.8103340268135071,
                -1.002963662147522,
                0.48479974269866946,
                0.0713343620300293,
                -0.7900785803794861,
                -0.5018455982208252,
                0.5382004380226135,
                0.5823118686676025,
                -0.4520288407802582,
                -1.021155595779419,
                -0.3490670919418335,
                -0.041732847690582278,
                -0.4654046595096588,
                -0.4683850407600403,
                1.203330397605896,
                0.15655459463596345,
                1.0831608772277833,
                0.3645286560058594
            ],
            "fitness": 0.0,
            "npcType": 1
        },
        {
            "layers": [
                8,
                8,
                6,
                4
            ],
            "flattenedWeights": [
                -0.7972461581230164,
                -0.5181568264961243,
                0.321323961019516,
                0.18897897005081178,
                0.5543891787528992,
                -0.4599691927433014,
                0.9371631145477295,
                -0.9300526976585388,
                -0.734759509563446,
                -0.7972220778465271,
                -0.9164955615997315,
                -0.6153969764709473,
                -0.7553671598434448,
                0.3258834779262543,
                -0.43693986535072329,
                0.7536684274673462,
                0.6406986713409424,
                -0.7732354998588562,
                -0.17059677839279176,
                -0.15478317439556123,
                0.21103084087371827,
                0.6085225343704224,
                -0.22277136147022248,
                0.755937397480011,
                0.9550707340240479,
                0.823018491268158,
                0.4615485668182373,
                -0.0951126217842102,
                0.8674302697181702,
                0.15877765417099,
                0.8083410263061523,
                -0.49526435136795046,
                -0.13574892282485963,
                -0.6181368231773377,
                0.6935207843780518,
                0.1906302571296692,
                0.28290197253227236,
                0.39546599984169009,
                0.9082708954811096,
                -0.09404221177101135,
                -0.46219566464424136,
                -0.7032597661018372,
                0.5366536378860474,
                -0.2327028512954712,
                -0.6733687520027161,
                0.03260476887226105,
                0.5563765168190002,
                -0.40890583395957949,
                0.6151919960975647,
                -0.22445756196975709,
                -0.8837990164756775,
                -0.5699241757392883,
                -0.8777788877487183,
                0.200559601187706,
                0.03724529594182968,
                0.8645259737968445,
                -0.13270284235477448,
                0.961203396320343,
                -0.28185585141181948,
                -0.27825966477394106,
                0.18814456462860108,
                -0.464068740606308,
                -0.02480602264404297,
                0.5524051189422607,
                0.11254558712244034,
                0.3982323706150055,
                0.8558611273765564,
                0.1416575014591217,
                -0.7846673130989075,
                -0.6266757845878601,
                0.03821539133787155,
                0.5919675827026367,
                1.0586646795272828,
                -0.12142688781023026,
                0.2827478051185608,
                -0.4028860330581665,
                -0.010564953088760376,
                -1.0506960153579713,
                -0.4130817651748657,
                -0.5357519388198853,
                -0.089760422706604,
                0.08920200914144516,
                0.9127786159515381,
                -0.7524680495262146,
                -0.8807840943336487,
                -0.6454435586929321,
                0.6226672530174255,
                -0.5505385398864746,
                -0.6462715268135071,
                -0.44577908515930178,
                0.6021536588668823,
                -0.47683092951774599,
                -0.13159340620040894,
                0.8421384692192078,
                0.9848986268043518,
                0.6055263876914978,
                -0.5943855047225952,
                -0.79054194688797,
                -0.9185887575149536,
                -0.303026407957077,
                0.09690617024898529,
                0.4670468866825104,
                -0.670337975025177,
                0.6547274589538574,
                0.9236267805099487,
                -0.87883460521698,
                0.9881764650344849,
                0.3346439599990845,
                0.713289737701416,
                -0.49049344658851626,
                0.5147058367729187,
                0.4238879978656769,
                1.4655053615570069,
                0.7347429990768433,
                -0.01198124885559082,
                -1.1205121278762818,
                -0.6435112357139587,
                0.5965266227722168,
                0.3700105547904968,
                0.5998667478561401,
                0.17292186617851258,
                -0.6581996083259583,
                -0.7645861506462097,
                -0.4609864056110382,
                0.3956215977668762,
                0.3270488381385803,
                0.002154432237148285,
                0.0673515573143959,
                -0.10951703041791916,
                -0.2798651158809662,
                -0.24308747053146363,
                -0.2545594573020935,
                0.11854084581136704,
                -0.06800080835819245,
                0.02785930037498474,
                -0.4250308871269226
            ],
            "fitness": 0.0,
            "npcType": 1
        },
        {
            "layers": [
                8,
                8,
                6,
                4
            ],
            "flattenedWeights": [
                -0.9749813079833984,
                0.5532177686691284,
                0.4374491274356842,
                0.2222558706998825,
                0.6646425127983093,
                -0.17929109930992127,
                0.8684241771697998,
                -0.22672569751739503,
                -0.38463491201400759,
                -0.9159462451934815,
                -0.8461194038391113,
                -0.6266352534294128,
                0.6240251660346985,
                -0.9146574139595032,
                -0.5781094431877136,
                0.2779766321182251,
                0.5085413455963135,
                1.0124591588974,
                -0.1340981423854828,
                -0.3737374544143677,
                0.46786561608314516,
                0.2690841555595398,
                0.028949744999408723,
                -0.9748955965042114,
                -0.8733178973197937,
                0.823018491268158,
                0.5190486311912537,
                -0.12655577063560487,
                0.7043009400367737,
                -0.6699416637420654,
                0.8203731775283814,
                -0.5851023197174072,
                -0.7164142727851868,
                -0.5721306204795837,
                0.5327169895172119,
                0.18627646565437318,
                0.3727203905582428,
                -0.3186478912830353,
                -0.6668450832366943,
                -0.3672159016132355,
                -0.48723480105400088,
                -0.7050864100456238,
                0.417446494102478,
                0.42944827675819399,
                -0.834612250328064,
                -0.28875279426574709,
                -0.4148589074611664,
                -0.4881992042064667,
                0.1953774094581604,
                -0.22445756196975709,
                -0.8531172275543213,
                -0.22542712092399598,
                -0.8777788877487183,
                0.2829345166683197,
                0.7829307317733765,
                -0.03330276533961296,
                0.2119140923023224,
                -0.7493966817855835,
                0.7191726565361023,
                -0.16141775250434876,
                0.967164933681488,
                -0.36171823740005495,
                -0.6277983784675598,
                0.4189794659614563,
                -0.33353811502456667,
                -0.9283801317214966,
                -0.1592084765434265,
                -0.03071971982717514,
                -0.8667268753051758,
                -0.7408018708229065,
                -0.3432019054889679,
                -0.8018155097961426,
                0.9858009219169617,
                -0.4333733320236206,
                0.7997851371765137,
                0.8238442540168762,
                -0.16915807127952577,
                -1.1675429344177247,
                -0.4766538739204407,
                0.8608360290527344,
                -0.07506107538938523,
                -0.6356924176216126,
                1.036414623260498,
                -0.6915178894996643,
                -0.9841879606246948,
                -0.5995389223098755,
                0.6018710136413574,
                0.43739476799964907,
                -0.5486665368080139,
                -0.8501080870628357,
                0.8681562542915344,
                -0.5910688042640686,
                0.09552202373743057,
                -0.8087283968925476,
                0.09645402431488037,
                0.7017636895179749,
                -0.5943855047225952,
                -0.5584157109260559,
                -0.8749727010726929,
                0.24065439403057099,
                0.6913900375366211,
                0.44600626826286318,
                -0.46831825375556948,
                -0.03594117611646652,
                0.5383069515228272,
                0.08299820870161057,
                -0.6516604423522949,
                0.23790472745895387,
                0.7776237726211548,
                0.6187829375267029,
                0.5711989402770996,
                -0.8619497418403626,
                0.23863878846168519,
                0.6771726012229919,
                -0.08138412982225418,
                -0.9849860668182373,
                -0.7193466424942017,
                0.7896791100502014,
                0.32689881324768069,
                0.01848352700471878,
                0.2034766972064972,
                0.8505222201347351,
                -0.8396092653274536,
                0.05042221397161484,
                0.234727144241333,
                0.6367509365081787,
                -0.07545575499534607,
                -0.7145524621009827,
                1.0303889513015748,
                -0.09613045305013657,
                0.5659157037734985,
                -0.9231458902359009,
                0.1983686089515686,
                -0.06800080835819245,
                0.6462847590446472,
                0.3645286560058594
            ],
            "fitness": 0.0,
            "npcType": 1
        },
        {
            "layers": [
                8,
                8,
                6,
                4
            ],
            "flattenedWeights": [
                -0.8831503987312317,
                -0.7095024585723877,
                0.3628547787666321,
                0.1764298677444458,
                -0.4669939875602722,
                -0.7217562198638916,
                -0.2909664511680603,
                -0.34852051734924319,
                -0.5316762924194336,
                -0.5922620296478272,
                0.016160905361175538,
                -0.6189894080162048,
                0.06754104048013687,
                0.38853999972343447,
                -1.0890475511550904,
                0.714137613773346,
                0.010599471628665924,
                -0.18866503238677979,
                -0.5265935063362122,
                0.5580330491065979,
                0.45846936106681826,
                0.33444100618362429,
                -0.3510989248752594,
                0.8112124800682068,
                -0.8733178973197937,
                0.23100748658180238,
                0.4502449929714203,
                -0.1823311150074005,
                0.3713743984699249,
                -0.8410900831222534,
                -0.27811065316200259,
                -0.5285876989364624,
                0.7570645809173584,
                -0.23422563076019288,
                0.8018702864646912,
                0.2756887376308441,
                0.46881061792373659,
                -0.3186478912830353,
                0.9361096620559692,
                0.6051191091537476,
                -0.42873141169548037,
                -0.6415445804595947,
                0.8950307965278626,
                -0.18996044993400575,
                -0.30886203050613406,
                -0.3565574884414673,
                -0.45361047983169558,
                -0.7869163751602173,
                -0.1325264871120453,
                -0.22445756196975709,
                0.6673179268836975,
                -0.02581491321325302,
                -0.2003820538520813,
                0.13591264188289643,
                0.055418215692043307,
                0.9499647617340088,
                0.419266015291214,
                0.49482962489128115,
                0.3326992392539978,
                -0.08594000339508057,
                -0.6222248077392578,
                -0.17707327008247376,
                -0.7430253624916077,
                -1.1361802816390992,
                -0.6460493206977844,
                0.1564781367778778,
                -0.8120065927505493,
                0.03750012069940567,
                -0.7839702367782593,
                -0.6345163583755493,
                0.07539544999599457,
                0.17264020442962647,
                -0.9282909035682678,
                0.4319303631782532,
                -0.6957154870033264,
                0.6841427683830261,
                0.40401676297187807,
                -0.4997011423110962,
                -0.4610850512981415,
                -0.8415915369987488,
                -0.6071968078613281,
                -0.6891260743141174,
                0.10417881608009339,
                -0.7835685014724731,
                -0.7921310067176819,
                0.5578644871711731,
                0.6722304821014404,
                -0.5029893517494202,
                0.7580339908599854,
                -0.3082312047481537,
                0.9162777066230774,
                0.5030097961425781,
                -1.014981746673584,
                0.3993915617465973,
                0.0825619325041771,
                -0.7539489269256592,
                0.45209625363349917,
                -0.7796305418014526,
                -1.0842465162277222,
                0.10079322755336762,
                0.6755657196044922,
                -0.7715012431144714,
                -0.009025804698467255,
                0.27600061893463137,
                0.5383069515228272,
                -0.02789653092622757,
                0.9211487770080566,
                0.4051222503185272,
                0.2998138666152954,
                0.6847047805786133,
                0.6420875191688538,
                0.2182718813419342,
                0.35697898268699648,
                -0.08686008304357529,
                -0.6861868500709534,
                -1.0360174179077149,
                -0.5136550664901733,
                -0.7720068097114563,
                0.39877939224243166,
                0.03954858332872391,
                0.2828197181224823,
                0.6486456394195557,
                -0.030778229236602784,
                -0.4905235767364502,
                0.38719823956489565,
                0.7087557315826416,
                0.06816209107637406,
                -0.8053545951843262,
                -0.28273722529411318,
                0.15020444989204408,
                0.5851083993911743,
                0.616448700428009,
                -0.4355655610561371,
                0.15596285462379456,
                -0.690016508102417,
                -0.943821132183075
            ],
            "fitness": 0.0,
            "npcType": 1
        },
        {
            "layers": [
                8,
                8,
                6,
                4
            ],
            "flattenedWeights": [
                -0.3320748209953308,
                -0.5819671154022217,
                -0.7179393768310547,
                0.1187303438782692,
                -0.36113882064819338,
                -0.5668653249740601,
                0.8922300934791565,
                0.35242244601249697,
                0.34110787510871889,
                0.29397085309028628,
                -0.2535024583339691,
                0.2795821726322174,
                -0.6473150849342346,
                0.41924232244491579,
                -0.5948547720909119,
                0.3394230306148529,
                0.7281891107559204,
                0.843892514705658,
                0.5172001719474793,
                0.4632730484008789,
                -0.1468428075313568,
                0.4766375422477722,
                -0.9325268268585205,
                -0.8675711750984192,
                -0.10800916701555252,
                0.8198834657669067,
                0.9744411110877991,
                0.09471017867326737,
                0.555124819278717,
                -0.8052809834480286,
                0.7735161781311035,
                0.1608179211616516,
                0.14107303321361543,
                -0.3311055600643158,
                0.7507597208023071,
                -0.8305346965789795,
                0.4729473292827606,
                -0.3186478912830353,
                -0.6975314617156982,
                0.6160534024238586,
                -0.42932844161987307,
                0.7813761234283447,
                0.4830585718154907,
                -0.03857048600912094,
                1.0546009540557862,
                -0.36404237151145937,
                -0.23477664589881898,
                -0.237272709608078,
                -0.8857561945915222,
                -0.8754085898399353,
                0.8240846991539002,
                -0.2610315680503845,
                -0.9817222952842712,
                -0.6208563446998596,
                0.11405473947525025,
                0.8375082612037659,
                -0.1355956643819809,
                -0.7664130330085754,
                0.26209476590156557,
                0.5148162841796875,
                0.8746525645256043,
                -0.34662967920303347,
                -0.6139208674430847,
                0.4782225489616394,
                0.03174459934234619,
                -0.41465121507644656,
                -0.8159045577049255,
                -0.13341408967971803,
                -0.7329422235488892,
                0.6486333608627319,
                0.22178900241851808,
                -0.7963374257087708,
                0.903766393661499,
                -0.3143770694732666,
                -1.0240687131881714,
                -0.3970053195953369,
                -0.06954007595777512,
                -0.39109188318252566,
                -0.021342020481824876,
                0.4449288249015808,
                -0.623251736164093,
                0.30752015113830569,
                1.188915491104126,
                -0.6380677819252014,
                -0.11008865386247635,
                -0.604816198348999,
                0.7385196685791016,
                -0.5917387008666992,
                -0.40209028124809267,
                0.44674354791641238,
                0.7644997239112854,
                0.9346804618835449,
                -0.9767781496047974,
                0.3830835223197937,
                -0.058417290449142459,
                0.5102008581161499,
                0.09327483922243118,
                0.6293923258781433,
                0.4945252537727356,
                0.7852193117141724,
                0.8005172610282898,
                0.07346076518297196,
                -0.04616164416074753,
                -0.18685439229011537,
                -0.24727806448936463,
                0.42721229791641238,
                0.6571191549301148,
                -0.5501051545143127,
                0.01842198520898819,
                -0.412832111120224,
                0.5087831616401672,
                -0.5839348435401917,
                1.463828682899475,
                -0.06291243433952332,
                -0.8869805932044983,
                -0.04049629345536232,
                -0.2831900119781494,
                0.10570013523101807,
                0.2734692394733429,
                -1.0384281873703004,
                -0.06528469920158386,
                0.4928271174430847,
                -0.757161021232605,
                -0.41326043009757998,
                1.5520851612091065,
                0.684604823589325,
                0.820447564125061,
                0.21948963403701783,
                -0.005960643291473389,
                -0.49432602524757388,
                -0.2977176308631897,
                -0.7907827496528626,
                1.3279578685760499,
                0.03659931570291519,
                0.3290618360042572,
                -1.0300239324569703
            ],
            "fitness": 0.0,
            "npcType": 1
        },
        {
            "layers": [
                8,
                8,
                6,
                4
            ],
            "flattenedWeights": [
                -0.877691924571991,
                -0.6682590246200562,
                0.30097121000289919,
                0.18744423985481263,
                0.5207112431526184,
                0.4744318127632141,
                1.0558890104293824,
                -0.33118268847465517,
                -0.6846056580543518,
                -0.5772756338119507,
                0.07035385072231293,
                0.3949863016605377,
                -0.027719751000404359,
                -0.34196314215660097,
                -0.9926518797874451,
                0.6973676681518555,
                -0.12242664396762848,
                -0.7867526412010193,
                0.5172001719474793,
                -0.4145115613937378,
                -0.20951184630393983,
                0.5202353596687317,
                -0.934188187122345,
                0.8007494807243347,
                0.9550707340240479,
                0.8576354384422302,
                0.4793218970298767,
                -0.27175989747047427,
                0.827690839767456,
                -0.02544788271188736,
                0.8547143936157227,
                0.269891619682312,
                -0.07524558901786804,
                -0.6181368231773377,
                0.5448060631752014,
                0.1906302571296692,
                -0.8310010433197022,
                -0.4993131160736084,
                0.919392466545105,
                -0.017221547663211824,
                -0.46219566464424136,
                -0.6415445804595947,
                0.4482203722000122,
                -0.2870505154132843,
                1.0217010974884034,
                -0.4483690857887268,
                -0.31243470311164858,
                -0.40890583395957949,
                -0.12922942638397218,
                -0.24304278194904328,
                0.6501064896583557,
                -0.5216631889343262,
                -0.19163578748703004,
                0.2569407820701599,
                0.03724529594182968,
                0.9241811037063599,
                -0.01712862402200699,
                0.5583101511001587,
                -0.25657206773757937,
                0.5348836779594421,
                0.7562735080718994,
                -0.17707327008247376,
                0.0677126795053482,
                0.10598554462194443,
                0.013758249580860138,
                0.39866337180137637,
                0.8937036395072937,
                -0.11607851088047028,
                -0.20679841935634614,
                -0.6960223317146301,
                0.7013728618621826,
                0.547269880771637,
                -1.1187224388122559,
                -0.40756314992904665,
                -0.6672431826591492,
                0.8058496117591858,
                -0.019465357065200807,
                -1.0041793584823609,
                -0.05517692491412163,
                0.7644080519676209,
                0.8353495597839356,
                0.30752015113830569,
                1.0888442993164063,
                -0.692060112953186,
                -0.83878093957901,
                0.45735612511634829,
                0.5431885719299316,
                -0.6099594831466675,
                -0.46497616171836855,
                -0.7393686771392822,
                -0.5741722583770752,
                0.8306384086608887,
                -0.13159340620040894,
                0.5824599862098694,
                0.9215766191482544,
                0.6055263876914978,
                0.5970930457115173,
                -0.5153972506523132,
                -0.794040322303772,
                0.23689574003219605,
                0.21002718806266786,
                0.07069321721792221,
                0.05142940580844879,
                0.6547274589538574,
                0.8669571280479431,
                0.04538021236658096,
                0.9211487770080566,
                -0.09114804118871689,
                0.6650171279907227,
                0.6847047805786133,
                0.6300763487815857,
                0.33953848481178286,
                1.314782977104187,
                -0.5872149467468262,
                -0.12217691540718079,
                -0.07987720519304276,
                0.9285838603973389,
                -0.6143999099731445,
                0.45609575510025027,
                -0.8977153897285461,
                0.18047061562538148,
                -0.5106939673423767,
                -0.7934086322784424,
                -0.32875341176986697,
                0.4311932325363159,
                0.8089460730552673,
                0.016474418342113496,
                0.08637560158967972,
                -0.1781136840581894,
                0.3581080138683319,
                0.5780548453330994,
                -0.39858826994895937,
                0.23106667399406434,
                -0.06800080835819245,
                0.7451292276382446,
                -0.7151744365692139
            ],
            "fitness": 0.0,
            "npcType": 1
        },
        {
            "layers": [
                8,
                8,
                6,
                4
            ],
            "flattenedWeights": [
                -0.8793906569480896,
                -0.00013697147369384766,
                0.3471802771091461,
                0.6289072632789612,
                0.5580185651779175,
                -0.9458857774734497,
                0.2673386335372925,
                0.6775605082511902,
                -0.856793999671936,
                0.762654185295105,
                0.01749051734805107,
                0.9145491123199463,
                -0.7042623162269592,
                -0.46937286853790285,
                -0.5255551338195801,
                0.29366201162338259,
                0.5968425273895264,
                0.10903427004814148,
                -0.6194572448730469,
                -0.2780691087245941,
                0.39870962500572207,
                -0.8646523952484131,
                -0.9780887961387634,
                -0.9053581357002258,
                -0.8066510558128357,
                0.8909110426902771,
                0.4736621081829071,
                -0.2473047971725464,
                0.8535193800926209,
                -0.07272589951753617,
                0.6088984608650208,
                -0.1904495656490326,
                0.25521039962768557,
                0.0812956690788269,
                0.5627241730690002,
                0.09841566532850266,
                0.25916963815689089,
                -0.6270381808280945,
                -0.452961266040802,
                -0.19574207067489625,
                0.28585001826286318,
                -0.7032597661018372,
                0.8474662899971008,
                -0.8427477478981018,
                -0.33929845690727236,
                -0.8745579719543457,
                0.5407914519309998,
                0.14251908659934998,
                0.5487812757492065,
                -0.45787957310676577,
                0.5438610315322876,
                -0.17453564703464509,
                -1.0644841194152833,
                0.26946011185646059,
                0.30791378021240237,
                0.8952376246452332,
                0.39233168959617617,
                -0.9792621731758118,
                0.6319276690483093,
                -0.06462512910366059,
                -0.19627001881599427,
                0.34828048944473269,
                0.08504952490329743,
                0.45969152450561526,
                -0.36665523052215578,
                0.8393621444702148,
                0.6043271422386169,
                -0.07609372586011887,
                -0.7839702367782593,
                -0.6731866002082825,
                0.06749917566776276,
                0.2113354504108429,
                -0.24922358989715577,
                -0.23545783758163453,
                0.2827478051185608,
                -0.4384351968765259,
                -0.009326696395874024,
                0.16593921184539796,
                -0.4766538739204407,
                0.8483061194419861,
                0.5603527426719666,
                0.31331539154052737,
                1.0015596151351929,
                -0.6837752461433411,
                -1.0263593196868897,
                0.33766213059425356,
                0.5560206770896912,
                0.34944695234298708,
                0.3744829595088959,
                0.48935672640800478,
                0.526126503944397,
                0.8874393105506897,
                0.612450361251831,
                0.782999575138092,
                0.10064687579870224,
                0.6468123197555542,
                0.7828109264373779,
                0.2973170578479767,
                0.740717887878418,
                -0.7134608030319214,
                0.1543196439743042,
                -0.9544370174407959,
                0.5342159271240234,
                -0.3780885934829712,
                0.5383069515228272,
                0.5299709439277649,
                0.9130977988243103,
                0.26012784242630007,
                0.5412124991416931,
                0.11503813415765763,
                0.7099385261535645,
                -0.8155409097671509,
                0.5916531682014465,
                -0.07142067700624466,
                0.415420264005661,
                -1.1194229125976563,
                -0.47060149908065798,
                0.49895837903022768,
                0.7671685218811035,
                -0.8798944354057312,
                0.04729355126619339,
                0.6784183979034424,
                -0.06259021162986756,
                -0.42232340574264529,
                1.4506778717041016,
                -0.22996488213539124,
                0.09944780170917511,
                -0.8150513768196106,
                -0.24950608611106873,
                -0.35042399168014529,
                -0.2977176308631897,
                -0.8603856563568115,
                -0.45223692059516909,
                -0.08666589856147766,
                1.073205828666687,
                0.8323575258255005
            ],
            "fitness": 0.0,
            "npcType": 1
        }
    ],
    "timestamp": "2025-05-06 03:43:00"
}