{
    "generation": 225,
    "bestFitness": 61.031280517578128,
    "averageFitness": 7.584725379943848,
    "worstFitness": 0.0,
    "networks": [
        {
            "layers": [
                8,
                8,
                6,
                4
            ],
            "flattenedWeights": [
                -0.8550729155540466,
                0.34427496790885928,
                0.8998424410820007,
                0.6669955849647522,
                1.3054624795913697,
                0.5114234089851379,
                -0.6285789012908936,
                -0.5423344373703003,
                -0.26327601075172427,
                -0.6213698387145996,
                0.08221516758203507,
                -1.1659051179885865,
                -0.7698462009429932,
                0.08738183230161667,
                0.8380974531173706,
                -0.6410277485847473,
                1.2687511444091797,
                -0.45122456550598147,
                -0.8006828427314758,
                0.2354118824005127,
                -0.7817078232765198,
                -0.9655396342277527,
                1.2692879438400269,
                0.1615442931652069,
                -1.7552531957626343,
                -0.6756598949432373,
                0.04804486781358719,
                -0.6049437522888184,
                -0.6637718081474304,
                0.1019197404384613,
                -0.9850948452949524,
                0.7007958292961121,
                -0.7289354801177979,
                0.7525356411933899,
                0.17796000838279725,
                -0.40607908368110659,
                -0.5917197465896606,
                -1.1395362615585328,
                -1.2918107509613038,
                0.1238175556063652,
                0.14811107516288758,
                -1.2645267248153687,
                -0.3263503909111023,
                -0.7042499780654907,
                0.495504766702652,
                -0.5356683731079102,
                0.16277694702148438,
                -1.1804853677749634,
                -0.45853060483932497,
                -0.6395368576049805,
                0.6177232265472412,
                -0.8809989094734192,
                -2.020692825317383,
                -0.8693675398826599,
                1.04987633228302,
                0.025240570306777955,
                1.0680326223373414,
                0.5440253019332886,
                0.31769439578056338,
                1.3037285804748536,
                -1.1406457424163819,
                -1.2229924201965333,
                -0.052925512194633487,
                0.979780375957489,
                -0.6657618284225464,
                1.0265412330627442,
                -0.31192535161972048,
                -0.2033817172050476,
                0.05242303013801575,
                0.11432173103094101,
                0.7853690385818481,
                0.1552707850933075,
                1.111177682876587,
                -0.7530839443206787,
                0.392829567193985,
                -0.34559309482574465,
                -0.5872510671615601,
                -0.534785807132721,
                1.1770453453063965,
                0.8221518397331238,
                -0.3069613575935364,
                -0.40318137407302859,
                -1.7569959163665772,
                0.23373982310295106,
                1.8165576457977296,
                0.536292552947998,
                0.640583872795105,
                0.5025300979614258,
                0.8502167463302612,
                -1.2042096853256226,
                0.6185444593429565,
                -0.009116783738136292,
                -0.4886108636856079,
                -0.6404799818992615,
                -0.20951828360557557,
                0.20448100566864015,
                0.28332433104515078,
                -1.2697807550430298,
                0.1546037793159485,
                -0.3422389328479767,
                -0.8941438794136047,
                -0.804771900177002,
                0.9301639795303345,
                -0.36014416813850405,
                -0.3797256648540497,
                -0.8877912163734436,
                -1.2151223421096802,
                0.5342457890510559,
                1.0021814107894898,
                -0.4935206472873688,
                0.6211796402931213,
                -0.5680028200149536,
                1.1685712337493897,
                0.8569809198379517,
                0.6385927796363831,
                -0.9908095002174377,
                0.37468844652175906,
                -0.7402100563049316,
                -0.3834386467933655,
                1.1510740518569947,
                0.939181923866272,
                -1.7738441228866578,
                -0.052990593016147616,
                -2.173100471496582,
                0.9874449372291565,
                0.05072665214538574,
                -0.553702712059021,
                0.10325202345848084,
                1.229303240776062,
                -0.09501860290765763,
                -0.719501793384552,
                -0.8212687373161316,
                -0.5403799414634705,
                -0.45406374335289,
                -1.3707484006881714,
                0.05421968549489975
            ],
            "fitness": 61.031280517578128,
            "npcType": 1,
            "outputLockStatus": [
                false,
                false,
                false,
                false
            ]
        },
        {
            "layers": [
                8,
                8,
                6,
                4
            ],
            "flattenedWeights": [
                -0.8550729155540466,
                0.34427496790885928,
                0.9149258136749268,
                0.6669955849647522,
                1.381714940071106,
                0.5382528305053711,
                -0.5590953826904297,
                -0.4216134548187256,
                -0.2303626835346222,
                -0.5110786557197571,
                0.056816354393959048,
                -1.3496237993240357,
                -0.6693204641342163,
                0.04581664502620697,
                0.8070406317710877,
                -0.6710082292556763,
                1.1017571687698365,
                -0.45122456550598147,
                -0.8006828427314758,
                0.2354118824005127,
                -0.7202855348587036,
                -1.1360265016555787,
                1.147212266921997,
                0.25987961888313296,
                -1.8007690906524659,
                -0.7451937794685364,
                0.04804486781358719,
                -0.6049437522888184,
                -0.6982642412185669,
                -0.24126751720905305,
                -0.9850948452949524,
                0.7007958292961121,
                -0.6375530958175659,
                0.6508718132972717,
                0.17501269280910493,
                -0.3134647309780121,
                -0.4947306513786316,
                -1.118442416191101,
                -1.2160675525665284,
                0.1238175556063652,
                0.35974469780921938,
                -1.2645267248153687,
                -0.3263503909111023,
                -0.7042499780654907,
                0.5610702633857727,
                -0.5797181725502014,
                0.16277694702148438,
                -1.179559350013733,
                -0.45853060483932497,
                -0.6395368576049805,
                0.6522685885429382,
                -0.8809989094734192,
                -1.930085301399231,
                -0.6714357137680054,
                1.2245720624923707,
                0.06614778190851212,
                1.0640759468078614,
                0.4614182114601135,
                0.288580060005188,
                1.346944808959961,
                -1.0758326053619385,
                -1.3599166870117188,
                0.04765009135007858,
                0.979780375957489,
                -0.8057816028594971,
                0.9954676032066345,
                -0.28100091218948367,
                -0.16658398509025575,
                0.12592601776123048,
                0.11432173103094101,
                0.7473233938217163,
                0.011705704033374787,
                1.0605405569076539,
                -0.8191945552825928,
                0.23943357169628144,
                -0.6330732107162476,
                -0.5669963359832764,
                -0.534785807132721,
                1.143830418586731,
                0.8922803997993469,
                -0.3069613575935364,
                -0.40507835149765017,
                -1.7569959163665772,
                0.23373982310295106,
                1.8165576457977296,
                0.4777469038963318,
                0.5677250623703003,
                0.5681337714195252,
                0.8502167463302612,
                -1.2042096853256226,
                0.8281189203262329,
                -0.009116783738136292,
                -0.4281429648399353,
                -0.6900959610939026,
                -0.1807137429714203,
                0.12896406650543214,
                0.2965642511844635,
                -1.2100454568862916,
                0.227037712931633,
                -0.4427987337112427,
                -1.0024621486663819,
                -0.8181885480880737,
                0.8412835597991943,
                -0.3939375877380371,
                -0.3797256648540497,
                -0.7680186629295349,
                -1.1369822025299073,
                0.6086835861206055,
                1.0916461944580079,
                -0.43430188298225405,
                0.6987012028694153,
                -0.6318150758743286,
                1.1685712337493897,
                0.9257662296295166,
                0.6385927796363831,
                -1.1814919710159302,
                0.28050297498703005,
                -0.7402100563049316,
                -0.47329676151275637,
                1.236570119857788,
                0.9786919951438904,
                -1.7738441228866578,
                -0.04332304000854492,
                -2.1104578971862795,
                0.9874449372291565,
                0.008136268705129624,
                -0.6147208213806152,
                0.06081276386976242,
                1.229303240776062,
                -0.049401864409446719,
                -0.7488282918930054,
                -0.8212687373161316,
                -0.6064037084579468,
                -0.45406374335289,
                -1.3707484006881714,
                0.0767921432852745
            ],
            "fitness": 58.435638427734378,
            "npcType": 1,
            "outputLockStatus": [
                false,
                false,
                false,
                false
            ]
        },
        {
            "layers": [
                8,
                8,
                6,
                4
            ],
            "flattenedWeights": [
                -0.8550729155540466,
                0.31500956416130068,
                0.8998424410820007,
                0.6669955849647522,
                1.3054624795913697,
                0.5010098218917847,
                -0.6285789012908936,
                -0.523597240447998,
                -0.26327601075172427,
                -0.6213698387145996,
                0.08221516758203507,
                -1.1659051179885865,
                -0.7207739353179932,
                -0.011697426438331604,
                0.8244224190711975,
                -0.6410277485847473,
                1.2687511444091797,
                -0.45122456550598147,
                -0.8928467631340027,
                0.19627022743225099,
                -0.7817078232765198,
                -0.9655396342277527,
                1.1743323802947999,
                0.20774489641189576,
                -1.7552531957626343,
                -0.6756598949432373,
                0.017276078462600709,
                -0.6188805103302002,
                -0.6637718081474304,
                0.08645597845315933,
                -1.0418654680252076,
                0.7007958292961121,
                -0.7289354801177979,
                0.7738465666770935,
                0.2657708525657654,
                -0.3803178668022156,
                -0.5917197465896606,
                -1.1395362615585328,
                -1.2918107509613038,
                0.1238175556063652,
                0.14811107516288758,
                -1.2645267248153687,
                -0.27834317088127139,
                -0.7042499780654907,
                0.495504766702652,
                -0.5398189425468445,
                0.10121390968561173,
                -1.1804853677749634,
                -0.45853060483932497,
                -0.6395368576049805,
                0.6177232265472412,
                -0.9523252844810486,
                -1.9782040119171143,
                -0.8701722621917725,
                1.128375768661499,
                0.025240570306777955,
                1.0680326223373414,
                0.44578632712364199,
                0.3042513132095337,
                1.3037285804748536,
                -1.1406457424163819,
                -1.2229924201965333,
                -0.052925512194633487,
                0.979780375957489,
                -0.6250756978988648,
                0.9504413604736328,
                -0.28100091218948367,
                -0.2033817172050476,
                0.05242303013801575,
                0.10402625799179077,
                0.7853690385818481,
                0.1552707850933075,
                1.111177682876587,
                -0.8191945552825928,
                0.3549632132053375,
                -0.35679829120635989,
                -0.5872510671615601,
                -0.534785807132721,
                1.2398641109466553,
                0.8530913591384888,
                -0.24126698076725007,
                -0.40507835149765017,
                -1.7569959163665772,
                0.23373982310295106,
                1.8165576457977296,
                0.536292552947998,
                0.640583872795105,
                0.5681337714195252,
                0.8502167463302612,
                -1.2042096853256226,
                0.6185444593429565,
                -0.009116783738136292,
                -0.4886108636856079,
                -0.6787760853767395,
                -0.2796240746974945,
                0.20448100566864015,
                0.28332433104515078,
                -1.2100454568862916,
                0.227037712931633,
                -0.31128284335136416,
                -0.9311211705207825,
                -0.84688800573349,
                0.8412835597991943,
                -0.36014416813850405,
                -0.3729199171066284,
                -0.9548313021659851,
                -1.1335625648498536,
                0.45249563455581667,
                1.0569905042648316,
                -0.4935206472873688,
                0.6645010113716126,
                -0.5968868732452393,
                1.1685712337493897,
                0.796832799911499,
                0.6385927796363831,
                -0.9908095002174377,
                0.32227811217308047,
                -0.7402100563049316,
                -0.4263659119606018,
                1.1037018299102784,
                0.8509393930435181,
                -1.8674660921096802,
                0.04107046127319336,
                -2.173100471496582,
                0.9874449372291565,
                0.07175964117050171,
                -0.553702712059021,
                0.10325202345848084,
                1.229303240776062,
                -0.13870632648468018,
                -0.685390055179596,
                -0.8212687373161316,
                -0.5608361959457398,
                -0.45406374335289,
                -1.3707484006881714,
                0.05421968549489975
            ],
            "fitness": 32.685035705566409,
            "npcType": 1,
            "outputLockStatus": [
                false,
                false,
                false,
                false
            ]
        },
        {
            "layers": [
                8,
                8,
                6,
                4
            ],
            "flattenedWeights": [
                -0.8192839026451111,
                0.4082184135913849,
                0.9242904782295227,
                0.73064124584198,
                1.267481803894043,
                0.37168779969215395,
                -0.6285789012908936,
                -0.4507339894771576,
                -0.16357816755771638,
                -0.6213698387145996,
                0.07700908929109574,
                -1.3496237993240357,
                -0.7207739353179932,
                -0.011697426438331604,
                0.904169499874115,
                -0.6622912883758545,
                1.3052985668182374,
                -0.3949791193008423,
                -0.7237337231636047,
                0.18648886680603028,
                -0.7408590316772461,
                -0.9767345190048218,
                1.1743323802947999,
                0.20950672030448914,
                -1.7552531957626343,
                -0.6756598949432373,
                -0.1921667456626892,
                -0.41562455892562868,
                -0.6719547510147095,
                -0.06722494959831238,
                -1.0068236589431763,
                0.5737127661705017,
                -0.5707604289054871,
                0.8233430981636047,
                0.2433263063430786,
                -0.3134647309780121,
                -0.7199305891990662,
                -1.1395362615585328,
                -1.130871057510376,
                0.1238175556063652,
                0.10947234183549881,
                -1.3479403257369996,
                -0.3263503909111023,
                -0.871674120426178,
                0.5459579825401306,
                -0.5398189425468445,
                0.16277694702148438,
                -1.1981559991836548,
                -0.45853060483932497,
                -0.4943811297416687,
                0.4935990273952484,
                -0.9773659706115723,
                -2.111947774887085,
                -0.8701722621917725,
                1.166390299797058,
                0.10727166384458542,
                1.0347027778625489,
                0.3721407353878021,
                0.3683016002178192,
                1.3026015758514405,
                -1.1406457424163819,
                -1.2814714908599854,
                -0.052925512194633487,
                1.0590312480926514,
                -0.8557203412055969,
                1.1121293306350709,
                -0.36498546600341799,
                -0.2033817172050476,
                0.0026919320225715639,
                0.10190916806459427,
                0.640677273273468,
                0.14459767937660218,
                1.2878499031066895,
                -0.8191945552825928,
                0.392829567193985,
                -0.44432634115219118,
                -0.5872510671615601,
                -0.534785807132721,
                1.121906042098999,
                0.8391907215118408,
                -0.3069613575935364,
                -0.40507835149765017,
                -1.847362995147705,
                0.25427180528640749,
                1.7683777809143067,
                0.536292552947998,
                0.45608457922935488,
                0.6271015405654907,
                0.7881191968917847,
                -1.2574536800384522,
                0.6673519611358643,
                0.04123132675886154,
                -0.4315740764141083,
                -0.6840918660163879,
                -0.1825021505355835,
                0.31729957461357119,
                0.27701690793037417,
                -1.022544503211975,
                0.1414894163608551,
                -0.31128284335136416,
                -0.8941438794136047,
                -0.84688800573349,
                0.7996736764907837,
                -0.36014416813850405,
                -0.34292927384376528,
                -0.9478593468666077,
                -1.2151730060577393,
                0.5463460683822632,
                1.0886151790618897,
                -0.6421505212783814,
                0.6033469438552856,
                -0.5938841700553894,
                1.0185002088546754,
                0.9021570682525635,
                0.540825605392456,
                -0.9734488725662231,
                0.336112380027771,
                -0.7994644045829773,
                -0.3834386467933655,
                1.1037018299102784,
                0.9275924563407898,
                -1.667000412940979,
                -0.04332304000854492,
                -2.227325916290283,
                1.0494972467422486,
                -0.0862482339143753,
                -0.553702712059021,
                0.10325202345848084,
                1.2296651601791382,
                -0.15696018934249879,
                -0.6557466983795166,
                -0.8212687373161316,
                -0.49261146783828738,
                -0.4389896094799042,
                -1.488951563835144,
                0.05421968549489975
            ],
            "fitness": 32.541343688964847,
            "npcType": 1,
            "outputLockStatus": [
                false,
                false,
                false,
                false
            ]
        },
        {
            "layers": [
                8,
                8,
                6,
                4
            ],
            "flattenedWeights": [
                -0.8550729155540466,
                0.40219107270240786,
                0.838738203048706,
                0.73064124584198,
                1.3503913879394532,
                0.30514344573020937,
                -0.6285789012908936,
                -0.5725137591362,
                -0.4603023827075958,
                -0.6213698387145996,
                0.08221516758203507,
                -1.1063953638076783,
                -0.7207739353179932,
                0.031539611518383029,
                0.8853517770767212,
                -0.5790250301361084,
                1.2687511444091797,
                -0.4809877574443817,
                -0.7887312173843384,
                0.2354118824005127,
                -0.7817078232765198,
                -0.8721476793289185,
                1.1743323802947999,
                0.22010326385498048,
                -1.7552531957626343,
                -0.6215599775314331,
                -0.0463133305311203,
                -0.5512092113494873,
                -0.6095715165138245,
                -0.0827711895108223,
                -0.9850948452949524,
                0.571858286857605,
                -0.7289354801177979,
                0.7525356411933899,
                0.17796000838279725,
                -0.3134647309780121,
                -0.5917197465896606,
                -1.1395362615585328,
                -1.3691750764846802,
                0.062236130237579349,
                0.14811107516288758,
                -1.2903468608856202,
                -0.3263503909111023,
                -0.862160861492157,
                0.40128660202026369,
                -0.6183986067771912,
                0.0022557154297828676,
                -1.403925895690918,
                -0.45853060483932497,
                -0.4723569452762604,
                0.5266963243484497,
                -0.846277117729187,
                -2.020692825317383,
                -0.8701722621917725,
                1.128375768661499,
                0.025240570306777955,
                1.0347027778625489,
                0.510463535785675,
                0.28974106907844546,
                1.3037285804748536,
                -1.1834403276443482,
                -1.4010565280914307,
                -0.052925512194633487,
                0.979780375957489,
                -0.6869697570800781,
                0.9105875492095947,
                -0.3005788326263428,
                -0.19021132588386537,
                0.20740488171577454,
                0.20666193962097169,
                0.7853690385818481,
                0.26887109875679018,
                1.1923362016677857,
                -0.8231867551803589,
                0.270029217004776,
                -0.35679829120635989,
                -0.5872510671615601,
                -0.534785807132721,
                1.0453213453292847,
                0.8221518397331238,
                -0.31688204407691958,
                -0.40507835149765017,
                -1.921590805053711,
                0.2212887406349182,
                1.8165576457977296,
                0.536292552947998,
                0.6500386595726013,
                0.47739872336387637,
                0.7297335863113403,
                -1.2042096853256226,
                0.6185444593429565,
                0.04123132675886154,
                -0.3072862923145294,
                -0.6207612752914429,
                -0.2796240746974945,
                0.20448100566864015,
                0.28332433104515078,
                -1.1126219034194947,
                0.41234394907951357,
                -0.31128284335136416,
                -0.8335256576538086,
                -0.9204413890838623,
                0.9366876482963562,
                -0.36014416813850405,
                -0.23585709929466248,
                -0.9919689893722534,
                -1.2151223421096802,
                0.3554120659828186,
                1.1562391519546509,
                -0.5835107564926148,
                0.6115316152572632,
                -0.5680028200149536,
                1.1685712337493897,
                0.9415627717971802,
                0.6385927796363831,
                -0.9908095002174377,
                0.336112380027771,
                -0.7089641690254211,
                -0.3834386467933655,
                1.237512230873108,
                0.9299939870834351,
                -1.7604464292526246,
                -0.06363886594772339,
                -2.1679043769836427,
                1.0899600982666016,
                0.05072665214538574,
                -0.553702712059021,
                0.10325202345848084,
                1.229303240776062,
                -0.12724918127059937,
                -0.7254847884178162,
                -0.8212687373161316,
                -0.4594261050224304,
                -0.4473111629486084,
                -1.3707484006881714,
                0.05421968549489975
            ],
            "fitness": 29.668325424194337,
            "npcType": 1,
            "outputLockStatus": [
                false,
                false,
                false,
                false
            ]
        },
        {
            "layers": [
                8,
                8,
                6,
                4
            ],
            "flattenedWeights": [
                -0.8308125734329224,
                0.4082184135913849,
                0.8998424410820007,
                0.6669955849647522,
                1.3248639106750489,
                0.5191628932952881,
                -0.5778213143348694,
                -0.523597240447998,
                -0.26327601075172427,
                -0.6508014798164368,
                0.08221516758203507,
                -1.090334415435791,
                -0.8603615760803223,
                -0.1106124147772789,
                0.8244224190711975,
                -0.583167552947998,
                1.3087347745895386,
                -0.45122456550598147,
                -0.9006140828132629,
                0.40930163860321047,
                -0.7235215306282044,
                -0.9767345190048218,
                1.1743323802947999,
                0.26683515310287478,
                -1.7538460493087769,
                -0.5980634689331055,
                0.04804486781358719,
                -0.6049437522888184,
                -0.7042888402938843,
                0.016529742628335954,
                -0.9850948452949524,
                0.7007958292961121,
                -0.7700982093811035,
                0.7525356411933899,
                0.17796000838279725,
                -0.4348851442337036,
                -0.5917197465896606,
                -1.1255645751953126,
                -1.2918107509613038,
                0.1238175556063652,
                0.14811107516288758,
                -1.2187525033950806,
                -0.3263503909111023,
                -0.8010371327400208,
                0.495504766702652,
                -0.5881213545799255,
                0.16277694702148438,
                -1.1804853677749634,
                -0.5009092092514038,
                -0.6395368576049805,
                0.585429310798645,
                -0.8122671246528626,
                -1.8868494033813477,
                -0.8701722621917725,
                1.128375768661499,
                0.06494789570569992,
                1.0680326223373414,
                0.44578632712364199,
                0.36714863777160647,
                1.3183037042617798,
                -1.1406457424163819,
                -1.2221577167510987,
                -0.052925512194633487,
                0.9064643979072571,
                -0.6657618284225464,
                0.9294558763504028,
                -0.28100091218948367,
                -0.2033817172050476,
                0.05242303013801575,
                0.11432173103094101,
                0.7678035497665405,
                0.1552707850933075,
                1.180253028869629,
                -0.8191945552825928,
                0.392829567193985,
                -0.25912603735923769,
                -0.5872510671615601,
                -0.534785807132721,
                1.088951826095581,
                0.8221518397331238,
                -0.2933289408683777,
                -0.48682647943496706,
                -1.7569959163665772,
                0.25300049781799319,
                1.7988417148590088,
                0.536292552947998,
                0.5777088403701782,
                0.47037383913993838,
                0.8502167463302612,
                -1.1661875247955323,
                0.6185444593429565,
                -0.009116783738136292,
                -0.4886108636856079,
                -0.6692951321601868,
                -0.26254504919052126,
                0.20448100566864015,
                0.23088377714157105,
                -1.2862335443496705,
                0.3141831159591675,
                -0.38703081011772158,
                -1.030245304107666,
                -0.84688800573349,
                0.8412835597991943,
                -0.36014416813850405,
                -0.44298434257507326,
                -0.834861159324646,
                -1.2497316598892213,
                0.5784182548522949,
                1.0916461944580079,
                -0.5835107564926148,
                0.6927188634872437,
                -0.5680028200149536,
                1.1685712337493897,
                0.9789536595344544,
                0.6385927796363831,
                -0.9908095002174377,
                0.336112380027771,
                -0.727136492729187,
                -0.3834386467933655,
                1.1502501964569092,
                0.9634735584259033,
                -1.7738441228866578,
                -0.05032779276371002,
                -2.173100471496582,
                1.0187883377075196,
                -0.07723847031593323,
                -0.6071795225143433,
                -0.2172548770904541,
                1.229303240776062,
                -0.18521541357040406,
                -0.8428838849067688,
                -0.8212687373161316,
                -0.6204723715782166,
                -0.45188814401626589,
                -1.3707484006881714,
                0.05421968549489975
            ],
            "fitness": 28.23663902282715,
            "npcType": 1,
            "outputLockStatus": [
                false,
                false,
                false,
                false
            ]
        },
        {
            "layers": [
                8,
                8,
                6,
                4
            ],
            "flattenedWeights": [
                -0.4482596814632416,
                1.1273270845413209,
                -0.5665107369422913,
                -0.0497649610042572,
                -0.5584195852279663,
                0.6205649375915527,
                0.8443890810012817,
                0.7374021410942078,
                1.1868983507156373,
                -0.168962299823761,
                -2.0344529151916506,
                -1.1835418939590455,
                1.817119836807251,
                -0.22902467846870423,
                -1.523121953010559,
                0.24626001715660096,
                -1.0883209705352784,
                0.7264921069145203,
                -1.1808475255966187,
                0.2748120129108429,
                -0.2891310155391693,
                0.29846882820129397,
                0.8747211694717407,
                0.6416313648223877,
                -0.8603509068489075,
                -0.7994796633720398,
                -0.5285210609436035,
                -0.7506447434425354,
                0.9736286997795105,
                0.7677009701728821,
                0.17704752087593079,
                -0.36091524362564089,
                -0.3508078157901764,
                0.18728190660476685,
                0.6060056090354919,
                0.6559788584709168,
                0.7663299441337586,
                0.9758451581001282,
                0.5878759026527405,
                -0.6331482529640198,
                -0.28983208537101748,
                -1.3052631616592408,
                -0.24188975989818574,
                0.05656113475561142,
                0.5670344233512878,
                0.7409828901290894,
                0.7948237061500549,
                -1.4551701545715333,
                -0.17524224519729615,
                1.0390888452529908,
                0.9533023238182068,
                -0.15218913555145265,
                0.1693032830953598,
                0.5501655340194702,
                0.2630130648612976,
                -0.7229390144348145,
                0.6851192116737366,
                0.46753665804862978,
                0.612507700920105,
                -0.08451053500175476,
                1.6369436979293824,
                0.6970193982124329,
                -0.013137947767972947,
                -0.6584301590919495,
                0.17164874076843263,
                1.2591017484664918,
                -0.20487883687019349,
                -0.22195586562156678,
                -0.054971858859062198,
                -0.9155687689781189,
                0.13489572703838349,
                -0.5130655765533447,
                -0.7576579451560974,
                0.6287901997566223,
                0.5698164701461792,
                0.06662452965974808,
                0.6515713334083557,
                -0.7569637298583984,
                0.29717355966567995,
                -0.7132972478866577,
                0.6273146271705627,
                0.674360990524292,
                -0.09761466085910797,
                0.056162573397159579,
                0.37986868619918826,
                0.7769590020179749,
                0.5036489963531494,
                0.013702668249607087,
                0.22460316121578217,
                0.9118652939796448,
                0.24839672446250916,
                -0.2189895510673523,
                -0.9307022094726563,
                1.4781070947647095,
                0.7835763692855835,
                0.9148806929588318,
                0.8637018203735352,
                0.5315670967102051,
                -0.002499319612979889,
                0.47336506843566897,
                -0.6918659806251526,
                -1.4336923360824586,
                0.8575084209442139,
                1.2066479921340943,
                -0.8237876892089844,
                -0.4992430806159973,
                -1.1923871040344239,
                0.2125982940196991,
                -1.1494767665863038,
                -1.1434417963027955,
                -0.6832315325737,
                0.3096694052219391,
                -0.06412113457918167,
                0.465995728969574,
                0.0298326313495636,
                -0.3534467816352844,
                0.6109296083450317,
                0.955491840839386,
                0.1290188729763031,
                0.38504138588905337,
                0.7930790185928345,
                -0.922429084777832,
                0.31399422883987429,
                0.06726831942796707,
                0.022032607346773149,
                0.5223568081855774,
                -0.7138530015945435,
                0.09415090829133988,
                -0.23333033919334413,
                0.694632887840271,
                -0.07905145734548569,
                -0.6176578402519226,
                0.901212751865387,
                -0.1522999405860901,
                0.7529152631759644,
                -0.019948594272136689
            ],
            "fitness": 23.67366600036621,
            "npcType": 0,
            "outputLockStatus": [
                false,
                false,
                false,
                false
            ]
        },
        {
            "layers": [
                8,
                8,
                6,
                4
            ],
            "flattenedWeights": [
                -0.8550729155540466,
                0.34427496790885928,
                0.8915354013442993,
                0.73064124584198,
                1.267481803894043,
                0.2940950095653534,
                -0.6285789012908936,
                -0.4555133283138275,
                -0.16357816755771638,
                -0.6213698387145996,
                0.07599187642335892,
                -1.2540960311889649,
                -0.7207739353179932,
                -0.011697426438331604,
                0.8244224190711975,
                -0.6410277485847473,
                1.2687511444091797,
                -0.45122456550598147,
                -0.8006828427314758,
                0.40332189202308657,
                -0.7817078232765198,
                -0.9655396342277527,
                1.1743323802947999,
                0.26683515310287478,
                -1.7287797927856446,
                -0.6756598949432373,
                0.14130885899066926,
                -0.6049437522888184,
                -0.6637718081474304,
                -0.04830387234687805,
                -0.7589558959007263,
                0.7007958292961121,
                -0.8279058933258057,
                0.7525356411933899,
                0.3511880934238434,
                -0.4972337782382965,
                -0.5917197465896606,
                -1.1395362615585328,
                -1.3332757949829102,
                0.1238175556063652,
                0.14811107516288758,
                -1.2924137115478516,
                -0.3846072554588318,
                -0.7042499780654907,
                0.4516717791557312,
                -0.5398189425468445,
                -0.01950497180223465,
                -1.1804853677749634,
                -0.45853060483932497,
                -0.6395368576049805,
                0.6290542483329773,
                -0.9598894715309143,
                -2.0844645500183107,
                -0.9085602164268494,
                1.166390299797058,
                -0.05295645445585251,
                0.9194079041481018,
                0.44578632712364199,
                0.4039181172847748,
                1.3932266235351563,
                -1.1406457424163819,
                -1.2035510540008546,
                -0.052925512194633487,
                0.979780375957489,
                -0.6657618284225464,
                0.9954676032066345,
                -0.6918703317642212,
                0.09761033952236176,
                0.12616440653800965,
                0.06061287224292755,
                0.802775502204895,
                0.3579137623310089,
                1.111177682876587,
                -0.906711995601654,
                0.2873419523239136,
                -0.35679829120635989,
                -0.6816183924674988,
                -0.6086040139198303,
                1.1770453453063965,
                0.8987290859222412,
                -0.3069613575935364,
                -0.33917397260665896,
                -1.84115731716156,
                0.23373982310295106,
                1.8165576457977296,
                0.5095667839050293,
                0.640583872795105,
                0.7197145223617554,
                0.7783972024917603,
                -1.2264564037322999,
                0.5701128840446472,
                0.0017639994621276856,
                -0.40125003457069399,
                -0.6787760853767395,
                -0.2796240746974945,
                0.20448100566864015,
                0.28332433104515078,
                -1.1198623180389405,
                0.25244754552841189,
                -0.3422766327857971,
                -0.9660618305206299,
                -0.9295717477798462,
                0.5979964137077332,
                -0.44362562894821169,
                -0.6162476539611816,
                -0.9548313021659851,
                -1.1649253368377686,
                0.5463460683822632,
                1.0931371450424195,
                -0.4935206472873688,
                0.6033469438552856,
                -0.5680028200149536,
                1.0185002088546754,
                0.796832799911499,
                0.6385927796363831,
                -0.90104740858078,
                0.4603005051612854,
                -0.7402100563049316,
                -0.3834386467933655,
                1.1037018299102784,
                0.9275924563407898,
                -1.7385352849960328,
                -0.10796362161636353,
                -2.173100471496582,
                0.9458006024360657,
                0.05072665214538574,
                -0.553702712059021,
                0.09700670838356018,
                1.274936556816101,
                -0.049401864409446719,
                -0.5584295392036438,
                -0.8212687373161316,
                -0.5448352098464966,
                -0.3176182806491852,
                -1.3707484006881714,
                0.08165723830461502
            ],
            "fitness": 22.5085506439209,
            "npcType": 1,
            "outputLockStatus": [
                false,
                false,
                false,
                false
            ]
        },
        {
            "layers": [
                8,
                8,
                6,
                4
            ],
            "flattenedWeights": [
                -0.4570009112358093,
                1.0203226804733277,
                -0.5665107369422913,
                0.010904960334300995,
                -0.4623820185661316,
                0.6205649375915527,
                0.9387531876564026,
                0.854965329170227,
                1.211569905281067,
                -0.1573677808046341,
                -2.084573984146118,
                -1.112910270690918,
                1.7375973463058472,
                -0.3694649934768677,
                -1.5746569633483887,
                0.3435957431793213,
                -0.8007092475891113,
                0.861845850944519,
                -1.1665977239608765,
                0.3165402412414551,
                -0.27383434772491457,
                0.27788156270980837,
                1.1983751058578492,
                1.0804669857025147,
                -0.7381304502487183,
                -0.7994796633720398,
                -0.5189513564109802,
                -0.7053136229515076,
                0.9699503779411316,
                0.7160852551460266,
                0.22493135929107667,
                -0.43115589022636416,
                -0.42522698640823367,
                0.2711140215396881,
                0.698549211025238,
                0.7723128199577332,
                0.8020051121711731,
                0.9008141756057739,
                0.723565399646759,
                -0.8251425623893738,
                -0.2379452884197235,
                -1.3052631616592408,
                -0.09601584076881409,
                0.29320570826530459,
                0.45352840423583987,
                0.5929040908813477,
                0.6413677930831909,
                -1.366316795349121,
                -0.12828905880451203,
                1.0390888452529908,
                1.0789716243743897,
                -0.10192403942346573,
                0.10311530530452728,
                0.5501655340194702,
                0.17533183097839356,
                -0.8198201656341553,
                0.7462020516395569,
                0.48851191997528078,
                0.560137152671814,
                -0.04438626393675804,
                1.6369436979293824,
                0.6970193982124329,
                -0.059382565319538119,
                -0.5604447722434998,
                0.018811553716659547,
                1.3118886947631837,
                -0.21646447479724885,
                -0.35476064682006838,
                -0.005116619169712067,
                -0.9978137612342835,
                0.03400883078575134,
                -0.48867297172546389,
                -0.7576579451560974,
                0.6287901997566223,
                0.7613581418991089,
                0.06662452965974808,
                0.6318143606185913,
                -0.7809909582138062,
                0.29188981652259829,
                -0.6631292104721069,
                0.5301229953765869,
                0.7033531069755554,
                -0.008574895560741425,
                -0.07828263938426972,
                0.519412636756897,
                0.6786079406738281,
                0.4212421178817749,
                0.04891487583518028,
                0.22301647067070008,
                1.009981393814087,
                0.017272591590881349,
                -0.309995174407959,
                -1.0269685983657838,
                1.6123924255371094,
                0.7860062122344971,
                0.9322158694267273,
                0.8450568318367004,
                0.5315670967102051,
                0.05327479541301727,
                0.3551971912384033,
                -0.6545326113700867,
                -1.4336923360824586,
                0.7544065713882446,
                1.2066479921340943,
                -1.0113495588302613,
                -0.4549199938774109,
                -1.0800038576126099,
                0.13052821159362794,
                -1.0520654916763306,
                -1.0686354637145997,
                -0.6000388860702515,
                0.23628643155097962,
                0.00783395767211914,
                0.4641805589199066,
                0.07373493164777756,
                -0.28736844658851626,
                0.6930180788040161,
                0.9055989384651184,
                0.08732149749994278,
                0.20251582562923432,
                0.7205424308776856,
                -0.7173323035240173,
                0.22412827610969544,
                0.11945466697216034,
                0.16699165105819703,
                0.526549220085144,
                -0.6982108950614929,
                0.09415090829133988,
                -0.31915047764778139,
                1.0003061294555665,
                -0.09183382987976074,
                -0.690322995185852,
                0.8215205073356628,
                0.10038752108812332,
                0.7570359110832214,
                0.08429671823978424
            ],
            "fitness": 21.893417358398439,
            "npcType": 0,
            "outputLockStatus": [
                false,
                false,
                false,
                false
            ]
        },
        {
            "layers": [
                8,
                8,
                6,
                4
            ],
            "flattenedWeights": [
                -0.8550729155540466,
                0.5010555982589722,
                0.9179303646087647,
                0.6669955849647522,
                1.3004199266433716,
                0.5834835171699524,
                -0.6285789012908936,
                -0.5617456436157227,
                -0.22685927152633668,
                -0.6213698387145996,
                0.012887030839920044,
                -1.2125440835952759,
                -0.7207739353179932,
                -0.011697426438331604,
                0.8244224190711975,
                -0.6410277485847473,
                1.2687511444091797,
                -0.46667930483818056,
                -0.8006828427314758,
                0.362625390291214,
                -0.711193323135376,
                -0.9655396342277527,
                1.1767759323120118,
                0.26683515310287478,
                -1.7552531957626343,
                -0.7356616854667664,
                0.006836876273155212,
                -0.536713719367981,
                -0.7303898930549622,
                -0.24926528334617616,
                -0.9850948452949524,
                0.5619139075279236,
                -0.7289354801177979,
                0.7525356411933899,
                0.10996901243925095,
                -0.3134647309780121,
                -0.5917197465896606,
                -1.0743523836135865,
                -1.246540904045105,
                0.1238175556063652,
                0.10947234183549881,
                -1.2645267248153687,
                -0.284701943397522,
                -0.7042499780654907,
                0.495504766702652,
                -0.8880616426467896,
                -0.019257105886936189,
                -1.1520702838897706,
                -0.45853060483932497,
                -0.6395368576049805,
                0.6177232265472412,
                -0.8813885450363159,
                -2.054417133331299,
                -0.8701722621917725,
                1.1263976097106934,
                0.10727166384458542,
                1.0234462022781373,
                0.3997413218021393,
                0.31769439578056338,
                1.3037285804748536,
                -1.1516748666763306,
                -1.2229924201965333,
                -0.052925512194633487,
                0.979780375957489,
                -0.7603894472122192,
                1.0656300783157349,
                -0.39377161860466006,
                -0.2033817172050476,
                0.05242303013801575,
                0.11432173103094101,
                0.7853690385818481,
                0.06706041842699051,
                1.111177682876587,
                -0.7841782569885254,
                0.392829567193985,
                -0.35679829120635989,
                -0.5872510671615601,
                -0.5197415351867676,
                1.1229567527770997,
                0.6893003582954407,
                -0.3069613575935364,
                -0.40507835149765017,
                -1.7569959163665772,
                0.3186246156692505,
                1.8165576457977296,
                0.536292552947998,
                0.703240156173706,
                0.6474780440330505,
                0.7618947625160217,
                -1.2042096853256226,
                0.6185444593429565,
                -0.009116783738136292,
                -0.39587366580963137,
                -0.6787760853767395,
                -0.31214049458503725,
                0.20448100566864015,
                0.28332433104515078,
                -1.2100454568862916,
                0.28853678703308108,
                -0.36009836196899416,
                -0.8941438794136047,
                -0.8334380388259888,
                0.8412835597991943,
                -0.36014416813850405,
                -0.34292927384376528,
                -0.9548313021659851,
                -1.287649154663086,
                0.5854508876800537,
                1.0916461944580079,
                -0.4935206472873688,
                0.6645010113716126,
                -0.5977033972740173,
                1.1685712337493897,
                0.796832799911499,
                0.6385927796363831,
                -0.9908095002174377,
                0.3226289749145508,
                -0.7936784029006958,
                -0.3834386467933655,
                1.1037018299102784,
                1.0384430885314942,
                -1.7738441228866578,
                -0.11711085587739945,
                -2.173100471496582,
                1.071198582649231,
                0.07795185595750809,
                -0.553702712059021,
                0.09074917435646057,
                1.1653637886047364,
                -0.1420150101184845,
                -0.673912763595581,
                -1.0659291744232178,
                -0.5403799414634705,
                -0.45406374335289,
                -1.3707484006881714,
                0.05421968549489975
            ],
            "fitness": 20.433128356933595,
            "npcType": 1,
            "outputLockStatus": [
                false,
                false,
                false,
                false
            ]
        }
    ],
    "timestamp": "2025-05-12 14:39:05"
}