{
    "generation": 70,
    "bestFitness": 35.356117248535159,
    "averageFitness": 13.525778770446778,
    "worstFitness": 0.0,
    "networks": [
        {
            "layers": [
                8,
                8,
                6,
                4
            ],
            "flattenedWeights": [
                -0.051272932440042499,
                0.264231413602829,
                0.8165759444236755,
                0.15738177299499513,
                1.0431828498840333,
                0.4446127116680145,
                -0.6874503493309021,
                -0.7418317198753357,
                -0.17330223321914674,
                -0.7104771733283997,
                -0.09961627423763275,
                -1.2129874229431153,
                -0.13353650271892548,
                -0.41515645384788515,
                0.9859890937805176,
                -1.3516314029693604,
                0.8668825030326843,
                -0.8732496500015259,
                -0.4834384322166443,
                -0.43203306198120119,
                -0.40237855911254885,
                -0.25193917751312258,
                1.2742621898651124,
                -0.24271397292613984,
                -0.21411213278770448,
                -0.35326147079467776,
                -0.4781913459300995,
                -0.30017706751823428,
                0.21059419214725495,
                -0.41751399636268618,
                -0.8139039874076843,
                0.4678564667701721,
                -0.3214719593524933,
                0.9713853001594544,
                0.8033120632171631,
                -0.04943981394171715,
                -0.7389833331108093,
                -0.756161093711853,
                -1.494555950164795,
                0.6210046410560608,
                0.32825103402137759,
                -0.8235945701599121,
                -0.9771993160247803,
                -1.0738362073898316,
                0.05863235145807266,
                -0.3844071626663208,
                -0.005923956632614136,
                -1.0270041227340699,
                -0.009162615984678269,
                0.3713216781616211,
                -0.16238416731357575,
                -0.7224764227867127,
                -1.3466317653656006,
                -0.4505399763584137,
                0.8123695850372315,
                0.2154906690120697,
                0.6870852112770081,
                -0.30506154894828799,
                -0.04554447531700134,
                1.2673814296722413,
                -0.28952285647392275,
                -0.6270735859870911,
                0.11463600397109986,
                0.6722437143325806,
                -0.592038631439209,
                0.6949799656867981,
                -0.6251969337463379,
                -0.3932996690273285,
                0.29283443093299868,
                0.1797429323196411,
                0.40651875734329226,
                -0.6074769496917725,
                0.7191492319107056,
                -0.4758562445640564,
                0.2126096785068512,
                -0.004579383879899979,
                -0.35060667991638186,
                -0.5218454003334045,
                1.108000636100769,
                0.5756815671920776,
                -0.17046073079109193,
                -0.35528889298439028,
                -0.9233567714691162,
                0.17532894015312196,
                1.3476818799972535,
                0.13603663444519044,
                0.8535323739051819,
                0.16410952806472779,
                0.2623067796230316,
                -0.39696186780929568,
                0.7136547565460205,
                -0.9628364443778992,
                -0.2212514877319336,
                -0.8666797280311585,
                -0.7630167007446289,
                0.5469983220100403,
                -0.6888290643692017,
                -0.7219164371490479,
                -0.009890854358673096,
                -0.47486612200737,
                -0.06006597727537155,
                -0.1619318425655365,
                0.3415530025959015,
                -0.04015546664595604,
                -0.14786581695079804,
                -0.46809330582618716,
                -0.5780754685401917,
                0.50384122133255,
                0.7608975768089294,
                -0.1302323341369629,
                0.7444279193878174,
                -0.8027136921882629,
                1.0317025184631348,
                0.4900320768356323,
                0.6691150665283203,
                -0.9400086998939514,
                0.8458190560340881,
                -0.6326842308044434,
                -0.02774563431739807,
                0.7856485843658447,
                0.24740925431251527,
                -1.2600189447402955,
                -0.0506269708275795,
                -1.511055588722229,
                0.8222460150718689,
                -0.3315390944480896,
                -0.5061501264572144,
                0.1310691237449646,
                1.1388258934020997,
                -0.021210722625255586,
                -1.0667756795883179,
                -1.373755693435669,
                -0.7801117897033691,
                -0.043936602771282199,
                -0.8375561237335205,
                0.6728349924087524
            ],
            "fitness": 35.356117248535159,
            "npcType": 1,
            "outputLockStatus": [
                false,
                false,
                false,
                false
            ]
        },
        {
            "layers": [
                8,
                8,
                6,
                4
            ],
            "flattenedWeights": [
                -0.051272932440042499,
                0.264231413602829,
                0.8165759444236755,
                0.15738177299499513,
                1.0431828498840333,
                0.4873788058757782,
                -0.7832176685333252,
                -0.7396172285079956,
                -0.07540496438741684,
                -0.7104771733283997,
                0.04253396391868591,
                -1.2129874229431153,
                -0.13353650271892548,
                -0.41515645384788515,
                0.9859890937805176,
                -1.267982840538025,
                0.8771601319313049,
                -0.9640516042709351,
                -0.4834384322166443,
                -0.43203306198120119,
                -0.4518348276615143,
                -0.3303912281990051,
                1.1886579990386963,
                -0.2845635712146759,
                -0.1858784258365631,
                -0.35408177971839907,
                -0.46848443150520327,
                -0.24139811098575593,
                0.1942393183708191,
                -0.44521763920783999,
                -0.678051233291626,
                0.4403727054595947,
                -0.4133431613445282,
                0.9713853001594544,
                0.7548474073410034,
                -0.0015466026961803437,
                -0.7389833331108093,
                -0.756161093711853,
                -1.5417135953903199,
                0.6646718978881836,
                0.33763551712036135,
                -0.8831464052200317,
                -0.9771993160247803,
                -1.1138054132461548,
                0.15708044171333314,
                -0.19046089053153993,
                0.011565819382667542,
                -1.0576053857803345,
                -0.0449882410466671,
                0.3713216781616211,
                -0.27306845784187319,
                -0.7224764227867127,
                -1.4051845073699952,
                -0.540092945098877,
                0.8993010520935059,
                0.24376711249351502,
                0.7246069312095642,
                -0.30118802189826968,
                -0.0462690070271492,
                1.262489914894104,
                -0.28952285647392275,
                -0.6424193382263184,
                0.11463600397109986,
                0.6722437143325806,
                -0.592038631439209,
                0.6949799656867981,
                -0.558021605014801,
                -0.3932996690273285,
                0.3932373523712158,
                0.1797429323196411,
                0.48892396688461306,
                -0.659853994846344,
                0.6845118999481201,
                -0.4758562445640564,
                0.2126096785068512,
                -0.05417565628886223,
                -0.5379102230072022,
                -0.44012337923049929,
                1.0218141078948975,
                0.5756815671920776,
                -0.1768116056919098,
                -0.2957042455673218,
                -1.0038259029388428,
                0.17532894015312196,
                1.3525022268295289,
                0.08629823476076126,
                0.9052144885063171,
                0.07472246140241623,
                0.2623067796230316,
                -0.56353360414505,
                0.6309943199157715,
                -0.9132387042045593,
                -0.2212514877319336,
                -0.9093525409698486,
                -0.7630167007446289,
                0.7424967885017395,
                -0.6888290643692017,
                -0.7219164371490479,
                -0.009890854358673096,
                -0.47486612200737,
                -0.06006597727537155,
                -0.14100849628448487,
                0.23425260186195374,
                0.20994508266448975,
                -0.14786581695079804,
                -0.6793521642684937,
                -0.5780754685401917,
                0.50384122133255,
                0.682611346244812,
                -0.038998715579509738,
                0.7444279193878174,
                -0.8027136921882629,
                0.9197289943695068,
                0.5246860384941101,
                0.5705500841140747,
                -0.8464514017105103,
                0.7775635123252869,
                -0.5945982336997986,
                -0.05372173339128494,
                0.7856485843658447,
                0.28835612535476687,
                -1.1898146867752076,
                -0.04193345457315445,
                -1.511055588722229,
                0.8222460150718689,
                -0.3334735333919525,
                -0.5232506990432739,
                0.12041635066270828,
                1.2768104076385499,
                -0.020088739693164827,
                -1.134015679359436,
                -1.325650691986084,
                -0.7472444176673889,
                -0.026496298611164094,
                -0.8375561237335205,
                0.6414870619773865
            ],
            "fitness": 34.9057731628418,
            "npcType": 1,
            "outputLockStatus": [
                false,
                false,
                false,
                false
            ]
        },
        {
            "layers": [
                8,
                8,
                6,
                4
            ],
            "flattenedWeights": [
                0.03655904158949852,
                0.2054692804813385,
                0.7812591195106506,
                0.0937025249004364,
                1.0431828498840333,
                0.43485158681869509,
                -0.45433855056762698,
                -0.6526057124137878,
                -0.17330223321914674,
                -0.5667784810066223,
                0.2244201898574829,
                -1.030787467956543,
                -0.12205646932125092,
                -0.3317719101905823,
                1.077535629272461,
                -1.3516314029693604,
                0.8110420107841492,
                -0.8684799075126648,
                -0.33205896615982058,
                -0.43203306198120119,
                -0.3246338367462158,
                -0.19306686520576478,
                1.3092234134674073,
                -0.23374688625335694,
                -0.2058882713317871,
                -0.3185894191265106,
                -0.4781913459300995,
                -0.1563173234462738,
                0.21059419214725495,
                -0.4657025933265686,
                -0.6726627349853516,
                0.37562352418899538,
                -0.2444482445716858,
                0.7961404323577881,
                0.7452626824378967,
                -0.1068057119846344,
                -0.5760484933853149,
                -0.756161093711853,
                -1.6035324335098267,
                0.6210046410560608,
                0.43096697330474856,
                -0.8516215085983276,
                -0.9842046499252319,
                -1.1490033864974976,
                0.15708044171333314,
                -0.3123069405555725,
                0.07720988243818283,
                -1.0052990913391114,
                -0.03434862196445465,
                0.3412271738052368,
                -0.24820604920387269,
                -0.7691963315010071,
                -1.2746700048446656,
                -0.4505399763584137,
                0.8829413652420044,
                0.2154906690120697,
                0.7246069312095642,
                -0.37313151359558108,
                -0.11405356228351593,
                1.262489914894104,
                -0.23199716210365296,
                -0.6795830130577087,
                0.11463600397109986,
                0.6722437143325806,
                -0.5697451829910278,
                0.6234257817268372,
                -0.49765339493751528,
                -0.40670639276504519,
                0.346876859664917,
                0.1797429323196411,
                0.44307947158813479,
                -0.612939178943634,
                0.7915263175964356,
                -0.4474153518676758,
                0.2126096785068512,
                -0.004579383879899979,
                -0.4595075249671936,
                -0.5218454003334045,
                1.0962754487991334,
                0.39784762263298037,
                -0.19752873480319978,
                -0.2008763998746872,
                -0.9233567714691162,
                0.23576948046684266,
                1.3476818799972535,
                0.06629801541566849,
                0.867283821105957,
                0.16410952806472779,
                0.2623067796230316,
                -0.4862717390060425,
                0.5801518559455872,
                -0.688136637210846,
                -0.41764068603515627,
                -0.9571449756622315,
                -0.7617599964141846,
                0.6024869084358215,
                -0.6888290643692017,
                -0.7745481133460999,
                -0.018109798431396486,
                -0.4795292615890503,
                -0.06006597727537155,
                -0.1619318425655365,
                0.2724684178829193,
                -0.037363048642873767,
                -0.05872950702905655,
                -0.5631616711616516,
                -0.5495609045028687,
                0.41909703612327578,
                0.7343553304672241,
                -0.1302323341369629,
                0.6644299030303955,
                -0.8027136921882629,
                0.9027913808822632,
                0.5099693536758423,
                0.6388298273086548,
                -0.9063711762428284,
                0.8363991975784302,
                -0.5945982336997986,
                0.011942118406295777,
                0.7856485843658447,
                0.24740925431251527,
                -1.1700204610824586,
                -0.0506269708275795,
                -1.511055588722229,
                0.8655996918678284,
                -0.290351003408432,
                -0.35038965940475466,
                0.0736142098903656,
                1.2803984880447388,
                0.03653857856988907,
                -1.1073194742202759,
                -1.325650691986084,
                -0.5847597718238831,
                -0.11555159837007523,
                -0.797371506690979,
                0.5371410250663757
            ],
            "fitness": 34.902652740478519,
            "npcType": 1,
            "outputLockStatus": [
                false,
                false,
                false,
                false
            ]
        },
        {
            "layers": [
                8,
                8,
                6,
                4
            ],
            "flattenedWeights": [
                -0.10541252791881561,
                0.1799895167350769,
                0.8165759444236755,
                0.15738177299499513,
                1.0083454847335816,
                0.4873788058757782,
                -0.7468449473381043,
                -0.6727123260498047,
                -0.17330223321914674,
                -0.7935128808021545,
                0.04253396391868591,
                -1.1479841470718384,
                -0.13353650271892548,
                -0.33859294652938845,
                0.9859890937805176,
                -1.3516314029693604,
                0.9213787317276001,
                -0.9558696150779724,
                -0.43118733167648318,
                -0.45854508876800539,
                -0.3510199785232544,
                -0.3198346495628357,
                1.2742621898651124,
                -0.24271397292613984,
                -0.2613137364387512,
                -0.35408177971839907,
                -0.4781913459300995,
                -0.27526479959487917,
                0.20349900424480439,
                -0.4012816548347473,
                -0.6254167556762695,
                0.40281179547309878,
                -0.32616493105888369,
                0.9713853001594544,
                0.7902274131774902,
                -0.13309429585933686,
                -0.7389833331108093,
                -0.5757577419281006,
                -1.4506685733795167,
                0.6785072684288025,
                0.5889546871185303,
                -0.7851400971412659,
                -1.0581624507904053,
                -1.1138054132461548,
                0.15708044171333314,
                -0.1734624207019806,
                0.09498432278633118,
                -1.0270041227340699,
                -0.11890687048435211,
                0.451882541179657,
                -0.18752500414848329,
                -0.7224764227867127,
                -1.3956807851791382,
                -0.4505399763584137,
                0.8829413652420044,
                0.2154906690120697,
                0.7669563889503479,
                -0.30506154894828799,
                -0.004472851753234863,
                1.262489914894104,
                -0.28952285647392275,
                -0.5853988528251648,
                0.024021834135055543,
                0.6829182505607605,
                -0.5618399381637573,
                0.6949799656867981,
                -0.558021605014801,
                -0.43981850147247317,
                0.2855456471443176,
                0.1797429323196411,
                0.5663858652114868,
                -0.5775969624519348,
                0.6845118999481201,
                -0.3920702338218689,
                0.2126096785068512,
                0.018463309854269029,
                -0.5379102230072022,
                -0.5296380519866943,
                1.0962754487991334,
                0.65746009349823,
                -0.1768116056919098,
                -0.17670109868049622,
                -0.9233567714691162,
                0.12012309581041336,
                1.3525022268295289,
                0.08629823476076126,
                0.881060779094696,
                0.24542933702468873,
                0.2560177147388458,
                -0.56353360414505,
                0.6309943199157715,
                -0.9119440317153931,
                -0.29137393832206728,
                -0.8264297246932983,
                -0.9844152331352234,
                0.6613486409187317,
                -0.9044981002807617,
                -0.6693425178527832,
                -0.009890854358673096,
                -0.4093291759490967,
                -0.06006597727537155,
                -0.1619318425655365,
                0.2646060585975647,
                0.026896551251411439,
                -0.2524682879447937,
                -0.6592742204666138,
                -0.5237636566162109,
                0.4628598690032959,
                0.7668880224227905,
                -0.038998715579509738,
                0.7444279193878174,
                -0.8027136921882629,
                0.953261137008667,
                0.5271334052085877,
                0.6437041163444519,
                -0.9251548647880554,
                0.8458190560340881,
                -0.5945982336997986,
                -0.02774563431739807,
                0.7788518667221069,
                0.24740925431251527,
                -1.1898146867752076,
                -0.04193345457315445,
                -1.511055588722229,
                0.8222460150718689,
                -0.3334735333919525,
                -0.4345702826976776,
                0.10497739911079407,
                1.2768104076385499,
                -0.021210722625255586,
                -1.1073194742202759,
                -1.325650691986084,
                -0.8011965751647949,
                -0.03619476407766342,
                -0.9136549830436707,
                0.6483921408653259
            ],
            "fitness": 34.87685012817383,
            "npcType": 1,
            "outputLockStatus": [
                false,
                false,
                false,
                false
            ]
        },
        {
            "layers": [
                8,
                8,
                6,
                4
            ],
            "flattenedWeights": [
                -0.297110378742218,
                0.9532541632652283,
                -0.3715299069881439,
                -0.017288140952587129,
                -0.22434350848197938,
                0.03314262628555298,
                1.3257030248641968,
                0.2707364857196808,
                0.35640180110931399,
                0.143926203250885,
                -0.8959782719612122,
                -0.48510152101516726,
                1.3666017055511475,
                -0.21444550156593324,
                -1.0181212425231934,
                0.4216650426387787,
                -1.0796353816986085,
                0.895300567150116,
                0.06076023727655411,
                0.6872016787528992,
                0.2239069938659668,
                0.11931703984737396,
                0.9733706116676331,
                0.964240550994873,
                -0.659944474697113,
                -0.35091114044189455,
                0.13014934957027436,
                -1.0064904689788819,
                0.9077385663986206,
                0.9369829297065735,
                0.21302816271781922,
                -0.35277166962623598,
                -0.5344545245170593,
                0.12446210533380509,
                0.4452090859413147,
                0.6026793718338013,
                0.15286001563072205,
                0.8165925145149231,
                0.5931943655014038,
                -0.42160290479660036,
                -0.08117605745792389,
                -1.0284324884414673,
                -0.46242862939834597,
                0.7830809354782105,
                0.48319217562675478,
                0.9981597065925598,
                0.6547002792358398,
                -1.1451219320297242,
                -0.2321833372116089,
                1.2479840517044068,
                -0.16730892658233643,
                -0.1540624499320984,
                -0.20554110407829286,
                0.39775705337524416,
                0.09211158752441406,
                -0.61744225025177,
                0.25635629892349245,
                0.023896366357803346,
                0.13195355236530305,
                -0.08088406920433045,
                0.7003527879714966,
                0.6603711247444153,
                -0.4054419994354248,
                -0.840979814529419,
                -0.4036635458469391,
                0.34993553161621096,
                0.8451249599456787,
                -0.48999643325805666,
                -0.6309908032417297,
                -0.33138906955718996,
                0.9383495450019836,
                -0.16985341906547547,
                -0.5224130153656006,
                1.1397243738174439,
                0.2914358377456665,
                -0.5824748277664185,
                0.5899829268455505,
                -0.7582078576087952,
                -0.1893777698278427,
                -0.8350299000740051,
                -0.19235198199748994,
                0.5650680661201477,
                0.44069230556488039,
                0.31291165947914126,
                0.7206228375434876,
                0.807461678981781,
                0.2151685357093811,
                0.31133612990379336,
                -0.14460186660289765,
                1.198065996170044,
                0.5669124126434326,
                -0.6198818683624268,
                -0.6660497188568115,
                1.1444567441940308,
                0.38938379287719729,
                0.22153359651565553,
                0.898505449295044,
                0.9185882806777954,
                -0.10343426465988159,
                -0.10929886251688004,
                -0.2828112244606018,
                -0.7604116797447205,
                1.145308494567871,
                0.5445537567138672,
                -1.028664469718933,
                -0.4773263931274414,
                -0.311222642660141,
                0.5564804077148438,
                -0.5174160003662109,
                -0.6704345941543579,
                -0.24991753697395326,
                0.5717544555664063,
                -0.05334535613656044,
                0.4508925974369049,
                -0.041853971779346469,
                -1.1142494678497315,
                0.9355696439743042,
                0.8537175059318543,
                -0.18206796050071717,
                0.28323349356651308,
                0.838896632194519,
                -0.6136638522148132,
                -0.20026884973049165,
                0.038745053112506869,
                -0.09266592562198639,
                -0.15595290064811707,
                -0.6001683473587036,
                0.6192734837532044,
                -0.24758026003837586,
                0.4753294289112091,
                0.14456996321678163,
                -0.5054150223731995,
                0.579816997051239,
                -0.7277456521987915,
                0.6442409753799439,
                0.18244439363479615
            ],
            "fitness": 33.06111526489258,
            "npcType": 0,
            "outputLockStatus": [
                false,
                false,
                false,
                false
            ]
        },
        {
            "layers": [
                8,
                8,
                6,
                4
            ],
            "flattenedWeights": [
                -0.49710381031036379,
                0.9532541632652283,
                -0.40823039412498476,
                -0.024227015674114229,
                -0.39904698729515078,
                0.03314262628555298,
                1.3885400295257569,
                0.31163227558135989,
                0.3709038496017456,
                0.04479532688856125,
                -0.9493722915649414,
                -0.48510152101516726,
                1.2835652828216553,
                -0.12782937288284303,
                -1.0181212425231934,
                0.47107183933258059,
                -0.9519568085670471,
                0.9547343850135803,
                0.07206495851278305,
                0.5608077645301819,
                0.2239069938659668,
                0.06383343786001206,
                0.8620154857635498,
                0.8826872706413269,
                -0.7818197011947632,
                -0.3661797344684601,
                -0.048554398119449618,
                -0.9769404530525208,
                0.9165784120559692,
                0.9397445321083069,
                0.24644362926483155,
                -0.24612051248550416,
                -0.49054887890815737,
                0.12446210533380509,
                0.5972709059715271,
                0.46810582280158999,
                0.2341926097869873,
                0.8165925145149231,
                0.8170310854911804,
                -0.5331851840019226,
                0.04273809492588043,
                -0.9553300142288208,
                -0.4710867404937744,
                0.7830809354782105,
                0.7600895166397095,
                1.0351500511169434,
                0.6758205890655518,
                -1.1451219320297242,
                -0.20798230171203614,
                1.296816110610962,
                -0.16730892658233643,
                -0.06423844397068024,
                -0.20554110407829286,
                0.4661620557308197,
                0.07115963846445084,
                -0.6935871243476868,
                0.24871748685836793,
                0.10714944452047348,
                0.13195355236530305,
                -0.006321705877780914,
                0.7416397333145142,
                0.6603711247444153,
                -0.4569791555404663,
                -0.7597170472145081,
                -0.31350550055503847,
                0.5577659010887146,
                0.8451249599456787,
                -0.36048007011413576,
                -0.602842390537262,
                -0.32962965965270998,
                0.7073844075202942,
                -0.18376508355140687,
                -0.6068078279495239,
                1.1444355249404908,
                0.2914358377456665,
                -0.5824748277664185,
                0.6560361385345459,
                -0.5661066770553589,
                -0.20055925846099854,
                -0.8405214548110962,
                -0.2047695517539978,
                0.5794315934181213,
                0.44069230556488039,
                0.48330503702163699,
                0.61480712890625,
                0.9200122356414795,
                0.12805549800395966,
                0.1940188705921173,
                -0.14460186660289765,
                1.1316330432891846,
                0.5669124126434326,
                -0.5362337827682495,
                -0.7551565766334534,
                1.143430233001709,
                0.47091013193130495,
                0.07154285162687302,
                0.8082481622695923,
                0.7784169316291809,
                -0.10343426465988159,
                0.04620132967829704,
                -0.2828112244606018,
                -0.7762121558189392,
                1.1970155239105225,
                0.3526601195335388,
                -1.1155284643173218,
                -0.47331008315086367,
                -0.311222642660141,
                0.5564804077148438,
                -0.4760732352733612,
                -0.7697508335113525,
                -0.2112634778022766,
                0.5953992009162903,
                -0.02542545646429062,
                0.521311342716217,
                -0.041853971779346469,
                -1.2076084613800049,
                0.8526555895805359,
                1.0053603649139405,
                -0.012102022767066956,
                0.28323349356651308,
                0.7544712424278259,
                -0.6136638522148132,
                -0.1758982390165329,
                0.038745053112506869,
                -0.09266592562198639,
                -0.19505569338798524,
                -0.5646176338195801,
                0.6489892601966858,
                -0.24758026003837586,
                0.47095367312431338,
                0.1094500944018364,
                -0.5054150223731995,
                0.5316190719604492,
                -0.8405330777168274,
                0.6506118178367615,
                0.2577846050262451
            ],
            "fitness": 33.00830078125,
            "npcType": 0,
            "outputLockStatus": [
                false,
                false,
                false,
                false
            ]
        },
        {
            "layers": [
                8,
                8,
                6,
                4
            ],
            "flattenedWeights": [
                -0.4514232277870178,
                0.9877673983573914,
                -0.3608395755290985,
                0.15784601867198945,
                -0.39904698729515078,
                0.12083720415830612,
                1.3885400295257569,
                0.2707364857196808,
                0.40125414729118349,
                0.05478429049253464,
                -0.9493722915649414,
                -0.48622792959213259,
                1.2516443729400635,
                -0.22779911756515504,
                -0.9459291696548462,
                0.2556329369544983,
                -1.0262709856033326,
                0.95604407787323,
                0.12545347213745118,
                0.7707554697990418,
                0.2378312051296234,
                0.11726117134094238,
                1.162583827972412,
                0.9036230444908142,
                -0.7229441404342651,
                -0.3798787593841553,
                0.13014934957027436,
                -1.0792322158813477,
                0.9077385663986206,
                0.8791216611862183,
                0.23196111619472505,
                -0.4193004369735718,
                -0.5344545245170593,
                0.28732380270957949,
                0.6849797964096069,
                0.4605952501296997,
                0.2341926097869873,
                0.9196144938468933,
                0.5681222677230835,
                -0.40478238463401797,
                -0.08117605745792389,
                -1.0312532186508179,
                -0.46242862939834597,
                0.737030029296875,
                0.6469117403030396,
                0.9981597065925598,
                0.6546541452407837,
                -1.1451219320297242,
                -0.2943781614303589,
                1.296816110610962,
                -0.024614039808511735,
                -0.06704764813184738,
                -0.26487481594085696,
                0.4079989790916443,
                0.07115963846445084,
                -0.7663518786430359,
                0.24953415989875794,
                0.023896366357803346,
                0.15374067425727845,
                -0.07763636857271195,
                0.6798182129859924,
                0.7560774683952332,
                -0.4630281627178192,
                -0.886297345161438,
                -0.3351287841796875,
                0.65201336145401,
                0.9443414211273193,
                -0.3449365198612213,
                -0.5647217631340027,
                -0.32962965965270998,
                0.9488691091537476,
                -0.2575748860836029,
                -0.718244194984436,
                1.1444355249404908,
                0.3403685688972473,
                -0.63713139295578,
                0.6280304789543152,
                -0.7582078576087952,
                -0.13949769735336305,
                -0.9130667448043823,
                -0.2291320264339447,
                0.5219167470932007,
                0.45326346158981326,
                0.30671426653862,
                0.6986066102981567,
                0.9200122356414795,
                0.15674999356269837,
                0.33993834257125857,
                -0.24533608555793763,
                1.3009157180786133,
                0.49740642309188845,
                -0.5191420912742615,
                -0.8055907487869263,
                1.103374719619751,
                0.5157268643379211,
                0.07154285162687302,
                0.8703550696372986,
                0.7262751460075378,
                -0.1482599675655365,
                -0.0927334874868393,
                -0.2828112244606018,
                -0.6260566711425781,
                1.1970155239105225,
                0.5445537567138672,
                -1.028664469718933,
                -0.47964534163475039,
                -0.40556707978248598,
                0.509027361869812,
                -0.825947105884552,
                -0.7697508335113525,
                -0.24991753697395326,
                0.622494101524353,
                -0.13320985436439515,
                0.4978577196598053,
                -0.03445282578468323,
                -1.2076084613800049,
                0.9355696439743042,
                0.8365151286125183,
                -0.08093870431184769,
                0.35475409030914309,
                0.838896632194519,
                -0.6402830481529236,
                -0.20026884973049165,
                -0.008593916893005371,
                0.06738650798797608,
                -0.15595290064811707,
                -0.5251498818397522,
                0.2976592183113098,
                -0.24758026003837586,
                0.5310222506523132,
                0.17190079391002656,
                -0.5054150223731995,
                0.56719970703125,
                -0.7368138432502747,
                0.6973924040794373,
                0.35140833258628847
            ],
            "fitness": 32.83041763305664,
            "npcType": 0,
            "outputLockStatus": [
                false,
                false,
                false,
                false
            ]
        },
        {
            "layers": [
                8,
                8,
                6,
                4
            ],
            "flattenedWeights": [
                -0.1094997376203537,
                0.1039675623178482,
                0.8165759444236755,
                0.11804579198360443,
                0.9794236421585083,
                0.4784916937351227,
                -0.7802367210388184,
                -0.6727123260498047,
                -0.17330223321914674,
                -0.6411124467849731,
                -0.0251365527510643,
                -1.1289467811584473,
                -0.12205646932125092,
                -0.49918022751808169,
                0.9786797165870667,
                -1.3516314029693604,
                0.8771601319313049,
                -0.8732496500015259,
                -0.43148088455200198,
                -0.43203306198120119,
                -0.2664075493812561,
                -0.265724778175354,
                1.2410101890563965,
                -0.24271397292613984,
                -0.26368048787117007,
                -0.29819971323013308,
                -0.4686882197856903,
                -0.21632051467895509,
                0.15054942667484284,
                -0.41751399636268618,
                -0.7387703657150269,
                0.3011772632598877,
                -0.271450936794281,
                0.9109821915626526,
                0.9210015535354614,
                -0.1068057119846344,
                -0.5142420530319214,
                -0.756161093711853,
                -1.4506685733795167,
                0.6210046410560608,
                0.43096697330474856,
                -0.8831464052200317,
                -1.0529028177261353,
                -1.1075342893600464,
                0.17943796515464784,
                -0.19929265975952149,
                -0.005923956632614136,
                -0.9906203150749207,
                -0.03876018524169922,
                0.3713216781616211,
                -0.2058747112751007,
                -0.62713223695755,
                -1.4051845073699952,
                -0.578850507736206,
                0.793706476688385,
                0.24538451433181764,
                0.7037243247032166,
                -0.30506154894828799,
                -0.08480388671159744,
                1.262489914894104,
                -0.30888423323631289,
                -0.5853988528251648,
                0.11463600397109986,
                0.6722437143325806,
                -0.592038631439209,
                0.6949799656867981,
                -0.4716106653213501,
                -0.40670639276504519,
                0.3633791208267212,
                0.29773467779159548,
                0.5011109113693237,
                -0.8079429268836975,
                0.8566440343856812,
                -0.41627243161201479,
                0.18575453758239747,
                -0.004579383879899979,
                -0.4399269223213196,
                -0.5296380519866943,
                1.0962754487991334,
                0.39784762263298037,
                -0.23425236344337464,
                -0.15264420211315156,
                -0.9233567714691162,
                0.17532894015312196,
                1.414432406425476,
                -0.030234217643737794,
                0.8535323739051819,
                0.23063448071479798,
                0.17358249425888062,
                -0.56353360414505,
                0.6309943199157715,
                -0.9119440317153931,
                -0.2212514877319336,
                -0.9185874462127686,
                -0.9222720265388489,
                0.55750972032547,
                -0.6888290643692017,
                -0.6617501974105835,
                0.04561164230108261,
                -0.3446073532104492,
                -0.06006597727537155,
                -0.1619318425655365,
                0.34293031692504885,
                -0.037363048642873767,
                -0.050179265439510348,
                -0.5631616711616516,
                -0.6233896017074585,
                0.50384122133255,
                0.7608975768089294,
                -0.15438981354236604,
                0.6392605900764465,
                -0.7444740533828735,
                1.0426161289215088,
                0.5029328465461731,
                0.5705500841140747,
                -0.900197446346283,
                0.8458190560340881,
                -0.5945982336997986,
                -0.10984230786561966,
                0.7856485843658447,
                0.22580087184906007,
                -1.2600189447402955,
                -0.04193345457315445,
                -1.511055588722229,
                0.8854169845581055,
                -0.290351003408432,
                -0.35038965940475466,
                0.0736142098903656,
                1.2281800508499146,
                -0.024331368505954744,
                -1.1073194742202759,
                -1.325650691986084,
                -0.8078925609588623,
                -0.05937747657299042,
                -0.8000675439834595,
                0.5371410250663757
            ],
            "fitness": 32.21617126464844,
            "npcType": 1,
            "outputLockStatus": [
                false,
                false,
                false,
                false
            ]
        },
        {
            "layers": [
                8,
                8,
                6,
                4
            ],
            "flattenedWeights": [
                -0.051272932440042499,
                0.264231413602829,
                0.8165759444236755,
                0.0244569294154644,
                1.0773941278457642,
                0.43485158681869509,
                -0.7802367210388184,
                -0.7669805288314819,
                -0.22347909212112428,
                -0.6411124467849731,
                -0.09961627423763275,
                -1.0859133005142213,
                -0.12205646932125092,
                -0.41515645384788515,
                1.077535629272461,
                -1.3516314029693604,
                0.8771601319313049,
                -0.8732496500015259,
                -0.43148088455200198,
                -0.7580726742744446,
                -0.39856648445129397,
                -0.3198346495628357,
                1.267619013786316,
                -0.2758473753929138,
                -0.2058882713317871,
                -0.35326147079467776,
                -0.5208611488342285,
                -0.21632051467895509,
                0.1911158263683319,
                -0.2251705825328827,
                -0.5685752630233765,
                0.3683234453201294,
                -0.3214719593524933,
                0.9505078792572022,
                0.786001980304718,
                -0.036819782108068469,
                -0.7071065902709961,
                -0.556825578212738,
                -1.4506685733795167,
                0.5912591218948364,
                0.48317840695381167,
                -0.8831464052200317,
                -0.9438491463661194,
                -1.0738362073898316,
                0.44636645913124087,
                -0.19929265975952149,
                -0.04866477847099304,
                -1.1283260583877564,
                -0.009162615984678269,
                0.3713216781616211,
                -0.16238416731357575,
                -0.7224764227867127,
                -1.2746700048446656,
                -0.4505399763584137,
                0.8234251737594605,
                0.2154906690120697,
                0.7246069312095642,
                -0.33410879969596865,
                -0.08480388671159744,
                1.262489914894104,
                -0.3532763719558716,
                -0.6568266749382019,
                0.10956120491027832,
                0.44649893045425417,
                -0.5897941589355469,
                0.6242937445640564,
                -0.49765339493751528,
                -0.34656620025634768,
                0.3604164123535156,
                0.18275028467178346,
                0.40264078974723818,
                -0.6631519794464111,
                0.7915263175964356,
                -0.5383409261703491,
                0.2126096785068512,
                0.018463309854269029,
                -0.4399269223213196,
                -0.5623403787612915,
                1.0962754487991334,
                0.39784762263298037,
                -0.1768116056919098,
                -0.18586191534996034,
                -0.9233567714691162,
                0.565986156463623,
                1.3476818799972535,
                0.06629801541566849,
                0.8535323739051819,
                0.16410952806472779,
                0.17358249425888062,
                -0.4862717390060425,
                0.3517714738845825,
                -0.688136637210846,
                -0.41764068603515627,
                -0.9185874462127686,
                -0.754101037979126,
                0.5136877298355103,
                -0.8421487808227539,
                -0.7745481133460999,
                -0.009890854358673096,
                -0.37924623489379885,
                0.11124392598867417,
                -0.1619318425655365,
                0.28614580631256106,
                0.04252436384558678,
                -0.34851595759391787,
                -0.5631616711616516,
                -0.5199906229972839,
                0.35355475544929507,
                0.8376463055610657,
                -0.1302323341369629,
                0.6057479381561279,
                -0.7911098599433899,
                0.8795691132545471,
                0.5874557495117188,
                0.5705500841140747,
                -0.9063711762428284,
                0.779835045337677,
                -0.5945982336997986,
                -0.048154301941394809,
                0.8041802048683167,
                0.2957707643508911,
                -1.2600189447402955,
                0.01951727271080017,
                -1.511055588722229,
                0.8854169845581055,
                -0.290351003408432,
                -0.3532918095588684,
                0.09886234253644943,
                1.2803984880447388,
                0.03653857856988907,
                -1.1073194742202759,
                -1.3776440620422364,
                -0.7187990546226502,
                0.021830454468727113,
                -0.8375561237335205,
                0.5298988819122315
            ],
            "fitness": 32.117488861083987,
            "npcType": 1,
            "outputLockStatus": [
                false,
                false,
                false,
                false
            ]
        },
        {
            "layers": [
                8,
                8,
                6,
                4
            ],
            "flattenedWeights": [
                -0.14353112876415254,
                0.1786864995956421,
                0.8887481689453125,
                0.10263073444366455,
                1.05977463722229,
                0.51719731092453,
                -0.5920357704162598,
                -0.6726963520050049,
                -0.17330223321914674,
                -0.7115941643714905,
                0.125139981508255,
                -0.9014922380447388,
                -0.2272150218486786,
                -0.4130246043205261,
                0.8747661113739014,
                -1.4489543437957764,
                0.8800902366638184,
                -0.8732496500015259,
                -0.4366074800491333,
                -0.43203306198120119,
                -0.40237855911254885,
                -0.41565483808517458,
                1.2535549402236939,
                -0.24271397292613984,
                -0.12848159670829774,
                -0.343901127576828,
                -0.4781913459300995,
                -0.20835480093955995,
                0.2083631157875061,
                -0.41751399636268618,
                -0.8139039874076843,
                0.37793540954589846,
                -0.3214719593524933,
                0.9089033603668213,
                0.8033120632171631,
                -0.23546048998832704,
                -0.8197702169418335,
                -0.777376651763916,
                -1.4506685733795167,
                0.6079950332641602,
                0.32825103402137759,
                -0.8831464052200317,
                -0.9678593277931213,
                -1.058630108833313,
                0.15708044171333314,
                -0.3123069405555725,
                -0.005923956632614136,
                -1.0270041227340699,
                -0.03876018524169922,
                0.37511053681373598,
                -0.09470333158969879,
                -0.8217213749885559,
                -1.3267266750335694,
                -0.35753172636032107,
                0.8829413652420044,
                0.2154906690120697,
                0.7791147232055664,
                -0.47557324171066286,
                -0.05461028218269348,
                1.262489914894104,
                -0.28952285647392275,
                -0.6270735859870911,
                0.11463600397109986,
                0.6722437143325806,
                -0.40187057852745058,
                0.6182528734207153,
                -0.556634783744812,
                -0.3932996690273285,
                0.3747660219669342,
                0.34524235129356387,
                0.609524667263031,
                -0.659853994846344,
                0.7783008217811585,
                -0.42178845405578616,
                0.2126096785068512,
                -0.004579383879899979,
                -0.4399269223213196,
                -0.5264216661453247,
                0.9458631873130798,
                0.4140116572380066,
                -0.01586782932281494,
                -0.35528889298439028,
                -0.9233567714691162,
                0.17532894015312196,
                1.3557205200195313,
                0.13366881012916566,
                0.867283821105957,
                0.16410952806472779,
                0.2623067796230316,
                -0.41927817463874819,
                0.6309943199157715,
                -0.7685002088546753,
                -0.46826472878456118,
                -0.8666797280311585,
                -0.7630167007446289,
                0.6725867986679077,
                -0.7617111802101135,
                -0.7219164371490479,
                0.04063726216554642,
                -0.47486612200737,
                -0.06069491058588028,
                -0.09872562438249588,
                0.2724684178829193,
                -0.037363048642873767,
                -0.1859261691570282,
                -0.5631616711616516,
                -0.5780754685401917,
                0.50384122133255,
                0.8572679758071899,
                -0.1302323341369629,
                0.7444279193878174,
                -0.8027136921882629,
                1.0627533197402955,
                0.5246860384941101,
                0.5795177221298218,
                -0.9251548647880554,
                0.7998730540275574,
                -0.5603017210960388,
                0.018504060804843904,
                0.7856485843658447,
                0.09858632832765579,
                -1.2600189447402955,
                -0.07568159699440003,
                -1.511055588722229,
                0.8227186799049377,
                -0.3972959816455841,
                -0.4345702826976776,
                -0.04980982095003128,
                1.2803984880447388,
                -0.11263954639434815,
                -1.1758207082748414,
                -1.325650691986084,
                -0.7472444176673889,
                -0.12202872335910797,
                -0.8375561237335205,
                0.6728349924087524
            ],
            "fitness": 32.05306625366211,
            "npcType": 1,
            "outputLockStatus": [
                false,
                false,
                false,
                false
            ]
        }
    ],
    "timestamp": "2025-05-12 14:10:21"
}