{
    "generation": 785,
    "bestFitness": 66.56710052490235,
    "averageFitness": 22.99666976928711,
    "worstFitness": 0.0,
    "networks": [
        {
            "layers": [
                8,
                8,
                6,
                4
            ],
            "flattenedWeights": [
                -1.026953935623169,
                1.1786723136901856,
                2.0802063941955568,
                -0.2099212408065796,
                2.1882705688476564,
                1.280005693435669,
                -1.5652012825012208,
                -1.2502027750015259,
                1.5352447032928467,
                -0.053205862641334537,
                0.7341609001159668,
                -0.11291258782148361,
                -1.5121753215789796,
                0.28042903542518618,
                0.725629985332489,
                -0.2950934171676636,
                2.6159677505493166,
                -0.42267513275146487,
                0.10257686674594879,
                0.14617779850959779,
                0.0955062210559845,
                -0.8451431393623352,
                0.4397907555103302,
                0.45036864280700686,
                -0.8785539865493774,
                0.08377531915903092,
                -0.1276760995388031,
                -0.9226031303405762,
                -1.7148257493972779,
                0.027725525200366975,
                0.6424064636230469,
                1.8727946281433106,
                -2.041463851928711,
                0.2772783637046814,
                1.0760297775268555,
                -0.4758837819099426,
                -0.4574168920516968,
                1.1631522178649903,
                -1.0068774223327637,
                -0.3477814197540283,
                1.0088714361190797,
                -2.033475637435913,
                -0.9693785905838013,
                -2.274693727493286,
                0.3671291768550873,
                -0.49340352416038515,
                1.583242416381836,
                -0.8053584694862366,
                -1.3780277967453004,
                -1.2185261249542237,
                0.7219940423965454,
                -1.8937329053878785,
                -4.437384605407715,
                -1.4297206401824952,
                0.0752321109175682,
                -0.28518012166023257,
                1.8042070865631104,
                0.5790984034538269,
                0.11714931577444077,
                1.5465915203094483,
                -0.6525921821594238,
                -3.483466148376465,
                -0.8154875040054321,
                1.5423495769500733,
                -0.3291339874267578,
                1.528591513633728,
                0.4303053617477417,
                -0.45960262417793276,
                -0.8620110750198364,
                -0.4747360944747925,
                1.2221834659576417,
                1.5685725212097169,
                1.402316689491272,
                -0.8316684365272522,
                0.5319281220436096,
                -0.5750026702880859,
                -1.6252690553665162,
                -1.1284723281860352,
                0.4771687686443329,
                -0.4602779150009155,
                -0.16823558509349824,
                -0.9160009622573853,
                -3.4202098846435549,
                -0.12341216206550598,
                1.996031403541565,
                0.567448616027832,
                1.0438990592956544,
                0.6033198833465576,
                0.9161869883537293,
                -0.11930610984563828,
                0.4462112784385681,
                0.4056527614593506,
                -0.6485282778739929,
                -0.7383230924606323,
                1.304383397102356,
                0.9032085537910461,
                -0.2267777919769287,
                -1.2592277526855469,
                0.21182337403297425,
                -2.1741244792938234,
                -1.1024141311645508,
                -1.2069298028945923,
                0.8319524526596069,
                0.24606573581695558,
                -1.234363079071045,
                -1.9371124505996705,
                -0.36358585953712466,
                0.2878987491130829,
                -0.17489632964134217,
                -0.00521869957447052,
                1.0708621740341187,
                -0.15543875098228455,
                0.9518024325370789,
                0.1075444370508194,
                0.607391357421875,
                -1.9755973815917969,
                -0.18290963768959046,
                -1.107980489730835,
                -0.9940930604934692,
                0.3587649464607239,
                1.7390177249908448,
                -2.1227452754974367,
                0.8068614602088928,
                -2.4538445472717287,
                0.6837687492370606,
                -0.7928354144096375,
                -0.7193827033042908,
                -0.34335100650787356,
                2.1709673404693605,
                -0.6221785545349121,
                0.0501883290708065,
                -0.8900065422058106,
                -0.9262104034423828,
                -1.5905134677886963,
                -1.9849097728729249,
                0.7624850273132324
            ],
            "fitness": 66.56710052490235,
            "npcType": 1,
            "outputLockStatus": [
                false,
                false,
                false,
                false
            ]
        },
        {
            "layers": [
                8,
                8,
                6,
                4
            ],
            "flattenedWeights": [
                -1.0259584188461304,
                1.2670084238052369,
                2.0284805297851564,
                -0.17717571556568147,
                2.1882705688476564,
                1.298481822013855,
                -1.5652012825012208,
                -1.2502027750015259,
                1.5915148258209229,
                0.026342377066612245,
                0.7312143445014954,
                -0.20366021990776063,
                -1.4866043329238892,
                0.25782790780067446,
                0.6543006300926209,
                -0.2921895384788513,
                2.6159677505493166,
                -0.5167003870010376,
                -0.017142366617918016,
                0.3372437357902527,
                0.101333387196064,
                -0.8879333734512329,
                0.5299913287162781,
                0.45036864280700686,
                -1.102776288986206,
                0.14561127126216889,
                -0.07337433099746704,
                -0.9226031303405762,
                -1.8106822967529297,
                -0.11310488730669022,
                0.6775875687599182,
                1.8727946281433106,
                -2.041463851928711,
                0.3621855080127716,
                1.0760297775268555,
                -0.44665631651878359,
                -0.4574168920516968,
                1.2542136907577515,
                -1.047036051750183,
                -0.2942110300064087,
                1.0051512718200684,
                -2.090839385986328,
                -0.9693785905838013,
                -2.195411443710327,
                0.35804131627082827,
                -0.49340352416038515,
                1.5537444353103638,
                -1.3572689294815064,
                -1.4091757535934449,
                -1.1344939470291138,
                0.775459349155426,
                -1.921978235244751,
                -4.437384605407715,
                -1.4297206401824952,
                0.004361972212791443,
                -0.28518012166023257,
                1.8042070865631104,
                0.5790984034538269,
                -0.030420571565628053,
                1.5465915203094483,
                -0.6525921821594238,
                -3.4311227798461916,
                -0.7218184471130371,
                1.4703989028930665,
                -0.33283087611198428,
                1.4842040538787842,
                0.3377847969532013,
                -0.45960262417793276,
                -0.9440872073173523,
                -0.4367108941078186,
                1.3158137798309327,
                1.4028953313827515,
                1.3066190481185914,
                -0.7233341932296753,
                0.656227171421051,
                -0.5750026702880859,
                -1.538438081741333,
                -1.144202470779419,
                0.4771687686443329,
                -0.2725318372249603,
                -0.12616586685180665,
                -0.898999035358429,
                -3.4202098846435549,
                0.03270915895700455,
                2.0073647499084474,
                0.4761849343776703,
                1.0983315706253052,
                0.5484808087348938,
                0.935299277305603,
                -0.20747169852256776,
                0.5117630958557129,
                0.6939147710800171,
                -0.7382673621177673,
                -0.9534767270088196,
                1.2181586027145386,
                1.0391589403152466,
                -0.13711026310920716,
                -0.851092517375946,
                0.21182337403297425,
                -2.600203037261963,
                -1.1024141311645508,
                -1.2069298028945923,
                0.905958354473114,
                0.29338422417640688,
                -1.2171670198440552,
                -1.907743215560913,
                -0.45756039023399355,
                0.30805984139442446,
                -0.2215001881122589,
                -0.00521869957447052,
                1.1431995630264283,
                -0.13556912541389466,
                0.9277711510658264,
                0.1075444370508194,
                0.607391357421875,
                -1.9755973815917969,
                -0.18290963768959046,
                -1.106704831123352,
                -0.9963551759719849,
                0.25961586833000185,
                1.6918290853500367,
                -2.1271016597747804,
                0.8068614602088928,
                -2.35724139213562,
                0.6837687492370606,
                -0.7109238505363464,
                -0.7193827033042908,
                -0.39161527156829836,
                2.221527099609375,
                -0.7094405889511108,
                -0.08785510063171387,
                -0.9443130493164063,
                -0.8820474743843079,
                -1.7087562084197999,
                -1.9849097728729249,
                0.7228873372077942
            ],
            "fitness": 63.81768035888672,
            "npcType": 1,
            "outputLockStatus": [
                false,
                false,
                false,
                false
            ]
        },
        {
            "layers": [
                8,
                8,
                6,
                4
            ],
            "flattenedWeights": [
                -1.115806221961975,
                1.3664519786834717,
                2.0284805297851564,
                -0.17717571556568147,
                2.1213417053222658,
                1.3067718744277955,
                -1.5652012825012208,
                -1.3286570310592652,
                1.523892879486084,
                0.026342377066612245,
                0.7341609001159668,
                -0.20366021990776063,
                -1.4866043329238892,
                0.25782790780067446,
                0.6543006300926209,
                -0.2620978355407715,
                2.6159677505493166,
                -0.5167003870010376,
                -0.017142366617918016,
                0.3372437357902527,
                0.101333387196064,
                -0.8671138286590576,
                0.4397907555103302,
                0.46102985739707949,
                -1.0248113870620728,
                0.09308434277772904,
                -0.07337433099746704,
                -0.9226031303405762,
                -1.8342397212982178,
                -0.03365612030029297,
                0.5672010183334351,
                1.9367097616195679,
                -2.1396729946136476,
                0.4086694121360779,
                1.0760297775268555,
                -0.4758837819099426,
                -0.4574168920516968,
                1.1281719207763672,
                -1.0068774223327637,
                -0.2476586401462555,
                0.9978107213973999,
                -2.090839385986328,
                -1.0040655136108399,
                -2.2596325874328615,
                0.35804131627082827,
                -0.49340352416038515,
                1.583242416381836,
                -1.2726340293884278,
                -1.3780277967453004,
                -1.0881675481796265,
                0.6969272494316101,
                -1.8594692945480347,
                -4.437384605407715,
                -1.4345409870147706,
                0.0752321109175682,
                -0.28518012166023257,
                1.8042070865631104,
                0.605775773525238,
                0.07507126778364182,
                1.611161231994629,
                -0.6525921821594238,
                -3.4357404708862306,
                -0.8154875040054321,
                1.54485285282135,
                -0.2906721532344818,
                1.4842040538787842,
                0.3377847969532013,
                -0.45960262417793276,
                -1.0412139892578126,
                -0.4367108941078186,
                1.2221834659576417,
                1.4028953313827515,
                1.402316689491272,
                -0.7233341932296753,
                0.656227171421051,
                -0.5750026702880859,
                -1.6252690553665162,
                -1.144202470779419,
                0.4771687686443329,
                -0.2725318372249603,
                -0.16823558509349824,
                -0.898999035358429,
                -3.4202098846435549,
                0.03270915895700455,
                2.0073647499084474,
                0.49454474449157717,
                1.0983315706253052,
                0.5316265821456909,
                0.9222376942634583,
                -0.20747169852256776,
                0.5782722234725952,
                0.7316896915435791,
                -0.6302530765533447,
                -0.9534767270088196,
                1.304383397102356,
                1.0391589403152466,
                -0.14653578400611878,
                -0.851092517375946,
                0.21182337403297425,
                -2.5137948989868166,
                -1.1024141311645508,
                -1.2069298028945923,
                0.905958354473114,
                0.2439594566822052,
                -1.0667483806610108,
                -1.907743215560913,
                -0.2798437774181366,
                0.30805984139442446,
                -0.23256340622901917,
                0.058780424296855929,
                1.1431995630264283,
                -0.15543875098228455,
                0.9277711510658264,
                0.18922728300094605,
                0.607391357421875,
                -1.9755973815917969,
                -0.09252601116895676,
                -1.106704831123352,
                -0.9940930604934692,
                0.25961586833000185,
                1.6513986587524415,
                -2.1271016597747804,
                0.7820046544075012,
                -2.427011251449585,
                0.6837687492370606,
                -0.7109238505363464,
                -0.7193827033042908,
                -0.34335100650787356,
                2.221527099609375,
                -0.6572219729423523,
                0.04637640342116356,
                -0.8900065422058106,
                -0.8464598059654236,
                -1.685619831085205,
                -1.9849097728729249,
                0.8047104477882385
            ],
            "fitness": 53.65412139892578,
            "npcType": 1,
            "outputLockStatus": [
                false,
                false,
                false,
                false
            ]
        },
        {
            "layers": [
                8,
                8,
                6,
                4
            ],
            "flattenedWeights": [
                -0.9635132551193237,
                1.3620059490203858,
                2.0284805297851564,
                -0.17717571556568147,
                2.1882705688476564,
                1.346880316734314,
                -1.5652012825012208,
                -1.2502027750015259,
                1.5642727613449097,
                0.017202921211719514,
                0.7635597586631775,
                -0.294379323720932,
                -1.4866043329238892,
                0.32828110456466677,
                0.6906517148017883,
                -0.2379283905029297,
                2.520444631576538,
                -0.5860349535942078,
                -0.017142366617918016,
                0.4311913549900055,
                0.101333387196064,
                -0.8671138286590576,
                0.4397907555103302,
                0.45036864280700686,
                -0.9260457158088684,
                0.14561127126216889,
                -0.07337433099746704,
                -0.8443400859832764,
                -1.8678048849105836,
                0.021750830113887788,
                0.6424064636230469,
                1.8060431480407715,
                -2.041463851928711,
                0.3621855080127716,
                1.0760297775268555,
                -0.4758837819099426,
                -0.4574168920516968,
                1.1631522178649903,
                -1.0068774223327637,
                -0.3131549060344696,
                1.0051512718200684,
                -2.090839385986328,
                -0.9693785905838013,
                -2.2596325874328615,
                0.35804131627082827,
                -0.49340352416038515,
                1.583242416381836,
                -1.3303251266479493,
                -1.3780277967453004,
                -1.1344939470291138,
                0.7235098481178284,
                -1.8594692945480347,
                -4.437384605407715,
                -1.4297206401824952,
                0.006664767861366272,
                -0.28518012166023257,
                1.8042070865631104,
                0.6479474306106567,
                0.06930083781480789,
                1.4599769115447999,
                -0.6569850444793701,
                -3.5455336570739748,
                -0.8154875040054321,
                1.4703989028930665,
                -0.3087714910507202,
                1.4969959259033204,
                0.3377847969532013,
                -0.4010925889015198,
                -0.9718329906463623,
                -0.5076733231544495,
                1.182164192199707,
                1.4234418869018555,
                1.4233020544052125,
                -0.7233341932296753,
                0.5669127702713013,
                -0.5824131369590759,
                -1.6252690553665162,
                -1.144202470779419,
                0.4771687686443329,
                -0.3710724413394928,
                -0.16823558509349824,
                -0.898999035358429,
                -3.4202098846435549,
                0.03270915895700455,
                2.0073647499084474,
                0.4715772271156311,
                1.0983315706253052,
                0.5592653751373291,
                0.9815827012062073,
                -0.20747169852256776,
                0.5117630958557129,
                0.6939147710800171,
                -0.6485282778739929,
                -0.9185954332351685,
                1.304383397102356,
                1.0391589403152466,
                -0.14040131866931916,
                -0.8657793402671814,
                0.21182337403297425,
                -2.5137948989868166,
                -1.123278260231018,
                -1.2069298028945923,
                0.905958354473114,
                0.2439594566822052,
                -1.1425563097000123,
                -1.907743215560913,
                -0.36358585953712466,
                0.30805984139442446,
                -0.17489632964134217,
                -0.00521869957447052,
                1.2091953754425049,
                -0.09775114059448242,
                0.8629531860351563,
                0.14023686945438386,
                0.6120995879173279,
                -1.9755973815917969,
                -0.18290963768959046,
                -1.106704831123352,
                -0.9940930604934692,
                0.20543882250785829,
                1.6780656576156617,
                -2.139737606048584,
                0.8068614602088928,
                -2.35724139213562,
                0.6837687492370606,
                -0.7109238505363464,
                -0.7089496850967407,
                -0.34335100650787356,
                2.221527099609375,
                -0.6572219729423523,
                0.044129904359579089,
                -0.8900065422058106,
                -0.8464598059654236,
                -1.685619831085205,
                -1.8983471393585206,
                0.7624850273132324
            ],
            "fitness": 49.18121337890625,
            "npcType": 1,
            "outputLockStatus": [
                false,
                false,
                false,
                false
            ]
        },
        {
            "layers": [
                8,
                8,
                6,
                4
            ],
            "flattenedWeights": [
                -0.9203041195869446,
                1.5124150514602662,
                2.0284805297851564,
                -0.2838815748691559,
                2.263381004333496,
                1.3603310585021973,
                -1.6525954008102418,
                -1.210026502609253,
                1.5978822708129883,
                0.14868584275245667,
                0.7055814862251282,
                -0.19951099157333375,
                -1.4449704885482789,
                0.26211127638816836,
                0.8300430774688721,
                -0.31585782766342165,
                2.624246120452881,
                -0.39598017930984499,
                0.047168925404548648,
                0.3497937321662903,
                0.15797549486160279,
                -0.925178587436676,
                0.3391149044036865,
                0.4599502384662628,
                -1.0330740213394166,
                0.23544570803642274,
                0.050738375633955,
                -1.1344943046569825,
                -1.8247531652450562,
                -0.03365612030029297,
                0.6424064636230469,
                1.5855284929275513,
                -2.1182732582092287,
                0.5560732483863831,
                1.0760297775268555,
                -0.42011094093322756,
                -0.4574168920516968,
                1.028233528137207,
                -1.1563383340835572,
                -0.24819976091384889,
                1.0088714361190797,
                -2.060713529586792,
                -0.9730193614959717,
                -2.2631824016571047,
                0.2787238359451294,
                -0.4761486053466797,
                1.5452663898468018,
                -1.1522732973098755,
                -1.3706040382385255,
                -1.238027811050415,
                0.7219940423965454,
                -1.8547983169555665,
                -4.536479473114014,
                -1.4297206401824952,
                0.0752321109175682,
                -0.4266049563884735,
                1.550991177558899,
                0.6851109266281128,
                0.23211973905563355,
                1.6144746541976929,
                -0.6525921821594238,
                -3.50333571434021,
                -0.8431574702262878,
                1.4996942281723023,
                -0.46221429109573367,
                1.557795524597168,
                0.35517680644989016,
                -0.5364493131637573,
                -0.869450032711029,
                -0.48968929052352908,
                1.3373819589614869,
                1.4155564308166505,
                1.402316689491272,
                -0.8185426592826843,
                0.5746405720710754,
                -0.5603727698326111,
                -1.6252690553665162,
                -1.1625829935073853,
                0.5792332887649536,
                -0.3304632902145386,
                -0.15944087505340577,
                -0.9959874153137207,
                -3.4202098846435549,
                0.12484310567378998,
                1.9896695613861085,
                0.5632457137107849,
                1.0983315706253052,
                0.6216945052146912,
                0.9526054263114929,
                -0.013522300869226456,
                0.5814953446388245,
                0.31084904074668887,
                -0.6485282778739929,
                -0.7469130754470825,
                1.304383397102356,
                0.8652125597000122,
                -0.1983930766582489,
                -0.851092517375946,
                0.30679458379745486,
                -2.472029209136963,
                -1.1024141311645508,
                -1.2069298028945923,
                0.7612658143043518,
                0.4182601869106293,
                -1.234363079071045,
                -2.1494290828704836,
                -0.31869152188301089,
                0.45759838819503786,
                -0.12954409420490266,
                0.1361236274242401,
                1.1425247192382813,
                -0.29373791813850405,
                0.9434031844139099,
                -0.1010391116142273,
                0.5770834684371948,
                -1.9275363683700562,
                -0.1743035912513733,
                -0.9898011684417725,
                -1.1129651069641114,
                0.25961586833000185,
                1.6918327808380128,
                -2.206731081008911,
                0.9188066124916077,
                -2.438126802444458,
                0.6837687492370606,
                -0.8674938082695007,
                -0.8572342991828919,
                -0.34335100650787356,
                2.2109804153442385,
                -0.6992690563201904,
                0.020574402064085008,
                -0.7201135158538818,
                -0.8464598059654236,
                -1.649176001548767,
                -2.099311113357544,
                0.8259743452072144
            ],
            "fitness": 47.19852066040039,
            "npcType": 1,
            "outputLockStatus": [
                false,
                false,
                false,
                false
            ]
        },
        {
            "layers": [
                8,
                8,
                6,
                4
            ],
            "flattenedWeights": [
                -1.0259584188461304,
                1.3406027555465699,
                2.0284805297851564,
                -0.24812087416648866,
                2.263381004333496,
                1.32918381690979,
                -1.6525954008102418,
                -1.2259368896484376,
                1.5945148468017579,
                0.22249940037727357,
                0.565778374671936,
                -0.18783903121948243,
                -1.394258737564087,
                0.25782790780067446,
                0.751503050327301,
                -0.22059640288352967,
                2.6159677505493166,
                -0.4431949853897095,
                0.008166443556547165,
                0.4382038712501526,
                0.3397543430328369,
                -0.9760264754295349,
                0.35682153701782229,
                0.47024497389793398,
                -1.080306887626648,
                0.17110970616340638,
                0.050738375633955,
                -0.9226031303405762,
                -1.6636728048324586,
                -0.06173229217529297,
                0.6424064636230469,
                1.820114254951477,
                -2.041463851928711,
                0.3621855080127716,
                1.1333378553390504,
                -0.46777471899986269,
                -0.3981495499610901,
                1.1308542490005494,
                -1.1997020244598389,
                -0.17162904143333436,
                1.0088714361190797,
                -2.0972747802734377,
                -0.9623813629150391,
                -2.38580060005188,
                0.2764912545681,
                -0.6123116612434387,
                1.583242416381836,
                -1.1522732973098755,
                -1.419014811515808,
                -1.2327479124069214,
                0.7219940423965454,
                -1.7273032665252686,
                -4.422396659851074,
                -1.4297206401824952,
                0.09641687572002411,
                -0.4266049563884735,
                1.9636704921722413,
                0.6851109266281128,
                0.09300047904253006,
                1.6144746541976929,
                -0.6783674955368042,
                -3.622797727584839,
                -0.879054069519043,
                1.4996942281723023,
                -0.3291339874267578,
                1.597732424736023,
                0.3377847969532013,
                -0.44707152247428896,
                -0.9940915703773499,
                -0.5578050017356873,
                1.3373819589614869,
                1.4028953313827515,
                1.402316689491272,
                -0.7233341932296753,
                0.5710515379905701,
                -0.5001659393310547,
                -1.525510549545288,
                -1.187199354171753,
                0.39909952878952029,
                -0.10785301774740219,
                -0.11686120182275772,
                -1.1335999965667725,
                -3.434805393218994,
                0.20726624131202699,
                1.993935227394104,
                0.5236610770225525,
                1.0983315706253052,
                0.6428711414337158,
                1.0127589702606202,
                -0.013522300869226456,
                0.4668591022491455,
                0.31084904074668887,
                -0.5514830946922302,
                -0.6867849826812744,
                1.3566759824752808,
                1.0391589403152466,
                -0.27531224489212038,
                -0.851092517375946,
                0.21182337403297425,
                -2.5760738849639894,
                -1.1024141311645508,
                -1.2069298028945923,
                0.7473707795143127,
                0.17817792296409608,
                -1.234363079071045,
                -1.9968887567520142,
                -0.2628372609615326,
                0.30805984139442446,
                -0.1715717315673828,
                0.12636418640613557,
                1.1425247192382813,
                -0.18965640664100648,
                0.8391321301460266,
                0.0551358163356781,
                0.607391357421875,
                -1.790761113166809,
                -0.2659657895565033,
                -1.106704831123352,
                -1.0351521968841553,
                0.3247014582157135,
                1.665794849395752,
                -2.09782338142395,
                0.8656362891197205,
                -2.2992022037506105,
                0.6552358865737915,
                -1.0080114603042603,
                -0.680133581161499,
                -0.34335100650787356,
                2.205122470855713,
                -0.7531044483184815,
                -0.04495787248015404,
                -0.8385375142097473,
                -0.9091378450393677,
                -1.649176001548767,
                -2.087674379348755,
                0.7624850273132324
            ],
            "fitness": 46.435523986816409,
            "npcType": 1,
            "outputLockStatus": [
                false,
                false,
                false,
                false
            ]
        },
        {
            "layers": [
                8,
                8,
                6,
                4
            ],
            "flattenedWeights": [
                -1.0259584188461304,
                1.3664519786834717,
                2.1538827419281008,
                -0.24922725558280946,
                2.112154960632324,
                1.2056127786636353,
                -1.6518454551696778,
                -1.3509714603424073,
                1.6096775531768799,
                0.04416116327047348,
                0.5605376362800598,
                -0.1567937433719635,
                -1.4866043329238892,
                0.3600669205188751,
                0.725629985332489,
                -0.24109843373298646,
                2.655988931655884,
                -0.48402607440948489,
                -0.04715285450220108,
                0.14617779850959779,
                0.23442786931991578,
                -0.868211567401886,
                0.35973677039146426,
                0.4340530037879944,
                -1.0437625646591187,
                0.08827536553144455,
                0.019101105630397798,
                -0.9206469058990479,
                -1.7901884317398072,
                -0.013097479939460755,
                0.716418445110321,
                1.7334225177764893,
                -2.081981658935547,
                0.27341270446777346,
                1.1333378553390504,
                -0.3320295810699463,
                -0.448654443025589,
                1.0209745168685914,
                -1.1997020244598389,
                -0.3178067207336426,
                1.0085722208023072,
                -2.0916929244995119,
                -0.9693785905838013,
                -2.2679107189178469,
                0.3289564251899719,
                -0.5716953277587891,
                1.4238191843032838,
                -1.0813006162643433,
                -1.3361679315567017,
                -1.2956480979919434,
                0.3384168744087219,
                -1.9320154190063477,
                -4.536479473114014,
                -1.3695554733276368,
                0.17808419466018678,
                -0.28518012166023257,
                1.683654546737671,
                0.6037654876708984,
                0.22000813484191895,
                1.5749889612197877,
                -0.6525921821594238,
                -3.549947738647461,
                -0.8154875040054321,
                1.5169448852539063,
                -0.46401333808898928,
                1.4630366563796998,
                0.42843273282051089,
                -0.4780347943305969,
                -0.869450032711029,
                -0.5011546611785889,
                1.0795289278030396,
                1.486709713935852,
                1.3489445447921754,
                -0.8189001679420471,
                0.6183751225471497,
                -0.6774829626083374,
                -1.58860445022583,
                -1.2172291278839112,
                0.3954923450946808,
                -0.19307798147201539,
                -0.10277393460273743,
                -0.9477922320365906,
                -3.2883074283599855,
                -0.040680184960365298,
                1.9104225635528565,
                0.5241694450378418,
                1.024599313735962,
                0.6216945052146912,
                0.9526054263114929,
                -0.1381656676530838,
                0.5085343718528748,
                0.31084904074668887,
                -0.5591631531715393,
                -0.9571304321289063,
                1.2847784757614136,
                0.9183015823364258,
                -0.19125017523765565,
                -1.2047467231750489,
                0.21182337403297425,
                -2.4916460514068605,
                -1.1024141311645508,
                -1.2069298028945923,
                0.8754630088806152,
                0.37117403745651247,
                -1.195960283279419,
                -1.90364408493042,
                -0.21643811464309693,
                0.1108301430940628,
                -0.09026296436786652,
                0.20086927711963654,
                1.1431995630264283,
                -0.10819587111473084,
                0.9111475348472595,
                0.052037909626960757,
                0.5566920042037964,
                -1.8897053003311158,
                -0.15417435765266419,
                -1.0625661611557007,
                -0.9159421920776367,
                0.19937998056411744,
                1.7390177249908448,
                -2.0153262615203859,
                0.7222489714622498,
                -2.514055013656616,
                0.676069438457489,
                -1.0193450450897217,
                -0.7631141543388367,
                -0.45024147629737856,
                2.0277886390686037,
                -0.7175894379615784,
                -0.028582226485013963,
                -0.8244034647941589,
                -0.7612471580505371,
                -1.5794196128845215,
                -1.9849097728729249,
                0.7624850273132324
            ],
            "fitness": 45.601776123046878,
            "npcType": 1,
            "outputLockStatus": [
                false,
                false,
                false,
                false
            ]
        },
        {
            "layers": [
                8,
                8,
                6,
                4
            ],
            "flattenedWeights": [
                -1.1182976961135865,
                1.3949785232543946,
                2.1181044578552248,
                -0.20550614595413209,
                2.243849992752075,
                1.3603310585021973,
                -1.7179224491119385,
                -1.2259368896484376,
                1.5642727613449097,
                0.23052453994750977,
                0.6339923143386841,
                -0.20366021990776063,
                -1.5117262601852418,
                0.25782790780067446,
                0.8300430774688721,
                -0.36594390869140627,
                2.6159677505493166,
                -0.43242114782333376,
                0.008166443556547165,
                0.3497937321662903,
                0.23442786931991578,
                -0.8671138286590576,
                0.35682153701782229,
                0.5458338260650635,
                -1.0345730781555176,
                0.17110970616340638,
                -0.11920089274644852,
                -0.8777909874916077,
                -1.8935414552688599,
                -0.06173229217529297,
                0.6424064636230469,
                1.5855284929275513,
                -2.041463851928711,
                0.5952094793319702,
                1.0760297775268555,
                -0.3320295810699463,
                -0.4574168920516968,
                1.0754265785217286,
                -1.2681292295455933,
                -0.307478666305542,
                1.0051512718200684,
                -2.0972747802734377,
                -0.910373866558075,
                -2.2596325874328615,
                0.3189131021499634,
                -0.6338812112808228,
                1.5630848407745362,
                -1.1522732973098755,
                -1.5128742456436158,
                -1.2402119636535645,
                0.7310499548912048,
                -1.8328361511230469,
                -4.437384605407715,
                -1.4297206401824952,
                0.09641687572002411,
                -0.4266049563884735,
                1.980356216430664,
                0.7810847759246826,
                0.16842199862003327,
                1.5228381156921387,
                -0.5761005282402039,
                -3.5442087650299074,
                -0.859408974647522,
                1.4996942281723023,
                -0.3852314054965973,
                1.5814149379730225,
                0.35517680644989016,
                -0.5364493131637573,
                -0.869450032711029,
                -0.48968929052352908,
                1.072176456451416,
                1.3936353921890259,
                1.4309662580490113,
                -0.7233341932296753,
                0.5746405720710754,
                -0.5603727698326111,
                -1.5586692094802857,
                -1.0715802907943726,
                0.3954138159751892,
                -0.3304632902145386,
                -0.16823558509349824,
                -1.1011543273925782,
                -3.434805393218994,
                -0.040680184960365298,
                1.9715608358383179,
                0.5018917322158814,
                1.0419994592666627,
                0.6216945052146912,
                0.889824390411377,
                -0.013522300869226456,
                0.5814953446388245,
                0.31084904074668887,
                -0.6485282778739929,
                -0.7444301247596741,
                1.4008549451828004,
                0.8652125597000122,
                -0.3108733296394348,
                -0.851092517375946,
                0.21182337403297425,
                -2.4916460514068605,
                -1.1024141311645508,
                -1.2069298028945923,
                0.905958354473114,
                0.20144668221473695,
                -1.1425563097000123,
                -1.9356896877288819,
                -0.3767678737640381,
                0.40036967396736147,
                -0.17489632964134217,
                0.12636418640613557,
                1.1425247192382813,
                -0.18965640664100648,
                0.9277711510658264,
                0.07643795758485794,
                0.607391357421875,
                -1.8703774213790894,
                -0.1743035912513733,
                -1.046517014503479,
                -0.9646534323692322,
                0.25961586833000185,
                1.6513986587524415,
                -2.145167350769043,
                0.7682278156280518,
                -2.438126802444458,
                0.5778452754020691,
                -1.0080114603042603,
                -0.7631141543388367,
                -0.34335100650787356,
                2.2109804153442385,
                -0.7531044483184815,
                -0.04495787248015404,
                -0.9414134621620178,
                -0.7650479674339294,
                -1.649176001548767,
                -2.087674379348755,
                0.8495855927467346
            ],
            "fitness": 43.59242248535156,
            "npcType": 1,
            "outputLockStatus": [
                false,
                false,
                false,
                false
            ]
        },
        {
            "layers": [
                8,
                8,
                6,
                4
            ],
            "flattenedWeights": [
                -1.0259584188461304,
                1.3664519786834717,
                2.1538827419281008,
                -0.2508436143398285,
                2.263381004333496,
                1.3603310585021973,
                -1.6525954008102418,
                -1.165442705154419,
                1.5642727613449097,
                0.14877210557460786,
                0.5745398998260498,
                -0.20366021990776063,
                -1.4866043329238892,
                0.22198045253753663,
                0.7146350145339966,
                -0.1560596525669098,
                2.6159677505493166,
                -0.43737465143203738,
                -0.017142366617918016,
                0.3103315234184265,
                0.002765834331512451,
                -0.8159695863723755,
                0.4397907555103302,
                0.46369749307632449,
                -1.080306887626648,
                0.17110970616340638,
                -0.08516363799571991,
                -0.9145339727401733,
                -1.7234748601913453,
                -0.03365612030029297,
                0.6243933439254761,
                1.820114254951477,
                -2.041463851928711,
                0.3621855080127716,
                1.0661886930465699,
                -0.3320295810699463,
                -0.4574168920516968,
                1.0754265785217286,
                -0.9984778165817261,
                -0.3131549060344696,
                1.0750732421875,
                -2.1420671939849855,
                -0.9693785905838013,
                -2.3286349773406984,
                0.28489068150520327,
                -0.6123116612434387,
                1.583242416381836,
                -1.2344918251037598,
                -1.419014811515808,
                -1.1536177396774293,
                0.4729568064212799,
                -1.8594692945480347,
                -4.437384605407715,
                -1.4297206401824952,
                0.09641687572002411,
                -0.4129384756088257,
                1.9881290197372437,
                0.6419464945793152,
                0.20110072195529939,
                1.5465915203094483,
                -0.6525921821594238,
                -3.483466148376465,
                -0.8154875040054321,
                1.4703989028930665,
                -0.3291339874267578,
                1.4844422340393067,
                0.3377847969532013,
                -0.45960262417793276,
                -0.9940915703773499,
                -0.48968929052352908,
                1.1559969186782838,
                1.4028953313827515,
                1.402316689491272,
                -0.8119982481002808,
                0.656227171421051,
                -0.5485639572143555,
                -1.6528284549713135,
                -1.1638333797454835,
                0.3954923450946808,
                -0.22805890440940858,
                -0.15434804558753968,
                -0.9477922320365906,
                -3.4088916778564455,
                0.12484310567378998,
                1.9729282855987549,
                0.5236610770225525,
                1.0983315706253052,
                0.6216945052146912,
                0.9815827012062073,
                -0.06265683472156525,
                0.3869248330593109,
                0.31084904074668887,
                -0.6485282778739929,
                -0.7444301247596741,
                1.304383397102356,
                1.0391589403152466,
                -0.37254196405410769,
                -1.17070734500885,
                0.21182337403297425,
                -2.231750965118408,
                -1.1024141311645508,
                -1.2069298028945923,
                0.905958354473114,
                0.2439594566822052,
                -1.1425563097000123,
                -1.9356896877288819,
                -0.36358585953712466,
                0.34191542863845827,
                -0.17489632964134217,
                -0.00521869957447052,
                1.1425247192382813,
                -0.2165704369544983,
                1.0207014083862305,
                0.0551358163356781,
                0.5133391618728638,
                -1.9755973815917969,
                -0.18290963768959046,
                -1.0863797664642335,
                -0.9159421920776367,
                0.24134209752082826,
                1.5818122625350953,
                -2.1271016597747804,
                0.7743810415267944,
                -2.383005380630493,
                0.5778452754020691,
                -1.0080114603042603,
                -0.7193827033042908,
                -0.28156426548957827,
                2.06807541847229,
                -0.8451234698295593,
                -0.04495787248015404,
                -0.8598617911338806,
                -0.8464598059654236,
                -1.685619831085205,
                -1.9849097728729249,
                0.7624850273132324
            ],
            "fitness": 42.87690734863281,
            "npcType": 1,
            "outputLockStatus": [
                false,
                false,
                false,
                false
            ]
        },
        {
            "layers": [
                8,
                8,
                6,
                4
            ],
            "flattenedWeights": [
                -0.8788200616836548,
                1.2997689247131348,
                2.0452399253845217,
                -0.2508436143398285,
                2.1902127265930177,
                1.238181710243225,
                -1.7068743705749512,
                -1.3191555738449097,
                1.575628638267517,
                0.27944597601890566,
                0.48560085892677309,
                -0.07174208760261536,
                -1.5328788757324219,
                0.4431326389312744,
                0.8300430774688721,
                -0.22464805841445924,
                2.6525185108184816,
                -0.5348381996154785,
                0.14258381724357606,
                0.3519492447376251,
                0.22542138397693635,
                -0.8810953497886658,
                0.19025810062885285,
                0.4340530037879944,
                -0.9117189049720764,
                0.14926530420780183,
                -0.07316015660762787,
                -1.0143283605575562,
                -1.8387682437896729,
                -0.013097479939460755,
                0.6191139221191406,
                1.6645362377166749,
                -2.081981658935547,
                0.2387091964483261,
                1.1805949211120606,
                -0.2374531328678131,
                -0.48086339235305788,
                1.1631522178649903,
                -0.9984778165817261,
                -0.29535531997680666,
                0.952844500541687,
                -2.090839385986328,
                -0.9523036479949951,
                -2.2226223945617677,
                0.4083419144153595,
                -0.5654194951057434,
                1.2975705862045289,
                -1.1498994827270508,
                -1.3084163665771485,
                -1.0103189945220948,
                0.3384168744087219,
                -1.8328361511230469,
                -4.647813320159912,
                -1.4936705827713013,
                0.16740819811820985,
                -0.1912759244441986,
                1.9001778364181519,
                0.5790984034538269,
                0.22000813484191895,
                1.6091444492340088,
                -0.7249272465705872,
                -3.581709861755371,
                -0.8154875040054321,
                1.8268229961395264,
                -0.3806076943874359,
                1.5572474002838135,
                0.4303053617477417,
                -0.45960262417793276,
                -0.8620110750198364,
                -0.400508850812912,
                1.2561417818069459,
                1.453805923461914,
                1.402316689491272,
                -0.8957520723342896,
                0.6183751225471497,
                -0.5218976736068726,
                -1.5699880123138428,
                -1.1625829935073853,
                0.5792332887649536,
                -0.3294508159160614,
                -0.27587154507637026,
                -0.8800325393676758,
                -3.3680803775787355,
                0.07011854648590088,
                1.994498610496521,
                0.4809231162071228,
                1.0879721641540528,
                0.6216945052146912,
                1.0162328481674195,
                -0.11272595822811127,
                0.5362074971199036,
                0.31084904074668887,
                -0.48494255542755129,
                -0.8108974099159241,
                1.3769394159317017,
                0.9092741012573242,
                -0.0798332542181015,
                -0.851092517375946,
                0.21182337403297425,
                -2.504511594772339,
                -1.1024141311645508,
                -1.2346563339233399,
                0.8219077587127686,
                0.4479042887687683,
                -1.234363079071045,
                -1.977445125579834,
                -0.31899699568748476,
                0.07164473831653595,
                -0.029492102563381196,
                -0.044657010585069659,
                1.0474971532821656,
                -0.30462637543678286,
                1.050403118133545,
                -0.01843874901533127,
                0.5273783206939697,
                -1.9382489919662476,
                -0.20436489582061768,
                -0.9967935681343079,
                -1.1985303163528443,
                0.25961586833000185,
                1.7990460395812989,
                -2.1227452754974367,
                0.7753828167915344,
                -2.35724139213562,
                0.7495177388191223,
                -0.9245540499687195,
                -0.7604283094406128,
                -0.23375675082206727,
                2.2864580154418947,
                -0.34997203946113589,
                0.027426384389400483,
                -0.7533683180809021,
                -0.841694176197052,
                -1.5242066383361817,
                -2.099311113357544,
                0.7900734543800354
            ],
            "fitness": 42.610843658447269,
            "npcType": 1,
            "outputLockStatus": [
                false,
                false,
                false,
                false
            ]
        }
    ],
    "timestamp": "2025-05-12 16:58:22"
}