{
    "generation": 345,
    "bestFitness": 0.0,
    "averageFitness": 0.0,
    "worstFitness": 0.0,
    "networks": [
        {
            "layers": [
                8,
                8,
                6,
                4
            ],
            "flattenedWeights": [
                -0.63707435131073,
                0.5894805788993836,
                1.439663290977478,
                0.8665250539779663,
                1.7122150659561158,
                0.6764882802963257,
                -1.2646541595458985,
                -1.0949079990386963,
                0.785908579826355,
                -0.3858942985534668,
                0.23954254388809205,
                -0.5837534666061401,
                -0.5194789171218872,
                0.2630155086517334,
                0.4289467930793762,
                -0.5810731649398804,
                0.9549223780632019,
                -0.15355361998081208,
                -0.9589162468910217,
                0.047878414392471316,
                -0.3103809952735901,
                -0.8608516454696655,
                0.8442871570587158,
                0.4297277629375458,
                -1.7598257064819337,
                -0.3854348659515381,
                0.042296700179576877,
                -0.8126140832901001,
                -0.57611083984375,
                -0.12024983763694763,
                -0.1884494125843048,
                1.6538634300231934,
                -1.5038485527038575,
                0.8357767462730408,
                0.8975473046302795,
                -0.21623432636260987,
                -1.0322329998016358,
                -0.9843211770057678,
                -0.43063196539878847,
                -0.3568228483200073,
                0.33213791251182558,
                -1.3455111980438233,
                -0.311701238155365,
                -1.0281870365142823,
                -0.24586692452430726,
                -0.25552695989608767,
                0.6914792060852051,
                -1.0182427167892457,
                -0.7059224247932434,
                -0.598887026309967,
                0.696831464767456,
                -1.0887452363967896,
                -2.1449925899505617,
                -1.4581748247146607,
                0.5821963548660278,
                0.11122456938028336,
                1.8445433378219605,
                0.19395819306373597,
                0.37435123324394228,
                0.8848263025283814,
                -0.40635722875595095,
                -1.5212382078170777,
                -0.13581717014312745,
                0.7783403396606445,
                -0.5464576482772827,
                0.9992260336875916,
                0.03958369046449661,
                0.22784745693206788,
                -0.11287247389554978,
                -0.19071638584136964,
                0.5248409509658814,
                0.3906345069408417,
                1.7225935459136963,
                -0.8610421419143677,
                -0.28837230801582339,
                -0.3696768879890442,
                -1.0816410779953004,
                -0.29091212153434756,
                0.6781260371208191,
                1.0166435241699219,
                -0.06473854184150696,
                -0.7489502429962158,
                -2.2221763134002687,
                0.17614667117595673,
                1.460432767868042,
                0.025855720043182374,
                0.7529670000076294,
                0.5929147005081177,
                0.818240225315094,
                -1.0860803127288819,
                0.3989599943161011,
                -0.11332757025957108,
                -0.27780091762542727,
                -0.6114280223846436,
                -0.156855046749115,
                0.13285964727401734,
                0.0014137551188468934,
                -0.8734509348869324,
                0.08783753961324692,
                -0.7276662588119507,
                -1.6925395727157593,
                -0.8841181397438049,
                0.47224199771881106,
                -0.4627392590045929,
                -0.793144702911377,
                -1.0785727500915528,
                -1.594462275505066,
                0.4994211792945862,
                1.1048294305801392,
                -0.6415747404098511,
                0.968629002571106,
                -0.6316829323768616,
                0.6392776966094971,
                1.155684232711792,
                0.952890932559967,
                -0.8721022009849548,
                0.774882972240448,
                -0.9545995593070984,
                -0.04730912297964096,
                0.6951942443847656,
                0.9582108855247498,
                -2.12920880317688,
                0.008419077843427658,
                -2.1091089248657228,
                0.8438928127288818,
                -0.18233075737953187,
                -0.564227819442749,
                -0.1950741857290268,
                1.4920575618743897,
                -0.02470552548766136,
                -1.0628530979156495,
                -0.5620702505111694,
                -0.7369180917739868,
                -0.9419906735420227,
                -1.8302816152572632,
                -0.1623193323612213
            ],
            "fitness": 0.0,
            "npcType": 1,
            "outputLockStatus": [
                false,
                false,
                false,
                false
            ]
        },
        {
            "layers": [
                8,
                8,
                6,
                4
            ],
            "flattenedWeights": [
                -0.19064968824386598,
                1.333737850189209,
                -0.8211524486541748,
                -0.43556123971939089,
                -0.32273226976394656,
                0.5305835604667664,
                1.3862652778625489,
                0.8131740689277649,
                1.0737069845199586,
                0.2920241951942444,
                -2.250154495239258,
                -1.2579169273376465,
                1.6418565511703492,
                -0.17789766192436219,
                -1.4486277103424073,
                -0.051924705505371097,
                -0.5396966934204102,
                0.7704421877861023,
                -1.1376973390579224,
                0.14131568372249604,
                -0.2771313190460205,
                0.9484962821006775,
                0.38937312364578249,
                0.3187253177165985,
                -0.6507871150970459,
                -0.2552410960197449,
                -0.4719204902648926,
                -1.072573184967041,
                0.9144647121429443,
                0.7521598935127258,
                -0.45310571789741518,
                -0.11682990193367005,
                -0.4932558536529541,
                0.5191583037376404,
                -0.0014356598258018494,
                0.3700495958328247,
                0.2485204041004181,
                0.9234055876731873,
                1.4030799865722657,
                -0.9512990117073059,
                -0.12834107875823975,
                -1.6376721858978272,
                0.18454888463020326,
                -0.010115854442119599,
                0.1848001331090927,
                1.0665283203125,
                1.106608271598816,
                -0.6764436960220337,
                -0.49090927839279177,
                0.8492602705955505,
                0.6883664131164551,
                0.244245246052742,
                0.540707528591156,
                0.2696946859359741,
                0.18140733242034913,
                -1.119958758354187,
                0.8747254610061646,
                0.6465585231781006,
                1.1826858520507813,
                0.13249193131923676,
                1.855607271194458,
                0.6878601908683777,
                0.11785686016082764,
                -0.9607704281806946,
                -0.2397095113992691,
                1.6083365678787232,
                0.10997683554887772,
                -0.7158923745155335,
                0.13397285342216493,
                -1.0796791315078736,
                1.062079906463623,
                -1.117492437362671,
                -0.6264292597770691,
                0.5856876373291016,
                0.9047348499298096,
                -0.5490913987159729,
                -0.05021890625357628,
                -1.2463175058364869,
                0.1006559282541275,
                -1.1847114562988282,
                0.24813181161880494,
                0.8348631262779236,
                -0.49687618017196658,
                -0.3902173936367035,
                0.30838754773139956,
                0.9394977688789368,
                0.23288986086845399,
                -0.13091088831424714,
                -0.1432768702507019,
                1.0406031608581544,
                0.2261887788772583,
                -0.40199899673461916,
                -0.36028897762298586,
                1.705796241760254,
                1.085302472114563,
                0.45561251044273379,
                0.2513582110404968,
                0.8803110718727112,
                -0.11054565757513046,
                0.0570184625685215,
                -0.6835224628448486,
                -1.914289951324463,
                0.6923285126686096,
                1.3225009441375733,
                -1.3574721813201905,
                -0.7166999578475952,
                -1.7341076135635377,
                0.09739907830953598,
                -0.5803828835487366,
                -1.26123046875,
                -0.9339115023612976,
                0.5632202625274658,
                -0.10111692547798157,
                0.5325106382369995,
                0.26394525170326235,
                -0.695894181728363,
                -0.17744022607803346,
                1.782958984375,
                -0.5251576900482178,
                0.20233426988124848,
                0.5921338200569153,
                -1.1766847372055054,
                0.37586113810539248,
                0.339101105928421,
                -0.30949175357818606,
                0.40409114956855776,
                -1.6236307621002198,
                0.11475887149572373,
                -0.24450978636741639,
                0.607873260974884,
                -0.03340921550989151,
                -0.9777786731719971,
                1.5929583311080933,
                0.4316328465938568,
                0.9159530401229858,
                0.3951505124568939
            ],
            "fitness": 0.0,
            "npcType": 0,
            "outputLockStatus": [
                false,
                false,
                false,
                false
            ]
        },
        {
            "layers": [
                8,
                8,
                6,
                4
            ],
            "flattenedWeights": [
                -0.63707435131073,
                0.5882725119590759,
                1.42068612575531,
                0.7722845077514648,
                1.805455207824707,
                0.6764882802963257,
                -1.2646541595458985,
                -0.9582021832466126,
                0.8052310347557068,
                -0.3958740234375,
                0.22335684299468995,
                -0.5837534666061401,
                -0.5594586133956909,
                0.2800716459751129,
                0.3271612226963043,
                -0.5810731649398804,
                0.9687693119049072,
                -0.06690691411495209,
                -0.7986988425254822,
                -0.10539980977773667,
                -0.36057284474372866,
                -0.9666295051574707,
                1.0397462844848633,
                0.4297277629375458,
                -1.8659539222717286,
                -0.357436865568161,
                0.03538546338677406,
                -0.6824421286582947,
                -0.5694400668144226,
                -0.02734992280602455,
                -0.1884494125843048,
                1.664438247680664,
                -1.4644474983215333,
                0.8193135857582092,
                0.8214545845985413,
                -0.21245026588439942,
                -0.8879492878913879,
                -0.9709011316299439,
                -0.4226939380168915,
                -0.2310071885585785,
                0.20238974690437318,
                -1.3274037837982178,
                -0.397235631942749,
                -1.1143263578414918,
                -0.24586692452430726,
                -0.2665133476257324,
                0.7066314220428467,
                -0.9375753402709961,
                -0.8051205277442932,
                -0.592015266418457,
                0.560924768447876,
                -1.0731819868087769,
                -2.2444331645965578,
                -1.4043669700622559,
                0.4369834065437317,
                0.1725689321756363,
                1.8083566427230836,
                0.19395819306373597,
                0.3531606197357178,
                0.9040587544441223,
                -0.4196007251739502,
                -1.5917513370513917,
                -0.2750222682952881,
                0.7925727367401123,
                -0.5424066185951233,
                0.9992260336875916,
                0.010307744145393372,
                0.28421416878700259,
                0.008854657411575318,
                -0.3460642397403717,
                0.38170742988586428,
                0.24571320414543153,
                1.6143581867218018,
                -0.8394196629524231,
                -0.28837230801582339,
                -0.3696768879890442,
                -1.1357855796813965,
                -0.5404799580574036,
                0.6642301082611084,
                0.8847607970237732,
                -0.09714358299970627,
                -0.6667874455451965,
                -2.1491892337799074,
                0.2709417939186096,
                1.2735416889190674,
                -0.05248347669839859,
                0.7101066708564758,
                0.6767059564590454,
                0.7812456488609314,
                -1.3135809898376465,
                0.2550797462463379,
                -0.09567883610725403,
                -0.17102186381816865,
                -0.6448008418083191,
                0.016353964805603029,
                0.19331522285938264,
                -0.10001824051141739,
                -0.869005560874939,
                0.12480370700359345,
                -0.7276662588119507,
                -1.6601779460906983,
                -1.0217564105987549,
                0.3846324384212494,
                -0.5961579084396362,
                -0.7502216100692749,
                -1.1623722314834595,
                -1.2678998708724976,
                0.4994211792945862,
                0.8831756711006165,
                -0.6027204990386963,
                0.9629160761833191,
                -0.4702739119529724,
                0.5394931435585022,
                1.1555683612823487,
                0.952890932559967,
                -0.899168074131012,
                0.4084739685058594,
                -0.9754298329353333,
                -0.09634874016046524,
                0.5972610712051392,
                0.9118214249610901,
                -2.12920880317688,
                0.0037939362227916719,
                -1.9461026191711426,
                0.7103476524353027,
                -0.26179268956184389,
                -0.5907690525054932,
                -0.10060375183820725,
                1.4537739753723145,
                -0.1961696445941925,
                -1.0348268747329713,
                -0.6379831433296204,
                -0.7470961213111877,
                -1.0150761604309083,
                -1.8160786628723145,
                -0.28278249502182009
            ],
            "fitness": 0.0,
            "npcType": 1,
            "outputLockStatus": [
                false,
                false,
                false,
                false
            ]
        },
        {
            "layers": [
                8,
                8,
                6,
                4
            ],
            "flattenedWeights": [
                -0.3400961458683014,
                0.6414963006973267,
                1.5500688552856446,
                0.6325742602348328,
                1.7122150659561158,
                0.6764882802963257,
                -1.2179564237594605,
                -0.8876050114631653,
                0.8371216654777527,
                -0.3858942985534668,
                0.532670795917511,
                -0.41954511404037478,
                -0.5594586133956909,
                0.12972630560398103,
                0.48509031534194949,
                -0.6272671818733215,
                0.9687693119049072,
                -0.09611619263887406,
                -0.8561725616455078,
                0.02438831701874733,
                -0.36057284474372866,
                -0.9485735893249512,
                0.94353848695755,
                0.32929322123527529,
                -1.8005789518356324,
                -0.3449042737483978,
                -0.024282723665237428,
                -0.7669716477394104,
                -0.5694400668144226,
                -0.13234364986419679,
                -0.22505073249340058,
                1.6538634300231934,
                -1.3772399425506592,
                0.9342731833457947,
                0.7058070302009583,
                -0.22855421900749207,
                -1.0244617462158204,
                -0.8985469341278076,
                -0.48683860898017886,
                0.04493002966046333,
                0.20238974690437318,
                -1.3685157299041749,
                -0.41137751936912539,
                -1.1143263578414918,
                -0.2884632349014282,
                -0.3410564661026001,
                0.7437455654144287,
                -0.9375753402709961,
                -0.7463618516921997,
                -0.6674977540969849,
                0.8542270660400391,
                -1.0090357065200806,
                -2.111218214035034,
                -1.473206639289856,
                0.4875868856906891,
                0.18695051968097688,
                1.8083566427230836,
                0.27529725432395937,
                0.3217727839946747,
                0.9040587544441223,
                -0.4196007251739502,
                -1.5212382078170777,
                -0.08395428210496903,
                0.8070194125175476,
                -0.5424066185951233,
                0.9646417498588562,
                -0.05740600824356079,
                0.3363606929779053,
                0.008854657411575318,
                -0.2501659095287323,
                0.4078574776649475,
                0.38716351985931399,
                1.726973533630371,
                -0.8403835296630859,
                -0.28837230801582339,
                -0.37085413932800295,
                -1.1789888143539429,
                -0.3619784116744995,
                0.6300638318061829,
                0.9611673951148987,
                -0.1340540647506714,
                -0.6637913584709168,
                -2.0952706336975099,
                0.15680533647537232,
                1.2640658617019654,
                -0.01935664564371109,
                0.7895258665084839,
                0.6760159730911255,
                0.7128850817680359,
                -1.2827202081680298,
                0.32309019565582278,
                -0.012142948806285859,
                -0.25845444202423098,
                -0.5544342994689941,
                -0.06862783432006836,
                0.24509850144386292,
                -0.07589103281497956,
                -0.8734509348869324,
                0.22010403871536256,
                -0.6074376702308655,
                -1.7363898754119874,
                -0.8870332837104797,
                0.48003852367401125,
                -0.5275574326515198,
                -0.7691014409065247,
                -1.1770374774932862,
                -1.2519469261169434,
                0.4994211792945862,
                1.0900766849517823,
                -0.6027204990386963,
                0.8498064279556274,
                -0.3862059414386749,
                0.5213072896003723,
                0.982444703578949,
                0.9881759881973267,
                -0.864748477935791,
                0.7344098091125488,
                -0.8523886203765869,
                -0.12336720526218414,
                0.6010131239891052,
                1.0694546699523926,
                -2.197539806365967,
                0.04266546294093132,
                -2.0225298404693605,
                0.8776816129684448,
                -0.1373021900653839,
                -0.48200666904449465,
                -0.11682488024234772,
                1.5222766399383546,
                -0.1961696445941925,
                -1.0265692472457886,
                -0.597366452217102,
                -0.5944657921791077,
                -1.0310814380645753,
                -1.9370262622833253,
                -0.25335314869880679
            ],
            "fitness": 0.0,
            "npcType": 1,
            "outputLockStatus": [
                false,
                false,
                false,
                false
            ]
        },
        {
            "layers": [
                8,
                8,
                6,
                4
            ],
            "flattenedWeights": [
                -0.63707435131073,
                0.6414963006973267,
                1.4332019090652466,
                0.6161698698997498,
                1.805455207824707,
                0.6665796637535095,
                -1.3379117250442505,
                -1.0780020952224732,
                0.7069367170333862,
                -0.31697097420692446,
                0.23954254388809205,
                -0.5167903900146484,
                -0.5856547355651856,
                0.36657729744911196,
                0.26007887721061709,
                -0.5468873977661133,
                0.9687693119049072,
                -0.07917236536741257,
                -0.9589162468910217,
                -0.012655749917030335,
                -0.3937202990055084,
                -0.8385237455368042,
                0.8616625070571899,
                0.32929322123527529,
                -1.8005789518356324,
                -0.5636768341064453,
                -0.0603061318397522,
                -0.7919634580612183,
                -0.7063949108123779,
                -0.19252413511276246,
                -0.32599690556526186,
                1.6294200420379639,
                -1.534964680671692,
                0.7461363077163696,
                0.7047675251960754,
                -0.27463436126708987,
                -1.0244617462158204,
                -0.9180704951286316,
                -0.4134545624256134,
                -0.3039182126522064,
                0.14011576771736146,
                -1.2703574895858765,
                -0.32613661885261538,
                -1.1380443572998047,
                -0.20131732523441316,
                -0.2559020519256592,
                0.7066314220428467,
                -0.9419955611228943,
                -0.7471704483032227,
                -0.7011831998825073,
                0.729790985584259,
                -1.064751386642456,
                -2.111218214035034,
                -1.4354671239852906,
                0.5175665020942688,
                0.12578386068344117,
                1.9555575847625733,
                0.27529725432395937,
                0.4899628162384033,
                0.8673372268676758,
                -0.3262002766132355,
                -1.5212382078170777,
                -0.21766993403434754,
                0.8070194125175476,
                -0.5524227023124695,
                0.9961639046669006,
                -0.08565498888492584,
                0.31928688287734988,
                -0.13751906156539918,
                -0.1777181327342987,
                0.6081506013870239,
                0.2718154788017273,
                1.6921665668487549,
                -0.8917847871780396,
                -0.28837230801582339,
                -0.3696768879890442,
                -1.0816410779953004,
                -0.4475848376750946,
                0.6059362292289734,
                0.9611673951148987,
                -0.0369071289896965,
                -0.850035548210144,
                -2.169402837753296,
                0.2709417939186096,
                1.2630271911621094,
                -0.029382426291704179,
                0.7612661719322205,
                0.6760159730911255,
                0.8174819946289063,
                -1.0824819803237916,
                0.363176167011261,
                0.010804276913404465,
                -0.08620753139257431,
                -0.6385190486907959,
                -0.061464689671993259,
                0.21185562014579774,
                -0.21618574857711793,
                -0.8407739996910095,
                0.03490685671567917,
                -0.6549498438835144,
                -1.6495174169540406,
                -0.9056519269943237,
                0.5726585984230042,
                -0.6036719679832459,
                -0.8805612325668335,
                -1.1184884309768677,
                -1.3085246086120606,
                0.4535362124443054,
                1.0634030103683472,
                -0.6649717092514038,
                0.9459401369094849,
                -0.5128260254859924,
                0.6781164407730103,
                1.071678876876831,
                0.9881759881973267,
                -0.8611471056938171,
                0.8334897756576538,
                -0.793145477771759,
                -0.09634874016046524,
                0.771202564239502,
                1.1503537893295289,
                -2.176987886428833,
                0.008419077843427658,
                -1.987874984741211,
                0.8142504096031189,
                -0.24247369170188905,
                -0.5231910943984985,
                -0.09878317266702652,
                1.59771728515625,
                -0.12323150038719177,
                -1.0265692472457886,
                -0.5754773616790772,
                -0.634326159954071,
                -0.9138693809509277,
                -1.648271083831787,
                -0.16050952672958375
            ],
            "fitness": 0.0,
            "npcType": 1,
            "outputLockStatus": [
                false,
                false,
                false,
                false
            ]
        },
        {
            "layers": [
                8,
                8,
                6,
                4
            ],
            "flattenedWeights": [
                -0.4978012144565582,
                0.6414963006973267,
                1.5296101570129395,
                0.6903852820396423,
                1.7122150659561158,
                0.6665796637535095,
                -1.3379117250442505,
                -1.0949079990386963,
                0.7821668386459351,
                -0.3996374309062958,
                0.4892936646938324,
                -0.5295003056526184,
                -0.5194789171218872,
                0.2630155086517334,
                0.36935150623321535,
                -0.5810731649398804,
                1.0885341167449952,
                -0.040743060410022739,
                -0.9217919707298279,
                0.047878414392471316,
                -0.3383147716522217,
                -0.8385237455368042,
                0.9523962736129761,
                0.4297277629375458,
                -1.7598257064819337,
                -0.48641902208328249,
                0.12036964297294617,
                -0.7919634580612183,
                -0.7934350967407227,
                -0.12135212868452072,
                -0.22793647646903993,
                1.6901483535766602,
                -1.3552066087722779,
                0.7461363077163696,
                0.8975473046302795,
                -0.21623432636260987,
                -1.0181190967559815,
                -0.911718487739563,
                -0.4134545624256134,
                -0.18907208740711213,
                0.14011576771736146,
                -1.255262017250061,
                -0.384922057390213,
                -1.1380443572998047,
                -0.25182634592056277,
                -0.3410564661026001,
                0.6519286632537842,
                -1.0182427167892457,
                -0.7059224247932434,
                -0.598887026309967,
                0.696831464767456,
                -0.9634961485862732,
                -2.227830410003662,
                -1.4581748247146607,
                0.5553120970726013,
                0.043238140642642978,
                1.9555575847625733,
                0.27529725432395937,
                0.4899628162384033,
                0.872671902179718,
                -0.40635722875595095,
                -1.3023731708526612,
                -0.21766993403434754,
                0.8070194125175476,
                -0.4777761399745941,
                0.9296520352363586,
                -0.05610351264476776,
                0.28797468543052676,
                -0.19202090799808503,
                -0.2501659095287323,
                0.5589163899421692,
                0.3647625744342804,
                1.694229006767273,
                -1.0640356540679932,
                -0.3397459387779236,
                -0.3696768879890442,
                -1.0997729301452637,
                -0.29091212153434756,
                0.6781260371208191,
                0.8242376446723938,
                -0.06473854184150696,
                -0.7489502429962158,
                -2.1491892337799074,
                0.4683428108692169,
                1.5632011890411378,
                -0.05248347669839859,
                0.8407188653945923,
                0.6767059564590454,
                0.8196567893028259,
                -1.0860803127288819,
                0.2652852535247803,
                -0.09567883610725403,
                -0.03287921100854874,
                -0.6385190486907959,
                -0.12568330764770509,
                0.14352668821811677,
                -0.02957167476415634,
                -0.9671044945716858,
                0.06174597889184952,
                -0.6549498438835144,
                -1.7192261219024659,
                -0.8448233008384705,
                0.5202453136444092,
                -0.6847261786460877,
                -0.793144702911377,
                -1.0785727500915528,
                -1.250038981437683,
                0.4994211792945862,
                1.1048294305801392,
                -0.6027204990386963,
                0.9253909587860107,
                -0.6316829323768616,
                0.6392776966094971,
                1.1129919290542603,
                0.952890932559967,
                -0.899168074131012,
                0.774882972240448,
                -0.9358972907066345,
                -0.04730912297964096,
                0.7342883944511414,
                1.0316473245620728,
                -2.183713674545288,
                0.012413021177053452,
                -1.995009422302246,
                0.8146471381187439,
                -0.18233075737953187,
                -0.5706669688224793,
                -0.1950741857290268,
                1.5219308137893677,
                -0.07806548476219177,
                -1.0628530979156495,
                -0.597366452217102,
                -0.634326159954071,
                -1.0341870784759522,
                -1.8524448871612549,
                -0.1623193323612213
            ],
            "fitness": 0.0,
            "npcType": 1,
            "outputLockStatus": [
                false,
                false,
                false,
                false
            ]
        },
        {
            "layers": [
                8,
                8,
                6,
                4
            ],
            "flattenedWeights": [
                -0.5591753721237183,
                0.5157451629638672,
                1.4925711154937745,
                0.8292593359947205,
                1.805455207824707,
                0.6717965602874756,
                -1.1380265951156617,
                -1.076680302619934,
                0.9360242486000061,
                -0.3858942985534668,
                0.2484285831451416,
                -0.4574887156486511,
                -0.5281043648719788,
                0.03986462205648422,
                0.48254016041755679,
                -0.5682012438774109,
                1.0154109001159669,
                -0.06119874492287636,
                -1.0560675859451295,
                -0.10912280529737473,
                -0.4601740539073944,
                -0.9234600067138672,
                0.9143553972244263,
                0.34856346249580386,
                -1.8659539222717286,
                -0.3354085087776184,
                0.11945223063230515,
                -0.7263216376304627,
                -0.5941375494003296,
                -0.2206418216228485,
                -0.2869285047054291,
                1.7052828073501588,
                -1.4644474983215333,
                0.855158805847168,
                0.8112812638282776,
                -0.28869664669036868,
                -0.9505308866500855,
                -0.9709011316299439,
                -0.5697447061538696,
                -0.1827036738395691,
                0.1693376749753952,
                -1.3590600490570069,
                -0.3582027554512024,
                -1.0930414199829102,
                -0.24586692452430726,
                -0.3410564661026001,
                0.6945704221725464,
                -0.8268097043037415,
                -0.6809751391410828,
                -0.6772686243057251,
                0.6287662982940674,
                -1.0953530073165894,
                -2.1175475120544435,
                -1.509529709815979,
                0.48748865723609927,
                0.08271033316850662,
                1.908706784248352,
                0.369834840297699,
                0.3385585844516754,
                0.9819690585136414,
                -0.4332886338233948,
                -1.2173707485198975,
                -0.03387055546045303,
                0.8715580105781555,
                -0.5741000175476074,
                0.8683294653892517,
                -0.07295406609773636,
                0.296353816986084,
                -0.12543682754039765,
                -0.26714757084846499,
                0.552049994468689,
                0.39533841609954836,
                1.694229006767273,
                -1.0336031913757325,
                -0.31984665989875796,
                -0.37347474694252016,
                -1.1274422407150269,
                -0.280982106924057,
                0.7193935513496399,
                0.9611673951148987,
                -0.16799724102020265,
                -0.4730597734451294,
                -2.0758025646209719,
                0.3401879072189331,
                1.419193983078003,
                0.017209284007549287,
                0.9284998774528503,
                0.8143612742424011,
                0.8777413368225098,
                -1.1228399276733399,
                0.30578944087028506,
                0.02845706045627594,
                -0.10183148086071015,
                -0.5367857813835144,
                0.008380740880966187,
                0.2510927617549896,
                -0.11988592147827149,
                -0.9161034226417542,
                0.16529081761837007,
                -0.8104377388954163,
                -1.7363898754119874,
                -0.920912504196167,
                0.5726585984230042,
                -0.5767989158630371,
                -0.8842527270317078,
                -1.0233031511306763,
                -1.1432771682739258,
                0.4994211792945862,
                0.848678708076477,
                -0.3848552703857422,
                0.7289031744003296,
                -0.5548925995826721,
                0.6029285192489624,
                1.1161869764328004,
                1.0290734767913819,
                -0.8014715909957886,
                0.9044965505599976,
                -1.0063707828521729,
                -0.12336720526218414,
                0.6463813185691834,
                1.110969066619873,
                -2.2635908126831056,
                0.08210945129394531,
                -2.0818018913269045,
                0.8469083309173584,
                -0.14502264559268952,
                -0.5322657823562622,
                -0.26131871342658999,
                1.5034106969833375,
                -0.1961696445941925,
                -1.1106480360031129,
                -0.6696525812149048,
                -0.6514559984207153,
                -1.047998309135437,
                -1.747567892074585,
                -0.14451864361763
            ],
            "fitness": 0.0,
            "npcType": 1,
            "outputLockStatus": [
                false,
                false,
                false,
                false
            ]
        },
        {
            "layers": [
                8,
                8,
                6,
                4
            ],
            "flattenedWeights": [
                -0.63707435131073,
                0.679839551448822,
                1.5296101570129395,
                0.6279257535934448,
                1.805455207824707,
                0.7566294074058533,
                -1.2646541595458985,
                -0.9969568848609924,
                0.9568624496459961,
                -0.3858942985534668,
                0.15323710441589356,
                -0.5593780279159546,
                -0.6444523334503174,
                0.1392756998538971,
                0.4472862482070923,
                -0.6146554350852966,
                0.9322834610939026,
                -0.06690691411495209,
                -1.0530167818069459,
                -0.10539980977773667,
                -0.20232999324798585,
                -0.980133056640625,
                1.0457677841186524,
                0.22658520936965943,
                -1.8082524538040162,
                -0.39073866605758669,
                0.03538546338677406,
                -0.7669716477394104,
                -0.6104453802108765,
                -0.16190952062606812,
                -0.1884494125843048,
                1.6538634300231934,
                -1.3772399425506592,
                0.768817663192749,
                0.8237634301185608,
                -0.2654370963573456,
                -1.011046290397644,
                -0.9709011316299439,
                -0.6737083792686462,
                -0.1827036738395691,
                0.23778602480888368,
                -1.2703574895858765,
                -0.41137751936912539,
                -1.1384186744689942,
                -0.24586692452430726,
                -0.3282676339149475,
                0.7066314220428467,
                -0.9375753402709961,
                -0.8051205277442932,
                -0.6772686243057251,
                0.6890529990196228,
                -1.1016089916229249,
                -2.2345309257507326,
                -1.3856698274612427,
                0.5347540378570557,
                0.17759710550308228,
                1.8978737592697144,
                0.17191502451896668,
                0.37435123324394228,
                0.9263700246810913,
                -0.40635722875595095,
                -1.2268099784851075,
                -0.2321459949016571,
                0.7925727367401123,
                -0.5410864949226379,
                0.9961639046669006,
                -0.10275556892156601,
                0.30088770389556887,
                -0.11287247389554978,
                -0.31212159991264346,
                0.4936278462409973,
                0.31944844126701357,
                1.595497727394104,
                -0.8786881566047669,
                -0.3136056959629059,
                -0.31044256687164309,
                -1.1589438915252686,
                -0.38641977310180666,
                0.708370566368103,
                0.8383136987686157,
                0.04440984129905701,
                -0.7050747871398926,
                -2.1491892337799074,
                0.4621987044811249,
                1.3637876510620118,
                -0.05248347669839859,
                0.7612661719322205,
                0.8108807802200317,
                0.7886655330657959,
                -1.3431066274642945,
                0.2550797462463379,
                -0.014807544648647309,
                -0.09949185699224472,
                -0.5600795745849609,
                -0.029634270817041398,
                0.3239915370941162,
                -0.0990491732954979,
                -0.8734509348869324,
                0.1709219217300415,
                -0.5564593076705933,
                -1.6472288370132447,
                -0.9946121573448181,
                0.5842834115028381,
                -0.5275574326515198,
                -0.8827380537986755,
                -1.0185242891311646,
                -1.2099840641021729,
                0.5614703297615051,
                0.9252151846885681,
                -0.6570826172828674,
                0.9629160761833191,
                -0.525286853313446,
                0.6918312907218933,
                1.0765656232833863,
                0.8929426074028015,
                -0.899168074131012,
                0.7369152903556824,
                -0.9599199891090393,
                -0.09634874016046524,
                0.7365780472755432,
                0.8867427706718445,
                -2.159147024154663,
                0.009160060435533524,
                -2.0225298404693605,
                0.7346016764640808,
                -0.35044124722480776,
                -0.4922945499420166,
                -0.10625078529119492,
                1.5811944007873536,
                -0.1961696445941925,
                -1.076535940170288,
                -0.5279940366744995,
                -0.7741507291793823,
                -0.8941565155982971,
                -1.7379688024520875,
                -0.25335314869880679
            ],
            "fitness": 0.0,
            "npcType": 1,
            "outputLockStatus": [
                false,
                false,
                false,
                false
            ]
        },
        {
            "layers": [
                8,
                8,
                6,
                4
            ],
            "flattenedWeights": [
                -0.4978012144565582,
                0.5602017045021057,
                1.5296101570129395,
                0.6903852820396423,
                1.80963134765625,
                0.7149417400360107,
                -1.3188530206680298,
                -1.0370877981185914,
                0.8371216654777527,
                -0.43334710597991946,
                0.2602960467338562,
                -0.6517817378044128,
                -0.5856547355651856,
                0.2098124772310257,
                0.44463199377059939,
                -0.5810731649398804,
                0.9320833683013916,
                -0.09611619263887406,
                -0.8118682503700256,
                -0.05222620815038681,
                -0.36262717843055727,
                -0.9485735893249512,
                1.0105788707733155,
                0.4109649956226349,
                -1.8784664869308472,
                -0.3449042737483978,
                -0.04314729943871498,
                -0.759249210357666,
                -0.595859706401825,
                -0.24594412744045258,
                -0.1884494125843048,
                1.7283015251159669,
                -1.3140872716903687,
                0.8370130062103272,
                0.6133281588554382,
                -0.11003077030181885,
                -0.9875924587249756,
                -0.9709011316299439,
                -0.4962633550167084,
                -0.1827036738395691,
                0.20238974690437318,
                -1.2698415517807007,
                -0.44943419098854067,
                -1.1286804676055909,
                -0.20131732523441316,
                -0.3126067519187927,
                0.6061660051345825,
                -1.013017177581787,
                -0.8570612668991089,
                -0.6772686243057251,
                0.6441793441772461,
                -1.0948257446289063,
                -2.111218214035034,
                -1.4358729124069214,
                0.5091509819030762,
                0.13224342465400697,
                1.7829649448394776,
                0.246992826461792,
                0.2567754089832306,
                0.843684732913971,
                -0.4196007251739502,
                -1.5212382078170777,
                -0.15521220862865449,
                0.8195585608482361,
                -0.5874294638633728,
                0.9296520352363586,
                0.015145651996135712,
                0.3456823527812958,
                -0.1658906638622284,
                -0.2501659095287323,
                0.6391276121139526,
                0.370402067899704,
                1.694229006767273,
                -0.8988713026046753,
                -0.47720134258270266,
                -0.4155040979385376,
                -1.2438185214996338,
                -0.5404799580574036,
                0.7151100635528565,
                0.9611673951148987,
                -0.15816348791122437,
                -0.7556480765342712,
                -2.15289044380188,
                0.31090474128723147,
                1.358459711074829,
                0.00768163800239563,
                0.7838924527168274,
                0.7710875272750855,
                0.8736823797225952,
                -1.1124908924102784,
                0.33070531487464907,
                -0.012142948806285859,
                -0.22945451736450196,
                -0.5120829939842224,
                -0.0012962482869625092,
                0.22434000670909882,
                -0.11988592147827149,
                -0.9857532382011414,
                0.19962053000926972,
                -0.6294835805892944,
                -1.7997263669967652,
                -0.9056519269943237,
                0.4410824179649353,
                -0.6146141886711121,
                -0.793144702911377,
                -1.0134016275405884,
                -1.5960904359817505,
                0.4994211792945862,
                1.1048294305801392,
                -0.45571964979171755,
                0.9629160761833191,
                -0.5638658404350281,
                0.5213072896003723,
                1.1409211158752442,
                0.952890932559967,
                -0.9603567123413086,
                0.8334897756576538,
                -0.9797114133834839,
                0.06700193881988526,
                0.6973263621330261,
                0.9761791825294495,
                -2.176987886428833,
                -0.03197717294096947,
                -2.0225298404693605,
                0.8650598526000977,
                -0.13258521258831025,
                -0.5849795937538147,
                -0.2559340298175812,
                1.5219308137893677,
                -0.09814463555812836,
                -1.0138331651687623,
                -0.46771240234375,
                -0.560671865940094,
                -1.0462872982025147,
                -1.7735774517059327,
                -0.22973355650901795
            ],
            "fitness": 0.0,
            "npcType": 1,
            "outputLockStatus": [
                false,
                false,
                false,
                false
            ]
        },
        {
            "layers": [
                8,
                8,
                6,
                4
            ],
            "flattenedWeights": [
                -0.46636638045310976,
                0.679839551448822,
                1.5296101570129395,
                0.8312307000160217,
                1.805455207824707,
                0.6764882802963257,
                -1.2646541595458985,
                -1.1143651008605958,
                0.6108872890472412,
                -0.3600178360939026,
                0.36589446663856509,
                -0.5593780279159546,
                -0.5856547355651856,
                0.2775594890117645,
                0.32368355989456179,
                -0.6082251071929932,
                0.8699759840965271,
                -0.09611619263887406,
                -0.9580069184303284,
                -0.012655749917030335,
                -0.37004923820495608,
                -0.9485735893249512,
                0.8866479396820068,
                0.2903408706188202,
                -1.7598257064819337,
                -0.35597848892211916,
                -0.03077143430709839,
                -0.7111997008323669,
                -0.6104453802108765,
                -0.2548566162586212,
                -0.45016294717788699,
                1.6267954111099244,
                -1.4949288368225098,
                0.9242108464241028,
                0.9273399710655212,
                -0.19495929777622224,
                -1.011046290397644,
                -0.9180704951286316,
                -0.5863173007965088,
                -0.1827036738395691,
                0.14011576771736146,
                -1.2703574895858765,
                -0.41137751936912539,
                -1.0642629861831666,
                -0.24586692452430726,
                -0.3282676339149475,
                0.7790998816490173,
                -0.8301944732666016,
                -0.7816168069839478,
                -0.6964675784111023,
                0.6040207147598267,
                -1.0887452363967896,
                -2.1867644786834719,
                -1.4581748247146607,
                0.586897075176239,
                0.18926702439785005,
                1.8808444738388062,
                0.14402642846107484,
                0.47008782625198367,
                0.9022386074066162,
                -0.40635722875595095,
                -1.5212382078170777,
                -0.18274980783462525,
                0.7925727367401123,
                -0.5403279066085815,
                0.9961639046669006,
                -0.10336480289697647,
                0.28421416878700259,
                -0.14996770024299622,
                -0.3412133753299713,
                0.4923172891139984,
                0.31944844126701357,
                1.6921665668487549,
                -0.8786881566047669,
                -0.3136056959629059,
                -0.3696768879890442,
                -1.0816410779953004,
                -0.4475848376750946,
                0.6642301082611084,
                0.7798749804496765,
                -0.05434005707502365,
                -0.7050747871398926,
                -2.1491892337799074,
                0.2709417939186096,
                1.2932602167129517,
                0.00768163800239563,
                0.7612661719322205,
                0.9030491709709168,
                0.7886655330657959,
                -1.3431066274642945,
                0.45293116569519045,
                0.046137552708387378,
                -0.17102186381816865,
                -0.6557321548461914,
                -0.029634270817041398,
                0.2522663474082947,
                -0.0990491732954979,
                -0.8407739996910095,
                0.03490685671567917,
                -0.5564593076705933,
                -1.576372504234314,
                -0.8097565770149231,
                0.6502252221107483,
                -0.4818386733531952,
                -0.8534978628158569,
                -1.0785727500915528,
                -1.1489973068237305,
                0.5892526507377625,
                1.1048294305801392,
                -0.5081090927124023,
                0.7182576656341553,
                -0.5548925995826721,
                0.6807616353034973,
                1.0765656232833863,
                1.0743045806884766,
                -0.899168074131012,
                0.7531670331954956,
                -1.0425907373428345,
                -0.09634874016046524,
                0.6872360110282898,
                1.1503537893295289,
                -2.194032669067383,
                0.008419077843427658,
                -1.987874984741211,
                0.8069809079170227,
                -0.11675906181335449,
                -0.4769006371498108,
                -0.19357754290103913,
                1.5094735622406006,
                -0.1961696445941925,
                -1.2038840055465699,
                -0.63458251953125,
                -0.6505967378616333,
                -0.9461451768875122,
                -1.8285577297210694,
                -0.10223251581192017
            ],
            "fitness": 0.0,
            "npcType": 1,
            "outputLockStatus": [
                false,
                false,
                false,
                false
            ]
        }
    ],
    "timestamp": "2025-05-12 15:07:41"
}