{
    "generation": 90,
    "bestFitness": 38.32965087890625,
    "averageFitness": 9.633509635925293,
    "worstFitness": 0.0,
    "networks": [
        {
            "layers": [
                8,
                8,
                6,
                4
            ],
            "flattenedWeights": [
                -0.35742831230163576,
                0.4190477132797241,
                1.0474438667297364,
                0.04293175786733627,
                0.898632824420929,
                0.27928227186203005,
                -0.75896155834198,
                -0.5976644158363342,
                -0.34552186727523806,
                -0.810761034488678,
                -0.11331413686275482,
                -1.1790498495101929,
                -0.07247531414031983,
                -0.3151763379573822,
                0.87639319896698,
                -1.7718507051467896,
                0.8481899499893189,
                -0.6944140791893005,
                -0.4580215811729431,
                -0.2861980199813843,
                -0.3827287554740906,
                -0.36586955189704897,
                1.329078197479248,
                -0.20790758728981019,
                -0.2981663942337036,
                -0.31649893522262576,
                -0.34294354915618899,
                -0.21384209394454957,
                0.06399110704660416,
                -0.37317293882369997,
                -0.547088086605072,
                0.37846481800079348,
                -0.23206834495067597,
                1.0336782932281495,
                0.5321975946426392,
                -0.14357927441596986,
                -0.6483168005943298,
                -0.7410318851470947,
                -1.4692273139953614,
                0.39028772711753847,
                0.4133344888687134,
                -0.7015479803085327,
                -0.853096604347229,
                -1.0343952178955079,
                0.2013113796710968,
                -0.6921176314353943,
                0.12913551926612855,
                -0.8347116112709045,
                -0.17181488871574403,
                0.2867799699306488,
                -0.20424902439117433,
                -0.5862380862236023,
                -1.5778238773345948,
                -0.20054036378860475,
                0.7177464365959168,
                0.20288681983947755,
                0.6888329982757568,
                -0.29441526532173159,
                0.0886690765619278,
                1.2090858221054078,
                -0.38789814710617068,
                -0.6981645226478577,
                0.12164753675460816,
                0.4806535542011261,
                -0.8848316073417664,
                0.6426162719726563,
                -0.7618853449821472,
                -0.4234827160835266,
                0.34541934728622439,
                0.12522239983081819,
                0.330150306224823,
                -0.6733704209327698,
                0.5960021615028381,
                -0.5496683716773987,
                0.3762502670288086,
                -0.3891248404979706,
                -0.22381657361984254,
                -0.3127562403678894,
                1.1280957460403443,
                0.4985535740852356,
                -0.4060998857021332,
                -0.09398968517780304,
                -1.1686359643936158,
                0.3984513580799103,
                1.1806259155273438,
                0.315673828125,
                0.665623664855957,
                0.2951548993587494,
                0.23482394218444825,
                -0.5234490633010864,
                0.7346794605255127,
                -0.5241457223892212,
                -0.5114508271217346,
                -0.877577543258667,
                -0.9823241233825684,
                0.714120090007782,
                -0.45260292291641238,
                -0.7284179925918579,
                0.08660566061735153,
                -0.5972485542297363,
                -0.2299998700618744,
                -0.3340283930301666,
                0.33234548568725588,
                0.08356375247240067,
                -0.03739231824874878,
                -0.34056732058525088,
                -0.8242565989494324,
                0.553509533405304,
                0.7855291366577148,
                -0.21826806664466859,
                0.6586309671401978,
                -0.7150824069976807,
                0.8100056052207947,
                0.571256160736084,
                0.6511988043785095,
                -0.8445716500282288,
                0.6613689661026001,
                -0.5950650572776794,
                -0.17327803373336793,
                0.7144761085510254,
                0.41594967246055605,
                -1.3562424182891846,
                0.2593749761581421,
                -1.4405183792114258,
                1.065803050994873,
                -0.3110361695289612,
                -0.43314671516418459,
                0.040189892053604129,
                1.2800127267837525,
                0.01865338534116745,
                -0.9252527952194214,
                -1.4051769971847535,
                -0.801714301109314,
                -0.2985345721244812,
                -0.9856463670730591,
                0.45567941665649416
            ],
            "fitness": 38.32965087890625,
            "npcType": 1,
            "outputLockStatus": [
                false,
                false,
                false,
                false
            ]
        },
        {
            "layers": [
                8,
                8,
                6,
                4
            ],
            "flattenedWeights": [
                -0.3274269104003906,
                0.18285873532295228,
                1.0474438667297364,
                0.04293175786733627,
                0.9470882415771484,
                0.27928227186203005,
                -1.052070140838623,
                -0.6164990067481995,
                -0.2768566608428955,
                -0.7920272946357727,
                -0.23271167278289796,
                -1.1531301736831666,
                -0.08489392697811127,
                -0.28815850615501406,
                0.87639319896698,
                -1.4893370866775513,
                0.828502357006073,
                -0.6645786166191101,
                -0.3910018801689148,
                -0.34595242142677309,
                -0.40269410610198977,
                -0.2592618763446808,
                1.3785090446472169,
                -0.1584341675043106,
                -0.35637086629867556,
                -0.31872954964637759,
                -0.37626945972442629,
                -0.2537444233894348,
                0.061152517795562747,
                -0.3738556206226349,
                -0.547088086605072,
                0.37846481800079348,
                -0.3753373920917511,
                0.947308361530304,
                0.46977972984313967,
                0.10759836435317993,
                -0.7275703549385071,
                -0.7398492693901062,
                -1.4692273139953614,
                0.5043321847915649,
                0.41995808482170107,
                -0.7189339995384216,
                -0.8722036480903626,
                -1.0343952178955079,
                0.1680874526500702,
                -0.7364585399627686,
                0.30852633714675906,
                -0.8609328866004944,
                -0.17181488871574403,
                0.3148325979709625,
                -0.18766310811042787,
                -0.6461214423179627,
                -1.5541983842849732,
                -0.5035301446914673,
                0.6916567087173462,
                0.17507855594158173,
                0.7011914849281311,
                -0.27700075507164,
                0.09505520015954972,
                1.1250097751617432,
                -0.29715779423713686,
                -0.7186511158943176,
                0.13815189898014069,
                0.5034294128417969,
                -0.919723629951477,
                0.6919913291931152,
                -0.7346587181091309,
                -0.3814643919467926,
                0.39893007278442385,
                0.09859328716993332,
                0.330150306224823,
                -0.48035991191864016,
                0.6776854395866394,
                -0.5116152167320252,
                0.33925655484199526,
                -0.39776915311813357,
                -0.21082621812820435,
                -0.27223140001296999,
                1.2090951204299927,
                0.514325737953186,
                -0.3484160006046295,
                -0.15495005249977113,
                -1.182496190071106,
                0.059588171541690829,
                1.0948100090026856,
                0.315673828125,
                0.7041508555412293,
                0.35558944940567019,
                0.23482394218444825,
                -0.5283942818641663,
                0.6849315166473389,
                -0.546435534954071,
                -0.557076096534729,
                -0.8214614987373352,
                -1.1392273902893067,
                0.610211968421936,
                -0.45556920766830447,
                -0.7381162047386169,
                0.18055827915668488,
                -0.726539134979248,
                0.07102055847644806,
                -0.2623394727706909,
                0.33234548568725588,
                0.1286264955997467,
                -0.07940388470888138,
                -0.3898540139198303,
                -0.7929450273513794,
                0.6629828810691834,
                0.6649070978164673,
                -0.30291441082954409,
                0.939024031162262,
                -0.6093714237213135,
                0.762189507484436,
                0.63453209400177,
                0.494722843170166,
                -0.7376846671104431,
                0.6876474022865295,
                -0.7158811688423157,
                0.0007258802652359009,
                0.7144761085510254,
                0.3198844790458679,
                -1.2702975273132325,
                0.05570691451430321,
                -1.5262428522109986,
                0.7529926300048828,
                -0.23408526182174684,
                -0.44676703214645388,
                0.07572346180677414,
                1.2852412462234498,
                0.08000089228153229,
                -0.9182178378105164,
                -1.350518822669983,
                -0.6896670460700989,
                -0.32065561413764956,
                -1.0275828838348389,
                0.30023500323295596
            ],
            "fitness": 34.93663024902344,
            "npcType": 1,
            "outputLockStatus": [
                false,
                false,
                false,
                false
            ]
        },
        {
            "layers": [
                8,
                8,
                6,
                4
            ],
            "flattenedWeights": [
                -0.7069464325904846,
                1.150017261505127,
                -0.6331679224967957,
                0.0016752704977989197,
                -0.34171921014785769,
                -0.004944916814565659,
                1.3317337036132813,
                0.41256192326545718,
                0.3520779609680176,
                0.10761677473783493,
                -1.1112760305404664,
                -0.5659242272377014,
                1.139472246170044,
                -0.16977526247501374,
                -1.1259925365447999,
                0.4584757685661316,
                -0.8331823348999023,
                1.0287898778915406,
                0.047631628811359408,
                0.6548283696174622,
                0.11850789934396744,
                0.23768359422683717,
                1.3245584964752198,
                1.1220380067825318,
                -0.9632980823516846,
                -0.43777188658714297,
                -0.29744577407836916,
                -0.7918533682823181,
                0.8866364359855652,
                1.1415356397628785,
                0.10218605399131775,
                -0.39593154191970827,
                -0.5515486598014832,
                0.41435283422470095,
                0.7381236553192139,
                0.6398829817771912,
                0.20392481982707978,
                0.8407549262046814,
                0.6793361306190491,
                -0.2289212942123413,
                0.2157616913318634,
                -0.8292272090911865,
                -0.4698371887207031,
                0.7419630885124207,
                0.6045737266540527,
                0.8933984637260437,
                0.5007250308990479,
                -1.2794170379638672,
                -0.1916208118200302,
                1.1453933715820313,
                0.22831737995147706,
                -0.266188383102417,
                -0.12313193082809448,
                0.3957178294658661,
                0.054716043174266818,
                -0.6177752017974854,
                0.17886888980865479,
                0.077341727912426,
                -0.06397291272878647,
                0.11284949630498886,
                0.8170112371444702,
                0.6319898962974548,
                -0.4566821753978729,
                -0.6337898373603821,
                -0.21855971217155457,
                0.852016031742096,
                0.8885553479194641,
                -0.6685165166854858,
                -0.4664008319377899,
                -0.46786078810691836,
                0.9298040270805359,
                -0.3981134593486786,
                -0.6446831822395325,
                0.979543149471283,
                0.33305519819259646,
                -0.7892553806304932,
                0.427177757024765,
                -0.7046301960945129,
                -0.3056420683860779,
                -0.7092352509498596,
                0.21674372255802155,
                0.781371533870697,
                0.1660507172346115,
                0.6030270457267761,
                0.1852213740348816,
                1.1485934257507325,
                0.4018680155277252,
                0.20433545112609864,
                -0.17126896977424622,
                1.227830410003662,
                0.49272817373275759,
                -0.3876655697822571,
                -0.8781339526176453,
                0.9060603380203247,
                0.4595741331577301,
                0.3080984354019165,
                0.773135244846344,
                0.8788691163063049,
                -0.06798184663057327,
                -0.045548610389232638,
                -0.651141881942749,
                -0.7813521027565002,
                1.1920762062072755,
                0.399129182100296,
                -0.879554808139801,
                -0.46452808380126955,
                -0.6456100344657898,
                0.555780291557312,
                -0.9689153432846069,
                -0.5835531949996948,
                -0.401070773601532,
                0.4210487902164459,
                -0.06549697369337082,
                0.43618446588516238,
                0.1692592203617096,
                -1.0494719743728638,
                0.9432395100593567,
                0.7649983167648315,
                -0.19634708762168885,
                0.3236176669597626,
                0.9409895539283752,
                -0.9300798773765564,
                0.04965838044881821,
                0.22775641083717347,
                0.2559124827384949,
                -0.21267837285995484,
                -0.6733343005180359,
                0.4196978509426117,
                -0.3396143615245819,
                0.5216656923294067,
                0.2872866690158844,
                -0.4825102984905243,
                0.7937904000282288,
                -0.8098145723342896,
                0.5465415716171265,
                0.14132604002952577
            ],
            "fitness": 34.933265686035159,
            "npcType": 0,
            "outputLockStatus": [
                false,
                false,
                false,
                false
            ]
        },
        {
            "layers": [
                8,
                8,
                6,
                4
            ],
            "flattenedWeights": [
                -0.3274269104003906,
                0.2905346751213074,
                0.9130167365074158,
                0.14797437191009522,
                0.9989489316940308,
                0.2770232558250427,
                -0.7551992535591126,
                -0.6303660869598389,
                -0.2768566608428955,
                -0.5349499583244324,
                -0.15070244669914246,
                -1.2032452821731568,
                -0.3029938042163849,
                -0.28815850615501406,
                0.9031115174293518,
                -1.5316874980926514,
                0.9790611863136292,
                -0.6513111591339111,
                -0.458869069814682,
                -0.37491491436958315,
                -0.4282870292663574,
                -0.31398871541023257,
                1.329078197479248,
                -0.060132138431072238,
                -0.27174264192581179,
                -0.29912784695625307,
                -0.2641211450099945,
                -0.3749453127384186,
                0.03969673812389374,
                -0.35327818989753725,
                -0.6835247278213501,
                0.34283965826034548,
                -0.5042333006858826,
                1.0336782932281495,
                0.40825945138931277,
                0.15408599376678468,
                -0.6606768369674683,
                -0.7411906719207764,
                -1.4345260858535767,
                0.5043321847915649,
                0.4133344888687134,
                -0.7811657786369324,
                -0.8722036480903626,
                -1.1760846376419068,
                0.1680874526500702,
                -0.544127881526947,
                0.10466500371694565,
                -0.9065079689025879,
                -0.03126557171344757,
                0.18542680144309998,
                -0.11763574928045273,
                -0.630372941493988,
                -1.5541983842849732,
                -0.5035301446914673,
                0.7380464673042297,
                0.26345691084861758,
                0.8305724859237671,
                -0.31030866503715517,
                0.09505520015954972,
                1.2090858221054078,
                -0.4876427948474884,
                -0.7186511158943176,
                0.16108551621437074,
                0.479381263256073,
                -0.8912627696990967,
                0.7564235329627991,
                -0.7346587181091309,
                -0.4782477617263794,
                0.42599815130233767,
                0.09859328716993332,
                0.330150306224823,
                -0.6272646188735962,
                0.6041625142097473,
                -0.5258712768554688,
                0.3788822591304779,
                -0.4617455303668976,
                -0.22102801501750947,
                -0.23627346754074098,
                1.1041669845581055,
                0.5366750359535217,
                -0.24261850118637086,
                -0.15495005249977113,
                -1.1719681024551392,
                0.30459341406822207,
                1.1806259155273438,
                0.4430610239505768,
                0.8309816718101502,
                0.35558944940567019,
                0.45160791277885439,
                -0.44854262471199038,
                0.7270957827568054,
                -0.5807632207870483,
                -0.516948401927948,
                -0.723122239112854,
                -1.124445915222168,
                0.732151448726654,
                -0.5142698884010315,
                -0.7391522526741028,
                0.11361432820558548,
                -0.6390116810798645,
                -0.02474694699048996,
                -0.2623394727706909,
                0.3529675304889679,
                0.1286264955997467,
                -0.22702276706695558,
                -0.40200385451316836,
                -0.7929450273513794,
                0.43702930212020876,
                0.7857144474983215,
                -0.1764563024044037,
                0.9909302592277527,
                -0.9582091569900513,
                0.8671204447746277,
                0.63453209400177,
                0.6506860852241516,
                -0.9883183836936951,
                0.6924328804016113,
                -0.7318986654281616,
                0.0007258802652359009,
                0.7867490649223328,
                0.39424780011177065,
                -1.4141219854354859,
                0.05570691451430321,
                -1.4635846614837647,
                1.065803050994873,
                -0.26016688346862795,
                -0.5362610220909119,
                -0.0038755089044570925,
                1.3053936958312989,
                0.01865338534116745,
                -1.0076267719268799,
                -1.2825487852096558,
                -0.6896670460700989,
                -0.32065561413764956,
                -0.886375904083252,
                0.23178508877754212
            ],
            "fitness": 34.922210693359378,
            "npcType": 1,
            "outputLockStatus": [
                false,
                false,
                false,
                false
            ]
        },
        {
            "layers": [
                8,
                8,
                6,
                4
            ],
            "flattenedWeights": [
                -0.5041695237159729,
                1.2319858074188233,
                -0.6570969820022583,
                -0.07375168800354004,
                -0.3538587689399719,
                -0.004944916814565659,
                1.2481776475906373,
                0.2014458179473877,
                0.5253379344940186,
                0.25837597250938418,
                -1.1640909910202027,
                -0.4994572699069977,
                1.2230925559997559,
                -0.16977526247501374,
                -1.0878090858459473,
                0.5230420231819153,
                -0.8229967355728149,
                1.1192805767059327,
                0.21625012159347535,
                0.6972667574882507,
                0.053607478737831119,
                0.32905519008636477,
                1.3746486902236939,
                1.2168525457382203,
                -0.817562997341156,
                -0.4970385432243347,
                -0.29744577407836916,
                -0.8436244130134583,
                0.9624866843223572,
                1.1185822486877442,
                0.1903790831565857,
                -0.40831536054611208,
                -0.5515486598014832,
                0.6032392382621765,
                0.6551145911216736,
                0.5984060168266296,
                0.4235983192920685,
                0.9005019068717957,
                0.7466629147529602,
                -0.34061235189437868,
                0.020273864269256593,
                -0.7666717767715454,
                -0.38633233308792117,
                0.7753989696502686,
                0.6168913841247559,
                0.8710094094276428,
                0.5975611209869385,
                -1.2869423627853394,
                -0.1797773838043213,
                1.1722825765609742,
                0.02613389492034912,
                -0.2723069190979004,
                -0.3208516538143158,
                0.336333304643631,
                0.012769952416419983,
                -0.7636837959289551,
                0.18608438968658448,
                0.0807059183716774,
                -0.06613179296255112,
                0.17217768728733064,
                0.9417049288749695,
                0.5601233839988709,
                -0.5347285866737366,
                -0.5844678282737732,
                -0.19317618012428285,
                0.9020839929580689,
                0.8271832466125488,
                -0.6157926917076111,
                -0.6475749611854553,
                -0.4956701695919037,
                0.8414981961250305,
                -0.26951026916503909,
                -0.67835932970047,
                0.9384791254997253,
                0.33305519819259646,
                -0.7727046012878418,
                0.4145238697528839,
                -0.7546995282173157,
                -0.3235790729522705,
                -0.660778820514679,
                0.2236722707748413,
                0.725809633731842,
                0.21209946274757386,
                0.29287832975387576,
                0.1852213740348816,
                1.153525710105896,
                0.3758295774459839,
                0.06745483726263046,
                -0.21098828315734864,
                1.379544973373413,
                0.579347550868988,
                -0.32808881998062136,
                -0.8059707880020142,
                0.9824727773666382,
                0.5032973289489746,
                0.15178462862968446,
                0.6734872460365295,
                0.833286702632904,
                -0.12787559628486634,
                0.01217091828584671,
                -0.5114889740943909,
                -0.8149068355560303,
                1.1723735332489014,
                0.660965085029602,
                -0.7921398878097534,
                -0.5560926795005798,
                -0.7226704955101013,
                0.41812705993652346,
                -0.9370545744895935,
                -0.5897932052612305,
                -0.22118057310581208,
                0.44617709517478945,
                0.05392947420477867,
                0.4799724519252777,
                -0.13486146926879884,
                -1.1087901592254639,
                0.838472306728363,
                0.8726276755332947,
                -0.2653334140777588,
                0.2733723819255829,
                1.01844322681427,
                -0.7774151563644409,
                -0.03748215734958649,
                0.44383782148361208,
                0.2559124827384949,
                -0.09998703747987747,
                -0.5771279335021973,
                0.38596871495246889,
                -0.2884846329689026,
                0.5307183265686035,
                0.2473006248474121,
                -0.5588379502296448,
                0.6894545555114746,
                -0.8996292352676392,
                0.7262275815010071,
                0.18590325117111207
            ],
            "fitness": 32.97169876098633,
            "npcType": 0,
            "outputLockStatus": [
                false,
                false,
                false,
                false
            ]
        },
        {
            "layers": [
                8,
                8,
                6,
                4
            ],
            "flattenedWeights": [
                -0.5543825030326843,
                1.2188069820404053,
                -0.7273468971252441,
                -0.059100426733493808,
                -0.34613171219825747,
                -0.004944916814565659,
                1.3407492637634278,
                0.2014458179473877,
                0.6826199293136597,
                0.29290616512298586,
                -1.0944021940231324,
                -0.6364213228225708,
                1.3546674251556397,
                -0.16977526247501374,
                -1.2305455207824708,
                0.4584757685661316,
                -0.897236168384552,
                0.9670916795730591,
                0.11729779839515686,
                0.6035895347595215,
                0.11147002130746842,
                0.25151002407073977,
                1.3100686073303223,
                1.306208610534668,
                -1.0713757276535035,
                -0.5568267107009888,
                -0.3141419291496277,
                -0.9035107493400574,
                0.9809408187866211,
                1.1596415042877198,
                0.22744335234165193,
                -0.48538869619369509,
                -0.4660083055496216,
                0.33584529161453249,
                0.7424525022506714,
                0.3094162046909332,
                0.35048338770866396,
                0.8284792900085449,
                0.7711449265480042,
                -0.24898391962051392,
                0.2157616913318634,
                -1.0008337497711182,
                -0.4022390842437744,
                0.7114930152893066,
                0.6045737266540527,
                0.8514520525932312,
                0.6568077206611633,
                -1.3817261457443238,
                -0.2508328855037689,
                1.121042013168335,
                0.2347540259361267,
                -0.3890722990036011,
                -0.024987690150737764,
                0.330242395401001,
                0.1303183138370514,
                -0.6177752017974854,
                0.2026831954717636,
                0.169247567653656,
                -0.0966508686542511,
                0.25788289308547976,
                0.8724513053894043,
                0.5179001688957214,
                -0.481928288936615,
                -0.6337898373603821,
                -0.19833999872207642,
                0.852016031742096,
                0.7445467114448547,
                -0.655276358127594,
                -0.3811734914779663,
                -0.4027137756347656,
                0.9502415060997009,
                -0.3981134593486786,
                -0.6446831822395325,
                1.03815758228302,
                0.33305519819259646,
                -0.5504666566848755,
                0.5091856718063355,
                -0.7670154571533203,
                -0.30338698625564577,
                -0.7092352509498596,
                0.21968761086463929,
                0.725809633731842,
                0.1882810890674591,
                0.5780863761901856,
                0.1852213740348816,
                1.1047307252883912,
                0.43544745445251467,
                -0.014678075909614563,
                -0.17126896977424622,
                1.227830410003662,
                0.49272817373275759,
                -0.4229757487773895,
                -1.040014624595642,
                0.967474102973938,
                0.5210368633270264,
                0.39641550183296206,
                0.6561319828033447,
                0.8645049333572388,
                -0.22490206360816956,
                0.15345117449760438,
                -0.6062942743301392,
                -0.7813521027565002,
                1.1920762062072755,
                0.47200044989585879,
                -0.879554808139801,
                -0.5205889940261841,
                -0.5605970025062561,
                0.5495026111602783,
                -0.9460906982421875,
                -0.5920715928077698,
                -0.29157838225364687,
                0.3674408197402954,
                -0.06549697369337082,
                0.486162930727005,
                0.02400366961956024,
                -1.0855693817138672,
                1.0815081596374512,
                0.8726276755332947,
                -0.19634708762168885,
                0.26425299048423769,
                1.0075651407241822,
                -0.9300798773765564,
                0.05356154590845108,
                0.22775641083717347,
                0.17250698804855348,
                -0.20718461275100709,
                -0.6733343005180359,
                0.37688931822776797,
                -0.37667787075042727,
                0.5216656923294067,
                0.2872866690158844,
                -0.5588379502296448,
                0.7909793257713318,
                -0.8997580409049988,
                0.6131466031074524,
                0.21531648933887483
            ],
            "fitness": 32.901092529296878,
            "npcType": 0,
            "outputLockStatus": [
                false,
                false,
                false,
                false
            ]
        },
        {
            "layers": [
                8,
                8,
                6,
                4
            ],
            "flattenedWeights": [
                -0.7203794121742249,
                1.2316980361938477,
                -0.6433510780334473,
                -0.10595004260540009,
                -0.33138442039489748,
                0.008993644267320633,
                1.3407492637634278,
                0.41256192326545718,
                0.6826199293136597,
                0.13447460532188416,
                -1.0944021940231324,
                -0.5756983160972595,
                1.1675394773483277,
                -0.16977526247501374,
                -1.2305455207824708,
                0.4584757685661316,
                -0.8602445125579834,
                1.0287898778915406,
                0.07596053928136826,
                0.6035895347595215,
                0.15638518333435059,
                0.22794845700263978,
                1.3100686073303223,
                1.2168525457382203,
                -0.9999974966049194,
                -0.6157573461532593,
                -0.17632877826690675,
                -0.9030163288116455,
                0.9992503523826599,
                1.1415356397628785,
                0.22744335234165193,
                -0.5601696372032166,
                -0.5515486598014832,
                0.33584529161453249,
                0.7381236553192139,
                0.7128323316574097,
                0.3436650037765503,
                0.9206596612930298,
                0.7711449265480042,
                -0.28092122077941897,
                0.2157616913318634,
                -0.9041315913200378,
                -0.3589559495449066,
                0.7279127240180969,
                0.638785183429718,
                0.8933984637260437,
                0.6568077206611633,
                -1.2794170379638672,
                -0.1916208118200302,
                1.061730146408081,
                0.16253578662872315,
                -0.35582131147384646,
                0.06587444245815277,
                0.3824737071990967,
                0.023142829537391664,
                -0.6177752017974854,
                0.24883797764778138,
                0.077341727912426,
                -0.06397291272878647,
                0.2710403800010681,
                0.7204699516296387,
                0.4311991333961487,
                -0.5514692664146423,
                -0.6337898373603821,
                -0.19833999872207642,
                0.7563566565513611,
                0.8885553479194641,
                -0.6384975910186768,
                -0.3811734914779663,
                -0.4027137756347656,
                0.9502415060997009,
                -0.4688693583011627,
                -0.5207982659339905,
                0.9419450759887695,
                0.30255234241485598,
                -0.9090372920036316,
                0.427177757024765,
                -0.7670154571533203,
                -0.30338698625564577,
                -0.6642662882804871,
                0.21968761086463929,
                0.725809633731842,
                0.1668626070022583,
                0.6706576347351074,
                0.1852213740348816,
                1.121370553970337,
                0.4626006782054901,
                0.11842131614685059,
                -0.22016841173171998,
                1.227830410003662,
                0.49272817373275759,
                -0.4229757487773895,
                -0.944150447845459,
                0.9827199578285217,
                0.5916314125061035,
                0.3080984354019165,
                0.6559259295463562,
                0.7885577082633972,
                -0.18744097650051118,
                0.0685308575630188,
                -0.6261343359947205,
                -0.8666901588439941,
                1.1655375957489014,
                0.36568307876586916,
                -0.879554808139801,
                -0.5184634923934937,
                -0.5605970025062561,
                0.5495026111602783,
                -0.9868512153625488,
                -0.5835531949996948,
                -0.401070773601532,
                0.4210487902164459,
                -0.06549697369337082,
                0.4291851818561554,
                0.07987949997186661,
                -0.9963561296463013,
                1.017028570175171,
                0.937645435333252,
                -0.19634708762168885,
                0.26425299048423769,
                0.8573837280273438,
                -1.0001953840255738,
                -0.08112090826034546,
                0.22138358652591706,
                0.2559124827384949,
                -0.21082590520381928,
                -0.6072819828987122,
                0.37688931822776797,
                -0.3396143615245819,
                0.657501757144928,
                0.2872866690158844,
                -0.4825102984905243,
                0.7909793257713318,
                -0.805939793586731,
                0.6131466031074524,
                0.23666232824325562
            ],
            "fitness": 32.84264373779297,
            "npcType": 0,
            "outputLockStatus": [
                false,
                false,
                false,
                false
            ]
        },
        {
            "layers": [
                8,
                8,
                6,
                4
            ],
            "flattenedWeights": [
                -0.614467203617096,
                1.062664270401001,
                -0.6363823413848877,
                -0.141591414809227,
                -0.4057949483394623,
                -0.004944916814565659,
                1.3407492637634278,
                0.2523111402988434,
                0.3368075489997864,
                0.13368317484855653,
                -1.147392749786377,
                -0.7848944067955017,
                1.2653980255126954,
                -0.16977526247501374,
                -1.1259925365447999,
                0.4690183401107788,
                -0.8331823348999023,
                0.9522776007652283,
                0.2400694191455841,
                0.5747261047363281,
                0.11850789934396744,
                0.21318893134593965,
                1.2560997009277344,
                0.9454891681671143,
                -0.6950725317001343,
                -0.43777188658714297,
                -0.26383206248283389,
                -0.8889012336730957,
                0.8866364359855652,
                1.2162240743637086,
                0.06033668667078018,
                -0.39593154191970827,
                -0.4660083055496216,
                0.3983246982097626,
                0.6735979914665222,
                0.33895641565322878,
                0.35048338770866396,
                0.8407549262046814,
                0.7357547879219055,
                -0.32434728741645815,
                0.08234252780675888,
                -0.8292272090911865,
                -0.4022390842437744,
                0.7208908200263977,
                0.7878131866455078,
                0.7329833507537842,
                0.5007250308990479,
                -1.3817261457443238,
                -0.10467489063739777,
                1.1453933715820313,
                -0.053075097501277927,
                -0.266188383102417,
                -0.225019633769989,
                0.336333304643631,
                0.08690419793128967,
                -0.6177752017974854,
                0.11726637929677963,
                0.077341727912426,
                0.022640690207481386,
                0.23676183819770814,
                0.8214177489280701,
                0.5946398973464966,
                -0.5632495880126953,
                -0.609870433807373,
                -0.25414347648620608,
                0.822489321231842,
                0.8306435942649841,
                -0.5431657433509827,
                -0.46698492765426638,
                -0.46786078810691836,
                0.8782498836517334,
                -0.406231552362442,
                -0.6446831822395325,
                1.0414307117462159,
                0.13452517986297608,
                -0.7892553806304932,
                0.48675552010536196,
                -0.7828536033630371,
                -0.33328062295913699,
                -0.7108802795410156,
                0.1528623104095459,
                0.6981567144393921,
                0.18903179466724397,
                0.6380618214607239,
                0.1852213740348816,
                1.0849539041519166,
                0.48178768157958987,
                0.07503320276737213,
                -0.3991534113883972,
                1.227830410003662,
                0.49272817373275759,
                -0.31717127561569216,
                -0.944150447845459,
                0.9524513483047485,
                0.5210368633270264,
                0.3080984354019165,
                0.7105240821838379,
                0.9371793270111084,
                -0.26393935084342959,
                0.058869652450084689,
                -0.557717502117157,
                -0.8666901588439941,
                1.1920762062072755,
                0.660965085029602,
                -0.879554808139801,
                -0.42365092039108279,
                -0.714482307434082,
                0.5495026111602783,
                -0.9305084943771362,
                -0.6628656983375549,
                -0.35428285598754885,
                0.3934692442417145,
                -0.10998377203941345,
                0.43618446588516238,
                -0.13764743506908418,
                -1.1557111740112305,
                0.9925538301467896,
                0.8868178725242615,
                -0.19634708762168885,
                0.26425299048423769,
                0.9028192162513733,
                -0.9300798773765564,
                -0.08168883621692658,
                0.27140411734580996,
                0.08943285793066025,
                -0.18493370711803437,
                -0.558033287525177,
                0.469453364610672,
                -0.2740987241268158,
                0.5020844340324402,
                0.25362613797187807,
                -0.5084101557731628,
                0.7909793257713318,
                -0.7671058773994446,
                0.6316195130348206,
                0.1409148871898651
            ],
            "fitness": 30.513477325439454,
            "npcType": 0,
            "outputLockStatus": [
                false,
                false,
                false,
                false
            ]
        },
        {
            "layers": [
                8,
                8,
                6,
                4
            ],
            "flattenedWeights": [
                -0.3069249987602234,
                0.30898815393447878,
                1.0474438667297364,
                0.08125422149896622,
                0.9429628849029541,
                0.35273700952529909,
                -0.9891882538795471,
                -0.5939074754714966,
                -0.30765846371650698,
                -0.6929181814193726,
                -0.16841192543506623,
                -1.2305455207824708,
                -0.03214985132217407,
                -0.25553610920906069,
                0.8872366547584534,
                -1.3548038005828858,
                0.9221636652946472,
                -0.721225917339325,
                -0.3910018801689148,
                -0.243226557970047,
                -0.3987579941749573,
                -0.36586955189704897,
                1.4662519693374634,
                -0.05485903471708298,
                -0.3262127637863159,
                -0.4008306562900543,
                -0.302676260471344,
                -0.17798936367034913,
                0.08293277770280838,
                -0.42294156551361086,
                -0.547088086605072,
                0.37846481800079348,
                -0.23206834495067597,
                1.0913976430892945,
                0.40825945138931277,
                0.06189894303679466,
                -0.6070628762245178,
                -0.7914324402809143,
                -1.4142513275146485,
                0.39028772711753847,
                0.4133344888687134,
                -0.7875928282737732,
                -0.8722036480903626,
                -1.0337271690368653,
                0.10727118700742722,
                -0.7984390258789063,
                0.24979445338249207,
                -0.9834602475166321,
                -0.027197815477848054,
                0.2926574945449829,
                -0.1365211457014084,
                -0.643604040145874,
                -1.5834541320800782,
                -0.5035301446914673,
                0.8250634074211121,
                0.1627066433429718,
                0.7729340195655823,
                -0.2638274133205414,
                0.09505520015954972,
                1.2508888244628907,
                -0.5449160933494568,
                -0.7509521245956421,
                -0.01996953785419464,
                0.46892911195755007,
                -0.8433834314346314,
                0.7275153994560242,
                -0.6725379824638367,
                -0.4351516366004944,
                0.5104818344116211,
                0.09946972876787186,
                0.23881956934928895,
                -0.46029120683670046,
                0.5707795023918152,
                -0.5116152167320252,
                0.33925655484199526,
                -0.39776915311813357,
                -0.344916969537735,
                -0.5214586853981018,
                1.2222557067871094,
                0.4985535740852356,
                -0.01451447606086731,
                -0.03858674317598343,
                -1.1977001428604127,
                0.20561924576759339,
                1.7084864377975464,
                0.4641900062561035,
                0.7270955443382263,
                -0.02327129989862442,
                0.23482394218444825,
                -0.7946394085884094,
                0.731580913066864,
                -0.6333540081977844,
                -0.6221229434013367,
                -0.9739883542060852,
                -1.0013312101364136,
                0.7555971741676331,
                -0.5943311452865601,
                -0.7391522526741028,
                -0.11461944878101349,
                -0.6871950030326843,
                -0.09967310726642609,
                -0.2623394727706909,
                0.3889267146587372,
                0.11315016448497772,
                -0.03739231824874878,
                -0.4656314253807068,
                -0.29719093441963198,
                0.6071979403495789,
                0.7173261642456055,
                -0.029809989035129548,
                0.6586309671401978,
                -0.8052147030830383,
                0.8495321273803711,
                0.63453209400177,
                0.45603299140930178,
                -0.9353305697441101,
                0.6859992146492004,
                -0.6776500940322876,
                -0.0661674290895462,
                0.8156871199607849,
                0.36309295892715456,
                -1.4283523559570313,
                -0.02829228714108467,
                -1.5375195741653443,
                1.065803050994873,
                -0.3110361695289612,
                -0.4000736474990845,
                0.07572346180677414,
                1.2800127267837525,
                0.10287132859230042,
                -1.0416054725646973,
                -1.1358848810195923,
                -0.6286392211914063,
                -0.32065561413764956,
                -1.0459375381469727,
                0.4772684574127197
            ],
            "fitness": 29.784290313720704,
            "npcType": 1,
            "outputLockStatus": [
                false,
                false,
                false,
                false
            ]
        },
        {
            "layers": [
                8,
                8,
                6,
                4
            ],
            "flattenedWeights": [
                -0.614467203617096,
                1.2316980361938477,
                -0.7273468971252441,
                -0.059100426733493808,
                -0.26599404215812685,
                -0.004944916814565659,
                1.3407492637634278,
                0.22665295004844666,
                0.7665013074874878,
                0.1968659609556198,
                -1.0944021940231324,
                -0.5659242272377014,
                1.3829058408737183,
                -0.16977526247501374,
                -1.2862939834594727,
                0.4326428771018982,
                -0.8792664408683777,
                1.1192805767059327,
                0.0658864751458168,
                0.6583978533744812,
                0.15638518333435059,
                0.23768359422683717,
                1.3245584964752198,
                1.2168525457382203,
                -0.9999974966049194,
                -0.43777188658714297,
                -0.3622300624847412,
                -0.8770321607589722,
                0.7783520221710205,
                1.1082974672317505,
                0.21401110291481019,
                -0.5097825527191162,
                -0.4660083055496216,
                0.45004335045814516,
                0.7381236553192139,
                0.3435385525226593,
                0.4066063165664673,
                0.8222241401672363,
                0.7592241764068604,
                -0.34061235189437868,
                0.19914981722831727,
                -0.7666717767715454,
                -0.4022390842437744,
                0.7412813305854797,
                0.762130856513977,
                0.8423097729682922,
                0.6568077206611633,
                -1.4188557863235474,
                -0.2508328855037689,
                1.121042013168335,
                0.06712179630994797,
                -0.35582131147384646,
                -0.3208516538143158,
                0.3479897379875183,
                0.07090241461992264,
                -0.6750624179840088,
                0.10335526615381241,
                0.06976558268070221,
                0.12541933357715608,
                0.2030337005853653,
                0.8541147112846375,
                0.7152636647224426,
                -0.4795539379119873,
                -0.6337898373603821,
                -0.19772085547447205,
                0.7273621559143066,
                0.8306435942649841,
                -0.6384975910186768,
                -0.5015119314193726,
                -0.46786078810691836,
                0.8910278081893921,
                -0.43875250220298769,
                -0.6446831822395325,
                0.982247531414032,
                0.3804253041744232,
                -0.676477313041687,
                0.45004740357398989,
                -0.7052024006843567,
                -0.3056420683860779,
                -0.7092352509498596,
                0.21968761086463929,
                0.6981567144393921,
                0.18578115105628968,
                0.5100827813148499,
                0.1852213740348816,
                1.153525710105896,
                0.3584166467189789,
                0.06745483726263046,
                -0.3405593931674957,
                1.1326851844787598,
                0.49272817373275759,
                -0.4229757487773895,
                -0.944150447845459,
                0.967474102973938,
                0.4773193895816803,
                0.42722734808921816,
                0.6717658638954163,
                0.9099448919296265,
                -0.06798184663057327,
                0.01217091828584671,
                -0.6512319445610046,
                -0.7697351574897766,
                1.1920762062072755,
                0.399129182100296,
                -0.9312487244606018,
                -0.601067066192627,
                -0.6861874461174011,
                0.5495026111602783,
                -0.9370545744895935,
                -0.5920715928077698,
                -0.22118057310581208,
                0.5585826635360718,
                -0.06549697369337082,
                0.43618446588516238,
                -0.13486146926879884,
                -1.0790040493011475,
                1.1122467517852784,
                0.9412763714790344,
                -0.19634708762168885,
                0.2733723819255829,
                0.9409895539283752,
                -0.9300798773765564,
                -0.03748215734958649,
                0.21879245340824128,
                0.17250698804855348,
                -0.13965058326721192,
                -0.5771279335021973,
                0.469453364610672,
                -0.37667787075042727,
                0.6155865788459778,
                0.2872866690158844,
                -0.5588379502296448,
                0.6477031111717224,
                -0.805939793586731,
                0.5142035484313965,
                0.18590325117111207
            ],
            "fitness": 23.540922164916993,
            "npcType": 0,
            "outputLockStatus": [
                false,
                false,
                false,
                false
            ]
        }
    ],
    "timestamp": "2025-05-12 14:14:29"
}