{
    "generation": 285,
    "bestFitness": 59.58198165893555,
    "averageFitness": 15.244359016418457,
    "worstFitness": 0.0,
    "networks": [
        {
            "layers": [
                8,
                8,
                6,
                4
            ],
            "flattenedWeights": [
                -0.674028754234314,
                0.3444288671016693,
                1.2396501302719117,
                0.9744240641593933,
                1.2090399265289307,
                0.5213010311126709,
                -1.18803870677948,
                -0.4326530992984772,
                0.4426429569721222,
                -0.8094099760055542,
                0.43153688311576846,
                -0.7403178215026856,
                -0.6827203035354614,
                -0.17149266600608827,
                0.5546366572380066,
                -0.7473593354225159,
                1.0508785247802735,
                -0.06445662677288056,
                -1.0850937366485596,
                -0.08796678483486176,
                -0.704632043838501,
                -1.0272846221923829,
                0.9161936044692993,
                0.4033486843109131,
                -1.5807688236236573,
                -0.7080543041229248,
                0.14480212330818177,
                -0.9637560844421387,
                -0.6379426717758179,
                0.12801408767700196,
                -0.6227019429206848,
                1.0013622045516968,
                -1.39729642868042,
                0.5808928608894348,
                0.766133725643158,
                -0.1375344693660736,
                -0.7929856777191162,
                -0.9164329767227173,
                -0.6719436645507813,
                -0.0459187850356102,
                0.2983287274837494,
                -0.8519759774208069,
                -0.046312153339385989,
                -0.9439286589622498,
                -0.025929294526576997,
                -0.7966405153274536,
                0.36755937337875368,
                -0.9061572551727295,
                -0.3799319863319397,
                -0.9070014953613281,
                0.7180228233337402,
                -0.9778534770011902,
                -1.780456304550171,
                -0.9460264444351196,
                0.9097136855125427,
                0.2325104922056198,
                1.3709213733673096,
                0.12519875168800355,
                0.5864956378936768,
                1.1040568351745606,
                -1.1583306789398194,
                -1.1807252168655396,
                -0.2719288170337677,
                1.0927058458328248,
                -0.38277071714401247,
                0.7258486151695252,
                -0.35413771867752077,
                -0.02516968548297882,
                0.13277336955070496,
                -0.2695435583591461,
                0.3202780783176422,
                0.6380348801612854,
                1.2979068756103516,
                -0.5753679275512695,
                -0.006832696497440338,
                -0.5124074220657349,
                -0.9488276243209839,
                -0.5226857662200928,
                0.9106640815734863,
                0.846089243888855,
                -0.3380795419216156,
                -0.3562358319759369,
                -1.8367451429367066,
                0.5010361075401306,
                2.0996198654174806,
                0.18967239558696748,
                0.5852129459381104,
                0.551362156867981,
                0.8467488288879395,
                -0.9923418164253235,
                0.5136513113975525,
                -0.031472716480493548,
                -0.4883275032043457,
                -0.5928373336791992,
                0.12412567436695099,
                0.39926058053970339,
                -0.020288877189159395,
                -0.7654856443405151,
                0.22590185701847077,
                -0.5855420231819153,
                -1.3671152591705323,
                -0.41104811429977419,
                0.5398337841033936,
                -0.6157627701759338,
                -0.36376097798347475,
                -1.3463308811187745,
                -0.9033933877944946,
                0.5988327264785767,
                1.257353663444519,
                -0.611063539981842,
                0.7985135316848755,
                -0.6258132457733154,
                0.9097610712051392,
                0.7706258893013,
                0.5500979423522949,
                -0.530746579170227,
                0.4617629945278168,
                -0.8993076086044312,
                -0.534519374370575,
                0.935145378112793,
                0.9092077016830444,
                -2.1841964721679689,
                -0.00737723708152771,
                -2.065037250518799,
                0.9885739684104919,
                -0.4890534281730652,
                -0.4061979353427887,
                0.1379450261592865,
                1.2791814804077149,
                0.1838517189025879,
                -1.1155871152877808,
                -0.6863459348678589,
                -0.918190598487854,
                -0.6268084645271301,
                -1.789048194885254,
                -0.3253478407859802
            ],
            "fitness": 59.58198165893555,
            "npcType": 1,
            "outputLockStatus": [
                false,
                false,
                false,
                false
            ]
        },
        {
            "layers": [
                8,
                8,
                6,
                4
            ],
            "flattenedWeights": [
                -0.7293521165847778,
                0.5115523338317871,
                1.2555252313613892,
                0.9744240641593933,
                1.1840689182281495,
                0.4573102295398712,
                -1.1406354904174805,
                -0.6376506090164185,
                0.45971930027008059,
                -1.0384083986282349,
                0.22719046473503114,
                -1.0345877408981324,
                -0.47087109088897707,
                -0.04509849473834038,
                0.5740841031074524,
                -0.70988929271698,
                0.9851581454277039,
                -0.3105725646018982,
                -1.2155081033706666,
                -0.17218759655952454,
                -0.8017182350158691,
                -0.9288025498390198,
                0.8913273215293884,
                0.3741615414619446,
                -1.6017632484436036,
                -0.6811881065368652,
                0.1577683389186859,
                -1.0446418523788453,
                -0.6670376658439636,
                0.12665417790412904,
                -0.6227019429206848,
                0.9876329898834229,
                -1.4173147678375245,
                0.5196766257286072,
                0.791981041431427,
                -0.0988774523139,
                -0.6890420317649841,
                -1.0375628471374512,
                -0.7130976319313049,
                -0.0459187850356102,
                0.4488118290901184,
                -0.8519759774208069,
                -0.3035290539264679,
                -0.9439286589622498,
                -0.050442591309547427,
                -0.690601646900177,
                0.36755937337875368,
                -0.9466512799263,
                -0.4429225027561188,
                -0.8770980834960938,
                0.7699623703956604,
                -0.9653662443161011,
                -1.8524925708770753,
                -1.0554587841033936,
                0.8455480933189392,
                0.20403528213500977,
                1.3709213733673096,
                0.10902479290962219,
                0.40436339378356936,
                1.1126528978347779,
                -1.2658498287200928,
                -1.0983716249465943,
                -0.28544333577156069,
                1.1015524864196778,
                -0.4954540431499481,
                0.8417599201202393,
                -0.16366097331047059,
                -0.06651496142148972,
                0.13286715745925904,
                -0.2695435583591461,
                0.35737332701683047,
                0.4408908486366272,
                1.4672603607177735,
                -0.7301607131958008,
                -0.006832696497440338,
                -0.5463365912437439,
                -0.9217652678489685,
                -0.4579559564590454,
                0.8958302140235901,
                0.846089243888855,
                -0.35748928785324099,
                -0.4548209309577942,
                -1.7596476078033448,
                0.4933789372444153,
                1.9582079648971558,
                0.36355358362197878,
                0.6338583827018738,
                0.3124070465564728,
                0.6982457041740418,
                -0.8576066493988037,
                0.50675368309021,
                0.14498594403266908,
                -0.4629022479057312,
                -0.8187201619148254,
                0.10217440873384476,
                -0.05923430621623993,
                -0.020288877189159395,
                -0.8400670886039734,
                0.22590185701847077,
                -0.5850239396095276,
                -1.3671152591705323,
                -0.41104811429977419,
                0.5640577673912048,
                -0.5924386382102966,
                -0.2943320572376251,
                -1.2078033685684205,
                -0.9779186844825745,
                0.7294448018074036,
                1.193741798400879,
                -0.7012722492218018,
                0.7682623267173767,
                -0.7080603837966919,
                0.8781015276908875,
                0.6493844985961914,
                0.5500979423522949,
                -0.41566330194473269,
                0.45007336139678957,
                -0.9596829414367676,
                -0.4923526644706726,
                0.935145378112793,
                0.967371940612793,
                -2.237450122833252,
                0.002079106867313385,
                -1.9546761512756348,
                1.0755524635314942,
                -0.13477972149848939,
                -0.05647660791873932,
                0.022077925503253938,
                1.5339642763137818,
                0.08887334167957306,
                -1.1748110055923463,
                -0.6404541730880737,
                -0.8116119503974915,
                -0.7804825305938721,
                -1.7260463237762452,
                -0.24623322486877442
            ],
            "fitness": 45.83311080932617,
            "npcType": 1,
            "outputLockStatus": [
                false,
                false,
                false,
                false
            ]
        },
        {
            "layers": [
                8,
                8,
                6,
                4
            ],
            "flattenedWeights": [
                -0.674028754234314,
                0.5115523338317871,
                1.2396501302719117,
                0.8840212225914002,
                1.1840689182281495,
                0.43654948472976687,
                -1.1378663778305054,
                -0.5888295769691467,
                0.3542792797088623,
                -0.9037611484527588,
                0.27714651823043826,
                -0.6730377674102783,
                -0.5717164278030396,
                0.008245650678873062,
                0.5546366572380066,
                -0.5473825931549072,
                1.0508785247802735,
                -0.22667387127876283,
                -1.0747166872024537,
                -0.12019926309585571,
                -0.8735367059707642,
                -0.9288025498390198,
                0.8821805119514465,
                0.3411318361759186,
                -1.6017632484436036,
                -0.7043257355690002,
                0.23810666799545289,
                -0.9792148470878601,
                -0.3797149956226349,
                0.3158675730228424,
                -0.6227019429206848,
                0.9391041994094849,
                -1.4173147678375245,
                0.5196766257286072,
                0.766133725643158,
                -0.17553159594535829,
                -0.6002761721611023,
                -0.9134355187416077,
                -0.7025583386421204,
                -0.1287122666835785,
                0.39685508608818056,
                -0.9223508834838867,
                0.04109884053468704,
                -1.016270637512207,
                -0.054517485201358798,
                -0.7399305701255798,
                0.36755937337875368,
                -0.9466512799263,
                -0.3799319863319397,
                -1.0041874647140504,
                0.7968427538871765,
                -1.0557868480682374,
                -1.8877302408218384,
                -0.8661114573478699,
                0.8221193552017212,
                0.28661495447158816,
                1.3709213733673096,
                0.06637635082006455,
                0.5037206411361694,
                1.0730247497558594,
                -1.2523752450942994,
                -1.1675301790237427,
                -0.1310981959104538,
                1.0692626237869263,
                -0.5916792154312134,
                0.7644792795181274,
                -0.2081318199634552,
                0.01659352332353592,
                0.13277336955070496,
                -0.17843805253505708,
                0.3216646611690521,
                0.5394670963287354,
                1.3702861070632935,
                -0.6515064835548401,
                0.043701644986867908,
                -0.38837847113609316,
                -0.8705347776412964,
                -0.5794576406478882,
                0.9646171927452087,
                0.8382244110107422,
                -0.27525094151496889,
                -0.4548209309577942,
                -1.7596476078033448,
                0.5001516342163086,
                1.7584789991378785,
                0.33307790756225588,
                0.6554341316223145,
                0.4807072579860687,
                0.7453322410583496,
                -0.9258493185043335,
                0.4941336512565613,
                0.02306726574897766,
                -0.4883275032043457,
                -0.6586930751800537,
                0.06301183998584748,
                -0.05923430621623993,
                -0.020288877189159395,
                -0.7523410320281982,
                0.22590185701847077,
                -0.601540207862854,
                -1.3671152591705323,
                -0.41104811429977419,
                0.5894224047660828,
                -0.64024817943573,
                -0.3175506591796875,
                -1.2078033685684205,
                -1.018357753753662,
                0.7294448018074036,
                1.2300034761428834,
                -0.6013572216033936,
                0.7985135316848755,
                -0.7080603837966919,
                1.1106318235397339,
                0.7555224895477295,
                0.5500979423522949,
                -0.3353610932826996,
                0.4617629945278168,
                -0.8987540006637573,
                -0.534519374370575,
                0.8531556129455566,
                0.9005689024925232,
                -2.267075538635254,
                0.04983210936188698,
                -1.8904039859771729,
                0.9322032332420349,
                -0.23939013481140138,
                -0.20144112408161164,
                0.3306686282157898,
                1.5339642763137818,
                0.08887334167957306,
                -1.088854432106018,
                -0.7089387774467468,
                -0.9474524855613709,
                -0.6268084645271301,
                -1.7260463237762452,
                -0.27726614475250246
            ],
            "fitness": 45.190330505371097,
            "npcType": 1,
            "outputLockStatus": [
                false,
                false,
                false,
                false
            ]
        },
        {
            "layers": [
                8,
                8,
                6,
                4
            ],
            "flattenedWeights": [
                -0.674028754234314,
                0.5115523338317871,
                1.2396501302719117,
                0.9744240641593933,
                1.1840689182281495,
                0.5170766115188599,
                -1.16216242313385,
                -0.532400906085968,
                0.4426429569721222,
                -0.8625501990318298,
                0.38263028860092165,
                -0.9438384771347046,
                -0.6827203035354614,
                -0.1038583517074585,
                0.5546366572380066,
                -0.6204899549484253,
                0.9736708998680115,
                -0.05698350444436073,
                -1.1120152473449708,
                -0.08796678483486176,
                -0.704632043838501,
                -0.8807819485664368,
                0.9285004138946533,
                0.44724974036216738,
                -1.5807688236236573,
                -0.6174399256706238,
                0.1577683389186859,
                -1.0446418523788453,
                -0.6379426717758179,
                0.12801408767700196,
                -0.6524494886398315,
                0.9602962732315064,
                -1.4008904695510865,
                0.5808928608894348,
                0.766133725643158,
                -0.228784441947937,
                -0.8677657246589661,
                -0.9164329767227173,
                -0.7025583386421204,
                -0.02513899654150009,
                0.26400819420814516,
                -0.8661037683486939,
                -0.046312153339385989,
                -0.9439286589622498,
                -0.09850110113620758,
                -0.7673313617706299,
                0.4511260688304901,
                -0.9258285760879517,
                -0.3799319863319397,
                -0.9441801905632019,
                0.6858322620391846,
                -0.9697451591491699,
                -1.8341784477233887,
                -0.9460264444351196,
                0.7736400365829468,
                0.20403528213500977,
                1.3709213733673096,
                0.043718062341213229,
                0.5289465188980103,
                1.1386678218841553,
                -1.2658498287200928,
                -1.1807252168655396,
                -0.2314305305480957,
                1.0927058458328248,
                -0.41402021050453188,
                0.7923373579978943,
                -0.35413771867752077,
                -0.02516968548297882,
                0.0379801020026207,
                -0.2695435583591461,
                0.35737332701683047,
                0.4947141706943512,
                1.3735798597335816,
                -0.5666504502296448,
                0.07612235844135285,
                -0.5371174216270447,
                -0.8205364346504211,
                -0.5336740612983704,
                0.9106640815734863,
                0.8382244110107422,
                -0.3199281096458435,
                -0.4548209309577942,
                -1.7596476078033448,
                0.525662362575531,
                1.7611384391784669,
                0.18917450308799745,
                0.6338583827018738,
                0.551362156867981,
                0.7481155395507813,
                -1.0779615640640259,
                0.4791813790798187,
                0.14498594403266908,
                -0.4883275032043457,
                -0.47725969552993777,
                0.03502894192934036,
                0.32989490032196047,
                -0.020288877189159395,
                -0.9247280955314636,
                0.22590185701847077,
                -0.61836838722229,
                -1.2724777460098267,
                -0.48523133993148806,
                0.5894224047660828,
                -0.590502142906189,
                -0.3212047517299652,
                -1.3401963710784913,
                -0.9033933877944946,
                0.5988327264785767,
                1.3377454280853272,
                -0.6136993765830994,
                0.7985135316848755,
                -0.7080603837966919,
                0.9097610712051392,
                0.7293292880058289,
                0.6379357576370239,
                -0.4893159568309784,
                0.4617629945278168,
                -0.8993076086044312,
                -0.534519374370575,
                0.935145378112793,
                0.967371940612793,
                -2.1841964721679689,
                0.04983210936188698,
                -1.9546761512756348,
                1.0744545459747315,
                -0.3089706301689148,
                -0.324166476726532,
                0.12041321396827698,
                1.2791814804077149,
                0.1838517189025879,
                -1.1155871152877808,
                -0.6404541730880737,
                -0.918190598487854,
                -0.8616828918457031,
                -1.6697710752487183,
                -0.29718509316444399
            ],
            "fitness": 44.31400680541992,
            "npcType": 1,
            "outputLockStatus": [
                false,
                false,
                false,
                false
            ]
        },
        {
            "layers": [
                8,
                8,
                6,
                4
            ],
            "flattenedWeights": [
                -0.46725788712501528,
                1.458213448524475,
                -0.5903812646865845,
                -0.22786100208759309,
                -0.3444778323173523,
                0.6488839983940125,
                1.4824981689453126,
                0.7962421178817749,
                1.0425530672073365,
                -0.034654904156923297,
                -2.221468448638916,
                -0.8671130537986755,
                1.6415120363235474,
                -0.3432118594646454,
                -1.5129915475845338,
                0.026776544749736787,
                -0.7817320227622986,
                0.6995007395744324,
                -0.730850338935852,
                -0.05370697006583214,
                -0.49514123797416689,
                0.6962565779685974,
                0.6824921369552612,
                0.4314853847026825,
                -0.531154215335846,
                -0.5461052656173706,
                -0.14733156561851502,
                -0.7928851842880249,
                0.8764693140983582,
                0.5647917985916138,
                -0.14240941405296327,
                -0.3195001780986786,
                -0.517872154712677,
                0.036517184227705,
                0.22019003331661225,
                0.5018439888954163,
                0.8791723847389221,
                0.7686443328857422,
                1.2735592126846314,
                -0.8607897162437439,
                -0.36074206233024599,
                -1.202399730682373,
                -0.18039508163928986,
                0.21075370907783509,
                0.24060875177383424,
                0.9815933704376221,
                0.8022260665893555,
                -0.6809932589530945,
                -0.165487140417099,
                1.0292918682098389,
                1.0367506742477418,
                -0.12429888546466828,
                0.3503730893135071,
                0.4402937591075897,
                -0.09992602467536926,
                -1.0089662075042725,
                0.988657534122467,
                0.4423620104789734,
                1.04683518409729,
                0.03445493429899216,
                1.6781262159347535,
                0.660885751247406,
                -0.10145033895969391,
                -0.655150830745697,
                -0.31170642375946047,
                1.3393847942352296,
                -0.20650537312030793,
                -0.5652878880500794,
                0.1809065192937851,
                -0.9779557585716248,
                0.39526039361953738,
                -0.15425997972488404,
                -0.6185983419418335,
                0.4674922525882721,
                0.7405234575271606,
                -0.5996384024620056,
                0.24332335591316224,
                -1.042994737625122,
                0.19190305471420289,
                -1.0308799743652344,
                0.5781837105751038,
                0.9480999112129211,
                -0.33137550950050356,
                -0.09424915164709091,
                0.25598669052124026,
                1.10068941116333,
                0.28050410747528078,
                -0.38101792335510256,
                0.014174975454807282,
                0.9884958267211914,
                0.08525680750608444,
                -0.26186782121658327,
                -0.4919789135456085,
                1.4248318672180176,
                0.879863977432251,
                0.64185631275177,
                0.6906320452690125,
                0.6440941095352173,
                0.047503743320703509,
                0.2575758993625641,
                -0.7789180874824524,
                -1.8824406862258912,
                0.5739598274230957,
                1.132844090461731,
                -1.0218114852905274,
                -0.21753427386283875,
                -1.2952336072921754,
                0.09833860397338867,
                -0.7869997620582581,
                -1.098241925239563,
                -0.5817905068397522,
                0.3920561671257019,
                -0.04645393043756485,
                0.4865627884864807,
                0.04294393211603165,
                -0.48584192991256716,
                0.5286644101142883,
                1.4453459978103638,
                -0.45430654287338259,
                0.1787731945514679,
                0.9235365390777588,
                -1.2466672658920289,
                0.43673577904701235,
                0.33621683716773989,
                -0.06609988212585449,
                0.15864253044128419,
                -1.2110047340393067,
                0.23777976632118226,
                0.2514531910419464,
                0.8648779392242432,
                -0.39591142535209658,
                -0.9927421808242798,
                1.1042407751083375,
                -0.23594102263450623,
                1.277458667755127,
                0.23469063639640809
            ],
            "fitness": 40.823001861572269,
            "npcType": 0,
            "outputLockStatus": [
                false,
                false,
                false,
                false
            ]
        },
        {
            "layers": [
                8,
                8,
                6,
                4
            ],
            "flattenedWeights": [
                -0.629339873790741,
                0.4284569323062897,
                1.2639472484588624,
                0.9343088269233704,
                1.134595513343811,
                0.4285511076450348,
                -1.228130578994751,
                -0.5888295769691467,
                0.5177968740463257,
                -0.736071765422821,
                0.34604257345199587,
                -0.6730377674102783,
                -0.7067640423774719,
                -0.04509849473834038,
                0.8019965291023254,
                -0.6636282801628113,
                0.9836956858634949,
                -0.05698350444436073,
                -1.0545426607131959,
                -0.020640216767787935,
                -0.6308978796005249,
                -0.9288025498390198,
                0.9317525029182434,
                0.2613767385482788,
                -1.5668329000473023,
                -0.7043257355690002,
                0.0768183022737503,
                -0.8803301453590393,
                -0.6379426717758179,
                0.19355101883411408,
                -0.6974596381187439,
                0.325255423784256,
                -1.39729642868042,
                0.6732085347175598,
                0.8059343695640564,
                -0.1375344693660736,
                -0.5894973278045654,
                -1.0900089740753174,
                -0.7025583386421204,
                -0.2842365801334381,
                0.42643752694129946,
                -0.9223508834838867,
                -0.34403300285339358,
                -1.0133609771728516,
                0.07109306007623673,
                -0.6160457134246826,
                0.38539865612983706,
                -1.0367462635040284,
                -0.43078556656837466,
                -0.700801432132721,
                0.7234280109405518,
                -0.9485021233558655,
                -1.8877302408218384,
                -0.9460264444351196,
                0.8836701512336731,
                0.22366963326931,
                1.4955915212631226,
                0.08332567662000656,
                0.5037206411361694,
                1.0137289762496949,
                -1.170261025428772,
                -1.190157175064087,
                -0.13350741565227509,
                1.0692626237869263,
                -0.6287223100662231,
                0.79245924949646,
                -0.21657171845436097,
                -0.06360480189323425,
                0.13277336955070496,
                -0.21444207429885865,
                0.3045779764652252,
                0.44035547971725466,
                1.3805832862854005,
                -0.7872483134269714,
                0.05077488347887993,
                -0.5058774948120117,
                -0.8705347776412964,
                -0.5210867524147034,
                0.9106640815734863,
                0.846089243888855,
                -0.40300339460372927,
                -0.5252128839492798,
                -1.8367451429367066,
                0.5337917804718018,
                2.0900862216949465,
                0.18967239558696748,
                0.6338583827018738,
                0.7295877933502197,
                0.6664863228797913,
                -0.8244162797927856,
                0.4791813790798187,
                0.13464027643203736,
                -0.4883275032043457,
                -0.49166828393936159,
                0.06301183998584748,
                0.3157110810279846,
                -0.0036897584795951845,
                -0.7761176228523254,
                0.17196574807167054,
                -0.47034752368927,
                -1.2372733354568482,
                -0.41822707653045657,
                0.5249029994010925,
                -0.590502142906189,
                -0.24938872456550599,
                -1.182050347328186,
                -1.0268127918243409,
                0.5988327264785767,
                1.117193579673767,
                -0.7508388161659241,
                0.8631893396377564,
                -0.6258132457733154,
                0.932336151599884,
                0.8274808526039124,
                0.5303094387054443,
                -0.6534601449966431,
                0.5044659972190857,
                -0.8042804002761841,
                -0.45322132110595705,
                0.8426654934883118,
                0.9172170758247376,
                -2.0680487155914308,
                0.06200267747044563,
                -2.065037250518799,
                1.0820543766021729,
                -0.5412015318870544,
                -0.20160838961601258,
                0.047173164784908298,
                1.2706395387649537,
                0.10446412116289139,
                -1.0156996250152588,
                -0.805834949016571,
                -0.918190598487854,
                -0.8290349841117859,
                -1.5691741704940797,
                -0.20629823207855225
            ],
            "fitness": 35.08406448364258,
            "npcType": 1,
            "outputLockStatus": [
                false,
                false,
                false,
                false
            ]
        },
        {
            "layers": [
                8,
                8,
                6,
                4
            ],
            "flattenedWeights": [
                -0.674028754234314,
                0.5115523338317871,
                1.3266429901123047,
                0.9744240641593933,
                1.2386341094970704,
                0.4285511076450348,
                -1.1378663778305054,
                -0.5888295769691467,
                0.5177968740463257,
                -0.7859736084938049,
                0.38263028860092165,
                -0.6038558483123779,
                -0.6318585872650147,
                0.04703107103705406,
                0.8019965291023254,
                -0.7019450664520264,
                1.0508785247802735,
                -0.22667387127876283,
                -1.1615657806396485,
                -0.16336612403392793,
                -0.7573262453079224,
                -0.9288025498390198,
                0.7934771180152893,
                0.3411318361759186,
                -1.6924591064453126,
                -0.7371363639831543,
                0.2254256010055542,
                -0.9878677129745483,
                -0.3797149956226349,
                0.06045076996088028,
                -0.6032421588897705,
                0.325255423784256,
                -1.3654789924621583,
                0.6353063583374023,
                0.766133725643158,
                -0.056189052760601047,
                -0.6002761721611023,
                -1.1149975061416627,
                -0.7025583386421204,
                -0.14221888780593873,
                0.2983287274837494,
                -0.9223508834838867,
                -0.34403300285339358,
                -0.8769521713256836,
                0.07109306007623673,
                -0.7866718173027039,
                0.38539865612983706,
                -0.8934344053268433,
                -0.3799319863319397,
                -1.0041874647140504,
                0.7699623703956604,
                -0.8540858626365662,
                -1.8524925708770753,
                -1.0295182466506959,
                0.8221193552017212,
                0.16161108016967774,
                1.31792151927948,
                0.020931966602802278,
                0.5037206411361694,
                1.0949785709381104,
                -1.1438024044036866,
                -1.202777624130249,
                -0.28544333577156069,
                1.0692626237869263,
                -0.41402021050453188,
                0.79245924949646,
                -0.35413771867752077,
                -0.033016037195920947,
                0.13277336955070496,
                -0.2695435583591461,
                0.45248863101005556,
                0.4947141706943512,
                1.3805832862854005,
                -0.6515064835548401,
                -0.006832696497440338,
                -0.5058774948120117,
                -0.8705347776412964,
                -0.5210867524147034,
                0.9106640815734863,
                0.846089243888855,
                -0.3380795419216156,
                -0.4548209309577942,
                -1.7596476078033448,
                0.5796185731887817,
                1.6644879579544068,
                0.18967239558696748,
                0.6338583827018738,
                0.6539168357849121,
                0.6982457041740418,
                -1.0779615640640259,
                0.4791813790798187,
                0.13464027643203736,
                -0.4883275032043457,
                -0.49166828393936159,
                0.06301183998584748,
                0.3416846990585327,
                -0.0036897584795951845,
                -0.8415989279747009,
                0.19583261013031007,
                -0.5195984840393066,
                -1.428573489189148,
                -0.41104811429977419,
                0.5894224047660828,
                -0.5924386382102966,
                -0.3745258152484894,
                -1.2807154655456544,
                -0.9033933877944946,
                0.7294448018074036,
                1.2614127397537232,
                -0.6136993765830994,
                0.7985135316848755,
                -0.6258132457733154,
                0.8990553021430969,
                0.8274808526039124,
                0.48823779821395876,
                -0.41566330194473269,
                0.4051739573478699,
                -0.8683606386184692,
                -0.534519374370575,
                0.8426654934883118,
                0.9961175918579102,
                -2.0680487155914308,
                0.04983210936188698,
                -1.9546761512756348,
                0.987594723701477,
                -0.5339111685752869,
                0.05196916684508324,
                0.049816474318504336,
                1.370556354522705,
                0.1838517189025879,
                -1.088854432106018,
                -0.805834949016571,
                -0.9684141874313355,
                -0.6745041608810425,
                -1.7260463237762452,
                -0.39416632056236269
            ],
            "fitness": 34.023590087890628,
            "npcType": 1,
            "outputLockStatus": [
                false,
                false,
                false,
                false
            ]
        },
        {
            "layers": [
                8,
                8,
                6,
                4
            ],
            "flattenedWeights": [
                -0.3347149193286896,
                1.3942983150482178,
                -0.5036816000938416,
                -0.22786100208759309,
                -0.3444778323173523,
                0.6957053542137146,
                1.510451316833496,
                0.758552074432373,
                1.118067979812622,
                -0.09341778606176377,
                -2.2868168354034426,
                -0.9921251535415649,
                1.5295220613479615,
                -0.35393017530441286,
                -1.6286760568618775,
                0.04289623349905014,
                -0.8647719025611877,
                0.6995007395744324,
                -0.7338722348213196,
                -0.1004989892244339,
                -0.4041314125061035,
                0.7926180362701416,
                0.5897269248962402,
                0.38128042221069338,
                -0.5648694634437561,
                -0.5046011805534363,
                0.02238968014717102,
                -0.7061629295349121,
                0.911124050617218,
                0.5614887475967407,
                -0.1621668040752411,
                -0.3195001780986786,
                -0.4700455069541931,
                0.02756531909108162,
                0.27927643060684206,
                0.35600540041923525,
                0.8565820455551148,
                0.7254085540771484,
                1.2240190505981446,
                -0.9251207709312439,
                -0.42517879605293276,
                -1.1756043434143067,
                -0.0012212544679641724,
                0.2629287838935852,
                0.050751350820064548,
                0.9436232447624207,
                0.7462009787559509,
                -0.7799664735794067,
                -0.2954205870628357,
                1.0787044763565064,
                1.0299022197723389,
                -0.13896718621253968,
                0.24925224483013154,
                0.48931705951690676,
                -0.0549326054751873,
                -1.0089662075042725,
                0.9170859456062317,
                0.4904293119907379,
                1.064934492111206,
                0.11035333573818207,
                1.7261500358581544,
                0.6721224784851074,
                -0.009326018393039704,
                -0.655150830745697,
                -0.22208034992218018,
                1.4093550443649293,
                -0.1936805695295334,
                -0.6169388294219971,
                0.03799926117062569,
                -0.9222009181976318,
                0.42764025926589968,
                -0.6645292043685913,
                -0.6695319414138794,
                0.37632012367248537,
                0.7613054513931274,
                -0.25743210315704348,
                0.1885613054037094,
                -1.042994737625122,
                0.12785381078720094,
                -1.0040748119354249,
                0.6652526259422302,
                0.9480999112129211,
                -0.44283461570739748,
                -0.039725568145513538,
                0.2854859232902527,
                1.2205843925476075,
                0.2667703926563263,
                -0.3044050931930542,
                0.03609238564968109,
                1.008824110031128,
                0.16207271814346314,
                -0.36229681968688967,
                -0.4919789135456085,
                1.4309217929840088,
                0.9437071681022644,
                0.5831187963485718,
                0.6906320452690125,
                0.5098591446876526,
                0.03539106622338295,
                0.41432642936706545,
                -0.7514191269874573,
                -1.8824406862258912,
                0.5807485580444336,
                1.1588493585586548,
                -1.0218114852905274,
                -0.19568175077438355,
                -1.3273123502731324,
                0.0797291174530983,
                -0.8931738138198853,
                -1.3602931499481202,
                -0.426655113697052,
                0.3920561671257019,
                -0.04645393043756485,
                0.6685878038406372,
                -0.08160350471735,
                -0.6067016124725342,
                0.5359247326850891,
                1.4849027395248414,
                -0.45430654287338259,
                0.2938733398914337,
                0.857311487197876,
                -1.1734410524368287,
                0.43673577904701235,
                0.5391336679458618,
                -0.1478583961725235,
                0.06777816265821457,
                -1.264148235321045,
                0.12270627170801163,
                0.2514531910419464,
                0.9539371728897095,
                -0.4095085561275482,
                -0.8701232075691223,
                1.2184022665023804,
                -0.10803293436765671,
                1.2493419647216797,
                0.16451437771320344
            ],
            "fitness": 33.10990524291992,
            "npcType": 0,
            "outputLockStatus": [
                false,
                false,
                false,
                false
            ]
        },
        {
            "layers": [
                8,
                8,
                6,
                4
            ],
            "flattenedWeights": [
                -0.674028754234314,
                0.3444288671016693,
                1.332179069519043,
                0.9744240641593933,
                1.2090399265289307,
                0.5213010311126709,
                -1.1740959882736207,
                -0.4990611672401428,
                0.4001105725765228,
                -1.1454235315322877,
                0.3206423223018646,
                -0.7403178215026856,
                -0.6827203035354614,
                -0.059745486825704578,
                0.8019965291023254,
                -0.6773186922073364,
                0.9836956858634949,
                -0.05698350444436073,
                -1.0850937366485596,
                -0.17914626002311707,
                -0.8913282752037048,
                -0.8509240746498108,
                0.9048057794570923,
                0.38083985447883608,
                -1.5872437953948975,
                -0.7455381751060486,
                0.14480212330818177,
                -1.076481580734253,
                -0.6379426717758179,
                0.24905675649642945,
                -0.5375723242759705,
                0.42136263847351076,
                -1.39729642868042,
                0.5196766257286072,
                0.5929994583129883,
                -0.1375344693660736,
                -0.5578815937042236,
                -1.1203184127807618,
                -0.6719436645507813,
                -0.2964405417442322,
                0.36171746253967287,
                -0.9648306965827942,
                -0.34403300285339358,
                -1.0133609771728516,
                0.011016115546226502,
                -0.7866718173027039,
                0.39473116397857668,
                -0.9061572551727295,
                -0.3799319863319397,
                -0.7868421077728272,
                0.7699623703956604,
                -1.0000247955322266,
                -1.8552244901657105,
                -1.1052452325820923,
                0.8366682529449463,
                0.22366963326931,
                1.3549132347106934,
                0.12356491386890412,
                0.5661175847053528,
                1.0856961011886597,
                -1.072904109954834,
                -1.2979141473770142,
                -0.18623903393745423,
                1.0692626237869263,
                -0.41402021050453188,
                0.8112499117851257,
                -0.35413771867752077,
                -0.02516968548297882,
                0.13277336955070496,
                -0.14736735820770265,
                0.3202780783176422,
                0.5582817196846008,
                1.3805832862854005,
                -0.6515064835548401,
                0.00031982362270355225,
                -0.5309230089187622,
                -0.9488276243209839,
                -0.5210867524147034,
                0.9106640815734863,
                0.846089243888855,
                -0.3683992624282837,
                -0.3562358319759369,
                -1.8367451429367066,
                0.4559776484966278,
                2.1140317916870119,
                0.18967239558696748,
                0.7120463252067566,
                0.36110588908195498,
                0.583585262298584,
                -0.8820610642433167,
                0.4142245352268219,
                -0.031472716480493548,
                -0.4883275032043457,
                -0.5928373336791992,
                0.12412567436695099,
                0.006629966199398041,
                -0.020288877189159395,
                -0.7654856443405151,
                0.22590185701847077,
                -0.5195984840393066,
                -1.455310344696045,
                -0.33337318897247317,
                0.6007748246192932,
                -0.5400069355964661,
                -0.30107685923576357,
                -1.2078033685684205,
                -0.9702771306037903,
                0.7294448018074036,
                1.193741798400879,
                -0.6859763264656067,
                0.7985135316848755,
                -0.5567607879638672,
                1.008040189743042,
                0.8087037801742554,
                0.5029911994934082,
                -0.5011751651763916,
                0.5556756258010864,
                -0.9552024006843567,
                -0.45890024304389956,
                0.9499692320823669,
                0.9098047614097595,
                -2.1839311122894289,
                0.0685056820511818,
                -2.065037250518799,
                0.9781951308250427,
                -0.47046342492103579,
                -0.20144112408161164,
                0.07527481764554978,
                1.4505165815353394,
                0.1140640377998352,
                -0.997680127620697,
                -0.6908817887306213,
                -0.8772867321968079,
                -0.6951940059661865,
                -1.7252646684646607,
                -0.29718509316444399
            ],
            "fitness": 32.574462890625,
            "npcType": 1,
            "outputLockStatus": [
                false,
                false,
                false,
                false
            ]
        },
        {
            "layers": [
                8,
                8,
                6,
                4
            ],
            "flattenedWeights": [
                -0.6193419694900513,
                0.3602141737937927,
                1.20705246925354,
                0.9926538467407227,
                1.2616711854934693,
                0.35129815340042117,
                -1.2296981811523438,
                -0.49172309041023257,
                0.47813165187835696,
                -1.1600472927093506,
                0.27714651823043826,
                -0.6730377674102783,
                -0.7192424535751343,
                -0.060374196618795398,
                0.7118449211120606,
                -0.5645819902420044,
                0.9167760610580444,
                0.032115016132593158,
                -1.1646612882614136,
                -0.17218759655952454,
                -0.8017182350158691,
                -0.8439469337463379,
                0.8913273215293884,
                0.35765963792800906,
                -1.6082044839859009,
                -0.6094566583633423,
                0.1577683389186859,
                -0.8920365571975708,
                -0.6379426717758179,
                0.10167373716831207,
                -0.6227019429206848,
                0.9901493787765503,
                -1.3461664915084839,
                0.5610412359237671,
                0.766133725643158,
                -0.1375344693660736,
                -0.6994774341583252,
                -1.1299859285354615,
                -0.6862014532089233,
                -0.0459187850356102,
                0.26400819420814516,
                -0.922103762626648,
                -0.3791863024234772,
                -0.7795137166976929,
                -0.006321139633655548,
                -0.7673313617706299,
                0.36755937337875368,
                -0.8299841284751892,
                -0.39008015394210818,
                -0.739179790019989,
                0.7630538940429688,
                -0.9105907678604126,
                -1.8524925708770753,
                -1.2155699729919434,
                0.9529561400413513,
                0.22366963326931,
                1.3153438568115235,
                0.027615435421466829,
                0.38163280487060549,
                1.1126528978347779,
                -1.2658498287200928,
                -1.089087963104248,
                -0.03590618073940277,
                0.8028877377510071,
                -0.46964120864868166,
                0.8417599201202393,
                -0.15047237277030946,
                -0.02516968548297882,
                0.05938152223825455,
                -0.059334855526685718,
                0.35737332701683047,
                0.4408908486366272,
                1.4672603607177735,
                -0.6515064835548401,
                0.0034362152218818666,
                -0.5456190705299377,
                -0.826694667339325,
                -0.4579559564590454,
                0.8145235776901245,
                0.846089243888855,
                -0.28737205266952517,
                -0.43965059518814089,
                -1.6710450649261475,
                0.5076934695243836,
                1.9582079648971558,
                0.2953449487686157,
                0.7112501859664917,
                0.2257741093635559,
                0.7881830930709839,
                -0.8576066493988037,
                0.5324264168739319,
                0.202846959233284,
                -0.5982288122177124,
                -0.5204499959945679,
                0.10217440873384476,
                0.41400402784347536,
                -0.01946777105331421,
                -0.8179826736450195,
                0.08253022283315659,
                -0.5850239396095276,
                -1.4178065061569214,
                -0.41104811429977419,
                0.55633944272995,
                -0.5924386382102966,
                -0.4838482737541199,
                -1.2078033685684205,
                -0.9702771306037903,
                0.7294448018074036,
                1.193741798400879,
                -0.770352840423584,
                0.7985135316848755,
                -0.6258132457733154,
                0.8897833824157715,
                0.8274808526039124,
                0.6442100405693054,
                -0.6288423538208008,
                0.33150437474250796,
                -0.7047377824783325,
                -0.5285211801528931,
                0.935145378112793,
                0.967371940612793,
                -2.1578562259674074,
                0.1574077010154724,
                -2.147991180419922,
                1.0376629829406739,
                -0.08719337731599808,
                -0.05647660791873932,
                0.24914446473121644,
                1.5339642763137818,
                0.08887334167957306,
                -0.7969030141830444,
                -0.7089387774467468,
                -0.9393922090530396,
                -0.8616828918457031,
                -1.7705137729644776,
                -0.24623322486877442
            ],
            "fitness": 32.47343826293945,
            "npcType": 1,
            "outputLockStatus": [
                false,
                false,
                false,
                false
            ]
        }
    ],
    "timestamp": "2025-05-12 14:52:55"
}