{
    "generation": 340,
    "bestFitness": 119.91161346435547,
    "averageFitness": 19.14531135559082,
    "worstFitness": 0.0,
    "networks": [
        {
            "layers": [
                8,
                8,
                6,
                4
            ],
            "flattenedWeights": [
                -0.552341639995575,
                0.5445827841758728,
                1.5296101570129395,
                0.8165231943130493,
                1.805455207824707,
                0.7046279311180115,
                -1.2646541595458985,
                -1.0780020952224732,
                0.6499083638191223,
                -0.41525810956954958,
                0.16814744472503663,
                -0.4294852614402771,
                -0.5872402191162109,
                0.23209016025066377,
                0.35523441433906557,
                -0.6082251071929932,
                0.9687693119049072,
                -0.014366745948791504,
                -0.9589162468910217,
                -0.012655749917030335,
                -0.3937202990055084,
                -0.8902769088745117,
                1.0171737670898438,
                0.3612649440765381,
                -1.9116779565811158,
                -0.3354085087776184,
                0.03538546338677406,
                -0.8176849484443665,
                -0.6104453802108765,
                -0.1299625039100647,
                -0.1884494125843048,
                1.579925298690796,
                -1.3210893869400025,
                0.8357767462730408,
                0.7331674695014954,
                -0.17801016569137574,
                -1.0244617462158204,
                -0.911718487739563,
                -0.5054326057434082,
                -0.16590197384357453,
                0.13362222909927369,
                -1.255262017250061,
                -0.41137751936912539,
                -1.1196401119232178,
                -0.24586692452430726,
                -0.25552695989608767,
                0.6965430378913879,
                -0.9375753402709961,
                -0.8051205277442932,
                -0.6772686243057251,
                0.6881738901138306,
                -1.0887452363967896,
                -2.1449925899505617,
                -1.3856698274612427,
                0.5091509819030762,
                0.09457328170537949,
                2.0029513835906984,
                0.27529725432395937,
                0.31962156295776369,
                0.9040587544441223,
                -0.4196007251739502,
                -1.3072850704193116,
                -0.14449508488178254,
                0.8715580105781555,
                -0.43285492062568667,
                0.9296520352363586,
                -0.07521550357341767,
                0.28421416878700259,
                -0.1635494977235794,
                -0.2501659095287323,
                0.4005955159664154,
                0.370402067899704,
                1.6135197877883912,
                -0.9074182510375977,
                -0.28837230801582339,
                -0.30526700615882876,
                -1.1158136129379273,
                -0.5091630220413208,
                0.6642301082611084,
                0.9611673951148987,
                -0.15314170718193055,
                -0.7489502429962158,
                -2.1491892337799074,
                0.3411250114440918,
                1.3131805658340455,
                0.00768163800239563,
                0.7612661719322205,
                0.7153505682945252,
                0.8174819946289063,
                -1.0283690690994263,
                0.4665646553039551,
                -0.09567883610725403,
                -0.17102186381816865,
                -0.5547699332237244,
                -0.08042467385530472,
                0.11463940888643265,
                -0.07589103281497956,
                -0.8734509348869324,
                0.16529081761837007,
                -0.743697464466095,
                -1.6472288370132447,
                -0.848986029624939,
                0.5726585984230042,
                -0.5275574326515198,
                -0.8805612325668335,
                -1.0405787229537964,
                -1.497982144355774,
                0.4994211792945862,
                1.1836838722229005,
                -0.42298007011413576,
                0.8134666085243225,
                -0.5548925995826721,
                0.6294981837272644,
                1.1041380167007447,
                0.9881759881973267,
                -0.8727355003356934,
                0.4773523211479187,
                -1.0122663974761963,
                -0.017032522708177568,
                0.6872360110282898,
                1.0933640003204346,
                -2.176987886428833,
                -0.0026156343519687654,
                -2.0818018913269045,
                0.7645548582077026,
                -0.18233075737953187,
                -0.5706669688224793,
                -0.11682488024234772,
                1.523503065109253,
                -0.045469317585229877,
                -1.0265692472457886,
                -0.5415812134742737,
                -0.6614395380020142,
                -0.9461451768875122,
                -1.7735774517059327,
                -0.1623193323612213
            ],
            "fitness": 119.91161346435547,
            "npcType": 1,
            "outputLockStatus": [
                false,
                false,
                false,
                false
            ]
        },
        {
            "layers": [
                8,
                8,
                6,
                4
            ],
            "flattenedWeights": [
                -0.5792112350463867,
                0.4860408902168274,
                1.5106662511825562,
                0.8317726850509644,
                1.7936182022094727,
                0.6657864451408386,
                -1.3471403121948243,
                -0.9169540405273438,
                0.7731183171272278,
                -0.3460995554924011,
                0.44714802503585818,
                -0.5837534666061401,
                -0.5765361785888672,
                0.23209016025066377,
                0.41921955347061159,
                -1.0042288303375245,
                0.9629442095756531,
                0.04024709016084671,
                -1.0275747776031495,
                0.0031653083860874178,
                -0.541427493095398,
                -0.9645199775695801,
                0.9726397395133972,
                0.14287468791007996,
                -1.7549591064453126,
                -0.4567510485649109,
                0.03538546338677406,
                -0.7594761252403259,
                -0.4901900589466095,
                0.02801622450351715,
                -0.32896777987480166,
                1.535096287727356,
                -1.5556076765060425,
                0.850010097026825,
                0.7331674695014954,
                -0.4126891493797302,
                -0.948733389377594,
                -1.0036921501159669,
                -0.5697447061538696,
                0.03867993876338005,
                0.5537074208259583,
                -1.0268995761871338,
                -0.3848455846309662,
                -0.9893088340759277,
                -0.20193320512771607,
                -0.2406887412071228,
                0.6914128661155701,
                -1.0295966863632203,
                -0.768557608127594,
                -0.6772686243057251,
                0.6881738901138306,
                -1.0253136157989503,
                -1.850901484489441,
                -1.3992804288864136,
                0.5433104634284973,
                0.11122456938028336,
                1.87368905544281,
                0.38386261463165285,
                0.4418669044971466,
                0.8661142587661743,
                -0.4702001214027405,
                -1.4654264450073243,
                -0.1352597326040268,
                0.8823055028915405,
                -0.43285492062568667,
                0.931032121181488,
                -0.0469244159758091,
                0.4069836437702179,
                -0.12543682754039765,
                -0.2501659095287323,
                0.4846750795841217,
                0.029376976191997529,
                1.6177983283996583,
                -0.9694660902023315,
                -0.3017069399356842,
                -0.20658181607723237,
                -1.152070164680481,
                -0.7767163515090942,
                0.5831361413002014,
                0.9492224454879761,
                -0.21039986610412599,
                -0.5592073202133179,
                -1.8973642587661744,
                0.3840141296386719,
                1.459196925163269,
                0.07691993564367295,
                0.7612661719322205,
                0.364124596118927,
                0.8493993878364563,
                -1.0383694171905518,
                0.5023573637008667,
                -0.13004717230796815,
                -0.17102186381816865,
                -0.43084394931793215,
                -0.07455844432115555,
                0.33124858140945437,
                -0.07589103281497956,
                -0.9160478711128235,
                0.07931945472955704,
                -0.7136228084564209,
                -1.5528258085250855,
                -0.8472486734390259,
                0.472948282957077,
                -0.6284363865852356,
                -0.7807561159133911,
                -1.0522034168243409,
                -1.2716267108917237,
                0.4136114716529846,
                1.028547763824463,
                -0.5576128959655762,
                0.7644400596618652,
                -0.47640007734298708,
                0.7016426920890808,
                1.0609626770019532,
                1.0503175258636475,
                -0.8009167909622192,
                0.7288198471069336,
                -1.000784993171692,
                0.03616155683994293,
                0.8041746020317078,
                1.179612159729004,
                -2.314457654953003,
                -0.0026156343519687654,
                -2.182213068008423,
                0.7453448176383972,
                -0.13201482594013215,
                -0.6092463731765747,
                -0.1950741857290268,
                1.5101547241210938,
                -0.07270429283380509,
                -1.0927215814590455,
                -0.6447808146476746,
                -0.6504990458488464,
                -0.8225656151771545,
                -1.75532865524292,
                -0.10047676414251328
            ],
            "fitness": 83.5634994506836,
            "npcType": 1,
            "outputLockStatus": [
                false,
                false,
                false,
                false
            ]
        },
        {
            "layers": [
                8,
                8,
                6,
                4
            ],
            "flattenedWeights": [
                -0.6954992413520813,
                0.48577529191970827,
                1.4725944995880128,
                0.7831391096115112,
                1.8660601377487183,
                0.6657864451408386,
                -1.360215663909912,
                -1.0097099542617798,
                0.5848495960235596,
                -0.3460995554924011,
                0.5494336485862732,
                -0.6034301519393921,
                -0.5765361785888672,
                0.23209016025066377,
                0.2724912762641907,
                -1.0042288303375245,
                0.9143280982971191,
                0.08378466218709946,
                -0.9589162468910217,
                0.04106651246547699,
                -0.25906670093536379,
                -0.9131291508674622,
                1.0171737670898438,
                0.3612649440765381,
                -1.8537323474884034,
                -0.42862027883529665,
                0.15024738013744355,
                -0.7594761252403259,
                -0.554716169834137,
                0.02801622450351715,
                -0.27084624767303469,
                1.6107563972473145,
                -1.5753690004348755,
                0.7747156023979187,
                0.7331674695014954,
                -0.17000648379325868,
                -1.0996004343032838,
                -1.0307992696762086,
                -0.6443186402320862,
                0.006458904594182968,
                0.20238974690437318,
                -1.0268995761871338,
                -0.3848455846309662,
                -0.9893088340759277,
                -0.14471448957920075,
                -0.2406887412071228,
                0.5575746297836304,
                -0.8541235327720642,
                -0.768557608127594,
                -0.7522803544998169,
                0.6881738901138306,
                -1.0101988315582276,
                -2.2131378650665285,
                -1.3992804288864136,
                0.5091509819030762,
                0.11122456938028336,
                2.115110158920288,
                0.38386261463165285,
                0.3385585844516754,
                0.9657792448997498,
                -0.45795366168022158,
                -1.1592005491256714,
                -0.05359723046422005,
                0.7757936120033264,
                -0.4849984347820282,
                0.931032121181488,
                -0.0469244159758091,
                0.43813762068748476,
                -0.1072738766670227,
                -0.23413601517677308,
                0.3540187180042267,
                0.1115802600979805,
                1.6630750894546509,
                -0.9074182510375977,
                -0.37472003698349,
                -0.20658181607723237,
                -0.9346773624420166,
                -0.5603589415550232,
                0.5703757405281067,
                0.927634596824646,
                -0.21039986610412599,
                -0.6447244882583618,
                -1.8973642587661744,
                0.316916823387146,
                1.4149073362350464,
                0.04774579778313637,
                0.7612661719322205,
                0.4249562919139862,
                0.7876618504524231,
                -1.0383694171905518,
                0.4586520791053772,
                -0.05408246070146561,
                -0.17102186381816865,
                -0.6619047522544861,
                -0.07455844432115555,
                0.2592806816101074,
                0.013191275298595429,
                -0.879575252532959,
                0.25817641615867617,
                -0.7136228084564209,
                -1.5528258085250855,
                -0.848986029624939,
                0.5448907613754273,
                -0.5292981266975403,
                -0.8268185257911682,
                -1.1069968938827515,
                -1.17521333694458,
                0.3767094910144806,
                0.8015092015266419,
                -0.551039457321167,
                0.7169880270957947,
                -0.5548925995826721,
                0.6294981837272644,
                1.0609626770019532,
                0.9881759881973267,
                -0.8009167909622192,
                0.4526950716972351,
                -1.0122663974761963,
                0.03616155683994293,
                0.6676367521286011,
                1.097229242324829,
                -2.3487651348114015,
                0.033289745450019839,
                -1.9727084636688233,
                0.7645548582077026,
                -0.13201482594013215,
                -0.566670835018158,
                -0.35183894634246828,
                1.5642411708831788,
                -0.045469317585229877,
                -1.0232901573181153,
                -0.42087823152542117,
                -0.7555232048034668,
                -0.9007471799850464,
                -1.7735774517059327,
                -0.10047676414251328
            ],
            "fitness": 79.57844543457031,
            "npcType": 1,
            "outputLockStatus": [
                false,
                false,
                false,
                false
            ]
        },
        {
            "layers": [
                8,
                8,
                6,
                4
            ],
            "flattenedWeights": [
                -0.5447222590446472,
                0.5630382895469666,
                1.5296101570129395,
                0.7830816507339478,
                1.805455207824707,
                0.5404016375541687,
                -1.3300222158432007,
                -1.098616600036621,
                0.5643283724784851,
                -0.415454238653183,
                0.24666017293930055,
                -0.5837534666061401,
                -0.6148194670677185,
                0.12527239322662354,
                0.35523441433906557,
                -0.9917799234390259,
                0.8733977675437927,
                -0.014366745948791504,
                -0.9589162468910217,
                -0.028892874717712404,
                -0.37004923820495608,
                -0.920100212097168,
                1.0058953762054444,
                0.3612649440765381,
                -1.8945128917694092,
                -0.39693009853363039,
                0.03538546338677406,
                -0.6779440641403198,
                -0.6601782441139221,
                -0.20895430445671082,
                -0.17229314148426057,
                1.579925298690796,
                -1.374224066734314,
                0.7392725348472595,
                0.7331674695014954,
                -0.3416370153427124,
                -0.9471845030784607,
                -0.982758641242981,
                -0.4495595395565033,
                -0.15606674551963807,
                0.5905956029891968,
                -1.255262017250061,
                -0.3848455846309662,
                -1.041092872619629,
                -0.11646569520235062,
                -0.25552695989608767,
                0.6692630648612976,
                -0.8967399597167969,
                -0.768557608127594,
                -0.6772686243057251,
                0.6881738901138306,
                -1.1098884344100953,
                -2.1632583141326906,
                -1.473206639289856,
                0.5260847210884094,
                0.0966208353638649,
                2.0730020999908449,
                0.38754063844680788,
                0.26138344407081606,
                0.923252284526825,
                -0.5255195498466492,
                -1.3868193626403809,
                -0.03566763550043106,
                0.7757936120033264,
                -0.43285492062568667,
                0.9716321229934692,
                -0.2232145518064499,
                0.43813762068748476,
                -0.1635494977235794,
                -0.3120705187320709,
                0.40470123291015627,
                0.2096633017063141,
                1.6630750894546509,
                -0.9074182510375977,
                -0.28837230801582339,
                -0.248826265335083,
                -1.1523889303207398,
                -0.5091630220413208,
                0.6642301082611084,
                0.9210601449012756,
                -0.09282676130533219,
                -0.6637913584709168,
                -2.0991086959838869,
                0.3411250114440918,
                1.3131805658340455,
                -0.046542443335056308,
                0.7804117202758789,
                0.7153505682945252,
                0.8174819946289063,
                -1.2629846334457398,
                0.3402131497859955,
                -0.014134857803583146,
                -0.30909132957458498,
                -0.4973801374435425,
                -0.01404578983783722,
                0.4989679455757141,
                -0.16968408226966859,
                -0.906071126461029,
                0.16529081761837007,
                -0.6974318027496338,
                -1.6472288370132447,
                -0.9267038702964783,
                0.4718681573867798,
                -0.5275574326515198,
                -0.7807561159133911,
                -0.9570875763893127,
                -1.2115352153778077,
                0.4994211792945862,
                0.7967211008071899,
                -0.42526668310165408,
                0.6823272705078125,
                -0.5548925995826721,
                0.6052607297897339,
                1.0609626770019532,
                0.9881759881973267,
                -0.8009167909622192,
                0.4773523211479187,
                -1.0122663974761963,
                -0.09634874016046524,
                0.7647762298583984,
                1.179612159729004,
                -2.176987886428833,
                -0.0026156343519687654,
                -2.0228233337402345,
                0.7453448176383972,
                -0.18233075737953187,
                -0.4777994453907013,
                -0.11682488024234772,
                1.523503065109253,
                -0.045469317585229877,
                -1.0927215814590455,
                -0.4711773097515106,
                -0.7700694799423218,
                -0.9863396883010864,
                -1.8536367416381837,
                -0.07363246381282807
            ],
            "fitness": 76.75702667236328,
            "npcType": 1,
            "outputLockStatus": [
                false,
                false,
                false,
                false
            ]
        },
        {
            "layers": [
                8,
                8,
                6,
                4
            ],
            "flattenedWeights": [
                -0.6343230605125427,
                0.6215282678604126,
                1.5471900701522828,
                0.7296864986419678,
                1.6984831094741822,
                0.7153234481811523,
                -1.3453872203826905,
                -0.8972461223602295,
                0.7350720167160034,
                -0.3320617973804474,
                0.506956934928894,
                -0.4531698226928711,
                -0.5391366481781006,
                0.16652727127075196,
                0.36107343435287478,
                -0.5354561805725098,
                0.8464745283126831,
                0.10826637595891953,
                -1.1211832761764527,
                -0.0890970453619957,
                -0.3558863699436188,
                -1.0487676858901978,
                0.9755004048347473,
                0.37893587350845339,
                -1.8214805126190186,
                -0.3651694059371948,
                0.12687945365905763,
                -0.6779440641403198,
                -0.6016749143600464,
                -0.03152637556195259,
                -0.17229314148426057,
                1.7072633504867554,
                -1.3411614894866944,
                0.9494536519050598,
                0.650294303894043,
                -0.17801016569137574,
                -0.8435776233673096,
                -0.9927647709846497,
                -0.5584818124771118,
                -0.19268189370632173,
                0.61528080701828,
                -1.3287849426269532,
                -0.48206087946891787,
                -1.034194827079773,
                -0.3013778328895569,
                -0.12529492378234864,
                0.6368433833122253,
                -0.9316850900650024,
                -1.0097860097885132,
                -0.635744035243988,
                0.6238466501235962,
                -1.276763677597046,
                -2.21911358833313,
                -1.3061602115631104,
                0.6500235199928284,
                0.0277174711227417,
                2.115110158920288,
                0.3693014085292816,
                0.2589488923549652,
                0.9657792448997498,
                -0.45795366168022158,
                -1.3726563453674317,
                -0.26944077014923098,
                0.9504842162132263,
                -0.5189946293830872,
                0.9716321229934692,
                -0.21144318580627442,
                0.43813762068748476,
                -0.12543682754039765,
                -0.23640912771224976,
                0.43197715282440188,
                0.2096633017063141,
                1.6545926332473755,
                -0.8212591409683228,
                -0.28837230801582339,
                -0.23144406080245973,
                -1.1567883491516114,
                -0.4400908648967743,
                0.6642301082611084,
                0.8580955862998962,
                -0.15314170718193055,
                -0.7496652603149414,
                -1.9256080389022828,
                0.46823039650917055,
                1.4078092575073243,
                -0.18161484599113465,
                0.5955995917320252,
                0.45461195707321169,
                0.7947619557380676,
                -1.1054739952087403,
                0.37215909361839297,
                -0.21400585770606996,
                -0.24241527915000916,
                -0.5601462125778198,
                -0.2171594798564911,
                0.33124858140945437,
                -0.17278704047203065,
                -0.8140748143196106,
                0.09333115071058274,
                -0.6643340587615967,
                -1.4813834428787232,
                -0.9100269675254822,
                0.5183234810829163,
                -0.5996258854866028,
                -0.5343421697616577,
                -0.9929803013801575,
                -1.2347230911254883,
                0.40366461873054507,
                0.9369611144065857,
                -0.5787245035171509,
                0.6010191440582275,
                -0.5436468124389648,
                0.5732117295265198,
                0.9708598256111145,
                0.8786436915397644,
                -0.7072474956512451,
                0.6963622570037842,
                -1.024750828742981,
                0.07569544017314911,
                0.8008362650871277,
                1.179612159729004,
                -2.232802152633667,
                -0.17852383852005006,
                -1.9795594215393067,
                0.7453448176383972,
                -0.2566174268722534,
                -0.4777994453907013,
                -0.13147461414337159,
                1.523503065109253,
                0.016347717493772508,
                -1.0927215814590455,
                -0.5556701421737671,
                -0.720562756061554,
                -0.8522213697433472,
                -1.6249442100524903,
                0.013468310236930848
            ],
            "fitness": 53.03894805908203,
            "npcType": 1,
            "outputLockStatus": [
                false,
                false,
                false,
                false
            ]
        },
        {
            "layers": [
                8,
                8,
                6,
                4
            ],
            "flattenedWeights": [
                -0.6343230605125427,
                0.5921725034713745,
                1.5296101570129395,
                0.7296864986419678,
                1.8660601377487183,
                0.7153234481811523,
                -1.390305757522583,
                -1.0034255981445313,
                0.5848495960235596,
                -0.415454238653183,
                0.2787017226219177,
                -0.5837534666061401,
                -0.5263016223907471,
                0.23209016025066377,
                0.35523441433906557,
                -1.0810832977294922,
                1.0158487558364869,
                -0.09611619263887406,
                -0.9589162468910217,
                -0.12102892249822617,
                -0.3937202990055084,
                -0.9147325158119202,
                1.0171737670898438,
                0.28316476941108706,
                -1.8288613557815552,
                -0.3160910904407501,
                0.010510455816984177,
                -0.6882059574127197,
                -0.544531524181366,
                -0.1299625039100647,
                -0.23613059520721436,
                1.5819669961929322,
                -1.4527268409729005,
                0.8271347284317017,
                0.7331674695014954,
                -0.22905468940734864,
                -1.0660805702209473,
                -0.982758641242981,
                -0.6076835989952087,
                -0.19268189370632173,
                0.20238974690437318,
                -1.255262017250061,
                -0.3848455846309662,
                -1.034194827079773,
                -0.11649282276630402,
                -0.22322894632816316,
                0.6555484533309937,
                -0.8793349266052246,
                -0.768557608127594,
                -0.5948328375816345,
                0.5716438889503479,
                -1.1098884344100953,
                -2.313044786453247,
                -1.3856698274612427,
                0.5091509819030762,
                0.11122456938028336,
                2.0730020999908449,
                0.3693014085292816,
                0.3869693875312805,
                0.8816562294960022,
                -0.4702001214027405,
                -1.2927206754684449,
                -0.05359723046422005,
                0.6894631385803223,
                -0.43285492062568667,
                1.0080431699752808,
                -0.2232145518064499,
                0.32267215847969057,
                -0.1595838963985443,
                -0.3648642301559448,
                0.43197715282440188,
                0.2096633017063141,
                1.5959609746932984,
                -0.9332520365715027,
                -0.3428710401058197,
                -0.23144406080245973,
                -1.1523889303207398,
                -0.4216274917125702,
                0.6642301082611084,
                0.8242376446723938,
                -0.21039986610412599,
                -0.5627743005752564,
                -1.8973642587661744,
                0.3411250114440918,
                1.4149073362350464,
                -0.12001368403434754,
                0.7612661719322205,
                0.7872753143310547,
                0.8493993878364563,
                -1.2629846334457398,
                0.37215909361839297,
                -0.05408246070146561,
                -0.34134411811828616,
                -0.5579214096069336,
                -0.07455844432115555,
                0.3161701261997223,
                -0.12562473118305207,
                -0.8478691577911377,
                0.16529081761837007,
                -0.7136228084564209,
                -1.680426001548767,
                -0.82794588804245,
                0.4378686845302582,
                -0.5292981266975403,
                -0.7807561159133911,
                -0.9216205477714539,
                -1.2771174907684327,
                0.4994211792945862,
                0.7967211008071899,
                -0.5494405627250671,
                0.6823272705078125,
                -0.5548925995826721,
                0.697371244430542,
                1.0352294445037842,
                1.0760525465011597,
                -0.8009167909622192,
                0.818289577960968,
                -1.0122663974761963,
                0.02821110561490059,
                0.8313069343566895,
                1.179612159729004,
                -2.314457654953003,
                -0.0026156343519687654,
                -2.0228233337402345,
                0.7453448176383972,
                -0.2013886272907257,
                -0.4777994453907013,
                -0.07371248304843903,
                1.455186128616333,
                -0.045469317585229877,
                -1.0804431438446046,
                -0.5615472197532654,
                -0.7085843086242676,
                -0.896105170249939,
                -1.7735774517059327,
                -0.07363246381282807
            ],
            "fitness": 51.57633972167969,
            "npcType": 1,
            "outputLockStatus": [
                false,
                false,
                false,
                false
            ]
        },
        {
            "layers": [
                8,
                8,
                6,
                4
            ],
            "flattenedWeights": [
                -0.6343230605125427,
                0.5218045711517334,
                1.5296101570129395,
                0.6858609318733215,
                1.8660601377487183,
                0.7153234481811523,
                -1.360215663909912,
                -1.0167794227600098,
                0.5848495960235596,
                -0.415454238653183,
                0.24666017293930055,
                -0.5837534666061401,
                -0.6104583144187927,
                0.16818258166313172,
                0.38839298486709597,
                -1.0042288303375245,
                0.9629442095756531,
                -0.09611619263887406,
                -0.9589162468910217,
                -0.12102892249822617,
                -0.3937202990055084,
                -0.8828582167625427,
                1.0171737670898438,
                0.3612649440765381,
                -1.799572467803955,
                -0.3354085087776184,
                0.06785862147808075,
                -0.673675537109375,
                -0.544531524181366,
                -0.1299625039100647,
                -0.27084624767303469,
                1.6761144399642945,
                -1.3772399425506592,
                0.8271347284317017,
                0.7331674695014954,
                -0.22905468940734864,
                -1.0457139015197755,
                -0.90948885679245,
                -0.6076835989952087,
                -0.19268189370632173,
                0.11782469600439072,
                -1.255262017250061,
                -0.3848455846309662,
                -1.034194827079773,
                -0.11649282276630402,
                -0.25552695989608767,
                0.6555484533309937,
                -0.8967399597167969,
                -0.768557608127594,
                -0.6772686243057251,
                0.653997004032135,
                -1.1098884344100953,
                -2.2131378650665285,
                -1.3856698274612427,
                0.5091509819030762,
                0.013510733842849732,
                2.1292784214019777,
                0.3693014085292816,
                0.3385585844516754,
                0.8816562294960022,
                -0.4702001214027405,
                -1.341289758682251,
                -0.05359723046422005,
                0.7336888313293457,
                -0.43285492062568667,
                0.9716321229934692,
                -0.18943104147911073,
                0.32267215847969057,
                -0.11965739727020264,
                -0.3578949272632599,
                0.43197715282440188,
                0.15239018201828004,
                1.6630750894546509,
                -0.9074182510375977,
                -0.3931420147418976,
                -0.23144406080245973,
                -1.1523889303207398,
                -0.5091630220413208,
                0.6642301082611084,
                0.8242376446723938,
                -0.21039986610412599,
                -0.5960317850112915,
                -1.8961172103881837,
                0.3411250114440918,
                1.4149073362350464,
                -0.12001368403434754,
                0.829828679561615,
                0.8283484578132629,
                0.8493993878364563,
                -1.2629846334457398,
                0.37215909361839297,
                -0.05408246070146561,
                -0.30909132957458498,
                -0.5601462125778198,
                -0.07455844432115555,
                0.33124858140945437,
                -0.12562473118305207,
                -0.8478691577911377,
                0.256733238697052,
                -0.7136228084564209,
                -1.6472288370132447,
                -0.7569125890731812,
                0.4378686845302582,
                -0.48179930448532107,
                -0.7977457046508789,
                -0.9570875763893127,
                -1.3043103218078614,
                0.5156987905502319,
                0.7888910174369812,
                -0.551039457321167,
                0.6823272705078125,
                -0.5548925995826721,
                0.697371244430542,
                0.9380526542663574,
                0.9881759881973267,
                -0.8009167909622192,
                0.7584366798400879,
                -1.0122663974761963,
                0.06762769818305969,
                0.8313069343566895,
                1.104777216911316,
                -2.314457654953003,
                -0.0026156343519687654,
                -2.0228233337402345,
                0.7453448176383972,
                -0.2013886272907257,
                -0.4777994453907013,
                -0.14103050529956819,
                1.523503065109253,
                -0.045469317585229877,
                -1.1586525440216065,
                -0.4623925983905792,
                -0.720562756061554,
                -0.8143172860145569,
                -1.807093858718872,
                -0.07363246381282807
            ],
            "fitness": 40.97530746459961,
            "npcType": 1,
            "outputLockStatus": [
                false,
                false,
                false,
                false
            ]
        },
        {
            "layers": [
                8,
                8,
                6,
                4
            ],
            "flattenedWeights": [
                -0.6449573636054993,
                0.5630382895469666,
                1.4725944995880128,
                0.6411911845207214,
                1.8660601377487183,
                0.6657864451408386,
                -1.3975090980529786,
                -0.842779815196991,
                0.5848495960235596,
                -0.36466681957244875,
                0.5747900009155273,
                -0.6454422473907471,
                -0.5391366481781006,
                0.2879527509212494,
                0.39431530237197878,
                -0.6746939420700073,
                0.8891865611076355,
                -0.014366745948791504,
                -0.9547771215438843,
                0.05250180512666702,
                -0.31136584281921389,
                -0.8276264667510986,
                1.1016236543655396,
                0.4457927346229553,
                -1.794507384300232,
                -0.3354085087776184,
                -0.10621827840805054,
                -0.7594761252403259,
                -0.6104453802108765,
                -0.0680164024233818,
                -0.23862624168395997,
                1.543168544769287,
                -1.5809043645858765,
                0.7747156023979187,
                0.6848300099372864,
                -0.2524518072605133,
                -0.8601825833320618,
                -0.9367542862892151,
                -0.6076835989952087,
                -0.07078880816698075,
                0.26513195037841799,
                -0.9885324239730835,
                -0.46193602681159975,
                -1.021324872970581,
                -0.2098933458328247,
                -0.17029766738414765,
                0.6555484533309937,
                -0.9305359125137329,
                -1.0097860097885132,
                -0.6575967073440552,
                0.6334545612335205,
                -1.1098884344100953,
                -2.1449925899505617,
                -1.519787073135376,
                0.5399099588394165,
                0.076448954641819,
                2.0378377437591554,
                0.33053797483444216,
                0.3385585844516754,
                0.9657792448997498,
                -0.3945200741291046,
                -1.2290080785751343,
                -0.12519851326942445,
                0.7757936120033264,
                -0.7294611930847168,
                0.931032121181488,
                -0.2232145518064499,
                0.3093663156032562,
                -0.1635494977235794,
                -0.2501659095287323,
                0.41994571685791018,
                0.2096633017063141,
                1.7085864543914796,
                -0.9074182510375977,
                -0.46435514092445376,
                -0.2659456729888916,
                -1.209802269935608,
                -0.6111605167388916,
                0.6008250117301941,
                0.927634596824646,
                -0.09282676130533219,
                -0.5642064809799194,
                -1.819114327430725,
                0.3928629159927368,
                1.305530309677124,
                -0.02110438421368599,
                0.7412366271018982,
                0.5204893946647644,
                0.9301602840423584,
                -1.0977263450622559,
                0.5105015635490418,
                -0.12204329669475556,
                -0.17102186381816865,
                -0.6377385854721069,
                -0.2171594798564911,
                0.33124858140945437,
                -0.16671818494796754,
                -0.9884566068649292,
                0.09333115071058274,
                -0.7142814993858337,
                -1.6472288370132447,
                -0.853197455406189,
                0.3890794515609741,
                -0.6176742911338806,
                -0.7596114873886108,
                -1.2045412063598633,
                -1.2494590282440186,
                0.34742772579193118,
                1.1582900285720826,
                -0.487618088722229,
                0.6240516304969788,
                -0.48989278078079226,
                0.5739439129829407,
                1.0211806297302247,
                0.9005190134048462,
                -0.6300245523452759,
                0.4773523211479187,
                -0.9148396253585815,
                -0.10072460770606995,
                0.6090672612190247,
                1.3037537336349488,
                -2.1824252605438234,
                -0.10296059399843216,
                -1.833379864692688,
                0.6733396649360657,
                -0.1167711392045021,
                -0.4777994453907013,
                -0.11682488024234772,
                1.5761796236038209,
                -0.045469317585229877,
                -1.0927215814590455,
                -0.5038500428199768,
                -0.6274958252906799,
                -0.920335054397583,
                -1.946840763092041,
                -0.1797758936882019
            ],
            "fitness": 39.744239807128909,
            "npcType": 1,
            "outputLockStatus": [
                false,
                false,
                false,
                false
            ]
        },
        {
            "layers": [
                8,
                8,
                6,
                4
            ],
            "flattenedWeights": [
                -0.6954992413520813,
                0.6215282678604126,
                1.4725944995880128,
                0.7906365394592285,
                1.820715069770813,
                0.7328105568885803,
                -1.3498475551605225,
                -1.0034255981445313,
                0.5239816904067993,
                -0.42261406779289248,
                0.5494336485862732,
                -0.6454422473907471,
                -0.49475720524787905,
                0.23209016025066377,
                0.35523441433906557,
                -0.6746676564216614,
                0.9629442095756531,
                0.01330837607383728,
                -1.110396385192871,
                -0.12102892249822617,
                -0.42167896032333376,
                -0.9645199775695801,
                0.9755004048347473,
                0.3612649440765381,
                -1.8537323474884034,
                -0.3354085087776184,
                0.056347157806158069,
                -0.6779440641403198,
                -0.544531524181366,
                0.02801622450351715,
                0.023885905742645265,
                1.7072633504867554,
                -1.629960298538208,
                0.9494536519050598,
                0.7331674695014954,
                -0.18423151969909669,
                -1.0244617462158204,
                -0.9471428990364075,
                -0.5054326057434082,
                -0.19268189370632173,
                0.18361228704452516,
                -1.0268995761871338,
                -0.4747619330883026,
                -0.9893088340759277,
                -0.1804053783416748,
                -0.2406887412071228,
                0.6555484533309937,
                -1.0222569704055787,
                -1.0653141736984254,
                -0.7348994612693787,
                0.653997004032135,
                -1.096691608428955,
                -2.1829946041107179,
                -1.3856698274612427,
                0.5091509819030762,
                0.09049703925848007,
                2.115110158920288,
                0.38386261463165285,
                0.3385585844516754,
                0.9657792448997498,
                -0.4702001214027405,
                -1.2290080785751343,
                -0.29802143573760989,
                0.9504842162132263,
                -0.5848119854927063,
                0.931032121181488,
                -0.2232145518064499,
                0.43813762068748476,
                -0.06583578139543534,
                -0.21586421132087708,
                0.3540187180042267,
                0.2096633017063141,
                1.6630750894546509,
                -0.9074182510375977,
                -0.28837230801582339,
                -0.20658181607723237,
                -0.9371522665023804,
                -0.4388689398765564,
                0.6642301082611084,
                0.9372409582138062,
                -0.44677186012268069,
                -0.5960317850112915,
                -1.8821877241134644,
                0.3575356900691986,
                1.4329915046691895,
                -0.08041654527187348,
                0.7612661719322205,
                0.364124596118927,
                0.8174819946289063,
                -1.0383694171905518,
                0.5202266573905945,
                -0.19933494925498963,
                -0.30909132957458498,
                -0.5601462125778198,
                -0.2171594798564911,
                0.33124858140945437,
                -0.09844741970300675,
                -0.8478691577911377,
                0.09333115071058274,
                -0.6852988004684448,
                -1.5513042211532593,
                -0.848986029624939,
                0.4378686845302582,
                -0.5692147016525269,
                -0.7807561159133911,
                -0.9773100018501282,
                -1.143772006034851,
                0.5383533239364624,
                1.1176388263702393,
                -0.551039457321167,
                0.612524688243866,
                -0.5117585062980652,
                0.697371244430542,
                0.877310037612915,
                1.0552104711532593,
                -0.8009167909622192,
                0.49123984575271609,
                -1.0122663974761963,
                0.03616155683994293,
                0.8313069343566895,
                1.179612159729004,
                -2.314457654953003,
                -0.17852383852005006,
                -1.8922929763793946,
                0.7453448176383972,
                -0.3012663424015045,
                -0.566670835018158,
                -0.11682488024234772,
                1.523503065109253,
                -0.045469317585229877,
                -1.0804431438446046,
                -0.5038500428199768,
                -0.8040493726730347,
                -0.979383647441864,
                -1.7390881776809693,
                -0.06555850058794022
            ],
            "fitness": 34.70586013793945,
            "npcType": 1,
            "outputLockStatus": [
                false,
                false,
                false,
                false
            ]
        },
        {
            "layers": [
                8,
                8,
                6,
                4
            ],
            "flattenedWeights": [
                -0.30222654342651369,
                1.256630778312683,
                -0.9691500663757324,
                -0.48288896679878237,
                -0.5456387400627136,
                0.4995340406894684,
                1.3130148649215699,
                0.8803555965423584,
                1.0263224840164185,
                0.21579048037528993,
                -2.3122060298919679,
                -1.3694380521774293,
                1.6228091716766358,
                -0.17723491787910462,
                -1.4045908451080323,
                -0.09276188910007477,
                -0.4551946520805359,
                0.8629181385040283,
                -1.202405333518982,
                0.12789012491703034,
                -0.3759981095790863,
                0.949516236782074,
                0.5064157247543335,
                0.4013844132423401,
                -0.6507871150970459,
                -0.3286292552947998,
                -0.5006889700889587,
                -1.1826753616333008,
                0.9430315494537354,
                0.8686680793762207,
                -0.5604568123817444,
                -0.11682990193367005,
                -0.44712674617767336,
                0.47913363575935366,
                -0.03263235092163086,
                0.5190001130104065,
                0.6316729784011841,
                1.0157365798950196,
                1.3912217617034913,
                -0.9878446459770203,
                -0.11003748327493668,
                -1.6376721858978272,
                0.22955213487148286,
                -0.08362340927124024,
                0.3179100751876831,
                1.12149977684021,
                1.0152509212493897,
                -0.652497410774231,
                -0.48325419425964358,
                0.9125257134437561,
                0.5752471089363098,
                0.3527206778526306,
                0.613446831703186,
                0.142073854804039,
                0.1952822059392929,
                -1.2355343103408814,
                0.8203819990158081,
                0.7667610049247742,
                1.1692166328430176,
                0.1783534735441208,
                2.0319740772247316,
                0.6878601908683777,
                -0.003063201904296875,
                -0.9513598084449768,
                -0.18480072915554048,
                1.3400615453720093,
                -0.0412282720208168,
                -0.8897342681884766,
                0.06326804310083389,
                -0.9054329991340637,
                0.9054806232452393,
                -1.204616665840149,
                -0.6264292597770691,
                0.4313335120677948,
                0.9632120728492737,
                -0.5862383246421814,
                0.06670524179935456,
                -1.1573892831802369,
                0.04374351352453232,
                -1.2971845865249634,
                0.3033689558506012,
                0.9673033952713013,
                -0.4034128785133362,
                -0.3902173936367035,
                0.42582976818084719,
                1.0427826642990113,
                0.34350988268852236,
                -0.09730788320302963,
                -0.16330207884311677,
                1.146344542503357,
                0.07756920158863068,
                -0.47858864068984988,
                -0.4780174791812897,
                1.6072922945022584,
                1.0916374921798707,
                0.6196288466453552,
                0.2534719407558441,
                0.7457220554351807,
                -0.133206307888031,
                0.08867622166872025,
                -0.7038800120353699,
                -1.9419195652008057,
                0.6755796670913696,
                1.1690508127212525,
                -1.5426695346832276,
                -0.5628918409347534,
                -1.7034895420074463,
                0.27980872988700869,
                -0.6588141322135925,
                -1.3638931512832642,
                -0.6799986362457275,
                0.5951278805732727,
                0.015945933759212495,
                0.6052659153938294,
                0.2572374939918518,
                -0.5342925786972046,
                -0.11954362690448761,
                1.9197615385055543,
                -0.5795925855636597,
                0.19006988406181336,
                0.6152122020721436,
                -1.1766847372055054,
                0.3304978013038635,
                0.28179559111595156,
                -0.20907309651374818,
                0.34880608320236208,
                -1.6636658906936646,
                0.15678659081459046,
                -0.33741310238838198,
                0.6703326106071472,
                -0.17490074038505555,
                -1.0422732830047608,
                1.423092007637024,
                0.3052639663219452,
                0.8960379958152771,
                0.43398889899253847
            ],
            "fitness": 33.479557037353519,
            "npcType": 0,
            "outputLockStatus": [
                false,
                false,
                false,
                false
            ]
        }
    ],
    "timestamp": "2025-05-12 15:06:41"
}