{
    "generation": 645,
    "bestFitness": 88.43761444091797,
    "averageFitness": 28.665014266967775,
    "worstFitness": 0.0,
    "networks": [
        {
            "layers": [
                8,
                8,
                6,
                4
            ],
            "flattenedWeights": [
                -1.205506443977356,
                1.374043583869934,
                1.5445002317428589,
                0.06611602008342743,
                1.896682620048523,
                0.5606802701950073,
                -1.7519100904464722,
                -1.4590914249420167,
                1.2384908199310303,
                0.14765521883964539,
                0.8812046051025391,
                -0.6002274751663208,
                -1.064781665802002,
                -0.5175686478614807,
                0.5529184937477112,
                -0.06561580300331116,
                2.385179042816162,
                -0.14611634612083436,
                -0.30781856179237368,
                -0.22404895722866059,
                0.0467781126499176,
                -0.37765634059906008,
                0.7049958109855652,
                0.38124436140060427,
                -1.3140623569488526,
                -0.4447353482246399,
                -0.42390546202659609,
                -1.0231043100357056,
                -1.429425835609436,
                -0.5290616750717163,
                0.4451881945133209,
                1.534019947052002,
                -1.9704103469848633,
                0.34781599044799807,
                1.2991268634796143,
                -0.41039082407951357,
                -0.7014101147651672,
                0.3732394278049469,
                -0.8337212800979614,
                -0.32731062173843386,
                0.6154870986938477,
                -2.1430671215057375,
                -1.2463406324386597,
                -2.538963794708252,
                0.38493162393569949,
                0.196120947599411,
                1.0447579622268677,
                -0.9063953161239624,
                -0.5613662600517273,
                -0.8767070770263672,
                0.33007368445396426,
                -1.2431946992874146,
                -3.6835145950317385,
                -1.902877688407898,
                0.6192805171012878,
                0.21305066347122193,
                1.131209373474121,
                0.15249311923980714,
                0.6289502382278442,
                1.6606587171554566,
                -0.765400767326355,
                -3.613999366760254,
                -1.164072036743164,
                1.3364617824554444,
                -0.5532901883125305,
                1.4257336854934693,
                0.3595189154148102,
                -0.23237821459770204,
                -0.7008602619171143,
                -0.6647571325302124,
                0.9914889931678772,
                1.3096617460250855,
                1.4769281148910523,
                -0.6131401658058167,
                0.666675329208374,
                -0.5122263431549072,
                -1.2470102310180665,
                -0.8860819935798645,
                0.6744587421417236,
                0.6607634425163269,
                -0.27142995595932009,
                -0.47249457240104678,
                -3.1406872272491457,
                -0.13224564492702485,
                2.2776522636413576,
                1.1864677667617798,
                0.968040943145752,
                0.45198774337768557,
                0.9208991527557373,
                0.4740711748600006,
                0.550255298614502,
                0.2544187307357788,
                0.2749858796596527,
                -0.33809155225753786,
                0.8261783719062805,
                0.9487603306770325,
                -0.26744309067726138,
                -1.3003476858139039,
                -0.08797743916511536,
                -2.337473154067993,
                -1.712243914604187,
                -2.2009589672088625,
                0.021140724420547487,
                0.059809766709804538,
                -0.8826779723167419,
                -1.4948735237121583,
                -0.050369322299957278,
                0.42940184473991396,
                1.0327012538909913,
                -0.251676082611084,
                0.914802610874176,
                -0.7953444123268127,
                1.5574458837509156,
                0.6303507089614868,
                0.7051298022270203,
                -1.834352731704712,
                0.2816764712333679,
                -1.3360137939453126,
                -1.093224287033081,
                0.6899317502975464,
                1.3021451234817505,
                -1.929715871810913,
                0.49728894233703616,
                -2.036186695098877,
                1.1680760383605958,
                -0.8150901198387146,
                -0.766177773475647,
                0.06542087346315384,
                2.088132858276367,
                -0.4209870994091034,
                -0.7691047787666321,
                -0.9681423306465149,
                -1.065204381942749,
                -1.563621163368225,
                -2.2896182537078859,
                0.09856244176626206
            ],
            "fitness": 88.43761444091797,
            "npcType": 1,
            "outputLockStatus": [
                false,
                false,
                false,
                false
            ]
        },
        {
            "layers": [
                8,
                8,
                6,
                4
            ],
            "flattenedWeights": [
                -1.1570899486541749,
                1.4591789245605469,
                1.6081433296203614,
                0.1607326865196228,
                1.9274535179138184,
                0.46968895196914675,
                -1.7519100904464722,
                -1.3690471649169922,
                1.2672523260116578,
                0.22972287237644196,
                0.9388691186904907,
                -0.6041232943534851,
                -1.0615074634552003,
                -0.438076376914978,
                0.5529184937477112,
                0.0009175240993499756,
                2.385179042816162,
                -0.16787698864936829,
                -0.3725909888744354,
                -0.22404895722866059,
                -0.01471950113773346,
                -0.793039858341217,
                0.6305123567581177,
                0.38124436140060427,
                -1.1612352132797242,
                -0.5357235670089722,
                -0.42390546202659609,
                -1.0126278400421143,
                -1.5278446674346924,
                -0.5130720734596252,
                0.4451881945133209,
                1.6511980295181275,
                -1.8136652708053589,
                0.34781599044799807,
                1.3462525606155396,
                -0.3187468945980072,
                -0.9536254405975342,
                0.619139552116394,
                -0.9278856515884399,
                -0.318067342042923,
                0.6404244899749756,
                -2.1118457317352297,
                -1.2463406324386597,
                -2.4716572761535646,
                0.32244759798049929,
                0.1447000652551651,
                0.9841502904891968,
                -0.9063953161239624,
                -0.6091738939285278,
                -0.8443965911865234,
                0.33007368445396426,
                -1.129310131072998,
                -3.694493055343628,
                -1.7275021076202393,
                0.37896254658699038,
                0.1785261631011963,
                1.1004077196121216,
                0.024497874081134797,
                0.7290688753128052,
                1.5841784477233887,
                -0.7293172478675842,
                -3.613999366760254,
                -1.1364847421646119,
                1.2018182277679444,
                -0.49787944555282595,
                1.449008822441101,
                0.44097909331321719,
                -0.15123724937438966,
                -0.6108884215354919,
                -0.6729270815849304,
                1.0060011148452759,
                1.1799172163009644,
                1.3701344728469849,
                -0.6169494390487671,
                0.666675329208374,
                -0.5595818758010864,
                -1.3467735052108765,
                -0.968208909034729,
                0.6668283343315125,
                0.605769693851471,
                -0.052016619592905048,
                -0.47249457240104678,
                -3.0315520763397219,
                -0.13224564492702485,
                2.3243885040283205,
                1.2066617012023926,
                0.8668882250785828,
                0.5893743634223938,
                0.8824610114097595,
                0.3635781407356262,
                0.550255298614502,
                0.35044682025909426,
                0.2629980444908142,
                -0.33809155225753786,
                1.070859670639038,
                0.9291028380393982,
                0.09689949452877045,
                -1.238804817199707,
                -0.19407442212104798,
                -2.3023476600646974,
                -1.4731006622314454,
                -2.2516205310821535,
                0.12117605656385422,
                0.0719112679362297,
                -0.9557571411132813,
                -1.3680397272109986,
                -0.2160370945930481,
                0.41814520955085757,
                1.0327012538909913,
                -0.10417740792036057,
                0.892303466796875,
                -0.6445418000221252,
                1.6397439241409302,
                0.7245084047317505,
                0.7051298022270203,
                -1.8121814727783204,
                0.24409562349319459,
                -1.3409475088119507,
                -1.0316731929779053,
                0.7567796111106873,
                1.3790969848632813,
                -1.9149491786956788,
                0.49728894233703616,
                -1.9455755949020386,
                1.1680760383605958,
                -0.8662206530570984,
                -0.766177773475647,
                -0.011247918009757996,
                2.033256769180298,
                -0.25057458877563479,
                -0.8972887396812439,
                -0.8346803784370422,
                -0.997569739818573,
                -1.5671672821044922,
                -2.261495351791382,
                0.17392988502979279
            ],
            "fitness": 85.76298522949219,
            "npcType": 1,
            "outputLockStatus": [
                false,
                false,
                false,
                false
            ]
        },
        {
            "layers": [
                8,
                8,
                6,
                4
            ],
            "flattenedWeights": [
                -1.1311066150665284,
                1.4835752248764039,
                1.4634532928466797,
                0.1578846573829651,
                1.9210748672485352,
                0.6145612597465515,
                -1.8066941499710084,
                -1.51506769657135,
                1.4135571718215943,
                0.22972287237644196,
                0.9084477424621582,
                -0.6642224192619324,
                -1.063302755355835,
                -0.1971806138753891,
                1.0834335088729859,
                0.0009175240993499756,
                2.385179042816162,
                -0.14880672097206117,
                -0.3949155807495117,
                -0.22404895722866059,
                0.048334959894418719,
                -0.7085422277450562,
                0.7133864164352417,
                0.3006734251976013,
                -1.2490941286087037,
                -0.5357235670089722,
                -0.33912965655326846,
                -1.0231043100357056,
                -1.5557501316070557,
                -0.536310613155365,
                0.5903005003929138,
                1.6566083431243897,
                -1.7827013731002808,
                0.34781599044799807,
                1.1395807266235352,
                -0.21202263236045838,
                -0.7014101147651672,
                0.4848536550998688,
                -0.9278856515884399,
                -0.40233421325683596,
                0.6154870986938477,
                -2.1314594745635988,
                -1.2463406324386597,
                -2.5235230922698976,
                0.3321138918399811,
                0.05609920620918274,
                0.9574982523918152,
                -0.8603363633155823,
                -0.5474690794944763,
                -0.874605119228363,
                0.33007368445396426,
                -1.3140963315963746,
                -3.6835145950317385,
                -1.655810832977295,
                0.4264642000198364,
                0.21305066347122193,
                1.0415680408477784,
                0.03857068344950676,
                0.6557052731513977,
                1.6562602519989014,
                -0.6464194059371948,
                -3.668980598449707,
                -1.0590437650680543,
                1.0703164339065552,
                -0.40247058868408205,
                1.3974964618682862,
                0.24009323120117188,
                -0.060697346925735477,
                -0.8602513670921326,
                -0.6019271612167358,
                0.8930683135986328,
                1.5783199071884156,
                1.365759015083313,
                -0.4530637264251709,
                0.6272717714309692,
                -0.6162611246109009,
                -1.2082018852233887,
                -1.0504947900772095,
                0.6724900603294373,
                0.6469765901565552,
                -0.048335809260606769,
                -0.47249457240104678,
                -3.0315520763397219,
                -0.13224564492702485,
                2.2431750297546388,
                1.2129685878753663,
                0.9835631847381592,
                0.5893743634223938,
                0.9027498960494995,
                0.4369244873523712,
                0.42024773359298708,
                0.3104674220085144,
                0.2727966606616974,
                -0.33809155225753786,
                0.8261783719062805,
                0.9126247763633728,
                0.028263621032238008,
                -1.3003476858139039,
                -0.01641787588596344,
                -2.3803985118865969,
                -1.712243914604187,
                -2.241271495819092,
                0.10172794759273529,
                0.0719112679362297,
                -0.9142411351203919,
                -1.3680397272109986,
                -0.1062629297375679,
                0.42940184473991396,
                1.06253182888031,
                -0.16394872963428498,
                0.892303466796875,
                -0.6775055527687073,
                1.5574458837509156,
                0.8014247417449951,
                0.6249458193778992,
                -1.8121814727783204,
                0.2818949222564697,
                -1.1492828130722047,
                -1.0024932622909547,
                0.6799607872962952,
                1.3021451234817505,
                -1.929715871810913,
                0.40533965826034548,
                -1.8735487461090088,
                1.3920875787734986,
                -0.8260518908500671,
                -0.766177773475647,
                -0.0928540825843811,
                2.1520042419433595,
                -0.24408859014511109,
                -0.5983521938323975,
                -0.8346803784370422,
                -1.0345088243484498,
                -1.5685093402862549,
                -2.379056215286255,
                0.18393585085868836
            ],
            "fitness": 68.09146118164063,
            "npcType": 1,
            "outputLockStatus": [
                false,
                false,
                false,
                false
            ]
        },
        {
            "layers": [
                8,
                8,
                6,
                4
            ],
            "flattenedWeights": [
                -1.2263848781585694,
                1.5135183334350587,
                1.4634532928466797,
                0.1578846573829651,
                1.8559479713439942,
                0.5481205582618713,
                -1.4107229709625245,
                -1.4693886041641236,
                1.4584553241729737,
                0.22972287237644196,
                0.8812046051025391,
                -0.6297542452812195,
                -1.1607621908187867,
                -0.22402700781822205,
                1.0834335088729859,
                -0.23091551661491395,
                2.2353267669677736,
                -0.2246881127357483,
                -0.3949155807495117,
                -0.22404895722866059,
                -0.050849203020334247,
                -0.7907058000564575,
                0.7133864164352417,
                0.3006734251976013,
                -1.2600542306900025,
                -0.6269115805625916,
                -0.33912965655326846,
                -0.9995215535163879,
                -1.57050621509552,
                -0.5290616750717163,
                0.5075259804725647,
                1.6387850046157838,
                -1.7827013731002808,
                0.34781599044799807,
                1.1164257526397706,
                -0.21202263236045838,
                -0.8811250925064087,
                0.4859546422958374,
                -0.9278856515884399,
                -0.40233421325683596,
                0.6470710039138794,
                -2.1703505516052248,
                -1.068174123764038,
                -2.5235230922698976,
                0.3321138918399811,
                0.14282190799713136,
                1.0612940788269044,
                -0.9972292184829712,
                -0.5474690794944763,
                -0.874605119228363,
                0.3338698446750641,
                -1.2970020771026612,
                -3.550586700439453,
                -1.729487657546997,
                0.6970652341842651,
                0.10354822874069214,
                1.0580395460128785,
                0.16891245543956757,
                0.6704610586166382,
                1.7027798891067505,
                -0.6881552934646606,
                -3.5333333015441896,
                -0.9846280217170715,
                1.1129385232925416,
                -0.40247058868408205,
                1.4222190380096436,
                0.24009323120117188,
                0.039003320038318637,
                -0.8023231625556946,
                -0.5876595973968506,
                1.0774284601211548,
                1.5181522369384766,
                1.4899091720581055,
                -0.5427016615867615,
                0.6024599671363831,
                -0.6296188235282898,
                -1.1782625913619996,
                -1.1468968391418458,
                0.6724900603294373,
                0.6469765901565552,
                -0.052016619592905048,
                -0.44715696573257449,
                -3.040454149246216,
                -0.43253764510154726,
                2.259049415588379,
                1.2129685878753663,
                1.015626311302185,
                0.46976086497306826,
                0.5925829410552979,
                0.3840385675430298,
                0.4407459497451782,
                0.19129864871501923,
                0.2727966606616974,
                -0.3990277349948883,
                0.8261783719062805,
                0.8976284265518189,
                0.028263621032238008,
                -1.2818350791931153,
                -0.039179444313049319,
                -2.4209394454956056,
                -1.712243914604187,
                -2.1867263317108156,
                0.10479166358709336,
                0.0398554690182209,
                -0.8826779723167419,
                -1.3680397272109986,
                -0.1981770545244217,
                0.42940184473991396,
                1.0583122968673707,
                -0.16394872963428498,
                0.914802610874176,
                -0.7013397216796875,
                1.501725435256958,
                0.8014247417449951,
                0.7043564915657044,
                -1.6309365034103394,
                0.2818949222564697,
                -1.133549451828003,
                -1.0024932622909547,
                0.7792396545410156,
                1.3027030229568482,
                -1.929715871810913,
                0.40533965826034548,
                -1.8735487461090088,
                1.3920875787734986,
                -0.8260518908500671,
                -0.634128749370575,
                -0.11407327651977539,
                2.0991952419281008,
                -0.24408859014511109,
                -0.5983521938323975,
                -0.7991940379142761,
                -1.137982726097107,
                -1.525282382965088,
                -2.2829947471618654,
                0.1781032383441925
            ],
            "fitness": 67.27152252197266,
            "npcType": 1,
            "outputLockStatus": [
                false,
                false,
                false,
                false
            ]
        },
        {
            "layers": [
                8,
                8,
                6,
                4
            ],
            "flattenedWeights": [
                -1.1184073686599732,
                1.4591789245605469,
                1.5470465421676636,
                0.1578846573829651,
                1.8559479713439942,
                0.588136613368988,
                -1.4738532304763795,
                -1.4678524732589722,
                1.4534860849380494,
                0.17320182919502259,
                0.9143896102905273,
                -0.5599002838134766,
                -1.1607621908187867,
                -0.1971806138753891,
                1.1346760988235474,
                -0.23091551661491395,
                2.2351322174072267,
                -0.2785428762435913,
                -0.5088726282119751,
                -0.20195621252059937,
                -0.050849203020334247,
                -0.7715628147125244,
                0.7133864164352417,
                0.3006734251976013,
                -1.1612352132797242,
                -0.6576554775238037,
                -0.33912965655326846,
                -0.9995215535163879,
                -1.5912690162658692,
                -0.5708156824111939,
                0.4451881945133209,
                1.6946256160736085,
                -1.7362812757492066,
                0.34781599044799807,
                1.0366368293762208,
                -0.21202263236045838,
                -0.8421362638473511,
                0.4848536550998688,
                -0.9510049223899841,
                -0.37710145115852358,
                0.7010636329650879,
                -2.2358691692352297,
                -1.068174123764038,
                -2.455143451690674,
                0.3321138918399811,
                0.1912209689617157,
                1.0658583641052247,
                -0.9847160577774048,
                -0.5474690794944763,
                -0.874605119228363,
                0.3295642137527466,
                -1.2970020771026612,
                -3.6365737915039064,
                -1.7658147811889649,
                0.6970652341842651,
                0.16427169740200044,
                1.168890118598938,
                0.1913229078054428,
                0.6951757073402405,
                1.7027798891067505,
                -0.6881552934646606,
                -3.517186164855957,
                -1.1244834661483765,
                1.106017827987671,
                -0.40247058868408205,
                1.3974964618682862,
                0.32101914286613467,
                -0.0008052773773670197,
                -0.6575595736503601,
                -0.6079674363136292,
                0.9914889931678772,
                1.5869140625,
                1.412263035774231,
                -0.5427016615867615,
                0.7062991857528687,
                -0.5595818758010864,
                -1.1782625913619996,
                -1.0614101886749268,
                0.5664511919021606,
                0.6891865730285645,
                -0.06142076477408409,
                -0.44715696573257449,
                -3.040454149246216,
                -0.4749925136566162,
                2.2360122203826906,
                1.2476625442504883,
                1.0366907119750977,
                0.4710529148578644,
                0.5442276000976563,
                0.3635781407356262,
                0.4407459497451782,
                0.2918521761894226,
                0.2727966606616974,
                -0.28349345922470095,
                0.8545393943786621,
                0.8976284265518189,
                0.028263621032238008,
                -1.2155277729034424,
                -0.31486889719963076,
                -2.3803985118865969,
                -1.5454530715942383,
                -2.2009589672088625,
                0.18578848242759705,
                0.10859346389770508,
                -0.8826779723167419,
                -1.3680397272109986,
                -0.13876494765281678,
                0.42940184473991396,
                0.9602007865905762,
                -0.16394872963428498,
                0.8658166527748108,
                -0.7162845730781555,
                1.501725435256958,
                0.706335723400116,
                0.7043564915657044,
                -1.7248883247375489,
                0.4074653387069702,
                -1.1358038187026978,
                -1.0024932622909547,
                0.758511483669281,
                1.3027030229568482,
                -1.929715871810913,
                0.3553761839866638,
                -1.8083072900772095,
                1.3344337940216065,
                -0.8260518908500671,
                -0.5429242849349976,
                -0.0928540825843811,
                2.1520042419433595,
                -0.26245635747909548,
                -0.7815304398536682,
                -0.7676802277565002,
                -1.1526422500610352,
                -1.5122950077056885,
                -2.247112274169922,
                0.1781032383441925
            ],
            "fitness": 62.46108627319336,
            "npcType": 1,
            "outputLockStatus": [
                false,
                false,
                false,
                false
            ]
        },
        {
            "layers": [
                8,
                8,
                6,
                4
            ],
            "flattenedWeights": [
                -1.007673978805542,
                1.4591789245605469,
                1.5296778678894044,
                0.25186654925346377,
                1.9338419437408448,
                0.6619136929512024,
                -1.5314565896987916,
                -1.4392575025558472,
                1.2252558469772339,
                0.35076749324798586,
                0.8291401863098145,
                -0.5159928202629089,
                -1.1766846179962159,
                -0.334240585565567,
                0.5529184937477112,
                -0.121937096118927,
                2.218280792236328,
                -0.17973563075065614,
                -0.27793288230895998,
                -0.2764277458190918,
                -0.052676375955343249,
                -0.6168472170829773,
                0.6305123567581177,
                0.46688681840896609,
                -1.34013831615448,
                -0.5357235670089722,
                -0.2505841851234436,
                -1.0553643703460694,
                -1.5287261009216309,
                -0.436818927526474,
                0.4451881945133209,
                1.6320781707763672,
                -1.9704103469848633,
                0.34781599044799807,
                1.2871485948562623,
                -0.3556058704853058,
                -0.7014101147651672,
                0.3732394278049469,
                -0.9278856515884399,
                -0.19406114518642426,
                0.7140158414840698,
                -2.1430671215057375,
                -1.2442071437835694,
                -2.383100986480713,
                0.5798913836479187,
                0.19546347856521607,
                1.1054136753082276,
                -0.8958949446678162,
                -0.5474690794944763,
                -0.8057018518447876,
                0.5035460591316223,
                -1.331352710723877,
                -3.7341909408569338,
                -1.8760093450546265,
                0.7540806531906128,
                0.14143593609333039,
                1.1264421939849854,
                0.08749745786190033,
                0.706139862537384,
                1.703513503074646,
                -0.7271879315376282,
                -3.5610270500183107,
                -1.2331408262252808,
                1.0703164339065552,
                -0.4461725950241089,
                1.3836690187454224,
                0.44097909331321719,
                -0.26955685019493105,
                -0.8602513670921326,
                -0.8087140917778015,
                0.9914889931678772,
                1.3310283422470093,
                1.4769281148910523,
                -0.7742443084716797,
                0.7255289554595947,
                -0.5595818758010864,
                -1.341666579246521,
                -1.0895038843154908,
                0.7651904225349426,
                0.6859673857688904,
                -0.03067120909690857,
                -0.5164616107940674,
                -3.1406872272491457,
                -0.1338028609752655,
                2.3676204681396486,
                1.1864677667617798,
                0.9835631847381592,
                0.45198774337768557,
                0.6329820156097412,
                0.3635781407356262,
                0.550255298614502,
                0.35044682025909426,
                0.2727966606616974,
                -0.33904537558555605,
                0.771513819694519,
                1.006723403930664,
                0.013119213283061982,
                -1.3526421785354615,
                -0.11695493012666702,
                -2.308838129043579,
                -1.712243914604187,
                -2.212360382080078,
                0.2902590334415436,
                0.059809766709804538,
                -0.9557571411132813,
                -1.2803298234939576,
                -0.1162487342953682,
                0.5076067447662354,
                1.0583122968673707,
                -0.10417740792036057,
                0.892303466796875,
                -0.7723271250724793,
                1.7888001203536988,
                0.6303507089614868,
                0.7308228015899658,
                -1.7892102003097535,
                0.2816764712333679,
                -1.1492828130722047,
                -1.0153535604476929,
                0.7792396545410156,
                1.3306353092193604,
                -1.9031476974487305,
                0.4388861358165741,
                -1.7953877449035645,
                1.3281400203704835,
                -0.9906172156333923,
                -0.7867536544799805,
                -0.03137221187353134,
                2.073931932449341,
                -0.4209870994091034,
                -0.7976308465003967,
                -0.9726006984710693,
                -1.080674648284912,
                -1.6098947525024415,
                -2.247112274169922,
                0.13216044008731843
            ],
            "fitness": 57.55820083618164,
            "npcType": 1,
            "outputLockStatus": [
                false,
                false,
                false,
                false
            ]
        },
        {
            "layers": [
                8,
                8,
                6,
                4
            ],
            "flattenedWeights": [
                -1.0838260650634766,
                1.4591789245605469,
                1.5609982013702393,
                0.1578846573829651,
                1.9210748672485352,
                0.5606802701950073,
                -1.4738532304763795,
                -1.3860100507736207,
                1.2384908199310303,
                0.25105559825897219,
                0.8812046051025391,
                -0.4870765209197998,
                -1.1607621908187867,
                -0.40963786840438845,
                0.5529184937477112,
                0.0009175240993499756,
                2.314542055130005,
                -0.13129284977912904,
                -0.5440552234649658,
                -0.17448222637176515,
                -0.050849203020334247,
                -0.6168472170829773,
                0.7133864164352417,
                0.38124436140060427,
                -1.2523802518844605,
                -0.5357235670089722,
                -0.42390546202659609,
                -1.0231043100357056,
                -1.5912690162658692,
                -0.5348314046859741,
                0.34878405928611758,
                1.6320781707763672,
                -1.7827013731002808,
                0.34781599044799807,
                1.0671272277832032,
                -0.41039082407951357,
                -1.2163006067276,
                0.4848536550998688,
                -0.9278856515884399,
                -0.3654337525367737,
                0.6154870986938477,
                -2.1430671215057375,
                -1.1131629943847657,
                -2.4247243404388429,
                0.400152325630188,
                0.14282190799713136,
                1.0447579622268677,
                -0.9063953161239624,
                -0.6091738939285278,
                -0.7887582182884216,
                0.33007368445396426,
                -1.2431946992874146,
                -3.6207499504089357,
                -1.8162952661514283,
                0.4264642000198364,
                0.3337130844593048,
                1.1363755464553834,
                0.18038949370384217,
                0.7088943123817444,
                1.7027798891067505,
                -0.6881552934646606,
                -3.613999366760254,
                -1.0493481159210206,
                1.0200071334838868,
                -0.5832661986351013,
                1.2645375728607178,
                0.28723227977752688,
                -0.21926423907279969,
                -0.8602513670921326,
                -0.618640661239624,
                0.9350427389144898,
                1.5373685359954835,
                1.4411671161651612,
                -0.5293323397636414,
                0.666675329208374,
                -0.5542119145393372,
                -1.1782625913619996,
                -1.0080010890960694,
                0.6307178735733032,
                0.6050347089767456,
                -0.052016619592905048,
                -0.5252023339271545,
                -3.0315520763397219,
                -0.39137524366378786,
                2.3243885040283205,
                1.1864677667617798,
                0.9202499985694885,
                0.5775152444839478,
                0.8658804893493652,
                0.40556877851486208,
                0.44652503728866579,
                0.321664422750473,
                0.18300247192382813,
                -0.32884764671325686,
                0.8261783719062805,
                0.9487603306770325,
                0.028263621032238008,
                -1.3003476858139039,
                -0.2880823612213135,
                -2.378201961517334,
                -1.4685114622116089,
                -2.2009589672088625,
                0.18578848242759705,
                0.0719112679362297,
                -0.9519539475440979,
                -1.3680397272109986,
                -0.1454663872718811,
                0.42940184473991396,
                1.1177139282226563,
                -0.27051842212677,
                0.914802610874176,
                -0.7912002205848694,
                1.505272388458252,
                0.772148072719574,
                0.6663858890533447,
                -1.8121814727783204,
                0.24085304141044618,
                -1.1492828130722047,
                -1.0024932622909547,
                0.6899317502975464,
                1.254020094871521,
                -1.9040379524230958,
                0.5270218253135681,
                -2.2186264991760256,
                1.1680760383605958,
                -0.8260518908500671,
                -0.766177773475647,
                -0.011247918009757996,
                1.965958595275879,
                -0.33216190338134768,
                -0.7976308465003967,
                -0.8907200694084168,
                -0.997569739818573,
                -1.5465213060379029,
                -2.2896182537078859,
                0.10301103442907334
            ],
            "fitness": 55.52503967285156,
            "npcType": 1,
            "outputLockStatus": [
                false,
                false,
                false,
                false
            ]
        },
        {
            "layers": [
                8,
                8,
                6,
                4
            ],
            "flattenedWeights": [
                -1.0838260650634766,
                1.4591789245605469,
                1.5769602060317994,
                0.10360928624868393,
                1.8559479713439942,
                0.5987060070037842,
                -1.4738532304763795,
                -1.4678524732589722,
                1.423598051071167,
                0.2674853801727295,
                0.7989722490310669,
                -0.6439338326454163,
                -1.1607621908187867,
                -0.1971806138753891,
                0.5529184937477112,
                0.0009175240993499756,
                2.314542055130005,
                -0.2187333106994629,
                -0.384250283241272,
                -0.22404895722866059,
                0.009618159383535385,
                -0.6348603963851929,
                0.7133864164352417,
                0.3006734251976013,
                -1.2523802518844605,
                -0.7102691531181336,
                -0.32298803329467776,
                -0.9995215535163879,
                -1.5912690162658692,
                -0.5290616750717163,
                0.5102089643478394,
                1.6802911758422852,
                -1.7827013731002808,
                0.3258320391178131,
                1.272323489189148,
                -0.41039082407951357,
                -1.130864143371582,
                0.5767775177955627,
                -0.8546582460403442,
                -0.33390164375305178,
                0.7010636329650879,
                -2.1049771308898927,
                -1.068174123764038,
                -2.4716572761535646,
                0.3321138918399811,
                0.14282190799713136,
                1.0822705030441285,
                -1.042480707168579,
                -0.5872927308082581,
                -0.874605119228363,
                0.3698536455631256,
                -1.2970020771026612,
                -3.7391226291656496,
                -1.7083619832992554,
                0.6111599206924439,
                0.3337130844593048,
                1.0580395460128785,
                0.10429612547159195,
                0.6198103427886963,
                1.7027798891067505,
                -0.6881552934646606,
                -3.590421199798584,
                -1.1750894784927369,
                1.1129385232925416,
                -0.5832661986351013,
                1.3006742000579835,
                0.28723227977752688,
                -0.18021750450134278,
                -0.7503387331962586,
                -0.6019271612167358,
                0.9729205965995789,
                1.6237155199050904,
                1.4411671161651612,
                -0.5427016615867615,
                0.6671278476715088,
                -0.5595818758010864,
                -1.1782625913619996,
                -1.0451172590255738,
                0.6724900603294373,
                0.5447244644165039,
                -0.052016619592905048,
                -0.5436043739318848,
                -3.040454149246216,
                -0.4009876251220703,
                2.283228635787964,
                1.2129685878753663,
                0.871570885181427,
                0.49768614768981936,
                0.5442276000976563,
                0.3635781407356262,
                0.4407459497451782,
                0.321664422750473,
                0.18300247192382813,
                -0.4162541627883911,
                0.8261783719062805,
                0.8559500575065613,
                0.028263621032238008,
                -1.2248761653900147,
                -0.2880823612213135,
                -2.3803985118865969,
                -1.4685114622116089,
                -2.2009589672088625,
                0.08797278255224228,
                0.0719112679362297,
                -0.8826779723167419,
                -1.3680397272109986,
                -0.1454663872718811,
                0.37331801652908327,
                1.0267579555511475,
                -0.013160914182662964,
                0.9259770512580872,
                -0.7912002205848694,
                1.5673145055770875,
                0.8014247417449951,
                0.7043564915657044,
                -1.718315601348877,
                0.1905340552330017,
                -1.1492828130722047,
                -0.9751420021057129,
                0.6899317502975464,
                1.254020094871521,
                -1.929715871810913,
                0.40533965826034548,
                -2.2186264991760256,
                1.323517084121704,
                -0.8260518908500671,
                -0.827771782875061,
                -0.0928540825843811,
                1.9854471683502198,
                -0.25057458877563479,
                -0.7976308465003967,
                -0.8346803784370422,
                -1.1526422500610352,
                -1.5130462646484376,
                -2.2829947471618654,
                0.10301103442907334
            ],
            "fitness": 54.976871490478519,
            "npcType": 1,
            "outputLockStatus": [
                false,
                false,
                false,
                false
            ]
        },
        {
            "layers": [
                8,
                8,
                6,
                4
            ],
            "flattenedWeights": [
                0.33778876066207888,
                1.0879920721054078,
                -1.1402575969696046,
                -0.13118481636047364,
                -0.5016128420829773,
                0.10146986693143845,
                1.5336302518844605,
                0.026939265429973604,
                1.5783427953720093,
                0.2304832637310028,
                -2.683804512023926,
                -1.0599164962768555,
                1.8207684755325318,
                0.36932146549224856,
                -0.7629549503326416,
                -0.6953291296958923,
                -0.5346629619598389,
                0.9029983282089233,
                -0.5148041248321533,
                -0.8041762709617615,
                -0.8069190382957459,
                1.6721488237380982,
                0.8195851445198059,
                0.8475387692451477,
                -0.46940967440605166,
                -0.002642907202243805,
                0.03716101497411728,
                -0.6043384671211243,
                1.5338973999023438,
                0.052604757249355319,
                -0.8562531471252441,
                0.42557644844055178,
                -0.5136247873306274,
                0.5440574288368225,
                0.2587859332561493,
                -0.4632095992565155,
                0.16415858268737794,
                0.7237761616706848,
                1.1588804721832276,
                -0.9135527610778809,
                1.0605343580245972,
                -1.8769851922988892,
                0.7847172021865845,
                0.16642431914806367,
                0.30671268701553347,
                1.652808427810669,
                1.6632004976272584,
                -0.4508882761001587,
                -0.389501690864563,
                2.208235740661621,
                -0.19646137952804566,
                -0.30695804953575137,
                0.6306436061859131,
                1.45881986618042,
                0.2184336930513382,
                -1.381947636604309,
                1.136367917060852,
                0.5178273916244507,
                0.7462878823280335,
                0.16573524475097657,
                1.1884183883666993,
                1.2948552370071412,
                -0.0506071075797081,
                -0.9419196844100952,
                -0.09619010984897614,
                2.5946247577667238,
                -0.6113043427467346,
                -1.0732731819152833,
                0.380665123462677,
                -0.8092196583747864,
                0.7325990200042725,
                -1.2477226257324219,
                -0.7084500193595886,
                0.23146840929985047,
                1.4314782619476319,
                -0.881332516670227,
                0.6158424019813538,
                -1.496353030204773,
                0.24043887853622437,
                -0.7861040234565735,
                -0.15604381263256074,
                1.6492254734039307,
                -0.8971647024154663,
                -0.748223066329956,
                0.4638296961784363,
                0.827519953250885,
                1.164399266242981,
                1.2769728899002076,
                -0.8811833262443543,
                0.4458577036857605,
                -0.16379116475582124,
                -0.584851086139679,
                -0.3371421694755554,
                2.3008811473846437,
                1.4047294855117798,
                1.5182594060897828,
                1.604414463043213,
                1.1180901527404786,
                -0.6776196360588074,
                0.1355406641960144,
                -0.2004319578409195,
                -1.9301788806915284,
                0.5520671010017395,
                0.604673445224762,
                -1.5331676006317139,
                0.4633167088031769,
                -1.2578489780426026,
                0.8194990754127502,
                -0.40148288011550906,
                -1.647737979888916,
                -1.6901514530181885,
                -0.10139145702123642,
                -0.010983236134052277,
                0.4217448830604553,
                1.5970828533172608,
                -0.6315682530403137,
                0.36045679450035097,
                2.482370376586914,
                -0.06402722746133805,
                0.4390028119087219,
                0.36066076159477236,
                -0.23397141695022584,
                0.26844820380210879,
                0.34866291284561159,
                -0.0966048538684845,
                -0.4182884097099304,
                -1.3672852516174317,
                -0.5950819849967957,
                -0.10598259419202805,
                1.3028301000595093,
                -0.8506407737731934,
                -1.7852815389633179,
                1.4227110147476197,
                -0.07945516705513,
                1.1209864616394044,
                0.38133034110069277
            ],
            "fitness": 54.88233184814453,
            "npcType": 0,
            "outputLockStatus": [
                false,
                false,
                false,
                false
            ]
        },
        {
            "layers": [
                8,
                8,
                6,
                4
            ],
            "flattenedWeights": [
                -1.1615586280822755,
                1.4591789245605469,
                1.5445002317428589,
                0.15681445598602296,
                2.0883209705352785,
                0.569133996963501,
                -1.7519100904464722,
                -1.2810865640640259,
                1.3822506666183472,
                0.22972287237644196,
                0.9990243315696716,
                -0.5853732824325562,
                -1.063302755355835,
                -0.24352803826332093,
                0.5529184937477112,
                0.0009175240993499756,
                2.218280792236328,
                -0.17973563075065614,
                -0.3725909888744354,
                -0.2587469518184662,
                -0.06275774538516998,
                -0.6168472170829773,
                0.7133864164352417,
                0.38124436140060427,
                -1.1612352132797242,
                -0.4273485541343689,
                -0.42390546202659609,
                -1.1382195949554444,
                -1.566872000694275,
                -0.5348314046859741,
                0.4451881945133209,
                1.5610743761062623,
                -1.9704103469848633,
                0.34781599044799807,
                1.2082850933074952,
                -0.4091869592666626,
                -0.7014101147651672,
                0.29386669397354128,
                -0.8175438046455383,
                -0.318067342042923,
                0.6693575382232666,
                -2.1430671215057375,
                -1.2463406324386597,
                -2.3862245082855226,
                0.4019191265106201,
                0.19546347856521607,
                1.0508453845977784,
                -0.8958949446678162,
                -0.6683139204978943,
                -0.7810905575752258,
                0.43041589856147768,
                -1.2431946992874146,
                -3.6835145950317385,
                -1.8162952661514283,
                0.4264642000198364,
                0.21305066347122193,
                1.0453578233718873,
                0.08749745786190033,
                0.7088943123817444,
                1.6606587171554566,
                -0.7389837503433228,
                -3.5610270500183107,
                -1.164072036743164,
                1.0703164339065552,
                -0.5150080919265747,
                1.3128710985183716,
                0.34932565689086916,
                -0.22817954421043397,
                -0.8602513670921326,
                -0.6129093170166016,
                0.9914889931678772,
                1.4086617231369019,
                1.4769281148910523,
                -0.6722668409347534,
                0.7062991857528687,
                -0.5122263431549072,
                -1.2470102310180665,
                -1.0313539505004883,
                0.5687516331672669,
                0.6469765901565552,
                -0.052016619592905048,
                -0.47249457240104678,
                -3.0315520763397219,
                -0.22745674848556519,
                2.175178050994873,
                1.2213718891143799,
                0.9202499985694885,
                0.5893743634223938,
                0.7727016806602478,
                0.3635781407356262,
                0.35381561517715456,
                0.35044682025909426,
                0.2727966606616974,
                -0.41694751381874087,
                0.8989192843437195,
                0.8976284265518189,
                -0.2003723531961441,
                -1.2758204936981202,
                -0.11695493012666702,
                -2.475616931915283,
                -1.688842535018921,
                -2.2009589672088625,
                0.10172794759273529,
                0.0719112679362297,
                -0.8129065632820129,
                -1.2861233949661255,
                -0.1162487342953682,
                0.42940184473991396,
                1.1296063661575318,
                -0.251676082611084,
                0.9650350213050842,
                -0.721989095211029,
                1.598912239074707,
                0.6307771801948547,
                0.7308228015899658,
                -1.8121814727783204,
                0.30337226390838625,
                -1.1492828130722047,
                -1.0996149778366089,
                0.7792396545410156,
                1.3306353092193604,
                -1.929715871810913,
                0.49728894233703616,
                -2.007219076156616,
                1.3434996604919434,
                -0.9906172156333923,
                -0.7293179035186768,
                -0.0928540825843811,
                2.088132858276367,
                -0.33216190338134768,
                -0.7976308465003967,
                -0.8346803784370422,
                -0.962506890296936,
                -1.5598660707473755,
                -2.2896182537078859,
                0.18708768486976624
            ],
            "fitness": 54.42512130737305,
            "npcType": 1,
            "outputLockStatus": [
                false,
                false,
                false,
                false
            ]
        }
    ],
    "timestamp": "2025-05-12 16:22:14"
}