{
    "generation": 20,
    "bestFitness": 211.6988525390625,
    "averageFitness": 67.04594421386719,
    "worstFitness": 2.733100652694702,
    "networks": [
        {
            "layers": [
                8,
                8,
                6,
                4
            ],
            "flattenedWeights": [
                -0.9401614665985107,
                -0.41855311393737795,
                1.2011274099349976,
                -0.5741328001022339,
                -0.7350561618804932,
                0.9196742177009583,
                -0.9487781524658203,
                0.6197806596755981,
                0.018491480499505998,
                -0.6275520324707031,
                0.21790491044521333,
                -0.2859959900379181,
                -0.9176405668258667,
                0.15541234612464906,
                0.11165506392717362,
                -0.5239748358726502,
                0.15742388367652894,
                0.7380924820899963,
                0.4586237967014313,
                0.7944537997245789,
                -0.4645402431488037,
                0.9160036444664002,
                -0.33944302797317507,
                -0.12894146144390107,
                0.8504194021224976,
                0.283846914768219,
                0.04681884124875069,
                -0.3165770173072815,
                -0.3782585859298706,
                0.25508344173431399,
                0.8662846684455872,
                0.8466339111328125,
                0.7323495149612427,
                -0.5693431496620178,
                0.6417866349220276,
                0.3644559383392334,
                0.766888439655304,
                0.8883870244026184,
                -0.22151044011116029,
                -0.45590221881866457,
                0.02977610006928444,
                -0.23592311143875123,
                -0.24257510900497437,
                -0.6726200580596924,
                -0.3394790291786194,
                -0.7942665815353394,
                0.3070664703845978,
                -1.0430808067321778,
                -0.21033108234405518,
                0.23580902814865113,
                -0.3492848873138428,
                -0.7382564544677734,
                0.27829158306121828,
                -0.5107994675636292,
                0.9322319626808167,
                -0.8877360820770264,
                -0.4925673305988312,
                -0.9458374977111816,
                -0.08081374317407608,
                0.4309556186199188,
                -0.005075175315141678,
                -0.41406935453414919,
                -0.050470020622015,
                1.0959985256195069,
                0.6135558485984802,
                -0.5639272928237915,
                0.8204357624053955,
                0.7576722502708435,
                0.9785934090614319,
                0.8217834830284119,
                0.5211490392684937,
                -0.43182632327079775,
                -0.6415027976036072,
                0.1376807987689972,
                0.5296519994735718,
                -0.11813565343618393,
                -0.21144750714302064,
                -0.021340563893318178,
                0.07535112649202347,
                0.1465924084186554,
                -0.7497318983078003,
                0.25492537021636965,
                -0.3612791895866394,
                0.7749435901641846,
                -0.614027202129364,
                -0.16018199920654298,
                -0.6952271461486816,
                0.6616511940956116,
                0.612525224685669,
                0.6684271693229675,
                -0.444950670003891,
                0.5667992234230042,
                -0.4295717775821686,
                0.4662264883518219,
                -1.2058616876602173,
                -0.09426028281450272,
                -0.6563633680343628,
                0.007778104394674301,
                0.8331884741783142,
                0.1821506917476654,
                0.3221900463104248,
                -0.17862902581691743,
                -0.6784879565238953,
                0.009622786194086075,
                0.2954361140727997,
                -0.8806673288345337,
                -0.7353739142417908,
                0.3046002686023712,
                1.1147081851959229,
                1.008417010307312,
                0.40163880586624148,
                0.5897673964500427,
                1.2177835702896119,
                0.14122165739536286,
                -0.49637922644615176,
                -0.40612834692001345,
                0.8990989327430725,
                -0.896510124206543,
                0.5017665028572083,
                1.0867388248443604,
                0.7280965447425842,
                1.0414239168167115,
                -0.9165486097335815,
                1.1947675943374634,
                0.8049819469451904,
                -0.7861872315406799,
                0.9447501301765442,
                0.40728437900543215,
                -0.24268481135368348,
                -0.6516271233558655,
                0.0872369036078453,
                -0.7338762879371643,
                0.765095055103302,
                -0.4304463267326355,
                1.0750510692596436,
                -0.7590291500091553
            ],
            "fitness": 211.6988525390625,
            "npcType": 0
        },
        {
            "layers": [
                8,
                8,
                6,
                4
            ],
            "flattenedWeights": [
                -1.1507552862167359,
                -0.3103294372558594,
                1.2865322828292847,
                -0.4117136001586914,
                -0.7350561618804932,
                0.9234429001808167,
                -0.8055084943771362,
                0.49566251039505007,
                -0.15714909136295319,
                -0.714032769203186,
                0.1927156299352646,
                -0.4784245193004608,
                -0.8781009316444397,
                0.09097366780042649,
                0.1360977292060852,
                -0.6220262050628662,
                -0.014837775379419327,
                0.7013363242149353,
                0.49280330538749697,
                0.7427992820739746,
                -0.4600611627101898,
                0.9160036444664002,
                -0.3608303368091583,
                -0.04142751544713974,
                0.15409058332443238,
                0.22080838680267335,
                -0.018330167979002,
                -0.1262635588645935,
                -0.3782585859298706,
                0.38907620310783389,
                0.8657076358795166,
                0.7129555940628052,
                0.6577253937721252,
                -0.6801469922065735,
                0.6417866349220276,
                0.5861793756484985,
                0.8161472678184509,
                0.456716924905777,
                -0.03168376162648201,
                -0.3720623254776001,
                -0.06864798069000244,
                -0.1392630785703659,
                -0.10725078731775284,
                -0.6374310851097107,
                -0.19268828630447389,
                -0.6434555649757385,
                0.4096654951572418,
                -1.0101321935653687,
                -0.47409483790397646,
                0.12067698687314987,
                -0.2754252552986145,
                -0.28068241477012637,
                -0.5408935546875,
                -0.39025264978408816,
                0.9322319626808167,
                0.46702367067337038,
                -0.8171498775482178,
                -1.0168695449829102,
                -0.14929258823394776,
                0.3381621241569519,
                0.15191026031970979,
                -0.5604434609413147,
                -0.13624486327171327,
                1.0959985256195069,
                0.6312313675880432,
                -0.6513800621032715,
                0.690527617931366,
                0.860296905040741,
                1.0126758813858033,
                0.747074544429779,
                0.5299749374389648,
                -0.43182632327079775,
                -0.626340389251709,
                -0.12534669041633607,
                0.6591420769691467,
                0.04561854526400566,
                0.11572539061307907,
                -0.0679674744606018,
                0.061977140605449679,
                0.15356221795082093,
                -0.8989126086235046,
                0.33484238386154177,
                -0.337948739528656,
                0.7749435901641846,
                -0.7942870855331421,
                -0.0933660939335823,
                -0.6618521809577942,
                0.596418023109436,
                -0.47404250502586367,
                0.7161539196968079,
                -0.480765700340271,
                0.8214497566223145,
                -0.4268317222595215,
                0.42729511857032778,
                -1.0637085437774659,
                -0.05339173227548599,
                -0.7045055031776428,
                0.23574945330619813,
                0.7514615654945374,
                0.28934982419013979,
                0.3395163118839264,
                -0.3779717981815338,
                -0.8100782632827759,
                0.07803056389093399,
                0.19670699536800385,
                -0.87069171667099,
                -0.758383572101593,
                0.38409972190856936,
                0.938039243221283,
                0.5799654722213745,
                0.14787223935127259,
                0.6800496578216553,
                1.2177835702896119,
                0.06947162002325058,
                -0.6337680220603943,
                -0.2153923362493515,
                0.9646570682525635,
                -0.6665493845939636,
                0.5775498151779175,
                1.114905595779419,
                0.7280965447425842,
                1.1293652057647706,
                0.1210893839597702,
                1.0724027156829835,
                0.8262651562690735,
                -0.7439652681350708,
                0.8052263259887695,
                0.4533136785030365,
                -0.3774682879447937,
                -0.7462106347084045,
                0.13832083344459535,
                0.059548310935497287,
                0.9044942259788513,
                -0.4304463267326355,
                0.9756285548210144,
                -0.8974266648292542
            ],
            "fitness": 172.52268981933595,
            "npcType": 0
        },
        {
            "layers": [
                8,
                8,
                6,
                4
            ],
            "flattenedWeights": [
                -1.1095647811889649,
                -0.41855311393737795,
                1.259960412979126,
                -0.6832520365715027,
                -0.6459188461303711,
                0.8874704241752625,
                -0.7984693050384522,
                0.679595947265625,
                -0.13575062155723573,
                -0.6651906371116638,
                0.2962245047092438,
                -0.47988563776016238,
                -0.8633948564529419,
                -0.0031021907925605776,
                0.11620093137025833,
                -0.5785608887672424,
                0.16770902276039124,
                0.6945973634719849,
                0.3935766816139221,
                0.7036319375038147,
                -0.4440157115459442,
                0.9160036444664002,
                -0.33944302797317507,
                -0.07318684458732605,
                0.7338632345199585,
                0.22080838680267335,
                0.033183060586452487,
                -0.2503863573074341,
                -0.3448532223701477,
                0.2679673135280609,
                0.9826200008392334,
                0.8533095717430115,
                0.8314096927642822,
                -0.5130482316017151,
                0.7541422247886658,
                0.3644559383392334,
                0.7189875245094299,
                0.789059579372406,
                -0.10435380786657334,
                -0.44804638624191286,
                0.02977610006928444,
                -0.23592311143875123,
                -0.27943655848503115,
                -0.6726200580596924,
                -0.3394790291786194,
                -0.7942665815353394,
                0.4096654951572418,
                -1.0101321935653687,
                -0.2788013815879822,
                0.42222830653190615,
                -0.2255878746509552,
                -0.6396319270133972,
                0.2130102515220642,
                -0.5107994675636292,
                0.9322319626808167,
                -0.8877360820770264,
                -0.6377177834510803,
                -0.9463356733322144,
                -0.04174201935529709,
                0.37854835391044619,
                0.05124044418334961,
                -0.4968210458755493,
                -0.07909482717514038,
                1.0959985256195069,
                0.6863937377929688,
                -0.5639272928237915,
                0.8204357624053955,
                0.6845066547393799,
                1.0001295804977418,
                0.8217834830284119,
                0.6188860535621643,
                -0.43182632327079775,
                -0.6415027976036072,
                0.1376807987689972,
                0.7202547192573547,
                -0.15217527747154237,
                0.27747562527656557,
                -0.09971065074205399,
                0.1157141625881195,
                0.1465924084186554,
                -0.7497318983078003,
                0.011265121400356293,
                -0.2045600265264511,
                0.7752084136009216,
                -0.7429937720298767,
                -0.02591829001903534,
                -0.6952271461486816,
                0.6723620295524597,
                0.7053869962692261,
                0.6288470029830933,
                -0.4740304946899414,
                0.8214497566223145,
                0.20523139834403993,
                0.35781413316726687,
                -1.103533387184143,
                -0.09426028281450272,
                -0.6563633680343628,
                0.2726098895072937,
                0.8123599290847778,
                0.2745279371738434,
                0.3351062536239624,
                -0.3344661295413971,
                -0.6784879565238953,
                0.009622786194086075,
                0.05439876765012741,
                -0.8806673288345337,
                -0.6733053922653198,
                0.3046002686023712,
                1.1047344207763672,
                0.9712955355644226,
                -0.017474807798862459,
                0.6800496578216553,
                1.2131037712097169,
                0.13989412784576417,
                -0.33141517639160159,
                -0.36385151743888857,
                0.8990989327430725,
                -0.565767228603363,
                0.6434571146965027,
                1.0951579809188843,
                0.6367051601409912,
                1.0330857038497925,
                -1.0601303577423096,
                1.1075443029403687,
                0.9023868441581726,
                -0.6376543045043945,
                0.7873530983924866,
                0.46725064516067507,
                -0.24268481135368348,
                -0.6516271233558655,
                0.0872369036078453,
                0.15368026494979859,
                0.8475469350814819,
                -0.35276854038238528,
                1.1061089038848878,
                -0.8708575963973999
            ],
            "fitness": 163.51336669921876,
            "npcType": 0
        },
        {
            "layers": [
                8,
                8,
                6,
                4
            ],
            "flattenedWeights": [
                -1.1507552862167359,
                -0.4525556266307831,
                1.2601075172424317,
                -0.6573786735534668,
                -0.8087078332901001,
                0.9089165329933167,
                -0.9487781524658203,
                0.6197806596755981,
                0.018491480499505998,
                -0.7174869775772095,
                0.483103483915329,
                -0.2859959900379181,
                -0.9776707887649536,
                0.1279856562614441,
                0.11165506392717362,
                -0.5239748358726502,
                0.1339360475540161,
                0.5407374501228333,
                0.32146209478378298,
                0.8196806311607361,
                -0.5534766316413879,
                0.9160036444664002,
                -0.28775089979171755,
                -0.12894146144390107,
                0.8125795722007752,
                0.22080838680267335,
                0.033183060586452487,
                -0.15534275770187379,
                -0.3448532223701477,
                0.3011876344680786,
                0.8662846684455872,
                0.8466339111328125,
                0.7722828984260559,
                -0.5130482316017151,
                0.7541422247886658,
                0.44151419401168826,
                0.7049292922019959,
                0.8883870244026184,
                -0.01906566321849823,
                -0.6575225591659546,
                0.03133104741573334,
                -0.23592311143875123,
                -0.20143012702465058,
                -0.615592360496521,
                -0.3394790291786194,
                -0.875463604927063,
                0.4096654951572418,
                -1.0101321935653687,
                -0.2788013815879822,
                0.4274204969406128,
                -0.40495362877845766,
                -0.7042851448059082,
                0.2130102515220642,
                -0.5386157035827637,
                0.9322319626808167,
                0.5298221111297607,
                -0.6092236042022705,
                -0.9463356733322144,
                -0.04174201935529709,
                0.31139659881591799,
                -0.020712636411190034,
                -0.4092992842197418,
                0.04223094508051872,
                1.172174334526062,
                0.6132354736328125,
                -0.6548611521720886,
                0.8182024955749512,
                0.8562418222427368,
                1.044206976890564,
                0.7440258860588074,
                0.6188860535621643,
                -0.43182632327079775,
                -0.7291694283485413,
                0.05577152222394943,
                0.7202547192573547,
                -0.19995000958442689,
                0.1881168782711029,
                -0.09971065074205399,
                0.15730249881744386,
                0.1465924084186554,
                -0.7497318983078003,
                0.011265121400356293,
                -0.1822030246257782,
                0.6969507336616516,
                -0.7185601592063904,
                -0.27434152364730837,
                -0.6952271461486816,
                0.7721332311630249,
                0.7053869962692261,
                0.7355180978775024,
                -0.4740304946899414,
                0.8214497566223145,
                -0.3406689763069153,
                0.4662264883518219,
                -0.8342011570930481,
                -0.04573022574186325,
                -0.6563633680343628,
                0.007778104394674301,
                0.8331884741783142,
                0.1821506917476654,
                0.3351062536239624,
                -0.3176827132701874,
                -0.6976776123046875,
                0.009622786194086075,
                0.1411375254392624,
                -0.8684192299842835,
                -0.758383572101593,
                0.3046002686023712,
                1.113525629043579,
                0.9712955355644226,
                0.07843375951051712,
                0.6458659172058106,
                1.2205525636672974,
                0.13989412784576417,
                -0.4531936049461365,
                -0.33600103855133059,
                0.9917919635772705,
                -0.896510124206543,
                0.5448422431945801,
                1.1382805109024048,
                0.7191286087036133,
                1.0414239168167115,
                -1.0601303577423096,
                1.1075443029403687,
                0.8164818286895752,
                -0.7347775101661682,
                0.7873530983924866,
                0.46350404620170596,
                -0.24268481135368348,
                -0.5890015959739685,
                0.08317197114229202,
                -0.6573066711425781,
                0.7438597679138184,
                -0.4083983600139618,
                1.0229941606521607,
                -0.7519378662109375
            ],
            "fitness": 138.2640838623047,
            "npcType": 0
        },
        {
            "layers": [
                8,
                8,
                6,
                4
            ],
            "flattenedWeights": [
                -1.1507552862167359,
                -0.38718169927597048,
                1.162104606628418,
                -0.6573786735534668,
                -0.7350561618804932,
                0.9417396187782288,
                -0.9487781524658203,
                0.5566552877426148,
                0.018491480499505998,
                -0.6275520324707031,
                0.483103483915329,
                -0.2859959900379181,
                -0.9421361684799194,
                0.13495886325836183,
                0.11165506392717362,
                -0.5028452277183533,
                0.04968506842851639,
                0.5407374501228333,
                0.39538127183914187,
                0.7944537997245789,
                -0.5534766316413879,
                0.9160036444664002,
                -0.28775089979171755,
                -0.20772233605384828,
                0.8125795722007752,
                0.2868245244026184,
                0.033183060586452487,
                -0.15534275770187379,
                -0.384555846452713,
                0.3011876344680786,
                0.8377774953842163,
                0.8466339111328125,
                0.7722828984260559,
                -0.6051281690597534,
                0.7541422247886658,
                0.3644559383392334,
                0.7245849967002869,
                0.8883870244026184,
                -0.01906566321849823,
                -0.5628719329833984,
                0.008903644979000092,
                -0.2452990710735321,
                -0.20143012702465058,
                -0.6726200580596924,
                -0.3394790291786194,
                -0.951278567314148,
                0.4096654951572418,
                -0.9870295524597168,
                -0.2788013815879822,
                0.42222830653190615,
                -0.40495362877845766,
                -0.699799120426178,
                0.1323263943195343,
                -0.5386157035827637,
                0.9322319626808167,
                0.5465784072875977,
                -0.6453239917755127,
                -0.9463356733322144,
                -0.04174201935529709,
                0.37854835391044619,
                -0.020712636411190034,
                -0.3111592233181,
                0.026486869901418687,
                1.1457083225250245,
                0.6132354736328125,
                -0.6513800621032715,
                0.8078679442405701,
                0.7576722502708435,
                1.0001295804977418,
                0.8381847143173218,
                0.6188860535621643,
                -0.5139110088348389,
                -0.7291694283485413,
                0.1376807987689972,
                0.7202547192573547,
                -0.20908884704113007,
                0.10657503455877304,
                -0.04310941696166992,
                0.061977140605449679,
                0.06249917298555374,
                -0.6974824666976929,
                0.011265121400356293,
                -0.1822030246257782,
                0.6492820978164673,
                -0.7440703511238098,
                -0.27434152364730837,
                -0.6952271461486816,
                0.7295690178871155,
                0.7053869962692261,
                0.8225084543228149,
                -0.4740304946899414,
                0.8214497566223145,
                -0.49736207723617556,
                0.5587567687034607,
                -0.8055288791656494,
                -0.04573022574186325,
                -0.6563633680343628,
                0.007778104394674301,
                0.8331884741783142,
                0.16895733773708344,
                0.3763086795806885,
                -0.3176827132701874,
                -0.6784879565238953,
                0.009622786194086075,
                0.05439876765012741,
                -0.9470308423042297,
                -0.758383572101593,
                0.3046002686023712,
                1.0225080251693726,
                0.9712955355644226,
                -0.012051660567522049,
                0.638333261013031,
                1.2205525636672974,
                0.13989412784576417,
                -0.4531936049461365,
                -0.45534074306488039,
                0.8793969750404358,
                -0.896510124206543,
                0.5866568088531494,
                1.1382805109024048,
                0.7191286087036133,
                1.0414239168167115,
                -1.0601303577423096,
                1.0354801416397095,
                0.9023868441581726,
                -0.634817898273468,
                0.806784987449646,
                0.46725064516067507,
                -0.24268481135368348,
                -0.7076993584632874,
                0.0872369036078453,
                -0.6573066711425781,
                0.765095055103302,
                -0.4304463267326355,
                1.0229941606521607,
                -0.7896312475204468
            ],
            "fitness": 134.90420532226563,
            "npcType": 0
        },
        {
            "layers": [
                8,
                8,
                6,
                4
            ],
            "flattenedWeights": [
                -0.6907888054847717,
                -0.337174654006958,
                1.3391157388687134,
                -0.49460533261299136,
                -0.5122752785682678,
                0.9340998530387878,
                -0.9745514988899231,
                0.5642881393432617,
                -0.16032078862190247,
                -0.6855140924453735,
                0.4859392046928406,
                -0.2806362807750702,
                -0.9024820327758789,
                0.09618017077445984,
                0.21040990948677064,
                -0.5041024684906006,
                0.18941302597522736,
                0.6732749938964844,
                0.49280330538749697,
                0.7715041637420654,
                -0.6582869291305542,
                0.750592827796936,
                -0.24184295535087586,
                -0.13594815135002137,
                0.22439083456993104,
                0.14959648251533509,
                0.1419285535812378,
                -0.12640905380249024,
                -0.31649044156074526,
                0.36433476209640505,
                0.8649988174438477,
                0.7129555940628052,
                0.6550665497779846,
                -0.6801469922065735,
                0.664120078086853,
                0.3057439625263214,
                0.7403092980384827,
                0.50176602602005,
                -0.1266545057296753,
                -0.3720623254776001,
                -0.10471147298812866,
                -0.1392630785703659,
                -0.05025918409228325,
                -0.6726200580596924,
                -0.36760514974594118,
                -0.8246247172355652,
                0.4096654951572418,
                -1.0570979118347169,
                -0.24613600969314576,
                0.1670006513595581,
                -0.5851600766181946,
                -0.21492907404899598,
                0.28089863061904909,
                -0.5064576864242554,
                0.8509495854377747,
                0.4113445281982422,
                -0.6588504910469055,
                -0.971506655216217,
                -0.07127325236797333,
                0.27632269263267519,
                -0.04649301618337631,
                -0.4665154218673706,
                -0.06908823549747467,
                1.1007157564163209,
                0.7242504358291626,
                -0.6490110754966736,
                0.8441187143325806,
                0.860296905040741,
                0.8545531034469605,
                0.7440258860588074,
                0.5511863827705383,
                -0.336063414812088,
                -0.7176308035850525,
                -0.049589186906814578,
                0.7779325842857361,
                -0.015056584030389786,
                0.04210257530212402,
                -0.27774080634117129,
                0.040687017142772678,
                0.1465924084186554,
                -1.0192432403564454,
                0.33484238386154177,
                -0.26813292503356936,
                0.7835714221000671,
                -0.7195311188697815,
                -0.18934816122055055,
                -0.6835451722145081,
                0.589573860168457,
                -0.49131202697753909,
                0.7161539196968079,
                -0.39639514684677126,
                0.7604368329048157,
                -0.6253792643547058,
                0.6342993378639221,
                -1.0637085437774659,
                0.04412861168384552,
                -0.7553828358650208,
                0.18882980942726136,
                0.7514615654945374,
                0.2893750071525574,
                0.2868194580078125,
                -0.26909005641937258,
                -0.6961867809295654,
                0.15024352073669434,
                0.05439876765012741,
                -0.9155420064926148,
                -0.9058201313018799,
                0.3934342861175537,
                0.9664745926856995,
                0.6539306640625,
                0.14727762341499329,
                0.8161398768424988,
                1.3446011543273926,
                0.15295541286468507,
                -0.4949986934661865,
                -0.3533817231655121,
                0.9699772596359253,
                -0.7198980450630188,
                0.48566532135009768,
                1.093901515007019,
                0.7041411399841309,
                1.001612901687622,
                0.1210893839597702,
                0.8784747123718262,
                -0.3604656457901001,
                -0.6376543045043945,
                0.833381712436676,
                0.4533136785030365,
                -0.4449959993362427,
                -0.7278069257736206,
                0.0313551127910614,
                0.08611739426851273,
                1.0493532419204713,
                -0.4304463267326355,
                0.9756285548210144,
                -1.1397645473480225
            ],
            "fitness": 106.73959350585938,
            "npcType": 0
        },
        {
            "layers": [
                8,
                8,
                6,
                4
            ],
            "flattenedWeights": [
                -0.6907888054847717,
                -0.35986411571502688,
                1.096277117729187,
                -0.37484076619148257,
                -0.37844568490982058,
                0.9386341571807861,
                -0.9683279991149902,
                0.5929415822029114,
                -0.11228132247924805,
                -0.5742284655570984,
                0.35530388355255129,
                -0.375419557094574,
                -0.8701496720314026,
                0.007342323660850525,
                0.23711851239204408,
                -0.5167074799537659,
                0.5592401623725891,
                0.4553983807563782,
                0.35774773359298708,
                0.6920827627182007,
                -0.750794529914856,
                0.8117896318435669,
                -0.42751336097717287,
                -0.08571120351552963,
                0.26832422614097597,
                0.11751776188611984,
                0.04668086767196655,
                -0.1917346715927124,
                -0.30376845598220827,
                0.3006889820098877,
                0.9076003432273865,
                0.8107175827026367,
                0.7871757745742798,
                -0.5600405931472778,
                0.8045521974563599,
                -0.8845131397247315,
                0.7847156524658203,
                0.7038677930831909,
                -0.19499516487121583,
                -0.6749516725540161,
                -0.03028804063796997,
                -0.13725310564041139,
                0.007410835474729538,
                -0.7618856430053711,
                -0.3299233615398407,
                -0.7339215874671936,
                0.026824861764907838,
                -0.9897633790969849,
                -0.3384808599948883,
                0.3639688789844513,
                -0.5161674618721008,
                -0.28048256039619448,
                0.24709999561309815,
                -0.5064576864242554,
                0.7540408372879028,
                0.49064770340919497,
                -0.8151060938835144,
                -1.0053519010543824,
                -0.22966566681861878,
                0.26826518774032595,
                -0.05368378013372421,
                -0.5093196034431458,
                -0.07297107577323914,
                1.0273001194000245,
                0.6151217818260193,
                -0.6665146350860596,
                0.994352400302887,
                0.9891042709350586,
                0.7847875952720642,
                0.6873637437820435,
                0.5511863827705383,
                -0.43238744139671328,
                -0.7062731981277466,
                0.1801716387271881,
                0.7036790251731873,
                -0.026474881917238237,
                0.04432332143187523,
                -0.3849524259567261,
                -0.10197095572948456,
                0.045486997812986377,
                -0.968711793422699,
                0.02822769433259964,
                -0.48325222730636599,
                0.7262476682662964,
                -0.45443394780158999,
                0.005029633641242981,
                -0.8044105172157288,
                0.43638208508491518,
                0.8160787224769592,
                0.7027818560600281,
                -0.7054647207260132,
                0.8214497566223145,
                0.13979822397232057,
                0.5850272178649902,
                -1.02140212059021,
                -0.03590334951877594,
                -0.6601288318634033,
                0.23483675718307496,
                0.8704073429107666,
                0.1959039568901062,
                0.2595139145851135,
                -0.24031510949134828,
                -0.7719048261642456,
                -0.07301631569862366,
                0.06881338357925415,
                -0.9155420064926148,
                0.9108003377914429,
                0.41562363505363467,
                0.8117537498474121,
                0.5639529824256897,
                0.07825056463479996,
                0.9205864667892456,
                1.3446011543273926,
                0.20047849416732789,
                -0.4215421974658966,
                -0.35397249460220339,
                0.9049659967422485,
                -0.7632272839546204,
                0.503261148929596,
                1.0996173620224,
                0.6419113874435425,
                0.9419581890106201,
                -0.8489297032356262,
                0.869787871837616,
                0.7347708344459534,
                -0.7066788673400879,
                0.8019056916236877,
                0.42956578731536868,
                -0.5215524435043335,
                -0.7278069257736206,
                -0.9071978330612183,
                0.2366710901260376,
                1.0468450784683228,
                -0.42502206563949587,
                0.8616951704025269,
                -0.9053699970245361
            ],
            "fitness": 89.87299346923828,
            "npcType": 0
        },
        {
            "layers": [
                8,
                8,
                6,
                4
            ],
            "flattenedWeights": [
                -0.9136312007904053,
                -0.43296492099761965,
                0.9997421503067017,
                -0.49460533261299136,
                -0.43342292308807375,
                0.8519338965415955,
                -0.838124692440033,
                0.7538922429084778,
                -0.07286103814840317,
                -0.6687180399894714,
                0.4859392046928406,
                -0.2859959900379181,
                -1.0691585540771485,
                0.03907264024019241,
                0.2373964786529541,
                -0.6263393759727478,
                0.5592401623725891,
                0.7161155939102173,
                0.34241172671318056,
                0.7715041637420654,
                -0.6575557589530945,
                0.8713796138763428,
                -0.11726898699998856,
                -0.08887524157762528,
                0.6983166933059692,
                0.22978365421295167,
                -0.020919255912303926,
                -0.25140896439552309,
                -0.41029220819473269,
                0.3006889820098877,
                0.8804879784584045,
                0.807334303855896,
                0.6550665497779846,
                -0.743105947971344,
                0.664120078086853,
                -0.8845131397247315,
                0.7049292922019959,
                0.6227835416793823,
                -0.20484700798988343,
                -0.5413858890533447,
                -0.10471147298812866,
                -0.23592311143875123,
                0.007410835474729538,
                -0.7895359396934509,
                -0.33254778385162356,
                -0.8246247172355652,
                -0.015203170478343964,
                -1.0637290477752686,
                -0.29733291268348696,
                0.2952936887741089,
                -0.4031059145927429,
                -0.21492907404899598,
                0.28089863061904909,
                -0.5064576864242554,
                0.7540408372879028,
                0.4033626317977905,
                -0.8151060938835144,
                -0.9478127360343933,
                -0.19968843460083009,
                0.16495785117149354,
                -0.08707918971776962,
                -0.5466839671134949,
                -0.08074235171079636,
                1.0273001194000245,
                0.6132354736328125,
                -0.576504111289978,
                1.042798399925232,
                0.9962003827095032,
                0.9519919753074646,
                0.7743632197380066,
                0.5511863827705383,
                -0.43238744139671328,
                -0.6599286198616028,
                0.09103484451770783,
                0.787528932094574,
                0.02558513730764389,
                0.0426686555147171,
                -0.3032081425189972,
                0.05999654904007912,
                0.10696658492088318,
                -0.8955079913139343,
                0.02822769433259964,
                -0.4550151824951172,
                0.8000407814979553,
                -0.482869952917099,
                -0.25671201944351199,
                -0.6835451722145081,
                0.589573860168457,
                0.8120183944702148,
                0.8248698115348816,
                -0.7054647207260132,
                0.8001016974449158,
                -0.5266323685646057,
                0.5239126682281494,
                -0.7989437580108643,
                -0.03590334951877594,
                -0.7553828358650208,
                0.16116300225257874,
                0.7514615654945374,
                0.1959039568901062,
                0.3385638892650604,
                -0.26909005641937258,
                -0.6961867809295654,
                0.10250703990459442,
                0.15129731595516206,
                -0.8378273248672485,
                -0.8588268756866455,
                0.4584341049194336,
                0.88383549451828,
                0.6377655863761902,
                0.07825056463479996,
                0.8679181933403015,
                1.2685977220535279,
                0.13334320485591889,
                -0.4215421974658966,
                -0.4329054057598114,
                1.0552407503128052,
                -0.7298339009284973,
                0.5481348037719727,
                1.093901515007019,
                0.6020973324775696,
                1.001612901687622,
                -0.7632129192352295,
                0.9059043526649475,
                -0.3604656457901001,
                -0.6937668323516846,
                1.0248984098434449,
                0.45665302872657778,
                -0.4290808141231537,
                -0.7278069257736206,
                0.0313551127910614,
                -0.5252407789230347,
                0.9962747693061829,
                -0.4340803921222687,
                0.8271036744117737,
                -1.0570781230926514
            ],
            "fitness": 89.81143951416016,
            "npcType": 0
        },
        {
            "layers": [
                8,
                8,
                6,
                4
            ],
            "flattenedWeights": [
                -0.9136312007904053,
                -0.35986411571502688,
                1.1653330326080323,
                -0.5266621708869934,
                -0.6425672769546509,
                0.9234429001808167,
                -0.8782880902290344,
                0.5642881393432617,
                -0.15714909136295319,
                -0.6687180399894714,
                0.31803417205810549,
                -0.3326146602630615,
                -0.9231937527656555,
                0.03907264024019241,
                0.21040990948677064,
                -0.6233275532722473,
                -0.11374236643314362,
                0.5894192457199097,
                0.36207115650177,
                0.6920827627182007,
                -0.6575557589530945,
                0.8117896318435669,
                -0.26125624775886538,
                -0.01623070240020752,
                0.6983166933059692,
                0.22080838680267335,
                -0.058579668402671817,
                -0.17334699630737306,
                -0.3782585859298706,
                0.315986692905426,
                0.8832792043685913,
                0.8606597185134888,
                0.7722828984260559,
                -0.7147293090820313,
                0.6417866349220276,
                -0.8845131397247315,
                0.7403092980384827,
                0.456716924905777,
                -0.20774568617343903,
                -0.44804638624191286,
                -0.03028804063796997,
                -0.23592311143875123,
                0.0021584555506706239,
                -0.6726200580596924,
                -0.36760514974594118,
                -0.6026665568351746,
                0.4096654951572418,
                -1.0101321935653687,
                -0.4735819101333618,
                0.3639688789844513,
                -0.6113282442092896,
                -0.23050814867019654,
                0.24709999561309815,
                -0.5723601579666138,
                0.7540408372879028,
                0.5833583474159241,
                -0.6588504910469055,
                -1.0393028259277344,
                -0.11129728704690933,
                0.27632269263267519,
                -0.08707918971776962,
                -0.5119615793228149,
                -0.08074235171079636,
                1.0959985256195069,
                0.6270164251327515,
                -0.576504111289978,
                0.6704660654067993,
                0.860296905040741,
                0.9498262405395508,
                0.7440258860588074,
                0.5467817783355713,
                -0.43332332372665408,
                -0.7697721123695374,
                -0.042900651693344119,
                0.6591420769691467,
                0.04896797612309456,
                0.1786791831254959,
                0.029664956033229829,
                0.12495917081832886,
                0.045486997812986377,
                -0.8955079913139343,
                -0.009270008653402329,
                -0.3062012493610382,
                0.8000407814979553,
                -0.45443394780158999,
                -0.0675407126545906,
                -0.6618521809577942,
                0.43326622247695925,
                0.7082989811897278,
                0.7025073766708374,
                -0.7054647207260132,
                0.7662428021430969,
                -0.5214729309082031,
                0.6047477126121521,
                -0.9859289526939392,
                -0.05548625439405441,
                -0.6466096043586731,
                0.13155946135520936,
                0.8279348015785217,
                0.1821506917476654,
                0.3351062536239624,
                -0.24031510949134828,
                -0.8731460571289063,
                0.21005450189113618,
                0.06881338357925415,
                -0.9459165930747986,
                -0.9009628891944885,
                0.4584341049194336,
                0.8742183446884155,
                0.5195227861404419,
                0.24705888330936433,
                0.9205864667892456,
                1.3594698905944825,
                0.13989412784576417,
                -0.4949986934661865,
                -0.4329054057598114,
                0.8821507096290588,
                -0.7198980450630188,
                0.5109191536903381,
                1.0151902437210084,
                0.7280965447425842,
                1.0330857038497925,
                -0.8652822971343994,
                0.947986900806427,
                0.9540518522262573,
                -0.669044017791748,
                0.8241651654243469,
                0.39585158228874209,
                -0.4290808141231537,
                -0.7278069257736206,
                0.0872369036078453,
                -0.6142598390579224,
                0.9044942259788513,
                -0.4340803921222687,
                0.9756285548210144,
                -0.9574439525604248
            ],
            "fitness": 89.77941131591797,
            "npcType": 0
        },
        {
            "layers": [
                8,
                8,
                6,
                4
            ],
            "flattenedWeights": [
                0.36515605449676516,
                0.6345338225364685,
                -0.9861477613449097,
                -0.25000321865081789,
                -1.1045747995376588,
                -0.28929975628852847,
                -0.16114236414432527,
                0.3914194107055664,
                0.9505181312561035,
                0.5893885493278503,
                0.7084791660308838,
                0.10472622513771057,
                -0.43348628282546999,
                0.23001950979232789,
                0.13785988092422486,
                -0.35784104466438296,
                -1.292531967163086,
                0.5092939138412476,
                0.9525331258773804,
                0.029704459011554719,
                1.1223582029342652,
                -0.35110044479370119,
                0.3990263044834137,
                0.8726495504379273,
                0.08086230605840683,
                -0.3049066662788391,
                -1.2254786491394044,
                -0.6387431025505066,
                -0.4073135256767273,
                -0.02326076105237007,
                -0.9027119278907776,
                0.360927939414978,
                0.29780903458595278,
                -0.21333888173103333,
                0.5209243297576904,
                0.00425952672958374,
                -0.38185548782348635,
                -0.1718568354845047,
                -0.15614758431911469,
                -0.4966299831867218,
                -0.4590267837047577,
                0.6966262459754944,
                0.7284129858016968,
                -0.29197463393211367,
                0.3276095688343048,
                0.6888186931610107,
                -0.9287272095680237,
                -0.630999743938446,
                -0.09823817014694214,
                -0.07846802473068237,
                -0.6398817300796509,
                -0.9346393346786499,
                0.46799609065055849,
                0.4147323668003082,
                0.2834576964378357,
                0.42803359031677248,
                -0.2663377821445465,
                0.9287852644920349,
                0.2481779158115387,
                -0.8192775249481201,
                0.740490198135376,
                -0.7567834854125977,
                0.29116496443748476,
                0.24570393562316895,
                -0.18060988187789918,
                0.21659687161445619,
                -0.5883818864822388,
                0.1495439112186432,
                0.08019355684518814,
                -0.5692981481552124,
                0.6761429309844971,
                -0.6803538203239441,
                0.4275110065937042,
                -0.9751839637756348,
                1.0348401069641114,
                0.4128275513648987,
                0.6890659928321838,
                0.9564396142959595,
                0.21936896443367005,
                0.5901954770088196,
                -0.3277314305305481,
                -0.351100355386734,
                -1.016481637954712,
                0.22901955246925355,
                0.4666177034378052,
                0.058680735528469089,
                -0.6446851491928101,
                0.9031414985656738,
                -0.41419631242752077,
                -1.0085607767105103,
                0.13493657112121583,
                1.0051323175430298,
                0.621834397315979,
                0.6436112523078919,
                -0.46407750248908999,
                0.10515683144330979,
                0.9175568222999573,
                0.45259085297584536,
                -0.6486228704452515,
                -0.8699841499328613,
                -0.0072468966245651249,
                -0.13087277114391328,
                0.5617545247077942,
                -0.5723837018013,
                -1.0970488786697388,
                0.9481824040412903,
                -0.051805634051561359,
                0.11243803054094315,
                0.5128970146179199,
                0.4527113735675812,
                -0.9228398203849793,
                0.13447123765945435,
                1.1589136123657227,
                0.8029688596725464,
                -0.6244810819625855,
                0.9621980786323547,
                0.5283552408218384,
                0.15073101222515107,
                0.17637833952903748,
                0.006091311573982239,
                -0.013282865285873413,
                0.6477970480918884,
                0.5963717699050903,
                -0.1516168713569641,
                0.08262983709573746,
                -0.18539085984230042,
                0.19941945374011994,
                -0.5347999334335327,
                1.0218958854675294,
                0.19547297060489655,
                -0.3540095388889313,
                0.8750686645507813,
                -0.3756992518901825,
                -0.4948078691959381,
                0.9212929010391235,
                0.8854191899299622
            ],
            "fitness": 89.68350982666016,
            "npcType": 1
        }
    ],
    "timestamp": "2025-04-22 00:35:31"
}