{
    "generation": 79,
    "bestFitness": 132.8988800048828,
    "averageFitness": 30.51410484313965,
    "worstFitness": 0.0,
    "networks": [
        {
            "layers": [
                8,
                8,
                6,
                4
            ],
            "flattenedWeights": [
                -1.167203426361084,
                -0.43613898754119875,
                0.6241486668586731,
                -0.13381525874137879,
                -0.3690575659275055,
                -0.20597553253173829,
                -0.3460739850997925,
                -0.16181185841560365,
                -0.2644594609737396,
                -0.9920104146003723,
                -1.0408720970153809,
                0.4182191491127014,
                0.5690339803695679,
                -0.11986178904771805,
                -0.8759655952453613,
                -0.04265473783016205,
                0.36671480536460879,
                -0.9721894264221191,
                -0.49836334586143496,
                -0.2228298783302307,
                0.3961108326911926,
                0.6777199506759644,
                -0.8033413887023926,
                -0.5483235120773315,
                0.7211803793907166,
                0.7760360240936279,
                -0.9161067605018616,
                0.14130127429962159,
                0.7969170212745667,
                0.782925546169281,
                0.2419123649597168,
                -0.5621700286865234,
                -0.2746489942073822,
                -0.24626953899860383,
                0.6130952835083008,
                -0.242041677236557,
                0.3485242426395416,
                -0.17505986988544465,
                1.0915719270706177,
                0.18539395928382874,
                0.04221940040588379,
                -0.6131361126899719,
                1.2248002290725709,
                -0.6787568926811218,
                -0.9412357211112976,
                0.25379881262779238,
                0.3568226397037506,
                -1.1341681480407715,
                0.17114070057868958,
                -1.2654595375061036,
                -1.0354218482971192,
                -0.3551144003868103,
                -1.3634066581726075,
                -0.31662115454673769,
                -1.1475907564163209,
                1.026436686515808,
                0.3411950469017029,
                0.5685012340545654,
                0.5168445706367493,
                0.396882027387619,
                1.2427057027816773,
                0.12538881599903108,
                0.21494922041893006,
                0.38857337832450869,
                -0.3014531135559082,
                -0.3117468059062958,
                0.8384056687355042,
                0.3022145926952362,
                -0.7803811430931091,
                0.437489777803421,
                1.3608181476593018,
                0.501783549785614,
                -1.5359177589416505,
                0.23614957928657533,
                0.18056541681289674,
                -0.07434966415166855,
                0.6993249654769898,
                -1.1562578678131104,
                -0.814390242099762,
                0.4037918448448181,
                -0.44437870383262637,
                0.8131619691848755,
                0.9600492119789124,
                -0.330145001411438,
                -1.4285691976547242,
                -0.8348721861839294,
                0.5281289219856262,
                -0.7507051825523377,
                -0.5179011821746826,
                0.24863837659358979,
                1.0542980432510377,
                0.8246824145317078,
                -1.341953158378601,
                0.6804048418998718,
                -0.09899722039699555,
                0.32330965995788576,
                -0.07086934894323349,
                -0.6474876999855042,
                0.686493456363678,
                0.1655811071395874,
                -0.5756216645240784,
                0.044577233493328097,
                -0.5454478859901428,
                1.1156957149505616,
                0.4102577567100525,
                0.20844173431396485,
                1.6518573760986329,
                0.03063035011291504,
                1.0262967348098755,
                0.7957341074943543,
                0.8357582092285156,
                0.2906257212162018,
                1.5468165874481202,
                -0.019760165363550187,
                -0.09010108560323715,
                -1.1426053047180176,
                -0.44614434242248537,
                -0.46502456068992617,
                1.1243606805801392,
                -0.7390255928039551,
                0.735567033290863,
                0.8971624970436096,
                -0.8093810677528381,
                -0.6947507858276367,
                0.3655829429626465,
                -0.14089827239513398,
                0.4797777533531189,
                -0.8197676539421082,
                -0.03557740896940231,
                -0.18707500398159028,
                -0.8012810349464417,
                -0.33891746401786806,
                1.7460702657699586,
                -0.2995390295982361,
                0.16671456396579743,
                0.8826997876167297
            ],
            "fitness": 132.8988800048828,
            "npcType": 1
        },
        {
            "layers": [
                8,
                8,
                6,
                4
            ],
            "flattenedWeights": [
                -1.167203426361084,
                -0.43613898754119875,
                0.6760028004646301,
                -0.030086729675531389,
                -0.5260795950889587,
                -0.42855697870254519,
                -0.3460739850997925,
                -0.16181185841560365,
                -0.1980779469013214,
                -0.8885805606842041,
                -1.025897741317749,
                0.3673544228076935,
                0.5166186094284058,
                -0.12445811927318573,
                -0.5574522018432617,
                0.08051145076751709,
                0.36225759983062746,
                -0.9721894264221191,
                -0.711358368396759,
                -0.17892824113368989,
                0.42463812232017519,
                0.34608420729637148,
                -0.8457680344581604,
                -0.47642242908477785,
                0.8029922842979431,
                0.4225957989692688,
                -0.9161067605018616,
                0.13448843359947205,
                0.881085991859436,
                0.8501924276351929,
                0.27452588081359866,
                -0.6244444251060486,
                -0.37990590929985049,
                -0.24626953899860383,
                0.6675204634666443,
                -0.06385915726423264,
                0.44577881693840029,
                -0.26634258031845095,
                1.1950438022613526,
                0.17605674266815186,
                -0.49890780448913576,
                -0.511351466178894,
                1.2248002290725709,
                -0.5921326875686646,
                -0.7222715616226196,
                0.25379881262779238,
                0.38363322615623476,
                -1.1702563762664796,
                0.1308194398880005,
                -1.0641577243804932,
                -1.081638216972351,
                -0.33836629986763,
                -1.3327727317810059,
                -0.24555262923240663,
                -1.191375494003296,
                1.026436686515808,
                0.3411950469017029,
                0.4338288903236389,
                0.6372984051704407,
                0.47610631585121157,
                1.365242600440979,
                -0.18732506036758424,
                0.31213244795799258,
                0.4058353900909424,
                -0.434348464012146,
                -0.432859867811203,
                0.9650046825408936,
                0.0023934505879878999,
                -0.6443544626235962,
                0.36717426776885989,
                1.2762712240219117,
                0.501783549785614,
                -1.364397644996643,
                0.3488095998764038,
                0.08789092302322388,
                -0.21388718485832215,
                0.6993249654769898,
                -1.2716227769851685,
                -0.6082043051719666,
                0.49180567264556887,
                -0.5882431864738464,
                0.8199074268341065,
                1.0207918882369996,
                -0.330145001411438,
                -1.4285691976547242,
                -0.851377010345459,
                0.5698856115341187,
                -0.5500179529190064,
                -0.5179011821746826,
                0.22808551788330079,
                1.0864431858062745,
                0.8246824145317078,
                -1.6153255701065064,
                0.700332522392273,
                -0.0953265056014061,
                0.2834516763687134,
                -0.12147565931081772,
                -0.6701804995536804,
                0.5940422415733337,
                0.19526535272598267,
                -0.5025733709335327,
                0.05412278324365616,
                -0.511698305606842,
                1.1156957149505616,
                0.35607919096946719,
                0.16405150294303895,
                1.6898553371429444,
                0.10863587260246277,
                1.1407006978988648,
                0.49276119470596316,
                0.3636619746685028,
                0.2906257212162018,
                1.6475952863693238,
                -0.04834192246198654,
                -0.07940147072076798,
                -1.1505990028381348,
                -0.3498971164226532,
                -0.4170668125152588,
                1.1243606805801392,
                -0.7615609169006348,
                0.7260645627975464,
                0.8971624970436096,
                -0.48230740427970889,
                -0.8256331086158752,
                0.6062406301498413,
                -0.520574688911438,
                0.4169972538948059,
                -0.6980554461479187,
                -0.1444631814956665,
                -0.18707500398159028,
                -0.8138676285743713,
                -0.4336596131324768,
                1.700974702835083,
                -0.18647733330726624,
                0.36358657479286196,
                0.859481155872345
            ],
            "fitness": 131.01365661621095,
            "npcType": 1
        },
        {
            "layers": [
                8,
                8,
                6,
                4
            ],
            "flattenedWeights": [
                -1.4671038389205933,
                -0.43613898754119875,
                0.5821528434753418,
                0.03894897922873497,
                -0.23207339644432069,
                -0.42855697870254519,
                -0.5445092916488648,
                -0.3088133633136749,
                -0.2644594609737396,
                -0.9072466492652893,
                -0.9074259400367737,
                0.5837488770484924,
                0.5849141478538513,
                -0.08102099597454071,
                -0.7946531772613525,
                0.3129305839538574,
                0.2811615765094757,
                -0.9721894264221191,
                -0.47663310170173647,
                0.0085969939827919,
                0.23912668228149415,
                0.34608420729637148,
                -0.9820680022239685,
                -0.41981902718544009,
                0.860493004322052,
                0.5712178349494934,
                -0.8194004893302918,
                0.2671126425266266,
                0.9255391359329224,
                0.34153521060943606,
                0.43668216466903689,
                -0.5129885077476502,
                -0.32395312190055849,
                -0.22945857048034669,
                0.6772434711456299,
                -0.242041677236557,
                0.02188880741596222,
                -0.22940167784690858,
                1.1102837324142457,
                0.19039815664291383,
                -0.015004567801952362,
                -0.568340539932251,
                1.2248002290725709,
                -0.629383385181427,
                -0.7222715616226196,
                0.37600094079971316,
                0.3957832455635071,
                -0.9877128601074219,
                0.15929394960403443,
                -1.1339102983474732,
                -1.0768585205078126,
                -0.293907105922699,
                -1.4992347955703736,
                0.1919681876897812,
                -1.0063844919204713,
                0.8652917146682739,
                0.2740240693092346,
                0.3379353880882263,
                0.6607789993286133,
                0.4547930955886841,
                1.365242600440979,
                -0.06571356952190399,
                0.3802591860294342,
                0.43826645612716677,
                -0.28260064125061037,
                -0.37307021021842959,
                0.8851218819618225,
                0.23922231793403626,
                -0.7999298572540283,
                0.4066626727581024,
                1.5081298351287842,
                0.46542131900787356,
                -1.2890440225601197,
                0.13602635264396668,
                0.08789092302322388,
                -0.14952601492404939,
                0.6670652031898499,
                -1.1282932758331299,
                -0.5504797101020813,
                0.6948370933532715,
                -0.44437870383262637,
                0.8884044885635376,
                1.0642766952514649,
                -0.45118799805641177,
                -1.4241595268249512,
                -0.9092459678649902,
                0.5649827122688294,
                -0.5500179529190064,
                -0.4795970916748047,
                0.22808551788330079,
                1.192265510559082,
                1.0301873683929444,
                -1.4175747632980347,
                0.3319012224674225,
                -0.0953265056014061,
                0.35870394110679629,
                -0.09958586096763611,
                -0.9214755892753601,
                0.763982355594635,
                0.09396836906671524,
                -0.5630077719688416,
                0.13747447729110719,
                -0.511698305606842,
                1.0846583843231202,
                0.35607919096946719,
                0.11543196439743042,
                1.7145475149154664,
                0.06184426695108414,
                1.1407006978988648,
                1.0676853656768799,
                0.8262863159179688,
                0.2906257212162018,
                1.6045832633972169,
                -0.13705553114414216,
                -0.09010108560323715,
                -1.0726540088653565,
                -0.4009825587272644,
                -0.3990051746368408,
                1.084373950958252,
                -0.7518482804298401,
                0.735567033290863,
                0.9239018559455872,
                -0.8095546960830689,
                -0.8256331086158752,
                0.3470265865325928,
                -0.2774495780467987,
                0.42664283514022829,
                -0.7359509468078613,
                -0.22310128808021546,
                -0.18707500398159028,
                -0.8292550444602966,
                -0.28620389103889468,
                1.6909319162368775,
                -0.2882827818393707,
                0.45292985439300539,
                0.859481155872345
            ],
            "fitness": 123.18917846679688,
            "npcType": 1
        },
        {
            "layers": [
                8,
                8,
                6,
                4
            ],
            "flattenedWeights": [
                -1.3704363107681275,
                -0.4571038782596588,
                0.4043959975242615,
                0.006012871861457825,
                -0.4833400547504425,
                -0.16039207577705384,
                -0.5201108455657959,
                -0.10058218240737915,
                -0.4415534436702728,
                -0.9454372525215149,
                -1.0711172819137574,
                0.3673544228076935,
                0.5166186094284058,
                -0.4164144992828369,
                -0.6835414171218872,
                0.3555780351161957,
                0.3288527727127075,
                -0.8456279039382935,
                -0.624049723148346,
                -0.039881255477666858,
                0.3332885503768921,
                0.7135462760925293,
                -0.8716382384300232,
                -0.4507635831832886,
                0.8008106350898743,
                0.6242709159851074,
                -0.8440399765968323,
                0.10903141647577286,
                0.8499931693077087,
                0.905825674533844,
                0.21003517508506776,
                -0.5184571146965027,
                -0.25918617844581606,
                -0.21924751996994019,
                1.020195722579956,
                -0.194701686501503,
                0.6162315607070923,
                -0.26634258031845095,
                1.1345840692520142,
                0.10596625506877899,
                0.006795413792133331,
                -0.4491167664527893,
                1.2248002290725709,
                -0.24556633830070496,
                -0.862143874168396,
                0.24274002015590669,
                0.3993053734302521,
                -0.9164759516716003,
                0.07717772573232651,
                -1.0645005702972413,
                -1.0426617860794068,
                -0.32396042346954348,
                -1.290272831916809,
                -0.31662115454673769,
                -1.191375494003296,
                1.026436686515808,
                0.479051798582077,
                0.5072763562202454,
                0.5796878933906555,
                0.5719894170761108,
                1.2620320320129395,
                -0.23339077830314637,
                0.06890001147985459,
                0.41584187746047976,
                -0.3008071780204773,
                -0.764970600605011,
                0.7081441879272461,
                0.38211047649383547,
                -0.6909359097480774,
                0.5257949829101563,
                1.503829836845398,
                0.6325355172157288,
                -1.200206995010376,
                0.2868753969669342,
                0.09956555813550949,
                -0.14040958881378175,
                0.49959278106689455,
                -1.3286159038543702,
                -0.9056708216667175,
                0.3688282072544098,
                -0.3560362160205841,
                1.21517014503479,
                1.0642766952514649,
                -0.20695632696151734,
                -1.2627993822097779,
                -0.7064939141273499,
                0.5903636813163757,
                -0.7320944666862488,
                -0.41886070370674136,
                0.06055300682783127,
                1.251406192779541,
                0.8143284916877747,
                -1.4273945093154908,
                0.5970022082328796,
                -0.08758673816919327,
                0.07466556876897812,
                -0.08653821796178818,
                -0.7839592695236206,
                0.4992159605026245,
                0.11932734400033951,
                -0.45277321338653567,
                0.015810370445251466,
                -0.6545292139053345,
                1.1458460092544556,
                0.4085824191570282,
                0.3130577504634857,
                1.6176098585128785,
                -0.04889827221632004,
                1.2500590085983277,
                0.46867695450782778,
                0.9744963645935059,
                0.2384365200996399,
                1.609430193901062,
                -0.10414975881576538,
                0.47650501132011416,
                -1.212607502937317,
                -0.09158982336521149,
                -0.3990051746368408,
                1.1281143426895142,
                -0.6682072877883911,
                0.743481457233429,
                1.1342709064483643,
                -0.589826762676239,
                -0.7529895901679993,
                0.3344002366065979,
                -0.19779112935066224,
                0.4066076874732971,
                -0.17736279964447022,
                0.03373730182647705,
                -0.0960468277335167,
                -0.7923590540885925,
                -0.33891746401786806,
                1.5922094583511353,
                -0.29735681414604189,
                0.13971355557441712,
                0.7149125933647156
            ],
            "fitness": 123.13314056396485,
            "npcType": 1
        },
        {
            "layers": [
                8,
                8,
                6,
                4
            ],
            "flattenedWeights": [
                -1.167203426361084,
                -0.48691919445991518,
                0.6241486668586731,
                -0.08025843650102616,
                -0.22271054983139039,
                -0.42855697870254519,
                -0.3460739850997925,
                -0.07961703091859818,
                -0.18603459000587464,
                -0.8708598613739014,
                -1.0383538007736207,
                0.31595730781555178,
                0.4987183213233948,
                -0.16005858778953553,
                -0.7946531772613525,
                0.0006968006491661072,
                0.2077932357788086,
                -0.9086880087852478,
                -0.4227221608161926,
                -0.1380293071269989,
                0.29714035987854006,
                0.34608420729637148,
                -0.9784267544746399,
                -0.33991917967796328,
                0.7348573207855225,
                0.6242709159851074,
                -0.9161067605018616,
                0.03815086930990219,
                1.0856945514678956,
                0.7793229818344116,
                0.27452588081359866,
                -0.5621700286865234,
                -0.32395312190055849,
                -0.24626953899860383,
                0.7394576072692871,
                -0.242041677236557,
                0.3929111361503601,
                -0.26634258031845095,
                1.0797069072723389,
                0.19039815664291383,
                0.04221940040588379,
                -0.6531458497047424,
                1.2248002290725709,
                -0.5538156032562256,
                -0.7222715616226196,
                0.25379881262779238,
                0.40611666440963747,
                -0.9035614728927612,
                -0.015286892652511597,
                -1.068928599357605,
                -1.034700870513916,
                -0.3668830990791321,
                -1.4076491594314576,
                -0.31662115454673769,
                -1.0763742923736573,
                0.91876620054245,
                0.41525882482528689,
                0.5975416302680969,
                0.6372984051704407,
                0.47610631585121157,
                1.365242600440979,
                0.05469994619488716,
                0.21494922041893006,
                0.40851524472236636,
                -0.28260064125061037,
                -0.28821292519569399,
                0.9650046825408936,
                0.24903061985969544,
                -0.8474991321563721,
                0.437489777803421,
                1.4807969331741334,
                0.46542131900787356,
                -1.3444876670837403,
                0.1306309998035431,
                -0.013054847717285157,
                -0.2577495872974396,
                0.541449785232544,
                -1.3286159038543702,
                -0.7527307271957398,
                0.4678081274032593,
                -0.44437870383262637,
                0.9462212920188904,
                1.0563867092132569,
                -0.352557897567749,
                -1.3323585987091065,
                -0.9092459678649902,
                0.5377338528633118,
                -0.5112450122833252,
                -0.3430480360984802,
                0.22808551788330079,
                1.1113295555114747,
                0.8246824145317078,
                -1.6153255701065064,
                0.7352138161659241,
                -0.1638367623090744,
                0.3580290973186493,
                -0.12147565931081772,
                -0.5944694876670837,
                0.686493456363678,
                0.09396836906671524,
                -0.31241676211357119,
                0.13747447729110719,
                -0.4030376672744751,
                1.0734705924987794,
                0.35607919096946719,
                0.20844173431396485,
                1.70852792263031,
                0.06184426695108414,
                1.1528313159942628,
                0.8362632393836975,
                0.4615634083747864,
                0.2906257212162018,
                1.5860750675201417,
                0.026427432894706727,
                -0.0685880184173584,
                -1.0958093404769898,
                -0.2663201093673706,
                -0.6300563812255859,
                1.0193877220153809,
                -0.6682072877883911,
                0.735567033290863,
                0.8921602368354797,
                -0.49603071808815,
                -0.7471848130226135,
                0.431401789188385,
                -0.19929520785808564,
                0.5292680859565735,
                -0.6742753982543945,
                -0.03557740896940231,
                -0.1857050359249115,
                -0.8603681921958923,
                -0.2733035683631897,
                1.5829312801361085,
                -0.19279631972312928,
                0.25492846965789797,
                0.9114572405815125
            ],
            "fitness": 119.40042114257813,
            "npcType": 1
        },
        {
            "layers": [
                8,
                8,
                6,
                4
            ],
            "flattenedWeights": [
                -1.467716932296753,
                -0.43613898754119875,
                0.6241486668586731,
                0.3002224266529083,
                -0.4378006160259247,
                -0.13125541806221009,
                -0.48826462030410769,
                -0.3088133633136749,
                -0.2644594609737396,
                -0.9072466492652893,
                -1.108690857887268,
                0.3208989202976227,
                0.46401846408843996,
                -0.11986178904771805,
                -0.6179940700531006,
                0.0006968006491661072,
                0.26774078607559206,
                -1.0119975805282593,
                -0.419230580329895,
                -0.1992548406124115,
                0.3033449947834015,
                0.34608420729637148,
                -0.8132549524307251,
                -0.41981902718544009,
                0.6366147994995117,
                0.6242709159851074,
                -0.9351932406425476,
                0.19169844686985017,
                1.1398957967758179,
                0.3645637035369873,
                0.27452588081359866,
                -0.6244444251060486,
                -0.32395312190055849,
                -0.17904731631278993,
                0.6160148978233337,
                -0.18985183537006379,
                0.47588199377059939,
                -0.27995479106903078,
                1.1272956132888795,
                0.14146676659584046,
                0.08561327308416367,
                -0.5094754695892334,
                1.2828118801116944,
                -0.6589617133140564,
                -0.6580219864845276,
                0.25379881262779238,
                0.5534196496009827,
                -1.2170202732086182,
                0.017040640115737916,
                -1.068928599357605,
                -1.007088541984558,
                -0.42535459995269778,
                -1.3485509157180787,
                0.031554609537124637,
                -0.9398607611656189,
                1.026436686515808,
                0.3411950469017029,
                0.3927523195743561,
                0.568411648273468,
                0.47610631585121157,
                1.5352448225021363,
                -0.24264007806777955,
                0.21494922041893006,
                0.44555777311325076,
                -0.43357032537460329,
                -0.2982422113418579,
                0.9650046825408936,
                0.6650293469429016,
                -0.8474991321563721,
                0.5684703588485718,
                1.4507306814193726,
                0.4981617331504822,
                -1.5359177589416505,
                0.1568051129579544,
                0.08789092302322388,
                -0.2086014449596405,
                0.41342273354530337,
                -1.1562578678131104,
                -0.8431961536407471,
                0.6141547560691834,
                -0.44437870383262637,
                0.7498264908790588,
                1.234165072441101,
                -0.36481979489326479,
                -1.236761450767517,
                -0.8473018407821655,
                0.5281289219856262,
                -0.5500179529190064,
                -0.4587871730327606,
                0.12861359119415284,
                1.2334970235824586,
                0.8246824145317078,
                -1.395236611366272,
                0.7352138161659241,
                0.02771974727511406,
                0.36370599269866946,
                -0.14639009535312653,
                -0.7530131936073303,
                0.686493456363678,
                0.07126973569393158,
                -0.5756216645240784,
                0.08624203503131867,
                -0.53530353307724,
                1.0569984912872315,
                0.35607919096946719,
                0.2930639386177063,
                1.7207648754119874,
                -0.17357581853866578,
                1.035271406173706,
                0.5323951244354248,
                0.4615634083747864,
                0.2906257212162018,
                1.5845136642456055,
                -0.1300639659166336,
                -0.09010108560323715,
                -1.176484227180481,
                -0.21368403732776643,
                -0.5997278690338135,
                1.1243606805801392,
                -0.7518482804298401,
                0.6076034903526306,
                0.828303337097168,
                -0.5672513246536255,
                -0.7138871550559998,
                0.38455820083618166,
                -0.29043376445770266,
                0.4943302571773529,
                -0.7526642680168152,
                -0.03557740896940231,
                -0.18707500398159028,
                -0.8012810349464417,
                -0.2574664354324341,
                1.6310584545135499,
                -0.3334076702594757,
                0.5185767412185669,
                0.859481155872345
            ],
            "fitness": 109.60745239257813,
            "npcType": 1
        },
        {
            "layers": [
                8,
                8,
                6,
                4
            ],
            "flattenedWeights": [
                -1.3936890363693238,
                -0.5095203518867493,
                0.5184298157691956,
                0.24101555347442628,
                -0.2960817217826843,
                -0.42855697870254519,
                -0.13504159450531007,
                -0.11521852016448975,
                -0.2644594609737396,
                -0.9900144934654236,
                -1.2071897983551026,
                0.31595730781555178,
                0.4987183213233948,
                -0.16005858778953553,
                -0.6785097718238831,
                0.33207201957702639,
                0.25824102759361269,
                -1.0108048915863038,
                -0.6652699708938599,
                -0.24610093235969544,
                0.22301433980464936,
                0.49452412128448489,
                -0.8470575213432312,
                -0.34014835953712466,
                0.7348573207855225,
                0.7518576979637146,
                -0.9508891105651856,
                0.2060796618461609,
                1.0856945514678956,
                0.7501550316810608,
                0.2826458811759949,
                -0.4586522877216339,
                0.10757184028625488,
                -0.17904731631278993,
                1.0557472705841065,
                -0.20620587468147279,
                0.3929111361503601,
                -0.18598279356956483,
                1.1950438022613526,
                0.23226279020309449,
                0.1308511346578598,
                -0.5414355397224426,
                1.187309741973877,
                -0.6929599046707153,
                -0.7222715616226196,
                0.2911359369754791,
                0.4581667482852936,
                -0.9882385730743408,
                0.14411702752113343,
                -1.1096445322036744,
                -1.007088541984558,
                -0.3668830990791321,
                -1.3754866123199463,
                -0.31460312008857729,
                -1.0763742923736573,
                0.91876620054245,
                0.48846906423568728,
                0.4338288903236389,
                0.792375922203064,
                0.7365854978561401,
                1.365242600440979,
                -0.014473207294940949,
                0.20116189122200013,
                0.3091280162334442,
                -0.12766847014427186,
                -0.35846424102783205,
                0.9650046825408936,
                0.28519630432128909,
                -0.6190220713615418,
                0.4122362732887268,
                1.5069372653961182,
                0.501783549785614,
                -1.3444876670837403,
                0.12941908836364747,
                -0.013054847717285157,
                -0.01951914280653,
                0.541449785232544,
                -1.192658543586731,
                -0.7149739265441895,
                0.5197316408157349,
                -0.4849904179573059,
                0.9462212920188904,
                1.0736202001571656,
                -0.26476484537124636,
                -1.3323585987091065,
                -0.8290689587593079,
                0.5761297345161438,
                -0.6007553339004517,
                -0.3786797523498535,
                0.15567141771316529,
                1.0778969526290894,
                0.8332840204238892,
                -1.48884117603302,
                0.7285808324813843,
                -0.1883896440267563,
                0.26942178606987,
                -0.12147565931081772,
                -0.9551030397415161,
                0.8450722694396973,
                0.1061113104224205,
                -0.23233619332313538,
                0.09908600896596909,
                -0.46340829133987429,
                1.0828046798706055,
                0.3945111930370331,
                0.23936298489570619,
                1.620182991027832,
                0.09803896397352219,
                1.1714754104614258,
                0.8362632393836975,
                0.4513239860534668,
                0.3494992256164551,
                1.5374515056610108,
                -0.07398749142885208,
                -0.09010108560323715,
                -1.1881184577941895,
                -0.34971463680267336,
                -0.6041103005409241,
                1.1592684984207154,
                -0.6682072877883911,
                0.7747644186019898,
                0.8921602368354797,
                -0.3273342549800873,
                -0.6511955857276917,
                0.431401789188385,
                -0.2542576491832733,
                0.4441782236099243,
                -0.6786620020866394,
                0.05508529394865036,
                -0.1013871431350708,
                -0.8993783593177795,
                -0.3474174737930298,
                1.5829312801361085,
                -0.08793896436691284,
                0.43558359146118166,
                0.8453230857849121
            ],
            "fitness": 92.41699981689453,
            "npcType": 1
        },
        {
            "layers": [
                8,
                8,
                6,
                4
            ],
            "flattenedWeights": [
                -1.3936890363693238,
                -0.5956542491912842,
                0.6164295077323914,
                0.1773073673248291,
                -0.3208535313606262,
                -0.37374812364578249,
                -0.5638793706893921,
                -0.06272032111883164,
                -0.2870314419269562,
                -0.8708598613739014,
                -1.0267788171768189,
                0.31595730781555178,
                0.45669859647750857,
                -0.15656493604183198,
                -0.5893175601959229,
                0.07150521874427796,
                0.25824102759361269,
                -0.9721894264221191,
                -0.711358368396759,
                -0.1380293071269989,
                0.16352379322052003,
                0.699078381061554,
                -0.9784267544746399,
                -0.33991917967796328,
                0.7348573207855225,
                0.66883784532547,
                -0.818164050579071,
                0.2060796618461609,
                1.0856945514678956,
                0.7501550316810608,
                0.3495911955833435,
                -0.636081337928772,
                -0.46440017223358157,
                -0.17904731631278993,
                1.0557472705841065,
                -0.19654196500778199,
                0.3929111361503601,
                -0.15092268586158753,
                1.1339027881622315,
                0.19039815664291383,
                0.11237245798110962,
                -0.5414355397224426,
                1.2248002290725709,
                -0.657286524772644,
                -0.7222715616226196,
                0.2291153073310852,
                0.4581667482852936,
                -1.0480124950408936,
                0.14411702752113343,
                -1.0641577243804932,
                -1.0016512870788575,
                -0.3668830990791321,
                -1.355520248413086,
                0.08291595429182053,
                -1.0763742923736573,
                1.017143964767456,
                0.2921532690525055,
                0.4338288903236389,
                0.6542693376541138,
                0.7365854978561401,
                1.2427057027816773,
                -0.18732506036758424,
                0.17444247007369996,
                0.4772912859916687,
                -0.19075752794742585,
                -0.427619069814682,
                0.9650046825408936,
                0.24903061985969544,
                -0.6443544626235962,
                0.4122362732887268,
                1.5966053009033204,
                0.7537809014320374,
                -1.5349353551864625,
                0.12941908836364747,
                0.12967216968536378,
                -0.01951914280653,
                0.6993249654769898,
                -1.1751713752746583,
                -0.6360570192337036,
                0.5197316408157349,
                -0.5814111828804016,
                1.0010777711868287,
                1.0736202001571656,
                -0.3315286338329315,
                -1.3323585987091065,
                -0.8764491081237793,
                0.5761297345161438,
                -0.5112450122833252,
                -0.31185024976730349,
                0.25146228075027468,
                1.1042910814285279,
                0.7741168737411499,
                -1.48884117603302,
                0.7285808324813843,
                -0.1883896440267563,
                0.26942178606987,
                -0.12147565931081772,
                -0.9908164143562317,
                0.7374609112739563,
                0.1061113104224205,
                -0.3110634684562683,
                0.09998590499162674,
                -0.4030376672744751,
                1.0734705924987794,
                0.41837120056152346,
                0.1934935450553894,
                1.695002555847168,
                0.11074034124612808,
                0.9930506348609924,
                0.8362632393836975,
                0.9495161771774292,
                0.16311228275299073,
                1.5860750675201417,
                0.0770907923579216,
                -0.09010108560323715,
                -1.1881184577941895,
                -0.34971463680267336,
                -0.6041103005409241,
                1.1601991653442383,
                -0.7277774810791016,
                0.735567033290863,
                0.8921602368354797,
                -0.3273342549800873,
                -0.7471848130226135,
                0.5559514760971069,
                -0.3053094148635864,
                0.43408143520355227,
                -0.6786620020866394,
                -0.19251364469528199,
                -0.1013871431350708,
                -0.8138676285743713,
                -0.3474174737930298,
                1.7271218299865723,
                -0.14506536722183228,
                0.43558359146118166,
                0.7952320575714111
            ],
            "fitness": 89.32179260253906,
            "npcType": 1
        },
        {
            "layers": [
                8,
                8,
                6,
                4
            ],
            "flattenedWeights": [
                -1.4214251041412354,
                -0.5062273740768433,
                0.66930091381073,
                -0.06153474748134613,
                -0.5260795950889587,
                -0.22666698694229127,
                -0.3460739850997925,
                -0.20419591665267945,
                -0.39783045649528506,
                -0.9996281862258911,
                -1.0184218883514405,
                0.43596187233924868,
                0.4789397716522217,
                -0.3663899302482605,
                -0.9935295581817627,
                0.37598517537117007,
                0.36225759983062746,
                -0.7733264565467835,
                -0.49836334586143496,
                -0.13293421268463136,
                0.5646812915802002,
                0.7622929811477661,
                -0.8033413887023926,
                -0.6510255932807922,
                0.7926710844039917,
                0.7229810953140259,
                -0.7900877594947815,
                0.07713710516691208,
                0.8767665028572083,
                0.8029515743255615,
                0.2419123649597168,
                -0.5139105319976807,
                -0.010745562613010407,
                -0.31909647583961489,
                0.5768741965293884,
                -0.03597644716501236,
                0.322821706533432,
                -0.2854257822036743,
                1.079612135887146,
                0.2771126925945282,
                -0.011327259242534638,
                -0.3644106090068817,
                1.2252771854400635,
                -0.5912157893180847,
                -0.9412357211112976,
                0.25379881262779238,
                0.40611666440963747,
                -1.1192173957824708,
                0.17114070057868958,
                -1.149405598640442,
                -1.0426617860794068,
                -0.34872379899024966,
                -1.4099146127700806,
                -0.39938369393348696,
                -1.1222602128982545,
                0.9798814654350281,
                0.40547680854797366,
                0.5685012340545654,
                0.47259634733200076,
                0.396882027387619,
                1.2427057027816773,
                -0.053832463920116428,
                0.31213244795799258,
                0.36658787727355959,
                -0.28260064125061037,
                -0.30720242857933047,
                0.9100075960159302,
                0.18097159266471864,
                -0.7803811430931091,
                0.437489777803421,
                1.7820384502410889,
                0.501783549785614,
                -1.364397644996643,
                0.3127080798149109,
                0.09956555813550949,
                -0.10044500976800919,
                0.5755930542945862,
                -1.3286159038543702,
                -0.814390242099762,
                0.4988987147808075,
                -0.48692744970321658,
                0.9583644866943359,
                1.1116523742675782,
                -0.20695632696151734,
                -1.0816138982772828,
                -0.8348721861839294,
                0.3918004631996155,
                -0.7397553324699402,
                -0.47202205657958987,
                0.09493470937013626,
                1.0975713729858399,
                0.8758824467658997,
                -1.5182323455810547,
                0.7663657069206238,
                0.1800813376903534,
                0.15341690182685853,
                -0.24406081438064576,
                -0.7275283932685852,
                0.686493456363678,
                -0.2678600251674652,
                -0.5888072848320007,
                0.13747447729110719,
                -0.5772383809089661,
                1.1156957149505616,
                0.422667920589447,
                0.17341279983520509,
                1.6176098585128785,
                0.04509101063013077,
                1.0648350715637208,
                0.8593372106552124,
                0.8745001554489136,
                0.4288267493247986,
                1.5940042734146119,
                -0.18844686448574067,
                0.19368040561676026,
                -0.885899543762207,
                -0.44614434242248537,
                -0.47756513953208926,
                1.159365177154541,
                -0.9110912084579468,
                0.6441353559494019,
                0.8921602368354797,
                -0.6542003750801086,
                -0.6947507858276367,
                0.38455820083618166,
                -0.1009315773844719,
                0.43651601672172549,
                -0.8197676539421082,
                -0.2195424735546112,
                -0.16549117863178254,
                -0.8012810349464417,
                -0.2734468877315521,
                1.5007221698760987,
                -0.3613933324813843,
                0.13971355557441712,
                0.9319801926612854
            ],
            "fitness": 88.96792602539063,
            "npcType": 1
        },
        {
            "layers": [
                8,
                8,
                6,
                4
            ],
            "flattenedWeights": [
                -1.3908737897872925,
                -0.5095203518867493,
                0.533565104007721,
                0.006696045398712158,
                -0.5679929852485657,
                -0.42855697870254519,
                -0.5638793706893921,
                -0.008323241025209427,
                -0.2644594609737396,
                -0.738984227180481,
                -0.9975925087928772,
                0.31595730781555178,
                0.3660528063774109,
                -0.16005858778953553,
                -0.5893175601959229,
                0.018990393728017808,
                0.23424875736236573,
                -0.9822919368743897,
                -0.481652170419693,
                -0.03489478677511215,
                0.29714035987854006,
                0.7667699456214905,
                -0.6747742295265198,
                -0.33991917967796328,
                0.7348573207855225,
                0.6406932473182678,
                -0.9161067605018616,
                0.004925820976495743,
                0.9341914653778076,
                0.7437456250190735,
                0.37644413113594057,
                -0.45734575390815737,
                -0.46440017223358157,
                -0.286660373210907,
                0.9943930506706238,
                -0.2582899332046509,
                0.32980677485466006,
                -0.15092268586158753,
                1.1792008876800538,
                -0.01757034659385681,
                -0.08972880244255066,
                -0.5414355397224426,
                1.2439953088760377,
                -0.48744159936904909,
                -0.6333588361740112,
                0.2913222014904022,
                0.40611666440963747,
                -1.011940598487854,
                0.16148093342781068,
                -1.0641577243804932,
                -0.8238972425460815,
                -0.4638507068157196,
                -1.3418748378753663,
                -0.18189240992069245,
                -1.0763742923736573,
                0.9642512202262878,
                0.32119789719581606,
                0.4338288903236389,
                0.5681409239768982,
                0.4264431893825531,
                1.1427550315856934,
                -0.27990180253982546,
                0.34752902388572695,
                0.40569934248924258,
                -0.10032645612955094,
                -0.6769169569015503,
                0.9650046825408936,
                -0.14884760975837708,
                -0.8161958456039429,
                0.4122362732887268,
                1.5542714595794678,
                0.6615890860557556,
                -1.2793562412261963,
                0.26468849182128909,
                0.03301665186882019,
                -0.2577495872974396,
                0.44496434926986697,
                -1.3286159038543702,
                -0.7677805423736572,
                0.5297507643699646,
                -0.5393195152282715,
                0.8304687738418579,
                0.9562475681304932,
                -0.3490528166294098,
                -1.2784878015518189,
                -0.7738746404647827,
                0.5761297345161438,
                -0.43790316581726076,
                -0.31185024976730349,
                0.0715235248208046,
                1.251406192779541,
                0.9696263670921326,
                -1.4409816265106202,
                0.7285808324813843,
                -0.28660738468170168,
                0.35870394110679629,
                -0.23711976408958436,
                -1.0677164793014527,
                0.7374609112739563,
                0.15931236743927003,
                -0.3856128454208374,
                0.06296642869710922,
                -0.4030376672744751,
                1.1255964040756226,
                0.8412377834320068,
                0.23936298489570619,
                1.778143048286438,
                0.09803896397352219,
                0.9930506348609924,
                1.1108306646347047,
                0.8957499861717224,
                0.27642717957496645,
                1.5272589921951295,
                -0.09830442070960999,
                0.12154322117567063,
                -1.274646520614624,
                -0.26210469007492068,
                -0.5943117737770081,
                0.9991704821586609,
                -0.7442818880081177,
                0.735567033290863,
                0.9455523490905762,
                -0.6161267161369324,
                -0.35586878657341006,
                0.431401789188385,
                -0.30699363350868227,
                0.501099169254303,
                -0.5790638327598572,
                -0.202495276927948,
                -0.1886514127254486,
                -0.9216232299804688,
                -0.3474174737930298,
                1.8239749670028687,
                -0.19279631972312928,
                0.13971355557441712,
                0.8453230857849121
            ],
            "fitness": 85.43389129638672,
            "npcType": 1
        }
    ],
    "timestamp": "2025-05-06 04:13:10"
}